3.602526709437370300e-02
7.256814278662204742e-03
-4.128832742571830750e-02
-4.953649640083312988e-02
-3.222923353314399719e-02
4.473856464028358459e-02
2.389017306268215179e-02
-5.961893498897552490e-02
6.367748975753784180e-02
2.288450859487056732e-02
-5.033801123499870300e-02
2.484246715903282166e-02
1.281620189547538757e-02
-4.184696823358535767e-02
-1.786386407911777496e-02
6.940539181232452393e-02
1.125184912234544754e-02
2.191955596208572388e-02
-8.501129224896430969e-03
4.105595406144857407e-03
-2.848449628800153732e-03
2.169923856854438782e-02
7.320389151573181152e-02
-1.728129014372825623e-02
-6.061869487166404724e-02
-2.240888588130474091e-02
6.389113143086433411e-03
-3.553717210888862610e-02
4.957310855388641357e-03
6.237284466624259949e-02
2.598552778363227844e-02
1.295217964798212051e-02
3.082427382469177246e-02
-2.651968598365783691e-02
2.598806098103523254e-02
-2.497051842510700226e-02
6.340980529785156250e-02
2.828935533761978149e-02
-2.294671349227428436e-02
5.221090838313102722e-02
6.011130660772323608e-02
1.248623710125684738e-02
2.480071224272251129e-02
2.615139074623584747e-02
7.779254764318466187e-02
5.095242336392402649e-02
-1.425982080399990082e-02
-3.028520569205284119e-02
8.542699366807937622e-02
2.049217745661735535e-02
3.158607333898544312e-02
1.600847020745277405e-02
2.715705521404743195e-02
-3.368647024035453796e-02
3.489647805690765381e-02
-3.763797879219055176e-02
-4.004656895995140076e-02
-8.060069754719734192e-03
4.340447857975959778e-02
1.744798384606838226e-02
6.399469077587127686e-02
2.335415966808795929e-02
3.184963017702102661e-02
-6.242000311613082886e-02
-1.853316836059093475e-02
5.274870246648788452e-02
6.415139418095350266e-03
4.351018369197845459e-02
5.231738463044166565e-02
-1.393278129398822784e-03
-3.844262287020683289e-02
-1.115958020091056824e-02
5.096606910228729248e-02
-1.770925335586071014e-02
2.648521959781646729e-02
-5.674312263727188110e-02
2.326271682977676392e-02
-1.799547486007213593e-02
3.851556405425071716e-02
-3.270294889807701111e-02
1.886290870606899261e-02
1.964231021702289581e-02
3.548658639192581177e-02
-4.864278063178062439e-02
-1.606564386747777462e-03
-1.753648743033409119e-02
5.196920409798622131e-02
6.667462736368179321e-02
3.809209913015365601e-02
5.701532214879989624e-02
3.179418668150901794e-02
-4.885993525385856628e-02
6.241067498922348022e-02
3.156203404068946838e-02
-4.834364354610443115e-02
-3.795419819653034210e-03
3.830595687031745911e-02
-4.011208191514015198e-02
3.003051690757274628e-02
2.727719582617282867e-02
1.290391199290752411e-02
-2.348800189793109894e-02
-6.239610165357589722e-02
-3.648834303021430969e-02
5.287796258926391602e-02
4.790113866329193115e-02
2.730802516452968121e-04
-1.144116371870040894e-02
-3.470446914434432983e-02
4.223703593015670776e-02
5.185017362236976624e-02
-2.284601144492626190e-02
4.625168442726135254e-02
-5.980779230594635010e-02
9.394338354468345642e-03
-3.734847158193588257e-02
-7.804178632795810699e-03
1.720747165381908417e-02
-2.656878344714641571e-02
-3.351330012083053589e-02
