-1.357054263353347778e-01,-1.246171668171882629e-01,-1.961213350296020508e-02,-1.145271435379981995e-01,5.643320828676223755e-02,4.694001749157905579e-02,5.467047914862632751e-02,-7.415916770696640015e-02,9.785108268260955811e-02,2.699600346386432648e-02,4.300722479820251465e-02,2.368701435625553131e-02,-5.401426553726196289e-02,3.965546563267707825e-02,3.631593659520149231e-02,-6.142524071037769318e-03,1.220368668437004089e-01,8.964320272207260132e-02,1.395569443702697754e-01,-1.591822803020477295e-01,5.213383212685585022e-02,-3.230411931872367859e-02,7.028974592685699463e-02,-2.180788293480873108e-02,-1.025481801480054855e-02,-7.812266796827316284e-02,-3.387037664651870728e-02,-9.834645688533782959e-02,-3.022913075983524323e-02,-9.624268859624862671e-02,-1.436507701873779297e-02,6.732095032930374146e-02,-4.273098707199096680e-02,-2.173682302236557007e-02,4.328458756208419800e-02,-6.495361030101776123e-02,5.342679470777511597e-02,-7.296917587518692017e-02,-7.908628135919570923e-02,5.579708144068717957e-02,3.668163344264030457e-02,-2.923092059791088104e-02,8.430409431457519531e-02,8.921234309673309326e-02,5.084986239671707153e-02,-9.781740605831146240e-02,1.402495354413986206e-01,7.660464197397232056e-02,1.848962008953094482e-01,1.045092046260833740e-01,5.076448246836662292e-02,4.490357823669910431e-03,-1.529449522495269775e-01,9.015771746635437012e-02,7.351723313331604004e-02,8.522102236747741699e-02,2.572277933359146118e-02,6.499029695987701416e-02,-5.937822163105010986e-02,-1.162567511200904846e-01,-6.256140023469924927e-02,7.067223638296127319e-02,-3.021704219281673431e-02,-3.092642314732074738e-02,6.359306629747152328e-03,-7.740209251642227173e-02,1.093296930193901062e-01,6.474009156227111816e-02,-8.978914469480514526e-02,2.480168826878070831e-02,9.104275703430175781e-02,-5.620317161083221436e-02,-5.968250706791877747e-02,8.033126592636108398e-02,-7.551665604114532471e-02,-2.041439898312091827e-02,5.449069291353225708e-02,-8.593254536390304565e-02,-7.382358610630035400e-02,3.592719137668609619e-02,3.438452724367380142e-03,-1.061370968818664551e-01,-1.610704511404037476e-02,2.531504631042480469e-02,-3.137666208203881979e-04,-8.356822282075881958e-02,1.872609183192253113e-02,-2.060223929584026337e-02,5.472102388739585876e-02,5.275138840079307556e-02,1.528124511241912842e-01,-2.351907081902027130e-02,2.132513560354709625e-02,-5.284348502755165100e-02,-2.118501439690589905e-02,-1.128693763166666031e-02,1.602357476949691772e-01,4.826505109667778015e-02,1.233128365129232407e-03,8.254020661115646362e-02,-1.054129377007484436e-01,-1.127650439739227295e-01,2.272105775773525238e-02,7.871088385581970215e-02,4.905091598629951477e-02,8.058816194534301758e-02,1.646489351987838745e-01,-6.920067965984344482e-02,-4.486245661973953247e-02,1.987228728830814362e-02,-2.970434725284576416e-02,-6.260741502046585083e-02,-1.107959970831871033e-01,-4.244247078895568848e-02,-7.353699207305908203e-02,2.330627292394638062e-02,-3.397006168961524963e-02,7.530614733695983887e-02,5.028775706887245178e-02,7.035768777132034302e-02
-5.425941199064254761e-03,-3.535774722695350647e-02,4.238889738917350769e-02,3.367973491549491882e-02,8.851971477270126343e-02,2.540109120309352875e-02,6.634861975908279419e-02,-1.014025658369064331e-01,-6.996762752532958984e-02,-3.790339455008506775e-02,1.139022223651409149e-02,-8.599603921175003052e-02,5.477670952677726746e-02,-1.629137247800827026e-02,-4.884101077914237976e-02,6.722871214151382446e-02,1.564786210656166077e-02,2.918276749551296234e-02,9.696087241172790527e-02,-9.830394387245178223e-02,1.910793595016002655e-02,4.039439931511878967e-02,-5.902225151658058167e-02,-6.811911612749099731e-02,-3.171921893954277039e-02,3.646845696493983269e-03,2.713045105338096619e-02,-2.451808564364910126e-02,2.276892401278018951e-02,-8.061100542545318604e-02,2.786561846733093262e-02,3.638952225446701050e-02,8.360826224088668823e-02,5.502649024128913879e-02,7.166876643896102905e-02,5.762835964560508728e-03,7.865447551012039185e-02,-5.676621943712234497e-02,-5.709794163703918457e-02,-1.746059209108352661e-02,-1.611672528088092804e-02,-5.375253036618232727e-03,4.983903840184211731e-02,9.393118321895599365e-02,2.775759622454643250e-02,-6.694589555263519287e-02,9.589345008134841919e-02,8.221173286437988281e-02,-3.863512724637985229e-02,4.690169543027877808e-02,2.262583700940012932e-03,-7.535278797149658203e-02,-8.099503815174102783e-02,-1.584530994296073914e-02,1.633768156170845032e-02,-3.249122202396392822e-02,5.331213399767875671e-02,-7.883472368121147156e-03,-6.282547116279602051e-02,-7.002841681241989136e-02,-8.628225326538085938e-02,-8.066192269325256348e-03,-9.362486307509243488e-04,7.912189513444900513e-02,-4.686675965785980225e-02,-7.374672591686248779e-02,8.119058609008789062e-02,-3.159327805042266846e-02,-5.256957188248634338e-02,-5.072876438498497009e-02,-1.463210210204124451e-02,-4.679873585700988770e-02,-1.707313954830169678e-02,6.128911301493644714e-02,1.005414035171270370e-02,-7.772009354084730148e-03,3.729492425918579102e-02,1.455497555434703827e-02,-5.630405992269515991e-02,4.762979596853256226e-02,3.760379925370216370e-02,2.202238515019416809e-02,-1.450701500289142132e-03,-1.151194423437118530e-02,8.744366466999053955e-02,-6.486020237207412720e-02,3.650001809000968933e-02,-9.952736087143421173e-03,-6.144464015960693359e-02,8.050485700368881226e-02,-5.100847780704498291e-02,1.320099458098411560e-02,-3.624724596738815308e-02,-5.244778096675872803e-02,4.310816153883934021e-02,-2.043725177645683289e-02,-6.207323074340820312e-02,6.463044881820678711e-02,6.964600831270217896e-02,9.542201645672321320e-03,-5.087842047214508057e-02,-4.605679959058761597e-02,1.657788269221782684e-02,-1.010476797819137573e-02,-2.898966707289218903e-02,2.362931706011295319e-02,2.287548780441284180e-02,-5.210851877927780151e-02,3.703116625547409058e-02,1.786608248949050903e-03,-5.409643054008483887e-02,5.793871358036994934e-03,6.568718701601028442e-02,-4.170768707990646362e-02,-2.679075114428997040e-02,2.199374884366989136e-02,-8.223150670528411865e-02,-1.816857256926596165e-03,4.799393936991691589e-02,-4.287408292293548584e-02
1.640271628275513649e-03,-3.889209183398634195e-04,-1.396795827895402908e-02,-5.138777941465377808e-02,-3.570666536688804626e-02,5.575599893927574158e-02,7.791389524936676025e-02,1.637256704270839691e-02,5.721303820610046387e-02,8.905641734600067139e-02,5.961538106203079224e-02,8.512355387210845947e-02,1.513584144413471222e-02,1.462164800614118576e-02,8.095919340848922729e-02,-2.672275714576244354e-02,2.738338708877563477e-02,1.605145400390028954e-03,-5.356786423362791538e-04,1.085723116993904114e-01,-1.541469525545835495e-02,-2.274663932621479034e-02,1.128082722425460815e-01,8.810495585203170776e-02,5.176491290330886841e-02,9.833417087793350220e-02,-5.057908594608306885e-03,8.975826203823089600e-02,-6.560638546943664551e-02,5.789132788777351379e-02,-1.626873388886451721e-02,1.101043224334716797e-01,-3.216667845845222473e-02,-8.840125054121017456e-02,4.854404181241989136e-02,-3.822330385446548462e-02,7.856574654579162598e-02,-5.490145087242126465e-02,-4.024598002433776855e-02,-1.828604936599731445e-02,-9.443148970603942871e-02,6.099701393395662308e-03,8.409315347671508789e-02,6.099965423345565796e-02,-7.530140131711959839e-02,-8.409958332777023315e-02,-7.644077390432357788e-02,2.048457041382789612e-02,2.364068105816841125e-02,-9.794829785823822021e-02,-5.862225592136383057e-02,7.526520639657974243e-02,9.854564070701599121e-02,-2.117780037224292755e-02,-3.799707442522048950e-02,3.425630554556846619e-02,-1.548302546143531799e-02,-2.217671647667884827e-02,-9.914299100637435913e-02,-7.657256722450256348e-02,-3.673319518566131592e-02,5.407646764069795609e-03,1.026184204965829849e-02,-1.751896739006042480e-02,8.614146709442138672e-02,2.189124003052711487e-02,3.910687565803527832e-02,-5.374258384108543396e-02,1.051335409283638000e-02,-8.271475136280059814e-02,-4.977978020906448364e-02,2.895539626479148865e-02,2.311864309012889862e-02,-4.680774733424186707e-02,7.701048254966735840e-02,3.242928162217140198e-02,-3.452030941843986511e-02,-7.863699644804000854e-02,7.122109830379486084e-02,-8.458866178989410400e-02,-3.842143714427947998e-02,4.292731732130050659e-02,5.514995008707046509e-02,7.838276028633117676e-02,-3.850521147251129150e-02,-8.145949803292751312e-03,-5.282000824809074402e-02,4.272463172674179077e-02,-3.634605556726455688e-02,-3.402758389711380005e-02,-1.245318129658699036e-01,-8.748997747898101807e-02,-7.980996370315551758e-02,-9.503861516714096069e-02,-4.276104271411895752e-02,2.313077822327613831e-02,1.264859437942504883e-01,6.077139824628829956e-02,3.251216560602188110e-02,2.785464003682136536e-02,7.327260076999664307e-02,8.854090422391891479e-02,5.345433950424194336e-02,1.283664107322692871e-01,-1.417745929211378098e-02,-5.601538345217704773e-02,2.824295544996857643e-03,1.939279586076736450e-02,-1.099425461143255234e-02,7.571819424629211426e-02,4.015117138624191284e-02,-9.904451668262481689e-02,1.051758006215095520e-01,2.780460193753242493e-02,-4.797718487679958344e-03,4.937182646244764328e-03,8.545588701963424683e-02,-4.843767359852790833e-02,1.778678596019744873e-02,-5.905536562204360962e-02
2.973755076527595520e-02,-1.187290472444146872e-04,-1.138565614819526672e-01,4.962132126092910767e-02,2.696003392338752747e-02,4.211205989122390747e-02,6.145061179995536804e-02,-7.482375949621200562e-02,-2.118263766169548035e-02,-6.829586625099182129e-02,8.092279732227325439e-02,-3.558579832315444946e-02,-1.231635659933090210e-01,-9.208036214113235474e-02,-1.177305281162261963e-01,-5.591379851102828979e-02,2.948282100260257721e-02,1.431009322404861450e-01,5.440421029925346375e-02,-6.437940150499343872e-02,5.322372540831565857e-02,8.006968349218368530e-02,-5.752397328615188599e-02,5.152806267142295837e-02,-4.150653257966041565e-02,-9.490431845188140869e-02,3.171759843826293945e-02,-7.735249400138854980e-02,5.127857625484466553e-02,-2.598447911441326141e-02,3.424150124192237854e-02,-6.883486360311508179e-02,-6.315138190984725952e-02,-5.228489637374877930e-03,5.056299269199371338e-02,7.839924842119216919e-02,-2.112611569464206696e-02,5.954783782362937927e-02,-1.136923879384994507e-01,1.240513026714324951e-01,6.814420223236083984e-02,-6.708759814500808716e-02,5.113168805837631226e-02,6.000311300158500671e-02,8.120858669281005859e-02,1.571035943925380707e-03,1.371915731579065323e-02,1.005354374647140503e-01,9.923566877841949463e-02,3.148521482944488525e-02,8.554851263761520386e-02,-4.725334420800209045e-02,-2.885450236499309540e-02,-4.588146880269050598e-02,-2.909510210156440735e-02,-1.866402919404208660e-03,-7.357119116932153702e-03,-5.913291126489639282e-02,4.118421301245689392e-02,-4.952477663755416870e-02,2.771230647340416908e-03,-1.210963800549507141e-01,-5.058534443378448486e-02,-1.409932971000671387e-02,1.102463006973266602e-01,6.980649381875991821e-02,4.796337336301803589e-02,8.073316514492034912e-02,-2.274917811155319214e-02,9.004636853933334351e-02,5.101006105542182922e-02,7.358634471893310547e-02,-6.462746858596801758e-02,4.430128633975982666e-02,8.615972846746444702e-02,-4.903711844235658646e-03,3.599364310503005981e-02,7.593382149934768677e-02,-5.190850421786308289e-02,3.548618778586387634e-02,9.058254212141036987e-02,5.226380750536918640e-02,-1.155089884996414185e-01,7.669739425182342529e-02,1.330036669969558716e-01,-6.268744170665740967e-02,1.331807672977447510e-01,-1.482318527996540070e-02,3.613108070567250252e-03,1.164987981319427490e-01,7.040505111217498779e-02,3.992921113967895508e-02,1.490300893783569336e-01,-7.939722388982772827e-02,-4.139995947480201721e-02,2.265553548932075500e-02,-5.925757810473442078e-02,1.822153292596340179e-02,1.442991010844707489e-02,-8.384000509977340698e-02,3.012640401721000671e-02,-5.977311357855796814e-02,7.848460227251052856e-02,2.249990776181221008e-02,1.219872832298278809e-01,-4.109890758991241455e-02,8.498489856719970703e-02,-5.977048352360725403e-02,-5.121985822916030884e-02,-9.631734341382980347e-02,2.519376948475837708e-02,7.257642596960067749e-02,-6.012879312038421631e-02,-5.798475816845893860e-02,1.883699931204319000e-02,-8.752431720495223999e-02,-7.316303998231887817e-02,5.652876198291778564e-02,-4.957395046949386597e-02,3.261578269302845001e-03
1.210666820406913757e-01,1.344767957925796509e-01,-4.820201918482780457e-02,-1.017632782459259033e-01,1.952084340155124664e-02,-1.161613613367080688e-01,-7.870455831289291382e-02,1.721784705296158791e-03,8.541122078895568848e-02,-7.969211041927337646e-02,-9.521547704935073853e-02,4.398212209343910217e-02,9.581500291824340820e-02,1.045018155127763748e-02,5.645868554711341858e-02,-5.070780217647552490e-02,4.324107989668846130e-02,-3.372298181056976318e-02,9.675937891006469727e-02,1.111917849630117416e-02,1.881382660940289497e-03,-1.969535648822784424e-02,4.012299329042434692e-02,-4.771386831998825073e-02,6.518758833408355713e-02,-8.839640766382217407e-02,-5.779636278748512268e-02,-1.189538016915321350e-01,1.725400239229202271e-01,1.033787131309509277e-01,7.555890083312988281e-02,-5.741309747099876404e-02,-5.319458618760108948e-02,-5.822440981864929199e-02,-4.793579690158367157e-03,5.449483543634414673e-02,-1.096497327089309692e-01,-7.838895916938781738e-02,2.102638632059097290e-01,-1.094310656189918518e-01,3.651609644293785095e-02,8.735362440347671509e-02,7.800709456205368042e-02,-7.330513745546340942e-02,2.340677753090858459e-02,1.139316987246274948e-02,-6.419111788272857666e-02,5.694745481014251709e-02,-4.949541017413139343e-02,-2.001726068556308746e-02,1.653065681457519531e-01,5.468719452619552612e-02,2.320849522948265076e-02,-4.293119162321090698e-02,-1.007864847779273987e-01,-4.979496821761131287e-02,-1.936249993741512299e-02,5.374362319707870483e-02,-1.400367822498083115e-02,6.688751280307769775e-03,-1.566683501005172729e-01,9.554436057806015015e-02,-5.019492283463478088e-02,2.790451049804687500e-02,3.280521929264068604e-02,-9.997035562992095947e-02,6.586443632841110229e-02,6.909695919603109360e-03,-8.214507997035980225e-02,-9.046722203493118286e-02,-9.224036335945129395e-02,-9.091950207948684692e-02,1.025651991367340088e-01,-1.320839524269104004e-01,-7.030907273292541504e-02,-5.212624371051788330e-02,-5.331575125455856323e-02,3.531797975301742554e-02,2.030401304364204407e-02,-6.605857610702514648e-02,6.148338317871093750e-03,2.751690708100795746e-02,9.902615100145339966e-02,4.048162139952182770e-03,-2.820152789354324341e-02,-6.230961531400680542e-02,-3.032370470464229584e-03,4.853869974613189697e-02,1.029861196875572205e-01,-3.997312524006702006e-05,-6.351679563522338867e-02,4.025147855281829834e-02,-1.456554532051086426e-01,-6.963985413312911987e-02,6.788537651300430298e-02,-1.267887502908706665e-01,3.563977032899856567e-02,5.610791221261024475e-02,8.122755587100982666e-02,-5.680747702717781067e-02,3.193786367774009705e-02,-3.378770127892494202e-02,1.377296149730682373e-01,4.859791137278079987e-03,7.499495148658752441e-02,-7.712788879871368408e-02,-6.227775663137435913e-02,1.154976338148117065e-01,1.228877976536750793e-01,-3.579580411314964294e-02,-4.914127755910158157e-03,-7.161540561355650425e-04,9.681551158428192139e-02,7.016006857156753540e-02,6.194157898426055908e-02,-4.771629464812576771e-04,6.082400307059288025e-02,1.021310910582542419e-01,-1.965373195707798004e-02,-1.086789667606353760e-01
5.333735421299934387e-02,-7.668631523847579956e-02,-3.861472383141517639e-02,1.063165813684463501e-01,-6.463973969221115112e-02,-7.152725011110305786e-02,-3.163456916809082031e-02,-4.321615025401115417e-02,-7.787291705608367920e-02,3.203291818499565125e-02,-3.293765336275100708e-02,1.339156087487936020e-02,7.739416509866714478e-02,1.264759749174118042e-01,-2.141707227565348148e-04,-1.160214319825172424e-01,-7.351507991552352905e-02,-9.643518924713134766e-02,-9.787882119417190552e-02,3.318506851792335510e-02,3.297174349427223206e-02,-4.173948988318443298e-02,2.260521613061428070e-02,7.154773920774459839e-03,-7.423740625381469727e-02,1.165857072919607162e-02,7.549542933702468872e-02,-1.751102507114410400e-02,9.331797808408737183e-02,1.372983306646347046e-01,6.085751950740814209e-02,3.924521803855895996e-02,-4.604228958487510681e-02,-8.983577787876129150e-02,-8.019999414682388306e-02,-3.819756954908370972e-02,-7.408102601766586304e-02,2.699383720755577087e-02,9.243039786815643311e-02,-5.778186023235321045e-04,9.939665347337722778e-02,-5.081723444163799286e-03,1.161295920610427856e-01,-3.669467195868492126e-02,-7.741057127714157104e-02,2.812094800174236298e-02,-3.399848192930221558e-02,1.343350857496261597e-03,-1.157362293452024460e-02,3.783210739493370056e-02,8.865592628717422485e-02,1.495299190282821655e-01,6.004150956869125366e-02,6.976874917745590210e-02,-8.358349092304706573e-03,-5.225599929690361023e-02,-9.967134147882461548e-02,-7.138759642839431763e-02,1.867886260151863098e-02,1.680665835738182068e-02,8.304043859243392944e-02,1.113330945372581482e-01,4.901824519038200378e-02,6.717921793460845947e-02,3.838053718209266663e-02,3.769900277256965637e-02,2.280704118311405182e-02,-5.046114325523376465e-02,5.555635318160057068e-02,9.356426447629928589e-02,5.166207253932952881e-02,-8.479444682598114014e-02,-5.843401886522769928e-03,-8.511292934417724609e-02,-2.911675907671451569e-02,1.048146560788154602e-01,5.094559863209724426e-02,-4.503225535154342651e-02,-1.295950170606374741e-02,5.340614914894104004e-02,1.484027225524187088e-02,5.376744642853736877e-02,9.120987355709075928e-02,-5.373946577310562134e-02,-4.184807650744915009e-03,-4.847087338566780090e-02,-3.820062801241874695e-02,8.567786961793899536e-02,1.356838047504425049e-01,-6.007061898708343506e-02,-2.288601733744144440e-02,-5.486111342906951904e-02,-9.095282107591629028e-02,-8.818294107913970947e-02,-6.725266575813293457e-02,2.888523414731025696e-02,7.783721387386322021e-02,-5.393591150641441345e-02,7.489985972642898560e-02,-6.499870121479034424e-02,1.554905436933040619e-02,3.951754048466682434e-02,6.731066107749938965e-02,3.087140060961246490e-02,-3.136194124817848206e-02,8.345101773738861084e-02,-8.707933872938156128e-02,-6.482458114624023438e-02,-4.817817732691764832e-02,-1.260739564895629883e-02,2.215331885963678360e-03,5.189043655991554260e-02,-4.094703495502471924e-02,1.352745387703180313e-02,2.250083163380622864e-02,9.353432059288024902e-02,-4.945491626858711243e-02,5.713276937603950500e-02,1.955460198223590851e-02,9.307438880205154419e-02
-8.767462521791458130e-02,1.339025329798460007e-02,7.635740190744400024e-02,-8.367410302162170410e-02,1.091267075389623642e-02,-8.697278052568435669e-02,-5.215309560298919678e-02,-8.176430314779281616e-02,8.929715491831302643e-03,-6.935027986764907837e-02,2.554212929680943489e-03,6.257279217243194580e-02,5.762300267815589905e-02,-4.640283435583114624e-02,7.418125122785568237e-02,-2.241630665957927704e-02,-3.876719623804092407e-02,-2.358579449355602264e-02,8.724400401115417480e-02,-6.979224085807800293e-02,-2.498389920219779015e-03,-4.357935488224029541e-02,7.985760271549224854e-02,8.154483512043952942e-03,6.425852328538894653e-02,-2.463111095130443573e-02,-1.046554651111364365e-02,-7.200224697589874268e-02,-9.227459877729415894e-02,-5.001217499375343323e-02,-6.997492909431457520e-02,-5.779617279767990112e-02,3.443915396928787231e-02,-2.748382091522216797e-02,2.705973386764526367e-02,3.219339251518249512e-02,1.075543370097875595e-02,-9.888986824080348015e-04,5.185074359178543091e-02,-1.379017252475023270e-02,-1.039635837078094482e-01,4.432150349020957947e-02,-3.817525506019592285e-02,6.746827065944671631e-02,-3.032501414418220520e-02,6.664455682039260864e-02,-3.715536370873451233e-02,9.034736081957817078e-03,-4.483228921890258789e-02,-4.691659286618232727e-02,4.971323907375335693e-02,-4.494298249483108521e-02,1.181277446448802948e-02,-4.513075575232505798e-02,-4.249716922640800476e-02,-6.000508740544319153e-02,5.400109104812145233e-03,-9.004179388284683228e-02,5.569139495491981506e-02,4.116825759410858154e-02,8.957485109567642212e-02,-3.508114954456686974e-03,-4.789366852492094040e-03,-2.336627990007400513e-02,-7.212069630622863770e-02,9.103429317474365234e-02,4.096615314483642578e-02,6.386098265647888184e-02,-3.302660211920738220e-02,-6.473201513290405273e-02,-3.052797354757785797e-02,6.118426844477653503e-02,2.613530494272708893e-02,-7.226037979125976562e-02,-4.110059142112731934e-02,8.939465135335922241e-02,-2.099218219518661499e-02,1.768668554723262787e-02,2.475400455296039581e-02,-7.410787045955657959e-02,5.035210028290748596e-02,-7.252594083547592163e-02,5.364197120070457458e-02,-4.052367433905601501e-02,-5.923352763056755066e-02,7.729962468147277832e-02,2.585035003721714020e-02,6.018223240971565247e-02,4.102536663413047791e-02,5.552908778190612793e-02,9.397232905030250549e-03,6.975190341472625732e-02,5.261979252099990845e-02,-3.632061928510665894e-02,-6.621816754341125488e-02,8.651255071163177490e-02,3.262684866786003113e-02,7.743743062019348145e-02,6.000568345189094543e-02,7.582565397024154663e-02,-1.773437298834323883e-02,9.431008249521255493e-02,-5.155044421553611755e-02,-1.300205662846565247e-02,-3.064211830496788025e-02,4.995056986808776855e-02,1.201364770531654358e-02,-5.225433409214019775e-02,2.272128313779830933e-02,-5.731007829308509827e-02,-7.143917679786682129e-02,-8.891762048006057739e-02,8.727024495601654053e-02,-7.575231790542602539e-02,-9.201607853174209595e-02,-8.460488915443420410e-02,1.663038320839405060e-02,2.366203069686889648e-02,-8.314316719770431519e-02,-5.320882052183151245e-02
-8.942685090005397797e-03,-1.303907036781311035e-01,3.073464706540107727e-02,1.315959841012954712e-01,-4.205523803830146790e-02,-6.070286780595779419e-02,-3.746631741523742676e-02,4.762155935168266296e-02,-1.478685764595866203e-03,3.472956886980682611e-04,-5.325544252991676331e-02,-3.032295964658260345e-02,4.773123934864997864e-02,1.386564075946807861e-01,9.123297035694122314e-02,-1.038013100624084473e-01,2.742134779691696167e-02,-1.166510060429573059e-01,1.960866339504718781e-02,1.356837019557133317e-04,-5.268892273306846619e-02,-1.353765465319156647e-02,-6.793283391743898392e-03,9.476754814386367798e-02,-8.253183215856552124e-02,7.429824676364660263e-03,-7.048556953668594360e-02,-3.635305911302566528e-02,8.324001729488372803e-02,4.465982690453529358e-02,4.672194831073284149e-03,1.181787103414535522e-01,4.040248692035675049e-02,-7.969395816326141357e-02,-5.201810225844383240e-02,-1.140999887138605118e-02,5.379378795623779297e-02,8.314293622970581055e-02,1.265641301870346069e-01,-1.132408808916807175e-02,8.434256911277770996e-02,-2.476881444454193115e-02,-2.637341851368546486e-03,7.474882900714874268e-02,-1.071812808513641357e-01,5.127684026956558228e-02,-2.182522416114807129e-02,2.283164672553539276e-02,-8.224655687808990479e-02,-5.059669725596904755e-03,-4.811982810497283936e-02,1.150942593812942505e-01,-5.693152081221342087e-03,2.294418867677450180e-03,-2.939684502780437469e-02,4.256455227732658386e-02,-5.746872350573539734e-02,-7.022614032030105591e-02,7.595270127058029175e-02,-7.830799371004104614e-02,-1.366868149489164352e-02,1.431984733790159225e-02,-1.966421306133270264e-02,1.119740009307861328e-01,8.159425854682922363e-02,1.076374724507331848e-01,8.009143173694610596e-02,-4.030094668269157410e-02,1.087141185998916626e-01,7.606028765439987183e-02,-4.224261641502380371e-02,-2.445810288190841675e-02,-6.509707868099212646e-02,-6.695985794067382812e-02,-7.284248620271682739e-02,1.033848971128463745e-01,-4.461618140339851379e-02,2.744107693433761597e-02,4.507596790790557861e-02,-2.112315967679023743e-02,6.965435296297073364e-02,5.900667980313301086e-03,6.295155617408454418e-04,5.742290616035461426e-02,4.399759322404861450e-02,-2.206765580922365189e-03,-5.945506319403648376e-02,3.363988921046257019e-02,1.186821684241294861e-01,-2.087502367794513702e-02,-8.459543436765670776e-02,-8.458251506090164185e-02,-6.509856879711151123e-02,-8.139374852180480957e-02,-3.534011309966444969e-03,-3.265336528420448303e-02,6.325110793113708496e-02,7.628106325864791870e-02,-5.696266144514083862e-02,6.519223749637603760e-02,-3.246601298451423645e-02,7.659738510847091675e-02,2.446551807224750519e-02,-3.360563516616821289e-02,-7.497071474790573120e-02,9.242741018533706665e-02,5.996869876980781555e-02,6.581658124923706055e-02,-6.259421259164810181e-02,3.888010687660425901e-04,2.581270039081573486e-02,-3.922120481729507446e-02,-5.773014854639768600e-03,1.785439066588878632e-02,1.935983076691627502e-02,-6.220893561840057373e-02,-7.491818815469741821e-02,6.272072345018386841e-02,8.837809786200523376e-03,5.514236912131309509e-02
-1.507315039634704590e-01,8.003538846969604492e-02,2.259221114218235016e-02,4.707051441073417664e-02,-7.843017578125000000e-02,1.483032293617725372e-02,-5.271511152386665344e-02,-3.290837258100509644e-02,-6.373554468154907227e-02,5.254328250885009766e-02,-3.570864722132682800e-02,-7.559613883495330811e-02,-8.203854411840438843e-02,-1.050499305129051208e-01,-8.965818583965301514e-02,-1.459440775215625763e-02,-1.148058548569679260e-01,-4.658957570791244507e-02,-9.747709333896636963e-02,6.665315479040145874e-02,-1.104192779166623950e-05,6.700988113880157471e-02,-1.032290086150169373e-01,7.347330451011657715e-02,9.453784674406051636e-03,8.315998315811157227e-02,1.199676748365163803e-02,-3.636020794510841370e-02,-5.570691078901290894e-02,-7.863108813762664795e-02,-9.137515723705291748e-02,-1.115478128194808960e-01,-1.516536995768547058e-02,1.915458589792251587e-02,-1.020995080471038818e-01,9.754940122365951538e-02,3.294454514980316162e-02,8.453929424285888672e-02,7.263278961181640625e-02,9.986424446105957031e-02,1.219702139496803284e-01,-6.229227408766746521e-02,-5.780432745814323425e-02,1.010555494576692581e-02,9.428039193153381348e-03,9.710837155580520630e-02,-1.390016078948974609e-02,3.214416652917861938e-02,-8.400771021842956543e-02,-4.857893288135528564e-02,-1.188353076577186584e-01,1.342781353741884232e-02,1.424609422683715820e-01,3.522442653775215149e-02,-5.067010223865509033e-02,5.068353191018104553e-02,-4.902042075991630554e-02,1.073443703353404999e-02,-1.039011105895042419e-01,-1.351656205952167511e-02,-5.871931090950965881e-02,8.918675780296325684e-02,3.301356732845306396e-02,7.110341917723417282e-03,-7.428910583257675171e-02,1.256972365081310272e-02,-1.227027503773570061e-03,4.406461119651794434e-02,-5.486132577061653137e-02,-9.152992814779281616e-02,-2.525406144559383392e-02,4.856423288583755493e-02,-4.793359339237213135e-02,-4.556432832032442093e-03,-2.076229639351367950e-02,1.974147558212280273e-02,-2.002670243382453918e-02,4.100221395492553711e-02,1.198355928063392639e-01,1.714326627552509308e-02,4.718633741140365601e-02,3.893053159117698669e-02,-3.121808543801307678e-02,9.395781159400939941e-02,1.034020185470581055e-01,4.831305891275405884e-02,9.366922080516815186e-02,1.349135115742683411e-02,1.351191699504852295e-01,-6.802085041999816895e-02,1.282130368053913116e-02,-3.675694391131401062e-02,2.383310347795486450e-02,-1.548293046653270721e-02,-1.446211617439985275e-02,1.614585891366004944e-02,1.225969269871711731e-01,-6.004332005977630615e-02,6.514199078083038330e-02,-4.381928965449333191e-02,1.089844927191734314e-01,5.968094989657402039e-02,8.541073650121688843e-02,-6.104624643921852112e-02,-7.502883672714233398e-02,2.177775092422962189e-02,-3.610312938690185547e-02,6.175831332802772522e-02,9.507734328508377075e-02,-9.404987096786499023e-03,8.644408546388149261e-03,5.180308595299720764e-02,4.368465021252632141e-02,-1.245111376047134399e-01,1.273846924304962158e-01,1.115676946938037872e-02,2.753658965229988098e-02,9.240192919969558716e-02,4.601880162954330444e-02,5.845140665769577026e-02
-4.039551690220832825e-02,-1.760817691683769226e-02,6.546222139149904251e-03,3.014263696968555450e-03,8.696116507053375244e-02,-6.946420669555664062e-02,4.833291843533515930e-02,-4.082166403532028198e-02,-2.928397059440612793e-02,-3.151698783040046692e-02,7.006841897964477539e-02,-3.953059390187263489e-02,-2.449996210634708405e-02,-4.217163845896720886e-02,-3.842521458864212036e-02,5.919902771711349487e-02,9.507074207067489624e-02,4.608006030321121216e-02,-8.473022282123565674e-02,-6.178466230630874634e-02,-6.088202819228172302e-02,5.497612431645393372e-02,-3.488837927579879761e-02,7.698444277048110962e-02,-5.978199467062950134e-02,-4.284093901515007019e-02,3.728899359703063965e-02,4.390022903680801392e-02,1.315209828317165375e-02,3.215069696307182312e-02,-3.241982683539390564e-02,1.149065606296062469e-02,3.101718239486217499e-02,-5.301394686102867126e-02,-1.056587975472211838e-02,-1.831530220806598663e-02,-2.765092998743057251e-02,-6.958981603384017944e-02,2.347767818719148636e-03,-3.482234477996826172e-02,4.674499481916427612e-02,6.236034631729125977e-02,3.160414344165474176e-04,7.839389145374298096e-02,-6.063446775078773499e-02,8.082460612058639526e-03,-7.652508467435836792e-02,-9.265042841434478760e-02,-3.468054905533790588e-02,7.232940942049026489e-02,7.001662999391555786e-02,9.904721379280090332e-02,9.976261109113693237e-02,5.401261895895004272e-02,9.601814299821853638e-02,1.016090214252471924e-01,5.036398768424987793e-02,1.788901723921298981e-02,-6.421649456024169922e-02,-2.767714485526084900e-02,2.086467482149600983e-02,5.632586404681205750e-02,2.976049855351448059e-02,9.500925987958908081e-02,-7.673861086368560791e-02,8.293621242046356201e-02,3.496175259351730347e-02,6.298856437206268311e-02,-1.331409002887085080e-04,-7.501361519098281860e-02,-6.468983832746744156e-03,1.289124507457017899e-02,-5.412403121590614319e-02,-5.463013052940368652e-02,-6.136490777134895325e-02,-4.940458387136459351e-02,6.988827884197235107e-02,-4.156747087836265564e-02,1.715276576578617096e-02,-3.119749482721090317e-03,-6.643227487802505493e-02,-5.992354080080986023e-02,-3.157717362046241760e-02,3.005739115178585052e-02,2.296601980924606323e-02,5.730538442730903625e-02,5.994530022144317627e-02,1.468692719936370850e-02,-7.972785830497741699e-02,6.599383056163787842e-02,8.078420907258987427e-02,6.822330411523580551e-03,8.196930587291717529e-02,-3.599233552813529968e-02,-3.867537155747413635e-02,-1.434199698269367218e-02,8.265108615159988403e-02,-7.676263898611068726e-02,1.826713234186172485e-02,2.990462817251682281e-02,1.657311432063579559e-02,-1.151140313595533371e-02,6.930167973041534424e-02,-7.480783015489578247e-02,7.672558724880218506e-02,3.144103661179542542e-02,6.620961427688598633e-02,2.617440419271588326e-03,-2.896435745060443878e-02,-3.073987923562526703e-02,-8.576299995183944702e-02,3.375609964132308960e-02,-5.212105438113212585e-02,-9.226455539464950562e-02,-7.730115950107574463e-02,-1.383828558027744293e-02,7.175622135400772095e-02,-5.847861990332603455e-02,-1.153957191854715347e-02,-9.227849543094635010e-02
1.065059602260589600e-01,1.507009863853454590e-01,9.790027886629104614e-02,-7.028621435165405273e-02,4.248584061861038208e-02,1.394475549459457397e-01,1.009892001748085022e-01,-5.903767794370651245e-02,-2.572137117385864258e-02,-1.479230448603630066e-02,-3.526988252997398376e-02,1.061865035444498062e-02,2.986003272235393524e-02,1.460453588515520096e-02,-1.609383337199687958e-02,1.899019628763198853e-02,-1.258301269263029099e-02,-2.168384566903114319e-02,1.587647050619125366e-01,1.626176089048385620e-01,-3.514583036303520203e-02,3.777252510190010071e-02,2.340235561132431030e-02,4.657924175262451172e-02,1.176208704710006714e-01,8.478405326604843140e-02,-1.418470055796205997e-03,-6.465384270995855331e-03,-8.220276236534118652e-02,2.824131771922111511e-02,3.722039237618446350e-02,-2.767689526081085205e-03,-2.100069448351860046e-02,5.868577212095260620e-02,-1.165241282433271408e-02,8.975491859018802643e-03,9.408786892890930176e-03,-2.728855051100254059e-02,-9.699574112892150879e-02,-9.615523368120193481e-02,-8.286172151565551758e-02,-2.082067355513572693e-02,-2.690259553492069244e-02,-1.589861512184143066e-01,1.181101053953170776e-01,1.427089869976043701e-01,-9.578213840723037720e-02,-1.078666299581527710e-01,4.113614186644554138e-02,2.531226351857185364e-02,2.855723351240158081e-02,-6.155569106340408325e-02,-1.033890917897224426e-01,1.063888985663652420e-02,-3.688521310687065125e-02,-4.805699456483125687e-03,-3.868395090103149414e-02,7.510577887296676636e-02,-7.606378942728042603e-02,-1.032472122460603714e-02,1.397222280502319336e-01,-3.047579899430274963e-02,1.948622018098831177e-01,-8.115741610527038574e-02,8.542589843273162842e-02,-6.246599555015563965e-02,-1.144998148083686829e-01,6.837990880012512207e-02,1.180257573723793030e-01,-1.027058511972427368e-01,-3.469100967049598694e-02,-4.377495124936103821e-02,5.123362876474857330e-03,-7.658844441175460815e-02,-5.267426371574401855e-02,-4.102728329598903656e-03,-8.575089275836944580e-02,1.098577864468097687e-02,-3.313229605555534363e-02,5.854041129350662231e-02,-2.340622246265411377e-02,3.607209026813507080e-02,-4.043596982955932617e-02,1.326913479715585709e-02,-5.153273791074752808e-02,5.876005813479423523e-02,-1.029215231537818909e-01,-9.872321784496307373e-02,-5.416442453861236572e-02,-1.664198562502861023e-02,-4.325320571660995483e-02,-6.987183541059494019e-02,1.025599390268325806e-01,1.356201916933059692e-01,-6.082940474152565002e-02,-3.725658729672431946e-02,-1.484322696924209595e-01,9.100760519504547119e-02,9.603342413902282715e-02,-5.033393204212188721e-02,-9.207138419151306152e-02,5.836901441216468811e-02,-5.215751007199287415e-02,3.910107165575027466e-02,1.138204429298639297e-02,-9.107774496078491211e-02,-1.423055082559585571e-01,-2.394078858196735382e-02,1.135639473795890808e-01,-4.470251500606536865e-02,-1.094140205532312393e-02,-5.375100672245025635e-02,1.622305810451507568e-01,-9.408846497535705566e-02,2.398877218365669250e-02,-5.421052128076553345e-02,3.554468229413032532e-02,2.681468799710273743e-02,8.835612982511520386e-02,-4.144095629453659058e-02
-4.340948909521102905e-02,-1.192283034324645996e-01,-5.400245636701583862e-02,-4.308333620429039001e-02,1.061091758310794830e-02,9.329217672348022461e-02,1.096872165799140930e-01,-8.551802486181259155e-02,1.039202734827995300e-01,-6.014603748917579651e-02,2.273875102400779724e-02,-2.351653389632701874e-02,-8.092459291219711304e-02,9.225531667470932007e-02,3.179499413818120956e-03,-1.243058219552040100e-01,-6.320883333683013916e-02,5.757900327444076538e-02,1.235010251402854919e-01,-1.070937439799308777e-01,3.643482550978660583e-02,4.975612089037895203e-02,-7.957942038774490356e-02,1.506982147693634033e-01,4.326711967587471008e-02,-7.675475627183914185e-02,4.083054512739181519e-02,9.189060330390930176e-02,-7.049138098955154419e-02,6.857142597436904907e-02,1.501347683370113373e-02,-5.575350299477577209e-02,-1.148525327444076538e-01,7.720839977264404297e-02,3.205332905054092407e-03,-3.695878759026527405e-02,1.059242039918899536e-01,-4.347269982099533081e-02,-1.147468201816082001e-02,-5.045664310455322266e-02,1.606335192918777466e-01,-4.294007644057273865e-02,3.994496166706085205e-02,-5.702514946460723877e-02,5.468683689832687378e-02,-9.299412369728088379e-02,7.184733450412750244e-02,2.576474659144878387e-02,1.344544887542724609e-01,-1.910051703453063965e-02,-2.002330124378204346e-02,1.095255743712186813e-02,-1.989287557080388069e-03,3.278122469782829285e-02,2.984056947752833366e-03,5.217854864895343781e-03,4.716778174042701721e-02,-5.559623241424560547e-02,3.437844291329383850e-02,-7.533729821443557739e-02,-3.468750789761543274e-02,1.087549775838851929e-01,6.498805433511734009e-02,-7.879425771534442902e-03,6.447829306125640869e-02,-3.901212289929389954e-02,5.267301946878433228e-02,8.679728955030441284e-02,2.156994864344596863e-02,4.822828248143196106e-02,-6.820657849311828613e-02,-7.256997376680374146e-02,7.865789532661437988e-02,1.038512960076332092e-01,5.966196581721305847e-02,3.877536207437515259e-02,3.350587934255599976e-02,-1.864360086619853973e-02,1.282780244946479797e-02,-4.997362568974494934e-02,3.543075546622276306e-02,3.031580336391925812e-02,-6.954140961170196533e-02,-6.776887178421020508e-02,-3.621616959571838379e-02,5.002053454518318176e-02,-4.347760602831840515e-02,8.993660658597946167e-02,-2.236140146851539612e-02,-8.231724798679351807e-02,8.302219957113265991e-02,-2.430796064436435699e-02,3.451727330684661865e-02,6.625936180353164673e-02,3.026963584125041962e-02,-4.337882250547409058e-02,5.288971215486526489e-02,1.875931210815906525e-02,3.949729353189468384e-02,-7.645063102245330811e-02,-8.919399231672286987e-03,-5.007993802428245544e-02,-3.467409685254096985e-02,2.044722624123096466e-02,7.787059992551803589e-02,-7.997752167284488678e-03,9.899397194385528564e-02,3.132219612598419189e-02,-8.945991843938827515e-02,7.285233587026596069e-03,6.140766665339469910e-02,9.066534042358398438e-02,-1.009694784879684448e-01,7.539474964141845703e-02,6.870301067829132080e-02,5.960084870457649231e-02,3.174204751849174500e-02,-1.322834938764572144e-02,-2.595759741961956024e-02,7.632445544004440308e-02
-5.148852989077568054e-02,4.643345624208450317e-02,5.332687869668006897e-02,1.046974733471870422e-01,1.303092297166585922e-02,5.139671266078948975e-03,3.627137094736099243e-02,-2.895904518663883209e-02,7.180169224739074707e-02,5.852018482983112335e-03,-3.020985797047615051e-02,-6.023699417710304260e-02,3.536092489957809448e-02,-2.144376002252101898e-02,7.121810317039489746e-02,-2.727046422660350800e-02,2.444189600646495819e-02,-1.864993944764137268e-02,-4.740356653928756714e-02,-2.532183006405830383e-02,3.641147166490554810e-02,5.730313062667846680e-02,7.295580953359603882e-02,-8.911792933940887451e-02,8.822226524353027344e-02,-1.235247403383255005e-02,8.936244994401931763e-02,5.363006517291069031e-02,-5.534481257200241089e-02,-3.233746439218521118e-02,-3.201952576637268066e-02,-1.607136987149715424e-02,-4.233757406473159790e-02,-4.799887537956237793e-02,-7.227161526679992676e-02,-2.333260513842105865e-02,-4.126331210136413574e-02,2.345542609691619873e-02,-7.447514683008193970e-02,-9.100865572690963745e-02,-8.612929284572601318e-02,3.084059804677963257e-02,-3.299062326550483704e-02,3.693560510873794556e-02,5.878371652215719223e-03,-6.441778689622879028e-02,8.000808954238891602e-02,7.943243719637393951e-03,9.929681196808815002e-03,-7.780291885137557983e-02,5.223953723907470703e-02,3.976247087121009827e-02,5.294860154390335083e-02,4.344821721315383911e-02,-5.407036095857620239e-02,9.206657111644744873e-02,1.172516308724880219e-02,5.868221074342727661e-02,-1.903300732374191284e-02,-3.320729127153754234e-03,2.973171882331371307e-02,6.838072091341018677e-02,4.835626482963562012e-02,-1.991725340485572815e-02,9.436464309692382812e-02,1.086360812187194824e-01,-4.261327907443046570e-02,-3.707309439778327942e-02,-3.529506921768188477e-02,-8.607857674360275269e-02,1.006835922598838806e-01,-6.672256439924240112e-02,-1.414396148175001144e-02,-2.189458534121513367e-02,-5.713282525539398193e-02,-8.597382903099060059e-02,4.476368799805641174e-02,-1.743226125836372375e-02,-4.174307361245155334e-02,-7.701042294502258301e-02,3.086593188345432281e-02,-9.727538563311100006e-03,5.460412427783012390e-02,-3.213586658239364624e-02,3.273068461567163467e-03,-7.857967168092727661e-02,-1.744034886360168457e-02,5.350042879581451416e-02,8.131685853004455566e-02,6.464049965143203735e-02,-9.525968134403228760e-02,8.864566683769226074e-02,3.480510041117668152e-02,-5.538537725806236267e-02,4.465789347887039185e-02,-1.612923294305801392e-02,-5.897989496588706970e-02,-9.254743158817291260e-02,-8.435346186161041260e-02,-3.536092117428779602e-02,-7.641674578189849854e-02,-4.708214104175567627e-02,4.645495489239692688e-02,-5.972580984234809875e-02,5.623767897486686707e-02,1.919656619429588318e-02,-6.878419965505599976e-02,1.413031760603189468e-02,-5.353136733174324036e-02,5.245026573538780212e-02,6.966464966535568237e-02,1.526269596070051193e-02,-4.686491563916206360e-02,4.775116592645645142e-02,-1.316483505070209503e-02,2.412921562790870667e-02,-8.692832291126251221e-02,-7.807160168886184692e-02,3.078605514019727707e-03,2.131427405402064323e-03
-7.208991795778274536e-02,8.364622294902801514e-02,4.091070964932441711e-02,-7.443604618310928345e-02,7.895173132419586182e-02,1.274481415748596191e-02,-6.774388998746871948e-02,3.703207895159721375e-02,3.022864647209644318e-02,-5.945993959903717041e-02,3.767475858330726624e-02,1.329033263027667999e-02,4.136401042342185974e-02,1.127844676375389099e-01,-4.034176468849182129e-02,1.243002712726593018e-02,2.633276768028736115e-02,7.775596529245376587e-02,4.875755868852138519e-03,6.162551790475845337e-02,-9.843989461660385132e-02,-5.702577903866767883e-02,-6.822715979069471359e-03,-8.741995692253112793e-02,-5.812492221593856812e-02,1.053063273429870605e-01,4.143735393881797791e-02,6.516445428133010864e-02,-7.880095392465591431e-02,-1.359266322106122971e-02,7.564448565244674683e-02,5.964725837111473083e-02,6.702253222465515137e-02,-6.840907037258148193e-02,5.110050365328788757e-02,7.303708046674728394e-02,-8.924082666635513306e-02,-7.749029994010925293e-02,-1.574285887181758881e-02,-7.345862686634063721e-02,-6.234414875507354736e-03,2.585629373788833618e-02,-5.949273705482482910e-02,-1.932929083704948425e-02,-7.064167410135269165e-02,-5.964212492108345032e-02,-9.343011677265167236e-02,-5.538587644696235657e-02,8.241663128137588501e-02,-7.862483710050582886e-02,2.842529304325580597e-02,6.059166043996810913e-02,-6.573943793773651123e-02,-1.479008793830871582e-02,-2.563035860657691956e-02,1.008919924497604370e-01,-7.556575350463390350e-03,1.169171649962663651e-02,-2.912414260208606720e-02,3.759752213954925537e-02,-5.352826043963432312e-02,-3.265179321169853210e-02,-1.933143706992268562e-03,6.394572556018829346e-02,-2.019599080085754395e-02,-5.444820597767829895e-02,-4.099930077791213989e-02,-8.244609832763671875e-02,2.179598435759544373e-02,8.729442209005355835e-02,-1.866458915174007416e-02,1.722594909369945526e-02,2.619145065546035767e-02,-8.718943595886230469e-02,-1.808263547718524933e-02,-7.890914380550384521e-02,-2.694948343560099602e-03,-2.646131068468093872e-02,1.940656267106533051e-02,-8.468578755855560303e-02,1.612334884703159332e-02,-3.888789191842079163e-02,5.081291124224662781e-02,-2.713793702423572540e-02,1.248754002153873444e-02,1.094343960285186768e-01,8.429257571697235107e-02,7.064149528741836548e-02,-2.622639946639537811e-02,-1.738332584500312805e-02,-3.846456483006477356e-02,-8.628563582897186279e-02,1.216000095009803772e-01,1.861129514873027802e-02,-7.937596738338470459e-02,5.554617568850517273e-02,-4.884437192231416702e-03,-5.497993156313896179e-02,4.476042836904525757e-02,5.568830296397209167e-02,-3.519608452916145325e-02,-6.956873089075088501e-02,7.546153664588928223e-02,1.034977287054061890e-01,4.427118226885795593e-02,7.885345816612243652e-02,-3.565558791160583496e-02,8.182797580957412720e-02,7.506697624921798706e-02,4.301407933235168457e-02,-4.922000318765640259e-02,-9.143589064478874207e-03,-4.278970882296562195e-02,1.241383887827396393e-02,3.410710021853446960e-02,3.232010826468467712e-02,-2.505273791030049324e-03,1.199711337685585022e-01,1.752405427396297455e-02,5.792021378874778748e-02
-3.262786194682121277e-02,5.280293151736259460e-02,8.934755623340606689e-02,-6.096612662076950073e-02,2.405372820794582367e-02,8.536395430564880371e-02,-5.585735663771629333e-02,-2.394103258848190308e-02,-1.413214504718780518e-01,1.715257391333580017e-02,2.973298728466033936e-02,1.856802590191364288e-02,-9.601062536239624023e-02,-4.846571013331413269e-02,7.828125357627868652e-02,3.817577613517642021e-03,5.285005643963813782e-02,-2.522322349250316620e-02,-5.374829750508069992e-03,8.828175067901611328e-02,-1.106341555714607239e-01,1.314456313848495483e-01,1.643285341560840607e-02,1.049829050898551941e-01,-1.746723800897598267e-02,1.532850880175828934e-02,7.690955698490142822e-02,-6.964366137981414795e-02,-1.222447901964187622e-01,-7.622335851192474365e-02,4.801314324140548706e-02,-8.417721837759017944e-04,5.372431501746177673e-02,-8.470346033573150635e-02,1.238647010177373886e-02,4.896236211061477661e-02,7.917412370443344116e-02,-1.593415997922420502e-02,-3.761499747633934021e-02,-6.598426401615142822e-02,5.714430660009384155e-02,3.891243413090705872e-02,-1.850810460746288300e-02,-5.891390144824981689e-02,-5.279188603162765503e-02,-1.437101215124130249e-01,5.505318567156791687e-02,-9.508933871984481812e-02,1.907963305711746216e-02,-4.851044341921806335e-02,-4.681548103690147400e-02,-7.192749530076980591e-02,7.350021041929721832e-03,-4.485556483268737793e-02,4.035083204507827759e-02,8.171413093805313110e-03,-4.109418392181396484e-02,-5.009151995182037354e-02,-2.759653888642787933e-02,6.153235677629709244e-03,1.602910161018371582e-01,3.729928657412528992e-02,6.388086359947919846e-03,-6.888681650161743164e-02,2.502380311489105225e-02,1.185807287693023682e-01,5.284858494997024536e-02,3.331861644983291626e-02,2.952253818511962891e-02,-4.799822717905044556e-02,-1.164058595895767212e-01,-6.689393520355224609e-02,-8.557160943746566772e-02,7.673221826553344727e-02,-4.555217747110873461e-04,-9.582269191741943359e-02,-6.025414913892745972e-02,1.783931441605091095e-02,8.002349734306335449e-02,-9.569185785949230194e-03,8.527176827192306519e-02,2.546657808125019073e-02,-5.061316769570112228e-03,1.369813978672027588e-01,7.357997447252273560e-02,4.935833066701889038e-02,-3.543514013290405273e-02,1.837264448404312134e-01,1.089905947446823120e-01,-5.108878016471862793e-02,-9.375353157520294189e-02,4.514177888631820679e-02,6.595552712678909302e-02,7.332959026098251343e-02,-1.079261302947998047e-01,5.770872533321380615e-02,1.263909041881561279e-01,2.435651235282421112e-02,-7.155990600585937500e-02,4.490059241652488708e-02,-8.517190814018249512e-02,1.186789497733116150e-01,-1.090710461139678955e-01,6.784457713365554810e-02,2.626602351665496826e-02,1.535432487726211548e-01,-7.865977287292480469e-02,3.214039653539657593e-02,-9.259182214736938477e-02,1.547429151833057404e-02,6.023958791047334671e-03,2.525655925273895264e-02,-2.771046198904514313e-02,-2.290946058928966522e-02,6.517061591148376465e-02,3.775244578719139099e-02,-6.430549174547195435e-02,7.360364543274044991e-04,-3.100203163921833038e-02,7.387506216764450073e-02
-7.217311859130859375e-02,-1.383637189865112305e-01,-1.707885600626468658e-02,7.811660319566726685e-02,-3.029676340520381927e-02,4.232778772711753845e-02,-8.518404513597488403e-02,-2.770298905670642853e-02,-4.965642467141151428e-02,1.338412761688232422e-01,4.294735565781593323e-02,4.578625038266181946e-02,-8.372192084789276123e-02,5.646294727921485901e-02,8.092926442623138428e-02,-1.466912180185317993e-01,-1.129268109798431396e-01,-2.452140115201473236e-02,-8.790563046932220459e-02,1.026336848735809326e-01,4.897987842559814453e-02,3.069602884352207184e-03,-1.050824206322431564e-02,-1.052650064229965210e-02,3.613783046603202820e-03,2.190349437296390533e-02,-3.362802416086196899e-02,-1.120537817478179932e-01,-3.570755943655967712e-02,1.096954122185707092e-01,5.769531056284904480e-02,6.958814710378646851e-02,4.998693615198135376e-02,1.050095781683921814e-01,-1.277206242084503174e-01,1.058219745755195618e-01,5.336944386363029480e-02,8.575932681560516357e-02,-3.323617205023765564e-02,6.552412360906600952e-02,1.354408413171768188e-01,7.875584065914154053e-02,-5.676209926605224609e-02,2.594459429383277893e-02,1.288033463060855865e-02,6.433907896280288696e-02,8.862758427858352661e-02,-1.877653598785400391e-02,-3.110409341752529144e-02,7.237496227025985718e-02,-1.583468355238437653e-02,7.336502522230148315e-02,-1.022568419575691223e-01,8.453593403100967407e-02,-2.390815131366252899e-02,-1.266039311885833740e-01,-1.162533313035964966e-01,-7.098555564880371094e-02,-6.808445602655410767e-02,6.638175249099731445e-02,8.573915064334869385e-02,-5.768875405192375183e-02,-2.996425144374370575e-02,2.070992998778820038e-02,1.688336022198200226e-02,7.920084148645401001e-02,1.060866042971611023e-01,5.441248789429664612e-02,7.541628926992416382e-02,2.814030647277832031e-02,1.093179918825626373e-02,8.005340583622455597e-03,-7.847615331411361694e-02,-1.840083487331867218e-02,-1.265708208084106445e-01,6.789825856685638428e-02,8.026605844497680664e-02,2.703828364610671997e-02,8.213266730308532715e-02,2.825041487812995911e-02,5.727225914597511292e-02,1.882726997137069702e-01,1.215202733874320984e-01,-6.787593662738800049e-02,-4.182351753115653992e-02,-9.708326309919357300e-02,1.140873804688453674e-01,-3.020741976797580719e-02,1.332066953182220459e-01,1.181409955024719238e-01,7.562029361724853516e-02,-9.373590350151062012e-03,-1.414839476346969604e-01,-1.039287894964218140e-01,1.002337336540222168e-01,-9.935296326875686646e-02,-1.148553192615509033e-01,-9.100914001464843750e-02,1.320144019700819626e-05,-1.462107058614492416e-02,8.111620694398880005e-02,6.512460857629776001e-02,1.051457673311233521e-01,-1.711564883589744568e-02,-4.763022810220718384e-02,3.738578781485557556e-02,4.559867829084396362e-02,7.493921369314193726e-02,1.669660024344921112e-02,-6.769996881484985352e-02,7.239919900894165039e-02,5.916060879826545715e-02,1.927728950977325439e-02,1.286639571189880371e-01,1.124800071120262146e-01,4.767948016524314880e-02,8.004556596279144287e-02,1.057211235165596008e-01,1.679215766489505768e-02,-4.388483241200447083e-02
-3.669969365000724792e-02,1.794445700943470001e-02,7.881928235292434692e-02,1.648263186216354370e-01,5.989999696612358093e-02,8.375400304794311523e-02,-7.091978937387466431e-02,-2.294953353703022003e-02,1.105940435081720352e-03,8.830188959836959839e-02,5.291388928890228271e-02,-4.514497518539428711e-02,-8.616752177476882935e-02,9.070697426795959473e-02,-8.924476057291030884e-02,1.595106422901153564e-01,-7.895016670227050781e-02,-5.199018120765686035e-02,2.377117797732353210e-02,-1.183371245861053467e-01,1.205309480428695679e-01,1.493455376476049423e-02,9.982978552579879761e-02,-7.809679210186004639e-02,4.718259349465370178e-02,6.660165637731552124e-02,5.093625932931900024e-02,-6.279785931110382080e-02,-7.415830343961715698e-02,-1.064375564455986023e-01,-8.519810438156127930e-02,-6.968817114830017090e-02,-4.236738663166761398e-03,2.205772697925567627e-02,-4.446400701999664307e-02,3.921078052371740341e-03,1.255587786436080933e-01,4.403604194521903992e-02,-1.178686991333961487e-01,3.382188454270362854e-02,1.284875092096626759e-03,6.229026615619659424e-02,4.171027243137359619e-02,1.248759999871253967e-01,-7.959673553705215454e-02,-7.231526076793670654e-02,5.897326767444610596e-02,-7.123392075300216675e-02,2.004946395754814148e-02,1.045799702405929565e-01,-2.495353296399116516e-02,-7.151292171329259872e-03,1.116713583469390869e-01,6.687157601118087769e-02,3.281811997294425964e-02,-9.048012644052505493e-02,6.598091125488281250e-02,7.239435613155364990e-02,1.742414757609367371e-02,-7.421358022838830948e-03,-3.670617192983627319e-02,-3.040395490825176239e-02,-5.377622321248054504e-02,-5.020226165652275085e-02,1.938650384545326233e-02,1.047848165035247803e-01,-3.990951925516128540e-02,6.489417515695095062e-03,-2.112289145588874817e-02,4.591865837574005127e-02,-3.168030083179473877e-02,-2.584039606153964996e-02,-8.966841548681259155e-02,1.063603982329368591e-01,-1.091477572917938232e-01,-3.149871900677680969e-02,-4.851871728897094727e-02,4.654067009687423706e-02,-1.610248291399329901e-04,-5.905376374721527100e-02,4.718736931681632996e-02,2.079912275075912476e-02,1.770872063934803009e-02,-7.662421464920043945e-02,5.270234867930412292e-02,1.536529889563098550e-04,6.383433938026428223e-02,-7.138349860906600952e-02,-3.288711234927177429e-02,6.347986310720443726e-02,1.086886823177337646e-01,-9.184000082314014435e-03,-1.094787567853927612e-01,-3.522891178727149963e-02,-2.325084619224071503e-02,9.800289571285247803e-02,3.688777983188629150e-02,-7.953087240457534790e-02,-6.069276109337806702e-02,-2.738861599937081337e-03,4.802564159035682678e-02,-9.926955401897430420e-02,1.183369457721710205e-01,1.131448708474636078e-02,1.172803938388824463e-01,9.226340800523757935e-02,9.095326811075210571e-02,-3.078508190810680389e-02,-6.930471956729888916e-02,4.230730608105659485e-02,6.221345439553260803e-02,1.156071126461029053e-01,-3.382866457104682922e-02,-6.423232704401016235e-02,-2.162294834852218628e-02,-4.412857443094253540e-02,1.135555747896432877e-02,4.436380229890346527e-03,8.014261722564697266e-02,1.365081313997507095e-02
4.479342699050903320e-02,-7.454881817102432251e-02,6.617011874914169312e-02,6.349760293960571289e-02,1.875113695859909058e-02,5.888527259230613708e-02,8.287747204303741455e-02,-3.350311145186424255e-02,-3.206468746066093445e-02,-1.296049635857343674e-02,-5.338827520608901978e-02,-2.442539669573307037e-02,-6.871486455202102661e-02,4.710835963487625122e-02,3.898728406056761742e-03,-4.371405765414237976e-02,-9.087374061346054077e-02,-2.455230243504047394e-02,1.208661217242479324e-02,-1.577404513955116272e-02,5.132582038640975952e-02,-8.664654195308685303e-02,1.975650712847709656e-02,-1.999201253056526184e-02,2.497990801930427551e-02,-1.904444955289363861e-02,-5.345133319497108459e-02,-4.492338746786117554e-03,-8.391038328409194946e-02,1.310769096016883850e-02,-6.824697554111480713e-02,4.056643694639205933e-02,4.261483624577522278e-02,-7.625485956668853760e-02,-8.301017805933952332e-03,7.457346469163894653e-02,-3.304685652256011963e-02,-3.932161256670951843e-02,-2.661440894007682800e-02,-9.070462733507156372e-02,2.110910974442958832e-02,8.396563678979873657e-02,1.133328117430210114e-02,6.180464476346969604e-02,-8.591295778751373291e-02,-2.893925644457340240e-02,9.979608654975891113e-02,-4.913565516471862793e-02,-4.669463634490966797e-02,-6.856845319271087646e-02,-6.030747317709028721e-04,-6.998648494482040405e-02,6.868497002869844437e-03,6.323376297950744629e-02,2.352498844265937805e-02,-3.512134402990341187e-02,-1.230477634817361832e-02,2.358064055442810059e-02,8.965073525905609131e-02,4.877089057117700577e-03,9.477503597736358643e-02,1.009563803672790527e-01,1.910369470715522766e-02,3.707002615556120872e-03,-2.423857711255550385e-02,1.898669637739658356e-02,-4.556083679199218750e-02,6.649679504334926605e-03,3.857705509290099144e-03,9.640024602413177490e-02,-9.028671681880950928e-02,7.572958618402481079e-02,1.228340808302164078e-02,-3.545602038502693176e-02,-2.840698696672916412e-02,1.165883466601371765e-01,-5.061814561486244202e-02,-1.143559440970420837e-01,-5.885349586606025696e-02,3.276375308632850647e-02,5.167018994688987732e-02,-5.538587644696235657e-02,5.295777320861816406e-02,-7.407195866107940674e-02,8.849580585956573486e-02,-6.471676379442214966e-02,5.993021279573440552e-02,6.761163473129272461e-03,1.160773728042840958e-02,1.469433400779962540e-02,4.477386176586151123e-02,-8.154832571744918823e-02,8.661029860377311707e-03,-7.127065211534500122e-02,2.100152522325515747e-02,3.346887230873107910e-02,-2.751635573804378510e-02,8.962624706327915192e-03,1.607416570186614990e-02,8.051947504281997681e-02,-4.497965052723884583e-02,7.278273999691009521e-02,-8.968786336481571198e-03,9.611132740974426270e-02,1.080857664346694946e-01,7.262325286865234375e-02,4.527676850557327271e-02,4.798378050327301025e-02,9.640566073358058929e-03,4.117989912629127502e-02,-2.511321380734443665e-02,8.004501461982727051e-02,-6.921467930078506470e-02,-5.785754416137933731e-03,-6.435441970825195312e-02,-1.354260277003049850e-02,-5.574100092053413391e-02,3.680972009897232056e-02,-4.391939938068389893e-02,7.136190542951226234e-04
-8.441050536930561066e-03,-1.180829033255577087e-01,4.456277936697006226e-02,4.052769765257835388e-02,7.604048401117324829e-02,-2.502712979912757874e-02,-1.152620315551757812e-01,1.330287102609872818e-02,-7.160516083240509033e-02,1.033023893833160400e-01,-1.160882599651813507e-02,-9.259495884180068970e-03,-1.097926422953605652e-01,1.329613626003265381e-01,4.674318432807922363e-02,5.146963149309158325e-02,1.720923744142055511e-02,-8.085293322801589966e-02,-1.087293177843093872e-01,-3.189755231142044067e-02,-8.750502765178680420e-02,-1.344184130430221558e-01,-8.339679241180419922e-02,5.848194286227226257e-02,6.327800452709197998e-02,-1.400629878044128418e-01,-4.911969974637031555e-02,-5.745241418480873108e-03,1.787997782230377197e-02,4.858306795358657837e-02,-1.748309284448623657e-02,9.327550232410430908e-02,7.418324798345565796e-02,1.175442263484001160e-01,-4.492271319031715393e-02,-8.986850082874298096e-02,-5.923076346516609192e-02,-3.577008098363876343e-02,4.195228964090347290e-02,4.428502172231674194e-02,4.705544095486402512e-03,-7.747989147901535034e-02,-1.213573366403579712e-01,-4.855178669095039368e-02,-1.268829405307769775e-01,8.744483441114425659e-02,2.028820961713790894e-01,6.975409109145402908e-03,-2.562835067510604858e-02,5.465438123792409897e-03,1.591623872518539429e-01,1.638468503952026367e-01,-6.957212835550308228e-02,-6.071540713310241699e-02,1.947672665119171143e-02,2.930577099323272705e-02,-1.232822239398956299e-01,-2.549101971089839935e-02,-8.672607690095901489e-02,7.529652118682861328e-02,8.402948081493377686e-02,-1.273117959499359131e-01,-1.243482530117034912e-01,7.697995752096176147e-02,8.297223597764968872e-02,-4.448989033699035645e-02,1.394997686147689819e-01,-5.420447885990142822e-02,5.051167681813240051e-03,5.606056749820709229e-02,1.188269853591918945e-01,7.258343510329723358e-03,2.120744064450263977e-02,-1.550311315804719925e-02,-1.372599303722381592e-01,1.335535645484924316e-01,-6.686260551214218140e-02,2.769309841096401215e-02,4.363468382507562637e-03,-4.355160985141992569e-03,3.844997286796569824e-02,8.368020504713058472e-02,8.826027065515518188e-02,-1.514603942632675171e-01,1.437073498964309692e-01,-8.091909438371658325e-02,8.318199962377548218e-02,-1.168631613254547119e-01,-1.587819308042526245e-01,1.043838039040565491e-01,7.544499821960926056e-03,8.599020540714263916e-02,-1.773636601865291595e-02,6.536195427179336548e-02,1.150056496262550354e-01,-7.379287388175725937e-03,-7.831159979104995728e-02,-5.723939836025238037e-02,-8.414041250944137573e-03,-3.013389930129051208e-02,5.210933834314346313e-02,5.958906561136245728e-02,1.358038838952779770e-02,1.935418546199798584e-01,-8.337729424238204956e-02,7.340562343597412109e-02,4.574158787727355957e-02,-1.920591481029987335e-02,4.982593283057212830e-02,-9.509270638227462769e-02,8.775970339775085449e-02,4.283188376575708389e-03,7.379373908042907715e-02,1.573120802640914917e-01,-4.204490780830383301e-02,-3.085078857839107513e-02,2.296107262372970581e-02,1.201159954071044922e-01,-9.368975646793842316e-03,-1.021737158298492432e-01
7.374161481857299805e-02,9.715245664119720459e-02,-7.173819094896316528e-02,8.010648190975189209e-02,4.432532005012035370e-03,2.691762521862983704e-02,-8.821509778499603271e-02,-1.066281460225582123e-02,-8.398558199405670166e-02,9.282465279102325439e-02,1.384407188743352890e-02,-6.749370694160461426e-02,-9.410444647073745728e-02,7.532557100057601929e-02,8.853982388973236084e-02,-1.042423769831657410e-01,-1.181361824274063110e-01,3.472092375159263611e-02,-5.527147650718688965e-02,9.825366735458374023e-02,-7.344694435596466064e-02,-2.085472922772169113e-03,-1.046837344765663147e-01,-6.999088451266288757e-03,6.873995065689086914e-02,4.877475276589393616e-02,-6.022672727704048157e-02,5.577413737773895264e-02,-5.588111281394958496e-02,1.299911737442016602e-01,-1.209061592817306519e-02,2.805966883897781372e-02,4.182268306612968445e-02,3.697488456964492798e-02,-3.148496150970458984e-02,1.351880878210067749e-01,-1.168389245867729187e-01,7.109789177775382996e-03,1.254912018775939941e-01,-1.147048622369766235e-01,-5.842633545398712158e-02,-9.394878894090652466e-02,1.382696181535720825e-01,2.779427729547023773e-02,-3.974562045186758041e-03,-8.572465181350708008e-02,-5.300761759281158447e-02,4.984918981790542603e-02,-1.364483684301376343e-01,7.496387511491775513e-02,2.128522470593452454e-02,-1.079044491052627563e-01,-1.467646956443786621e-01,-6.739206146448850632e-03,6.033924594521522522e-02,-9.159369766712188721e-02,-3.269136883318424225e-03,1.803866960108280182e-02,1.395225077867507935e-01,3.153677331283688545e-03,2.171158194541931152e-01,-7.294764369726181030e-02,1.714443117380142212e-01,-3.119904547929763794e-02,-3.603905811905860901e-02,-3.459184244275093079e-02,-6.081729754805564880e-02,-6.004121527075767517e-02,5.779016017913818359e-02,6.103004515171051025e-02,-9.160242974758148193e-02,-6.877732276916503906e-02,7.158179581165313721e-02,-6.423760950565338135e-02,5.325135588645935059e-02,1.031264215707778931e-01,-1.471402030438184738e-02,-1.092156674712896347e-02,2.729885652661323547e-02,-7.774101942777633667e-02,-6.390000879764556885e-02,1.057025045156478882e-01,2.396427281200885773e-02,-2.827217429876327515e-02,5.883336812257766724e-02,3.123345412313938141e-02,-2.822662703692913055e-02,2.963067218661308289e-02,1.443178355693817139e-01,-2.620648406445980072e-02,1.050505936145782471e-01,-9.054590016603469849e-02,-1.419900655746459961e-01,4.530430957674980164e-02,6.305578281171619892e-04,5.307832732796669006e-02,-1.852918118238449097e-01,1.083391159772872925e-01,8.533010631799697876e-02,-3.801140189170837402e-02,-2.728228271007537842e-02,-1.170727759599685669e-01,1.228356827050447464e-02,7.854833453893661499e-02,7.716720551252365112e-02,-4.481803998351097107e-02,3.645488619804382324e-02,1.198067292571067810e-01,-7.855577021837234497e-02,2.540300972759723663e-02,3.600903227925300598e-02,1.361707001924514771e-01,1.743628233671188354e-01,7.461524754762649536e-02,4.261086136102676392e-02,-3.760806098580360413e-02,-4.138749837875366211e-02,4.391699656844139099e-02,8.078705519437789917e-02,1.356177590787410736e-02
3.169200941920280457e-02,-8.308894932270050049e-02,-9.263692796230316162e-02,6.574822217226028442e-02,-8.537554740905761719e-02,3.088876977562904358e-02,9.712540358304977417e-02,-5.761555954813957214e-02,1.003066152334213257e-01,1.425675209611654282e-02,3.756720945239067078e-02,-7.687304168939590454e-02,-2.493164129555225372e-02,6.213537603616714478e-02,-2.386258542537689209e-02,-7.192546874284744263e-02,-2.923405729234218597e-02,-3.637392818927764893e-02,1.172192096710205078e-01,-1.798565499484539032e-02,6.180734187364578247e-02,-1.532467361539602280e-02,6.081718951463699341e-02,-3.337609767913818359e-02,1.013240590691566467e-01,5.986516177654266357e-02,8.287260681390762329e-02,8.246142417192459106e-02,-2.502421662211418152e-02,-7.294168230146169662e-03,-8.390059322118759155e-02,-2.672469429671764374e-02,-7.663892954587936401e-02,1.113373339176177979e-01,-6.057943403720855713e-02,-7.730552554130554199e-02,-4.470456391572952271e-02,-9.835884906351566315e-03,-6.667134165763854980e-02,3.146817162632942200e-02,-9.063389152288436890e-02,-4.014290124177932739e-02,6.263671815395355225e-02,6.182463373988866806e-03,5.998345464468002319e-02,2.369360998272895813e-03,5.385275930166244507e-02,7.522295415401458740e-02,6.132590025663375854e-02,1.183570250868797302e-01,-9.043902158737182617e-02,-6.446647644042968750e-02,-3.663231059908866882e-02,2.695050649344921112e-02,5.662835016846656799e-02,-4.394776746630668640e-02,4.797688871622085571e-02,-5.432317778468132019e-02,-9.373894333839416504e-02,-4.886373504996299744e-02,-1.239168941974639893e-01,8.586398512125015259e-02,7.844193279743194580e-02,-1.555900555104017258e-02,2.231325022876262665e-03,-7.872624695301055908e-02,1.770922541618347168e-02,-2.572225872427225113e-03,9.009057283401489258e-02,-1.516094990074634552e-02,2.907814458012580872e-02,-6.705342978239059448e-02,5.464814975857734680e-02,-6.726646423339843750e-02,2.168628945946693420e-02,-6.904970109462738037e-02,7.654128130525350571e-03,-6.602610647678375244e-02,1.023190319538116455e-01,-4.888639226555824280e-02,-6.259807944297790527e-02,-3.166024759411811829e-02,8.451528102159500122e-02,-1.064780056476593018e-01,-7.363914698362350464e-02,6.867206189781427383e-03,7.744159549474716187e-03,1.545429602265357971e-02,6.192889437079429626e-02,-6.309117376804351807e-02,-5.145872477442026138e-03,3.255200386047363281e-02,6.983332335948944092e-02,9.704853594303131104e-02,7.587954401969909668e-02,-9.326458722352981567e-02,-1.622936874628067017e-02,1.215237099677324295e-02,-3.815148770809173584e-02,-8.721207827329635620e-02,3.075693920254707336e-02,8.122550323605537415e-03,-9.908457100391387939e-02,-1.009755581617355347e-01,-4.334337264299392700e-02,-9.082571417093276978e-02,8.083990961313247681e-02,3.253646567463874817e-02,6.948363780975341797e-02,-6.334379315376281738e-02,6.944279372692108154e-02,-7.855834811925888062e-02,-2.511312626302242279e-02,-1.029176563024520874e-01,-1.197416186332702637e-01,8.868799358606338501e-02,-3.450831398367881775e-02,8.492431789636611938e-02,2.157894894480705261e-03,9.398434311151504517e-02
-4.258435592055320740e-02,5.077744275331497192e-02,4.477526620030403137e-02,-8.026690781116485596e-02,-8.486202359199523926e-02,3.770150989294052124e-02,-7.803324609994888306e-02,-7.680245488882064819e-02,4.200341925024986267e-02,4.512935265665873885e-05,-5.788543820381164551e-02,1.998866908252239227e-02,-1.447123382240533829e-02,-7.653098553419113159e-02,2.025440894067287445e-02,-8.469420671463012695e-02,-2.977551333606243134e-02,4.742257297039031982e-02,-5.637170746922492981e-02,-1.159742381423711777e-02,8.195745944976806641e-02,1.365053374320268631e-02,-6.224866211414337158e-02,3.189557790756225586e-02,8.127246052026748657e-02,-6.527280062437057495e-02,7.672006729990243912e-03,-1.710738986730575562e-02,5.677434056997299194e-02,-4.412179440259933472e-02,4.454058781266212463e-02,-1.732335984706878662e-02,-7.227652519941329956e-02,-1.923670805990695953e-02,-5.711119994521141052e-02,-4.242024570703506470e-02,-1.469334214925765991e-02,-6.500098109245300293e-02,-6.914019584655761719e-02,5.867801606655120850e-02,-4.633986204862594604e-02,-8.321884088218212128e-03,-4.392746835947036743e-02,-7.958333939313888550e-02,6.166074797511100769e-02,-8.820071816444396973e-02,9.002653509378433228e-02,-3.002170473337173462e-02,6.358812004327774048e-02,3.671910613775253296e-02,-7.860041409730911255e-02,4.650799557566642761e-02,1.534887030720710754e-02,6.339606642723083496e-02,2.181186899542808533e-02,-5.205756518989801407e-03,-4.053512215614318848e-02,-4.457500204443931580e-02,1.495035178959369659e-02,6.000234931707382202e-02,5.722371395677328110e-03,8.755317330360412598e-02,4.038957506418228149e-02,8.886260539293289185e-02,-9.169485419988632202e-02,-3.802935034036636353e-02,-1.868793368339538574e-02,6.206050165928900242e-04,-8.526119589805603027e-02,-3.685937449336051941e-02,-3.956526517868041992e-02,-5.226733535528182983e-02,-5.106569081544876099e-02,2.087797038257122040e-02,1.697914861142635345e-02,5.474491417407989502e-02,2.670545689761638641e-02,1.558280456811189651e-02,-5.762821063399314880e-03,-4.638461396098136902e-02,3.760750591754913330e-02,5.472220107913017273e-02,-3.696521371603012085e-02,-4.285096749663352966e-02,3.162752091884613037e-02,-7.911924272775650024e-02,3.351043676957488060e-03,6.532879173755645752e-02,-2.781007438898086548e-02,-5.293917283415794373e-02,-1.899461820721626282e-02,2.099212072789669037e-02,5.931063368916511536e-02,7.687144726514816284e-02,-8.362232893705368042e-02,-3.318010643124580383e-02,-2.019746415317058563e-02,-4.368641600012779236e-02,-1.888796873390674591e-02,-4.666800796985626221e-02,-8.929758518934249878e-02,-7.622367143630981445e-02,-6.217130646109580994e-02,4.840507358312606812e-02,-4.677093774080276489e-02,2.426229603588581085e-02,-6.214288622140884399e-02,6.575364619493484497e-02,5.020404979586601257e-02,1.689338684082031250e-02,-1.334058679640293121e-02,-4.820045083761215210e-03,-8.405756950378417969e-02,3.346744924783706665e-02,-5.402776971459388733e-02,6.244190037250518799e-02,2.391684800386428833e-02,3.521911427378654480e-02,1.936141029000282288e-02,-6.094025447964668274e-02
-1.150015555322170258e-02,-2.134077437222003937e-02,-1.724405330605804920e-03,4.258411377668380737e-02,1.821364741772413254e-03,-7.094562053680419922e-02,6.689820438623428345e-02,-3.786018490791320801e-02,2.300936169922351837e-02,-4.411984980106353760e-02,-8.590109646320343018e-02,-1.971760205924510956e-02,-1.651020371355116367e-03,4.418963938951492310e-02,7.859883457422256470e-02,-1.080627217888832092e-01,2.710943296551704407e-02,-1.018474176526069641e-01,3.176128119230270386e-02,-2.895125187933444977e-02,2.775461040437221527e-02,-8.097442239522933960e-02,7.323982566595077515e-02,3.040230274200439453e-02,-5.384772643446922302e-02,-1.506910379976034164e-02,7.956923544406890869e-02,1.460010707378387451e-01,-4.717815667390823364e-02,1.255254000425338745e-01,-7.109323143959045410e-02,-1.119756419211626053e-02,-4.107786342501640320e-02,-1.023167073726654053e-01,7.335113734006881714e-02,-6.945317983627319336e-02,-4.132271185517311096e-02,3.100701235234737396e-02,9.073399007320404053e-02,-1.299655903130769730e-02,-7.612927258014678955e-02,9.458895027637481689e-02,6.474462896585464478e-02,-1.249883230775594711e-02,-4.543765261769294739e-02,4.874015599489212036e-02,-9.038240462541580200e-02,9.456032887101173401e-03,-1.146062314510345459e-01,-6.681739538908004761e-02,-1.679154485464096069e-02,1.223328113555908203e-01,5.016867443919181824e-02,1.209304854273796082e-01,-4.714453965425491333e-02,2.552969753742218018e-02,-4.579130560159683228e-02,-3.822622448205947876e-02,-5.683743953704833984e-02,1.038489118218421936e-02,-6.822535395622253418e-02,1.741387844085693359e-01,1.911524496972560883e-02,1.159943193197250366e-01,3.417808562517166138e-02,1.033924221992492676e-01,5.955305323004722595e-02,4.956635832786560059e-02,7.858839631080627441e-02,6.419871747493743896e-02,-2.491873875260353088e-02,8.297745883464813232e-02,2.232144027948379517e-02,2.169922692701220512e-03,2.320865169167518616e-02,7.734658569097518921e-02,-7.920915633440017700e-02,6.999441236257553101e-02,1.580339111387729645e-02,-2.276546135544776917e-02,-5.774527788162231445e-02,-9.559796005487442017e-02,1.245892792940139771e-01,-8.281986229121685028e-03,-3.486518934369087219e-02,-5.873610824346542358e-02,5.899033322930335999e-02,-3.677223250269889832e-02,1.776866018772125244e-01,-3.264112398028373718e-02,-6.797801703214645386e-02,-5.814550071954727173e-02,-8.479256927967071533e-02,8.694908022880554199e-02,2.854600735008716583e-02,-1.495853215456008911e-01,1.390763968229293823e-01,-2.370123565196990967e-02,7.882694900035858154e-02,4.623959213495254517e-02,4.214271903038024902e-02,2.572350576519966125e-02,-4.859339818358421326e-02,-2.070318162441253662e-02,-3.849640116095542908e-02,8.675553649663925171e-02,5.346967652440071106e-02,2.256890758872032166e-02,6.267977505922317505e-02,-2.506011165678501129e-02,-8.642376959323883057e-02,2.672486007213592529e-02,9.491381049156188965e-02,5.827525258064270020e-02,2.860931493341922760e-02,1.898484118282794952e-02,4.276511818170547485e-02,-4.748601466417312622e-02,1.891306228935718536e-02,-9.167207032442092896e-02
1.082188114523887634e-01,-3.665386233478784561e-03,-1.968707889318466187e-02,5.128604546189308167e-02,-2.528255805373191833e-03,-7.873397320508956909e-02,-1.342517584562301636e-01,1.141352206468582153e-02,-5.436548218131065369e-02,2.259446308016777039e-02,-2.254028338938951492e-03,-6.444462388753890991e-02,-8.247459307312965393e-03,7.613901048898696899e-02,2.667591162025928497e-02,1.509585380554199219e-01,7.907716184854507446e-02,-2.806766144931316376e-02,-6.454840302467346191e-02,-1.294487416744232178e-01,1.364157535135746002e-02,-3.091760724782943726e-02,1.202717646956443787e-01,-5.913861468434333801e-02,-4.145441576838493347e-02,-1.418117284774780273e-01,5.902180075645446777e-02,-1.039695516228675842e-01,2.315834164619445801e-02,-5.640108510851860046e-02,-3.240776434540748596e-02,1.599862724542617798e-01,6.906607747077941895e-02,7.201904058456420898e-02,-9.630013955757021904e-04,-1.011439505964517593e-02,5.027497187256813049e-02,4.403972625732421875e-02,1.057570502161979675e-01,1.039711013436317444e-01,7.462287694215774536e-02,-2.063972689211368561e-02,-1.107557266950607300e-01,-2.905065193772315979e-02,7.595217227935791016e-02,8.913977444171905518e-02,4.134972020983695984e-02,1.019827276468276978e-01,9.121555835008621216e-02,-1.161286234855651855e-01,1.602799296379089355e-01,1.507289260625839233e-01,-1.257308665663003922e-02,2.040199562907218933e-02,7.422896474599838257e-02,2.882064320147037506e-02,-1.105526313185691833e-01,-6.513059884309768677e-02,-6.926621496677398682e-02,9.337956458330154419e-02,-1.179209649562835693e-01,3.583350777626037598e-02,-1.752206534147262573e-01,-8.094730228185653687e-02,-1.308865696191787720e-01,5.311527848243713379e-02,6.577276438474655151e-02,7.993330061435699463e-02,-1.422697752714157104e-01,7.335675507783889771e-02,7.925017923116683960e-02,-1.374054141342639923e-02,-1.084579825401306152e-01,-1.285265386104583740e-01,-7.391338795423507690e-02,-2.541246637701988220e-02,-2.007571607828140259e-02,4.898056015372276306e-02,-3.820904763415455818e-03,-8.160122483968734741e-02,-2.223537676036357880e-02,3.474043309688568115e-02,2.065669186413288116e-02,-7.124649733304977417e-02,1.116743236780166626e-01,3.595657646656036377e-02,6.237189844250679016e-02,-5.628991057164967060e-04,2.980178035795688629e-02,1.184569075703620911e-01,3.353612124919891357e-02,4.887669906020164490e-02,-8.245865255594253540e-02,7.410170137882232666e-02,-8.883912116289138794e-02,2.801674231886863708e-02,1.258825510740280151e-01,6.968563050031661987e-02,-2.178208902478218079e-02,-3.767839446663856506e-02,2.254089899361133575e-02,-3.621878847479820251e-02,1.307750195264816284e-01,1.361739635467529297e-01,1.312757134437561035e-01,-1.130001768469810486e-01,1.157101020216941833e-01,7.608642429113388062e-02,-5.445934832096099854e-02,6.078806892037391663e-02,-1.643044501543045044e-02,-9.069640934467315674e-02,-1.257749944925308228e-01,4.170092288404703140e-04,5.071943998336791992e-02,8.290476165711879730e-03,-5.681803449988365173e-02,-2.893081307411193848e-02,1.006677746772766113e-02,6.925059109926223755e-02
-4.845952615141868591e-02,7.419418543577194214e-02,4.672615230083465576e-02,-1.467056386172771454e-02,2.348224818706512451e-02,-1.366520859301090240e-02,9.027224779129028320e-02,4.303229600191116333e-02,-5.493384227156639099e-02,9.555644541978836060e-02,6.260998547077178955e-02,-2.061343751847743988e-03,4.170145839452743530e-02,-5.735055077821016312e-03,7.309167832136154175e-02,6.491583585739135742e-02,5.022989958524703979e-02,-6.416615843772888184e-02,-2.005478926002979279e-02,1.272982656955718994e-01,-2.366073988378047943e-02,1.108883097767829895e-01,-5.427331104874610901e-02,1.173108145594596863e-01,6.928586214780807495e-02,-8.039721287786960602e-04,1.941942423582077026e-02,-3.970658779144287109e-02,3.869143500924110413e-02,-1.288383919745683670e-02,-2.148462831974029541e-02,-9.944776445627212524e-02,-8.799524605274200439e-02,5.412588268518447876e-02,-7.496340572834014893e-02,1.284962892532348633e-01,-3.148360550403594971e-02,2.257906645536422729e-02,-5.809646472334861755e-02,-6.398694217205047607e-02,1.003298908472061157e-01,-8.272636681795120239e-02,-1.090288683772087097e-01,-4.004511982202529907e-02,1.305354535579681396e-01,-5.478397011756896973e-02,-4.576279222965240479e-02,-2.582597732543945312e-02,1.026780456304550171e-01,6.797660142183303833e-03,7.682716939598321915e-03,-4.110829904675483704e-02,-1.368128228932619095e-03,2.623299509286880493e-02,5.862386524677276611e-02,-4.490513354539871216e-02,6.365756690502166748e-02,-7.550015300512313843e-02,7.288934290409088135e-02,4.682952165603637695e-02,-9.401086717844009399e-02,-6.612121313810348511e-02,-5.596736446022987366e-02,7.312189787626266479e-02,7.438572496175765991e-02,1.032270491123199463e-01,-7.098681479692459106e-02,2.707707881927490234e-02,-8.590107411146163940e-02,8.087555319070816040e-02,3.611336648464202881e-02,3.259861841797828674e-02,5.610013380646705627e-02,4.620673507452011108e-02,9.038828313350677490e-02,5.793000757694244385e-02,-6.723185535520315170e-03,-4.610414057970046997e-02,-4.814616963267326355e-02,5.608561262488365173e-02,8.425621315836906433e-03,-2.633237466216087341e-02,-4.732798784971237183e-02,9.521592408418655396e-02,-1.113054677844047546e-01,-1.522480603307485580e-02,-2.364900894463062286e-02,-6.135275959968566895e-02,-3.101802244782447815e-02,1.516229938715696335e-02,-1.033007204532623291e-01,8.049363642930984497e-02,-3.491161391139030457e-02,-2.751670591533184052e-02,-4.257376119494438171e-02,5.974311754107475281e-02,-5.766432359814643860e-02,5.785991251468658447e-02,-2.570280618965625763e-02,-6.939840037375688553e-03,1.068235114216804504e-01,1.255968064069747925e-01,5.556018650531768799e-02,3.795214870478957891e-04,-1.145464647561311722e-02,1.880287006497383118e-02,-8.648791164159774780e-02,-5.686675384640693665e-02,-5.235383287072181702e-02,-7.359538227319717407e-02,5.158803984522819519e-02,-1.629150100052356720e-02,-9.351100772619247437e-02,-8.501692116260528564e-02,1.088283434510231018e-01,1.751775108277797699e-02,-7.624465972185134888e-02,-1.178182810544967651e-01,-4.491412267088890076e-02,1.234188452363014221e-01
-3.623531386256217957e-02,6.085562333464622498e-02,8.070814609527587891e-02,6.708794832229614258e-02,-2.963801100850105286e-02,3.244300559163093567e-02,5.341464653611183167e-02,-5.788062885403633118e-02,1.552197523415088654e-02,-5.689556244760751724e-03,-1.555092353373765945e-02,-5.837635323405265808e-02,7.669243961572647095e-02,3.200626000761985779e-02,1.430739765055477619e-03,-8.683562278747558594e-02,-4.788295365869998932e-03,5.528133362531661987e-02,9.324087947607040405e-02,-2.050807885825634003e-02,4.382519796490669250e-02,-1.799883320927619934e-02,2.070500887930393219e-02,-7.609016261994838715e-03,-6.154344417154788971e-03,8.302768319845199585e-02,-1.248030085116624832e-02,-5.152357369661331177e-02,4.352727904915809631e-03,7.875597476959228516e-02,-7.410089951008558273e-03,-1.802559383213520050e-02,-7.888131588697433472e-02,-6.705401837825775146e-02,-8.821196854114532471e-02,-5.190530419349670410e-02,-6.813289970159530640e-02,-7.469480484724044800e-02,-3.117914870381355286e-02,-1.969520747661590576e-02,1.738980039954185486e-02,6.196954101324081421e-02,7.071283459663391113e-02,6.459265947341918945e-02,1.951102167367935181e-02,8.924756199121475220e-02,-7.190036028623580933e-02,-5.919867381453514099e-02,-4.644066095352172852e-02,-5.066322535276412964e-02,-5.730325356125831604e-02,-7.767864316701889038e-02,-5.589992552995681763e-02,-5.901569128036499023e-02,5.577092990279197693e-02,2.467612549662590027e-02,2.023406699299812317e-02,-2.821493893861770630e-02,9.066112339496612549e-02,-5.931130424141883850e-02,4.505240917205810547e-02,-1.701229810714721680e-02,-5.524708330631256104e-02,2.450248412787914276e-02,3.179196640849113464e-02,-6.081610172986984253e-02,-7.335390150547027588e-02,-1.742985215969383717e-03,-7.374040037393569946e-02,4.546033963561058044e-02,6.805532146245241165e-03,5.053635314106941223e-02,-4.655139893293380737e-02,-3.390570357441902161e-02,5.708492919802665710e-02,-7.914076745510101318e-02,-4.331715404987335205e-03,-4.481393843889236450e-02,1.008091401308774948e-02,1.005286932922899723e-03,-7.240533828735351562e-02,-6.701909005641937256e-03,3.910768032073974609e-02,-2.149594202637672424e-02,-2.037996239960193634e-02,-2.709156461060047150e-02,-6.148921698331832886e-02,-8.102988451719284058e-02,6.181034445762634277e-02,-1.984589733183383942e-02,-5.767440050840377808e-02,5.156079307198524475e-02,-7.485306262969970703e-02,6.831536442041397095e-02,8.820626139640808105e-02,-7.676979899406433105e-02,3.861540183424949646e-02,2.605957724153995514e-02,-8.393795043230056763e-02,-8.203975856304168701e-02,-2.477359585464000702e-02,-5.098538845777511597e-02,-1.682219654321670532e-02,6.114315614104270935e-02,2.143358439207077026e-02,4.059324972331523895e-03,4.122314974665641785e-02,8.105807006359100342e-02,-4.004829376935958862e-02,-6.960763782262802124e-02,2.459332160651683807e-02,-7.470353692770004272e-02,1.105700526386499405e-02,6.401828024536371231e-03,7.729100994765758514e-03,-1.736998744308948517e-02,-4.229788202792406082e-03,-6.680921465158462524e-02,-4.357919469475746155e-02,4.399410262703895569e-02
3.471376374363899231e-03,-5.671035125851631165e-02,2.743639983236789703e-02,-5.436475574970245361e-02,-7.688847370445728302e-03,-2.910207211971282959e-02,-8.653341233730316162e-02,8.042847365140914917e-02,-6.388891488313674927e-02,-7.411766052246093750e-02,-4.057014733552932739e-02,7.140182703733444214e-02,-6.215240433812141418e-02,-3.963477909564971924e-02,-1.774903945624828339e-02,2.054614014923572540e-02,-6.489735841751098633e-02,8.855431526899337769e-02,1.543941721320152283e-02,2.584554487839341164e-03,-5.344594642519950867e-02,2.895276993513107300e-02,7.968540489673614502e-02,3.993777930736541748e-02,-1.650612242519855499e-02,-8.643629401922225952e-02,7.954807579517364502e-02,-2.484265342354774475e-02,-1.519857626408338547e-02,1.786694116890430450e-02,6.752024590969085693e-02,2.702365815639495850e-02,6.889600306749343872e-02,-3.898317739367485046e-02,-9.757728315889835358e-03,-9.518536925315856934e-02,-1.745625282637774944e-03,2.826005220413208008e-02,-3.311783447861671448e-02,-2.994109131395816803e-02,-3.471811860799789429e-02,6.644470989704132080e-02,3.518445417284965515e-02,1.756409741938114166e-02,7.669135928153991699e-02,-6.132034957408905029e-02,7.240723818540573120e-02,1.035372633486986160e-02,-7.519757747650146484e-02,-2.634892426431179047e-02,-5.539194121956825256e-02,6.900776177644729614e-02,5.962742120027542114e-02,-5.029066652059555054e-02,-4.499207437038421631e-02,-4.474227502942085266e-02,-8.140285313129425049e-02,-4.416333138942718506e-02,-4.633944947272539139e-03,-7.628912571817636490e-03,9.666693210601806641e-02,6.798607856035232544e-02,-2.153373323380947113e-02,2.990666218101978302e-02,-5.812932178378105164e-02,-5.241556465625762939e-02,1.971456967294216156e-02,8.143450319766998291e-02,-6.941837817430496216e-02,2.737024985253810883e-02,2.717789076268672943e-02,5.273435637354850769e-02,-4.992669448256492615e-02,9.399401023983955383e-03,-3.864486888051033020e-02,-3.925676271319389343e-02,-9.102261811494827271e-02,-4.024041071534156799e-02,2.275842987000942230e-02,-1.431804057210683823e-02,-3.768779337406158447e-02,-5.150688067078590393e-02,-5.381764471530914307e-02,5.017083510756492615e-02,-1.003618761897087097e-01,-4.109945520758628845e-02,-6.876292079687118530e-02,1.571679674088954926e-02,-8.663617819547653198e-02,1.435787271475419402e-04,1.979280635714530945e-02,-1.571208052337169647e-02,3.540257737040519714e-02,8.044781163334846497e-03,7.248383015394210815e-02,7.671567052602767944e-02,6.365039385855197906e-03,-8.565585128962993622e-03,-3.804898634552955627e-02,-4.202435538172721863e-02,7.360716164112091064e-02,5.362058430910110474e-02,-3.165714442729949951e-02,8.325075730681419373e-03,4.674240574240684509e-02,-2.173925004899501801e-02,8.823431283235549927e-02,2.304997853934764862e-02,3.037851862609386444e-02,-2.803394943475723267e-02,6.706155836582183838e-02,-3.000261727720499039e-03,7.938248664140701294e-02,-3.437709808349609375e-02,-2.121483907103538513e-02,5.150957033038139343e-02,-3.707895302795805037e-05,-3.195192664861679077e-02,3.454344347119331360e-02,1.885795779526233673e-02
8.835703879594802856e-02,1.639313250780105591e-01,-1.054911762475967407e-01,-7.462929189205169678e-02,-1.795713230967521667e-02,7.936622016131877899e-03,1.194541677832603455e-01,-1.119699478149414062e-01,3.875084221363067627e-02,3.167142346501350403e-02,-6.248530745506286621e-02,1.530151348561048508e-02,1.287502050399780273e-01,-1.061375960707664490e-01,-4.889374971389770508e-02,5.108719342388212681e-04,-3.958588093519210815e-02,-5.582739785313606262e-02,1.816760152578353882e-01,1.411721110343933105e-01,3.049428807571530342e-03,-3.012182191014289856e-02,6.154015660285949707e-02,-2.584085613489151001e-02,7.560168951749801636e-02,1.354705914855003357e-02,-5.042648408561944962e-03,9.834558516740798950e-02,-9.227923303842544556e-02,3.460589796304702759e-02,-2.611280418932437897e-02,8.175308257341384888e-02,-6.267616990953683853e-03,-8.126436173915863037e-02,1.554388105869293213e-01,-1.071520671248435974e-01,7.742626219987869263e-02,1.627637632191181183e-02,3.843636065721511841e-02,-1.381606459617614746e-01,7.253121584653854370e-02,-8.875869959592819214e-02,1.787171512842178345e-01,-2.084251679480075836e-02,2.500309050083160400e-02,6.056940183043479919e-02,-8.769325911998748779e-02,-5.495870113372802734e-02,4.254439100623130798e-02,-2.487796358764171600e-02,3.558481484651565552e-02,8.487674407660961151e-03,-1.438947916030883789e-01,4.277096688747406006e-02,1.317985355854034424e-01,-8.370640128850936890e-02,-5.644685029983520508e-02,4.145768284797668457e-02,3.736183419823646545e-02,-2.662180736660957336e-02,-2.028128877282142639e-02,9.749143570661544800e-02,2.250894345343112946e-02,4.064144939184188843e-02,4.211977124214172363e-02,-1.071207821369171143e-01,6.705480068922042847e-02,6.253272294998168945e-02,6.706681847572326660e-02,5.563626065850257874e-03,-1.461574435234069824e-02,-5.461063608527183533e-02,-5.405247211456298828e-02,1.822226680815219879e-02,-7.114091515541076660e-02,7.847490906715393066e-02,-3.022769838571548462e-02,-2.102354355156421661e-02,-8.792569860816001892e-03,3.830057010054588318e-02,8.891756832599639893e-02,-7.985638082027435303e-02,-8.820126764476299286e-03,-4.234818741679191589e-03,-1.019587442278862000e-01,1.118422858417034149e-02,-4.588215425610542297e-02,-2.945988625288009644e-02,-1.613854803144931793e-02,1.163200661540031433e-02,8.686982095241546631e-02,-7.327482104301452637e-02,4.418009147047996521e-02,-4.840263724327087402e-02,8.432953804731369019e-02,9.968353062868118286e-02,1.248412355780601501e-01,4.916831478476524353e-02,1.187235191464424133e-01,1.406651735305786133e-02,-9.270154684782028198e-02,-8.128441870212554932e-02,5.125254392623901367e-02,-7.095835637301206589e-03,-4.131144285202026367e-02,-9.038075804710388184e-02,-8.316153287887573242e-02,-1.006070058792829514e-02,3.663860633969306946e-02,4.290126636624336243e-02,2.066561137326061726e-04,-2.725826948881149292e-02,1.228192262351512909e-02,3.968952223658561707e-02,-6.753682345151901245e-02,7.467046380043029785e-02,5.559104681015014648e-02,-2.609623596072196960e-02,1.323415804654359818e-02,-1.289199944585561752e-02
5.395794752985239029e-03,7.710206508636474609e-02,9.852205961942672729e-02,2.071516937576234341e-04,3.802391514182090759e-02,6.334172189235687256e-02,-1.567685743793845177e-03,-4.255149886012077332e-02,-6.690071523189544678e-02,6.048265099525451660e-02,7.459977269172668457e-02,3.651040315162390471e-04,7.597991079092025757e-02,1.420575380325317383e-01,-6.655304133892059326e-02,3.204406425356864929e-02,5.148654058575630188e-02,-4.836876690387725830e-02,1.315072029829025269e-01,-4.858371242880821228e-02,-4.946170002222061157e-02,8.893109112977981567e-02,7.279244810342788696e-02,3.876993432641029358e-02,9.979590773582458496e-02,-4.088540375232696533e-02,8.065042644739151001e-02,-8.342843502759933472e-02,-8.296931535005569458e-02,-1.040083467960357666e-01,1.279115211218595505e-02,-4.031484201550483704e-02,-2.368377521634101868e-02,-2.806334011256694794e-02,8.578525856137275696e-03,-4.787602275609970093e-02,-8.016318315640091896e-04,6.244152784347534180e-02,-2.891293354332447052e-02,-7.098814845085144043e-02,-9.873199462890625000e-02,-2.266112901270389557e-02,-2.165655791759490967e-02,3.376029804348945618e-02,1.408925931900739670e-02,-1.287222001701593399e-02,-9.999101608991622925e-02,-8.717804215848445892e-03,9.577481448650360107e-02,-7.544450927525758743e-03,9.668641723692417145e-03,-5.222627148032188416e-02,1.235383283346891403e-02,7.867875695228576660e-02,1.067841053009033203e-02,-5.597025901079177856e-02,1.133917793631553650e-01,-4.097466822713613510e-03,1.270083151757717133e-02,-7.208265364170074463e-02,-6.304256618022918701e-02,5.185683816671371460e-02,5.331267789006233215e-02,-3.114886768162250519e-02,-8.275032043457031250e-02,2.188709564507007599e-03,6.212059035897254944e-02,4.509467631578445435e-02,9.651508927345275879e-02,6.569916754961013794e-02,-1.073372215032577515e-01,-6.827278435230255127e-02,5.367454513907432556e-02,6.051432341337203979e-02,-3.926131129264831543e-02,-6.918221712112426758e-02,7.851565629243850708e-02,1.003933772444725037e-01,1.181528791785240173e-01,4.158202931284904480e-02,-5.887456983327865601e-02,-6.398495286703109741e-02,9.140961617231369019e-02,8.638460934162139893e-02,1.387204229831695557e-01,3.333009406924247742e-02,-4.622533172369003296e-02,-7.259056717157363892e-02,-2.226331271231174469e-02,-1.280508935451507568e-01,-6.390974670648574829e-02,4.761881008744239807e-02,1.438507884740829468e-01,-2.626906521618366241e-02,7.658917456865310669e-02,-8.590372651815414429e-02,5.322249978780746460e-02,-5.883997678756713867e-02,3.364592418074607849e-02,3.354451805353164673e-02,4.388778470456600189e-03,6.170114502310752869e-02,-1.517032682895660400e-01,6.657053530216217041e-02,8.953787386417388916e-02,-3.788687661290168762e-02,7.610153406858444214e-02,-1.804108498618006706e-03,-4.190895706415176392e-02,-6.221619248390197754e-02,-5.375099182128906250e-02,-9.532927721738815308e-02,6.480338424444198608e-02,2.092660777270793915e-02,3.250056877732276917e-02,-8.953166753053665161e-02,-4.998420923948287964e-02,-1.407477818429470062e-02,3.825176134705543518e-02,3.934816271066665649e-02
3.567058593034744263e-02,-9.492900222539901733e-03,-1.055821403861045837e-01,1.532918587327003479e-02,5.613389238715171814e-02,8.462625555694103241e-03,-5.166907235980033875e-02,-9.804249554872512817e-02,5.688600242137908936e-02,9.284413605928421021e-02,4.684092849493026733e-02,6.473567336797714233e-02,2.131113409996032715e-02,2.750407904386520386e-02,4.527005553245544434e-02,8.000954240560531616e-02,1.649012975394725800e-02,-4.655601084232330322e-02,1.334689706563949585e-01,7.760318368673324585e-02,8.564758300781250000e-02,-1.832863502204418182e-02,1.065969690680503845e-01,1.229905039072036743e-01,-2.515381388366222382e-02,4.070363938808441162e-02,-5.095367878675460815e-02,3.290452063083648682e-02,2.205258607864379883e-02,-2.576777897775173187e-02,6.713642925024032593e-02,1.308604329824447632e-01,-2.656215056777000427e-02,6.616108119487762451e-02,8.117563277482986450e-02,-7.122667878866195679e-02,-5.446020886301994324e-02,4.105055332183837891e-02,6.068881601095199585e-03,-2.396728657186031342e-02,7.745298743247985840e-02,-7.724212110042572021e-02,-2.456490881741046906e-03,1.663950853981077671e-03,6.519505381584167480e-02,-7.186087965965270996e-02,-1.499168295413255692e-02,1.246550586074590683e-02,-1.645867154002189636e-02,-5.290606990456581116e-02,1.069207862019538879e-01,5.778632126748561859e-03,-8.674483746290206909e-02,-7.599282264709472656e-02,9.142653644084930420e-02,-6.231781840324401855e-02,5.282250046730041504e-02,-4.218165948987007141e-02,-8.149400353431701660e-02,-7.940622977912425995e-03,5.921581387519836426e-02,-5.329778417944908142e-02,-7.829092442989349365e-02,-6.644940003752708435e-03,9.296849370002746582e-02,4.250657558441162109e-02,1.002570837736129761e-01,-5.435293912887573242e-02,1.000063642859458923e-01,4.591467231512069702e-02,-8.499208837747573853e-02,-9.179107099771499634e-02,-8.248665928840637207e-02,-9.069007635116577148e-02,-9.023650735616683960e-02,1.578007787466049194e-01,-6.714715063571929932e-02,1.268160901963710785e-02,-1.307201832532882690e-01,-1.051581185311079025e-02,-3.285974636673927307e-02,-1.347390003502368927e-02,-1.051236242055892944e-01,-4.929644241929054260e-02,1.912787370383739471e-02,2.221182174980640411e-02,-1.071338057518005371e-01,6.965642422437667847e-02,-7.612233608961105347e-02,-3.602468222379684448e-02,7.326301932334899902e-02,4.309784993529319763e-02,-9.524594992399215698e-02,3.666909039020538330e-02,-7.598289102315902710e-02,8.113978058099746704e-02,7.386106997728347778e-02,4.682825133204460144e-02,6.323757022619247437e-02,1.478997059166431427e-02,-2.065324224531650543e-02,-2.405973710119724274e-02,8.498583734035491943e-02,4.102464765310287476e-02,1.053638905286788940e-01,-7.965172082185745239e-02,-1.263327337801456451e-02,9.591389447450637817e-02,3.337685018777847290e-02,2.169037796556949615e-02,-6.364734470844268799e-02,3.003272041678428650e-02,1.218473911285400391e-01,7.437971979379653931e-02,-6.742143630981445312e-02,5.168488994240760803e-02,3.709873650223016739e-03,-8.604110032320022583e-02,8.697112649679183960e-02,4.746373742818832397e-02
1.561090163886547089e-02,4.467639699578285217e-02,2.078458853065967560e-02,3.277242183685302734e-02,-5.039798095822334290e-02,-5.267389863729476929e-02,2.784028090536594391e-02,-3.537532687187194824e-02,-1.388422586023807526e-02,-6.617380678653717041e-02,-7.930319011211395264e-02,-1.779193431138992310e-02,-2.779003046452999115e-02,1.636982895433902740e-02,4.637449979782104492e-02,-7.323244214057922363e-02,-3.898346424102783203e-02,-6.588528305292129517e-02,5.057635158300399780e-02,-3.507717279717326164e-03,-9.029464796185493469e-03,-4.207534715533256531e-02,-5.587052181363105774e-02,-6.468179821968078613e-02,-5.327657237648963928e-02,3.830431401729583740e-02,-6.143831461668014526e-02,8.729918301105499268e-02,-9.070210903882980347e-02,8.578226715326309204e-02,7.236666977405548096e-02,9.699385613203048706e-03,3.109029121696949005e-02,8.292218670248985291e-03,-5.496892705559730530e-02,5.535024031996726990e-02,-3.893767669796943665e-02,8.709892630577087402e-02,-1.032872311770915985e-02,5.057047307491302490e-02,5.442359484732151031e-03,3.781384229660034180e-02,5.826870724558830261e-02,-2.119136974215507507e-02,1.264185830950737000e-02,-7.480024546384811401e-02,-6.216913927346467972e-03,-1.369892060756683350e-02,-8.250061422586441040e-02,-4.694833233952522278e-02,-2.642765827476978302e-02,7.395853102207183838e-02,4.446195811033248901e-02,2.822861261665821075e-02,-8.888304233551025391e-02,-2.691704221069812775e-02,6.767865736037492752e-03,1.192608196288347244e-02,1.071194782853126526e-01,4.765265807509422302e-02,1.018780618906021118e-01,8.993791788816452026e-02,-8.419619500637054443e-02,-4.392106831073760986e-02,7.468435913324356079e-02,4.810819029808044434e-02,3.246308490633964539e-02,-5.463656038045883179e-02,-4.587708786129951477e-02,-1.609747111797332764e-02,6.966216117143630981e-02,8.617036789655685425e-02,5.714765191078186035e-02,7.990334928035736084e-02,6.367908418178558350e-02,4.845745489001274109e-02,-4.241733998060226440e-02,6.614744663238525391e-02,5.322942510247230530e-02,3.099798038601875305e-02,1.335113774985074997e-02,-2.106107957661151886e-02,1.614118926227092743e-03,2.616095729172229767e-02,2.182083576917648315e-02,-5.735174566507339478e-02,-6.347726285457611084e-02,-1.039216220378875732e-01,4.339388012886047363e-02,-7.340028882026672363e-03,-1.073296666145324707e-01,5.602282658219337463e-02,8.159179985523223877e-02,-7.906559854745864868e-02,-9.574501961469650269e-02,-1.591932401061058044e-02,5.033908784389495850e-02,3.007209673523902893e-02,2.221987955272197723e-02,4.097125679254531860e-02,3.764908388257026672e-02,-4.114348813891410828e-02,-8.260822296142578125e-02,1.456063706427812576e-02,1.049158442765474319e-02,8.544889837503433228e-02,5.482200533151626587e-02,6.862376630306243896e-02,-7.527506351470947266e-02,-2.082710154354572296e-02,-5.773584917187690735e-02,5.305789038538932800e-02,-7.227754592895507812e-02,-3.173277154564857483e-02,3.705249726772308350e-02,-8.000990003347396851e-02,-5.411621648818254471e-03,7.979627698659896851e-03,7.710114121437072754e-02,-1.023549959063529968e-01
1.670146733522415161e-01,1.230767834931612015e-02,-7.230927795171737671e-02,9.465427696704864502e-02,4.244407638907432556e-02,6.631013751029968262e-02,6.245311349630355835e-02,5.844921246170997620e-02,7.787426561117172241e-02,7.146874070167541504e-02,-1.178360879421234131e-01,-4.470529407262802124e-02,6.353618949651718140e-02,5.899244546890258789e-02,-4.102555662393569946e-02,4.842801392078399658e-02,3.725195303559303284e-02,-1.134668737649917603e-01,-5.813747271895408630e-02,7.424202561378479004e-02,1.261724624782800674e-02,-2.602754719555377960e-02,2.768806554377079010e-02,-4.134036973118782043e-02,5.518503487110137939e-03,7.864627242088317871e-02,8.666255325078964233e-02,-2.521924115717411041e-02,1.516746878623962402e-01,6.898291409015655518e-02,7.847501337528228760e-02,-2.173934690654277802e-02,6.134717166423797607e-02,2.632297389209270477e-02,-6.454008072614669800e-02,4.681302979588508606e-02,-2.977770753204822540e-02,8.295454084873199463e-02,4.562309011816978455e-02,4.686755314469337463e-02,8.493550121784210205e-02,1.445142924785614014e-02,-2.720066113397479057e-03,-1.633343659341335297e-02,9.056083112955093384e-02,1.077519133687019348e-01,-4.352889209985733032e-02,5.882066860795021057e-02,8.132147043943405151e-02,-1.302482634782791138e-01,1.048732846975326538e-01,1.703412383794784546e-01,1.745283305644989014e-01,-6.743144989013671875e-02,-9.721938520669937134e-02,9.983944892883300781e-02,-6.615663878619670868e-03,-1.573770679533481598e-02,-3.824523091316223145e-02,3.088922984898090363e-02,-1.171113774180412292e-01,-2.936124429106712341e-02,-1.017482504248619080e-01,-4.100277647376060486e-02,1.716235429048538208e-01,2.530748397111892700e-02,2.281813696026802063e-02,3.175152465701103210e-02,-2.047416009008884430e-02,5.934045463800430298e-02,-6.446576677262783051e-03,-4.042627662420272827e-02,7.940869778394699097e-03,4.760002344846725464e-02,9.238792955875396729e-02,6.216589733958244324e-02,4.518530890345573425e-02,7.797373086214065552e-02,-2.013259753584861755e-02,2.271725796163082123e-02,-9.316985309123992920e-02,9.457416087388992310e-02,4.908946529030799866e-02,3.648125380277633667e-02,-5.166313424706459045e-02,-5.666223168373107910e-02,-6.530702114105224609e-02,-9.498915076255798340e-02,-3.478653356432914734e-02,2.068869024515151978e-02,-1.167533397674560547e-01,1.141220796853303909e-02,-8.690560609102249146e-02,6.197577714920043945e-02,-1.786471717059612274e-02,2.277103997766971588e-02,-6.972131133079528809e-02,-9.274796396493911743e-02,-4.435539245605468750e-02,-7.273730635643005371e-02,-3.071005828678607941e-02,6.550852209329605103e-02,3.927861526608467102e-02,-5.514679104089736938e-02,-5.451862886548042297e-02,4.673097655177116394e-02,3.364903479814529419e-02,-7.015763968229293823e-02,3.010435216128826141e-02,1.044974625110626221e-01,-5.208754446357488632e-03,8.827588707208633423e-02,8.908496797084808350e-02,2.251277677714824677e-02,7.994697988033294678e-02,-2.228737622499465942e-02,4.955543950200080872e-02,-9.726925194263458252e-02,7.199933379888534546e-02,-1.292398851364850998e-02
