4.130231961607933044e-02,3.716252744197845459e-02,-1.530954390764236450e-01,-7.833587378263473511e-02,1.053595393896102905e-01,5.650281906127929688e-02,1.407001540064811707e-02,-1.372329741716384888e-01,1.720890849828720093e-01,2.942823171615600586e-01,1.213272735476493835e-01,-6.775949895381927490e-02,4.250583797693252563e-02,3.184196949005126953e-01,5.130909383296966553e-02,6.637147162109613419e-03,-1.328022032976150513e-01,1.489602960646152496e-02,2.376345247030258179e-01,-1.547517180442810059e-01,-4.982946068048477173e-02,2.763778716325759888e-02,1.663532257080078125e-01,1.320251636207103729e-02,-1.268924325704574585e-01,-1.532031409442424774e-02,-4.375417158007621765e-02,6.817757966928184032e-04,-2.577219530940055847e-02,1.214029788970947266e-01,5.925959348678588867e-02,-9.515682607889175415e-02,-5.053830519318580627e-02,-2.161677926778793335e-02,3.720967471599578857e-02,4.672320093959569931e-03,2.079110592603683472e-03,-8.387109637260437012e-02,4.059924185276031494e-02,8.037138730287551880e-02,-7.540187798440456390e-04,-6.726879626512527466e-02,1.831284537911415100e-02,6.277853995561599731e-02,-2.566556446254253387e-02,-2.720893546938896179e-02,-1.092372089624404907e-01,5.926734209060668945e-02,1.369127184152603149e-01,-7.396017014980316162e-02,2.857863716781139374e-02,-4.224446788430213928e-02,-4.189666360616683960e-03,2.152445912361145020e-02,-2.823195792734622955e-02,3.948202729225158691e-02,6.233270838856697083e-02,2.647170983254909515e-02,-7.783626019954681396e-02,7.363729178905487061e-02,9.701333008706569672e-03,-3.578793257474899292e-02,-7.360450178384780884e-02,4.404885321855545044e-02,1.237427368760108948e-01,8.531004935503005981e-02,1.850641518831253052e-02,-9.559927135705947876e-02,-5.598261207342147827e-02,1.024715900421142578e-01,1.122048124670982361e-02,-9.495425224304199219e-02,-6.953243911266326904e-02,-6.085716187953948975e-03,-1.422169990837574005e-02,1.563491066917777061e-03,-1.179346255958080292e-02,-1.537791937589645386e-01,-9.338049590587615967e-02,8.813615888357162476e-02,-2.981527894735336304e-02,-3.228609636425971985e-02,-2.552128024399280548e-02,-3.424376621842384338e-02,4.015871137380599976e-02,-5.797483492642641068e-03,4.285088274627923965e-03,-1.754463613033294678e-01,-1.314727514982223511e-01,-1.082210838794708252e-01,5.807215984532376751e-06,-4.190703481435775757e-02,-1.957248598337173462e-01,3.620334714651107788e-02,1.305245906114578247e-01,6.920625269412994385e-02,-1.062176562845706940e-02,-9.875677525997161865e-02,3.991293907165527344e-02,1.799983233213424683e-01,-9.943263605237007141e-03,-4.043497145175933838e-02,7.514007389545440674e-02,6.894940882921218872e-02,-4.778911173343658447e-02,1.610427163541316986e-02,-1.741488091647624969e-02,-6.090435758233070374e-02,-1.043889895081520081e-01,-5.501502007246017456e-02,7.368788868188858032e-02,-2.813905291259288788e-02,-3.018181957304477692e-02,-1.171384304761886597e-01,-3.176713362336158752e-02,2.549219317734241486e-02,-2.316226810216903687e-02,-2.375216782093048096e-02,1.804793067276477814e-02,-1.424541883170604706e-02,-5.553467199206352234e-02,-1.213213652372360229e-01,-1.080325692892074585e-01,-1.638062670826911926e-02,3.960983827710151672e-02,9.004727005958557129e-03,-8.085247874259948730e-02,-1.000804007053375244e-01,1.968593895435333252e-02,1.462765187025070190e-01,3.801322355866432190e-02,-3.927271440625190735e-02,-1.337179839611053467e-01,-1.821663044393062592e-02,2.282341271638870239e-01,1.003680229187011719e-01,-1.249054223299026489e-01,-8.749756962060928345e-02,1.596124619245529175e-01,-9.404215030372142792e-03,-1.156299859285354614e-01,-4.273371025919914246e-02,4.679485037922859192e-02,4.081574082374572754e-02,-8.630026876926422119e-02,-6.147548183798789978e-02,3.356184065341949463e-02,-2.411952614784240723e-02,1.081150770187377930e-01,-1.237444132566452026e-01
-8.574099093675613403e-02,2.213366329669952393e-02,1.048340275883674622e-02,-4.922462627291679382e-02,-1.059273108839988708e-01,1.759631931781768799e-02,1.663962453603744507e-01,-2.786389179527759552e-02,-1.450595855712890625e-01,-1.595661491155624390e-01,3.327973932027816772e-02,1.453299969434738159e-01,2.027651369571685791e-01,2.609282732009887695e-01,1.369669437408447266e-01,-2.076520174741744995e-01,-1.434110105037689209e-01,-2.271466851234436035e-01,-8.827217668294906616e-02,-9.326245635747909546e-02,-1.097058355808258057e-01,-2.500103712081909180e-01,-2.179751992225646973e-01,-1.604501605033874512e-01,-2.383778989315032959e-02,-7.425466924905776978e-02,4.738965258002281189e-02,-4.613624885678291321e-02,-2.156885154545307159e-02,3.989881277084350586e-02,8.219366893172264099e-03,3.951319307088851929e-02,-1.690205335617065430e-01,-8.176286518573760986e-02,-4.394036158919334412e-02,2.056511491537094116e-02,1.541999727487564087e-02,7.450298219919204712e-02,7.100921124219894409e-02,-9.204156696796417236e-02,-6.332674995064735413e-03,4.349815100431442261e-02,2.128216326236724854e-01,1.776606440544128418e-01,1.025242879986763000e-01,-1.777455061674118042e-01,-9.171804040670394897e-02,-4.016404971480369568e-03,-8.662094920873641968e-02,4.930301383137702942e-02,-1.718453131616115570e-03,9.848300367593765259e-03,1.122038252651691437e-02,9.858137369155883789e-02,-3.187520802021026611e-02,-1.792676001787185669e-02,-9.865809231996536255e-02,-1.051562950015068054e-01,-9.789053350687026978e-02,-2.777886763215065002e-02,-1.110337115824222565e-02,-5.385914817452430725e-02,-6.417973339557647705e-02,-5.679877474904060364e-02,-3.959486633539199829e-02,-9.303894639015197754e-02,-9.470633231103420258e-03,1.551600694656372070e-01,6.802702695131301880e-02,5.631457269191741943e-02,-5.782215669751167297e-02,-1.180682480335235596e-01,-5.346207879483699799e-03,1.138629391789436340e-02,2.449864521622657776e-03,-2.081593312323093414e-02,4.630678147077560425e-02,-1.502869129180908203e-01,-9.478091448545455933e-02,4.544747248291969299e-02,-3.787096217274665833e-02,2.131786569952964783e-02,-5.723728239536285400e-02,-1.140734776854515076e-01,-5.558834411203861237e-03,6.786486506462097168e-02,3.925894498825073242e-01,4.486435949802398682e-01,2.436232566833496094e-01,-2.793536335229873657e-02,-1.809802465140819550e-02,3.808030858635902405e-02,8.586056530475616455e-02,2.179856300354003906e-01,6.472524255514144897e-02,-6.618898361921310425e-02,-2.704865112900733948e-02,-1.242409199476242065e-01,-8.221849799156188965e-02,4.073544219136238098e-02,4.387024417519569397e-02,-7.918653637170791626e-02,-9.942410886287689209e-02,7.676753401756286621e-02,9.448950737714767456e-02,-2.983407303690910339e-02,8.313634432852268219e-03,-1.200857609510421753e-01,6.164204329252243042e-02,8.282275497913360596e-02,-2.174891345202922821e-02,-9.951491653919219971e-02,-3.797050099819898605e-03,-3.080881666392087936e-03,1.858896017074584961e-02,1.200756132602691650e-01,2.162866592407226562e-01,2.216355949640274048e-01,2.029058933258056641e-01,8.466847240924835205e-02,7.223557680845260620e-02,8.626666665077209473e-02,2.477168589830398560e-01,2.608305215835571289e-01,1.189991980791091919e-01,-7.024548947811126709e-02,2.857672236859798431e-02,5.378257110714912415e-02,4.090347141027450562e-02,-1.846245862543582916e-02,-6.164323072880506516e-03,-1.285795494914054871e-02,-1.327246725559234619e-01,-8.896640688180923462e-02,-6.542636454105377197e-02,1.004182621836662292e-01,4.876401275396347046e-02,2.548304013907909393e-02,5.185680091381072998e-02,-2.566068619489669800e-02,2.896674908697605133e-02,7.328441739082336426e-02,2.197386473417282104e-01,1.808190494775772095e-01,1.068572998046875000e-01,-1.998086720705032349e-01,-1.486605703830718994e-01,-4.828148707747459412e-02,-4.049726575613021851e-02,-3.739621117711067200e-02
-3.393039107322692871e-02,2.187745273113250732e-02,3.716603666543960571e-02,-2.040470242500305176e-01,-1.594690605998039246e-02,4.576815664768218994e-02,1.524058282375335693e-01,-1.493325978517532349e-01,-3.663196861743927002e-01,9.351181983947753906e-02,1.533571630716323853e-01,2.438139468431472778e-01,-1.302364468574523926e-01,-1.400260478258132935e-01,1.055232733488082886e-01,8.686657994985580444e-03,1.243362203240394592e-01,-1.061415597796440125e-01,4.201417788863182068e-02,1.603760719299316406e-01,-9.124385565519332886e-02,5.062598362565040588e-02,-1.400714069604873657e-01,7.823597639799118042e-03,3.949968516826629639e-02,8.045681565999984741e-02,2.741400711238384247e-02,-7.997035235166549683e-02,-1.771788895130157471e-01,-4.400632902979850769e-02,6.920628249645233154e-03,2.272965908050537109e-01,5.139830335974693298e-02,-2.199045419692993164e-01,3.219076246023178101e-02,8.615225553512573242e-02,1.798796653747558594e-01,1.806974969804286957e-02,-1.673252433538436890e-01,1.120632365345954895e-01,-6.822212040424346924e-02,1.384725868701934814e-01,3.347493708133697510e-02,-3.237413614988327026e-02,5.647649243474006653e-02,-6.300479173660278320e-02,-3.895787894725799561e-02,-5.617699399590492249e-02,8.928868174552917480e-02,9.097328782081604004e-02,-6.710617244243621826e-02,-1.219958364963531494e-01,1.123441010713577271e-01,7.755253929644823074e-03,-1.078456789255142212e-01,-1.197198703885078430e-01,-3.856525197625160217e-02,9.251010417938232422e-02,-5.063342861831188202e-03,-3.207633271813392639e-02,-1.252771019935607910e-01,8.177202194929122925e-02,7.078391313552856445e-02,-7.368388772010803223e-02,-7.715924084186553955e-02,4.921191558241844177e-02,2.454635221511125565e-03,4.567379504442214966e-02,-8.906283974647521973e-02,-2.156366966664791107e-02,-1.683039963245391846e-02,2.490036934614181519e-02,-5.109975859522819519e-02,1.073973253369331360e-01,1.034311503171920776e-01,1.613201349973678589e-01,1.527546942234039307e-01,-6.350676715373992920e-02,-2.249117344617843628e-01,-1.423786021769046783e-02,-4.042644426226615906e-02,1.128960475325584412e-01,1.226922404021024704e-02,-1.857074648141860962e-01,-1.385963410139083862e-01,-9.700351208448410034e-02,3.145545721054077148e-02,1.675713956356048584e-01,-5.384648963809013367e-02,-1.162074971944093704e-03,-2.043599039316177368e-01,3.155427402816712856e-04,6.600133329629898071e-02,-7.153773307800292969e-02,7.904929667711257935e-02,-1.474255919456481934e-01,5.998581647872924805e-02,-4.241387359797954559e-03,-5.753399804234504700e-02,-1.636645942926406860e-02,7.723830640316009521e-02,-2.741019986569881439e-02,-1.194409057497978210e-01,-1.898737847805023193e-01,3.801523521542549133e-02,4.092852398753166199e-02,-1.045600399374961853e-01,-2.097561061382293701e-01,-1.568586230278015137e-01,-8.460457623004913330e-02,-7.404049392789602280e-03,-9.213557094335556030e-02,-1.324892491102218628e-01,-1.749989688396453857e-01,3.769486770033836365e-02,-1.247881203889846802e-01,-9.747800417244434357e-03,-8.163941651582717896e-02,-8.303409814834594727e-02,4.882401973009109497e-02,-1.590269431471824646e-02,-1.628381386399269104e-02,4.908871278166770935e-02,4.130171984434127808e-02,7.678660750389099121e-02,1.049703434109687805e-01,1.634617298841476440e-01,-2.599744871258735657e-02,-1.429669260978698730e-01,-8.673963695764541626e-02,1.196437627077102661e-01,3.079201281070709229e-01,1.112265605479478836e-02,-1.129561811685562134e-01,-7.667726278305053711e-02,5.339155346155166626e-02,2.266336977481842041e-01,4.717918485403060913e-02,-1.745726317167282104e-01,4.205718170851469040e-03,3.723311424255371094e-02,1.290863007307052612e-01,-2.642759121954441071e-02,-4.456271976232528687e-02,1.268246620893478394e-01,-3.776851668953895569e-02,-1.649654842913150787e-02,2.271031960844993591e-02,1.666589826345443726e-02,1.310989856719970703e-01
-1.412588804960250854e-01,-1.385619044303894043e-01,5.018468573689460754e-02,3.981003537774085999e-03,7.166891545057296753e-02,-5.470833554863929749e-02,-7.779630273580551147e-02,1.109726503491401672e-01,1.690628826618194580e-01,1.672417111694812775e-02,-1.779697686433792114e-01,8.755420148372650146e-02,2.718175351619720459e-01,8.818733692169189453e-02,-1.766883581876754761e-01,-1.329293996095657349e-01,1.845940947532653809e-01,1.898635625839233398e-01,-1.361111551523208618e-01,-1.822313666343688965e-01,1.234206110239028931e-01,2.767793536186218262e-01,-7.372870575636625290e-03,-1.162875816226005554e-01,-1.168576404452323914e-01,-9.493179619312286377e-03,-1.517252177000045776e-01,-1.168350949883460999e-01,-3.758102282881736755e-02,1.080640181899070740e-01,-9.884145110845565796e-02,-3.732513263821601868e-02,7.732114195823669434e-02,-4.574638325721025467e-03,-1.007768809795379639e-01,-8.249028027057647705e-02,8.470819145441055298e-02,1.321769207715988159e-01,9.535959362983703613e-02,-1.515093445777893066e-02,-5.227341782301664352e-03,8.855460584163665771e-02,1.812371052801609039e-02,-4.990905150771141052e-02,-1.443294882774353027e-01,4.387164488434791565e-02,1.109636425971984863e-01,1.241811662912368774e-01,-9.962327778339385986e-02,-2.316144527867436409e-03,-3.992308676242828369e-02,-5.160666257143020630e-02,2.389457263052463531e-02,-2.774191321805119514e-03,6.479034572839736938e-02,1.619748771190643311e-02,-1.372208353132009506e-03,-6.685116887092590332e-02,4.177932441234588623e-02,1.055528447031974792e-01,-9.328018873929977417e-03,-6.594543159008026123e-02,7.776982337236404419e-02,1.059613600373268127e-01,-4.949113354086875916e-02,-1.130541488528251648e-01,4.239128902554512024e-02,5.792204290628433228e-02,1.304514855146408081e-01,-5.327352136373519897e-02,-4.003186523914337158e-02,-3.787141293287277222e-02,-1.324250735342502594e-02,-3.038683533668518066e-02,-3.715841844677925110e-02,-3.989298269152641296e-02,-1.570707410573959351e-01,-1.267116814851760864e-01,2.358713187277317047e-02,2.140708640217781067e-02,-6.407235562801361084e-02,-1.358996927738189697e-01,-8.192778378725051880e-02,-8.451243489980697632e-02,-2.686191909015178680e-02,-5.633935332298278809e-02,-9.494914114475250244e-02,3.114251606166362762e-02,-7.097839564085006714e-02,-1.011977493762969971e-01,-8.371224254369735718e-02,-1.198821514844894409e-01,-1.094586625695228577e-01,4.552290961146354675e-02,-1.061477065086364746e-01,-9.361815452575683594e-02,-1.502320766448974609e-01,6.936350464820861816e-02,-4.882905259728431702e-02,-6.103878468275070190e-02,-2.645187266170978546e-02,-1.074489653110504150e-01,-8.100599050521850586e-03,9.250078001059591770e-04,3.499639406800270081e-02,-4.749927297234535217e-02,-3.643567115068435669e-02,1.028557773679494858e-02,-8.473811298608779907e-02,-4.818978160619735718e-02,-2.459873445332050323e-02,-6.193561479449272156e-02,-7.918258756399154663e-02,-9.944280609488487244e-03,5.111982300877571106e-02,-2.816685102880001068e-02,3.793084621429443359e-02,-3.151103854179382324e-02,5.511875078082084656e-02,-4.740274045616388321e-03,-4.267866164445877075e-02,2.034005150198936462e-02,2.837248705327510834e-02,3.962503280490636826e-03,-9.394095093011856079e-02,-1.478794068098068237e-01,-1.313195228576660156e-01,-1.164179742336273193e-01,-1.383269205689430237e-03,1.300816833972930908e-01,-1.286246627569198608e-01,-7.756501436233520508e-02,4.636526107788085938e-02,1.004407927393913269e-01,-3.835933655500411987e-02,-1.808729469776153564e-01,-2.304052002727985382e-02,1.351469010114669800e-01,-1.197963953018188477e-02,-1.330997794866561890e-01,-1.242220029234886169e-01,1.445496827363967896e-01,1.774671375751495361e-01,4.481860622763633728e-02,-1.880989223718643188e-01,2.726082317531108856e-02,1.127662062644958496e-01,1.472115218639373779e-01,-3.801772370934486389e-02,-1.876612752676010132e-01
-1.087033748626708984e-02,-2.220937609672546387e-02,6.568209081888198853e-02,8.590069413185119629e-02,1.041745301336050034e-02,-9.197746962308883667e-02,-6.126208230853080750e-02,3.405500203371047974e-02,1.634426414966583252e-01,-7.145040482282638550e-02,-2.126495540142059326e-01,-2.737028300762176514e-01,2.135402336716651917e-02,8.876256644725799561e-02,-2.528427839279174805e-01,-1.094689294695854187e-01,-3.784325346350669861e-02,3.269533812999725342e-02,9.578357636928558350e-02,-2.592253088951110840e-01,1.202615648508071899e-01,3.742380812764167786e-02,-7.225600630044937134e-02,9.484278410673141479e-02,-1.874858438968658447e-01,-2.637625113129615784e-02,5.856504291296005249e-02,5.002859979867935181e-02,6.259059160947799683e-02,-1.359381899237632751e-02,5.208155140280723572e-02,5.407461151480674744e-02,1.044030413031578064e-01,6.132877990603446960e-02,4.990741983056068420e-02,-1.228677108883857727e-01,-1.338641196489334106e-01,-1.590192876756191254e-02,1.302754282951354980e-01,1.880757510662078857e-02,-1.180358156561851501e-01,-1.957304924726486206e-01,1.355599425733089447e-02,4.521667584776878357e-02,-3.189867734909057617e-02,2.260531112551689148e-02,1.343271043151617050e-02,-3.743270039558410645e-02,7.014074176549911499e-02,-7.047401368618011475e-02,-3.550869971513748169e-02,3.828616812825202942e-02,-8.119916915893554688e-02,-3.951558098196983337e-02,1.404485553503036499e-01,1.972416043281555176e-02,7.692474126815795898e-02,-1.816077530384063721e-02,-8.918430656194686890e-02,3.792336210608482361e-02,-1.466242875903844833e-02,-8.413041383028030396e-02,-4.164710268378257751e-02,-1.269242353737354279e-02,-2.466916106641292572e-02,1.866680011153221130e-02,-5.939657613635063171e-02,-9.872046113014221191e-02,-6.126043573021888733e-02,2.801639214158058167e-02,-8.356365561485290527e-02,-4.829457774758338928e-02,-5.859810858964920044e-02,-9.466177970170974731e-02,4.625679552555084229e-02,8.995365351438522339e-02,7.868947088718414307e-02,2.267832122743129730e-02,7.493963837623596191e-02,1.711131818592548370e-02,2.478593215346336365e-02,-1.225714907050132751e-01,3.295256756246089935e-03,1.478598862886428833e-01,4.737642034888267517e-02,-1.392289996147155762e-01,-9.992137551307678223e-02,-1.201178282499313354e-01,1.066317111253738403e-01,9.044446051120758057e-02,-4.505857080221176147e-02,-5.843837559223175049e-02,-1.693488359451293945e-01,8.110092580318450928e-02,1.594277769327163696e-01,-3.714142367243766785e-02,-1.049331948161125183e-01,-2.934524975717067719e-02,-6.428577005863189697e-02,9.002436697483062744e-02,-5.495318025350570679e-02,-6.464853882789611816e-02,2.558197826147079468e-02,-1.071466431021690369e-01,-1.693288534879684448e-01,-3.659497946500778198e-02,-1.504465378820896149e-02,5.630194768309593201e-02,-1.535513252019882202e-02,-1.308543235063552856e-01,9.809802286326885223e-03,-7.798494398593902588e-02,6.704428046941757202e-02,-4.056252911686897278e-02,-4.498112946748733521e-02,5.758708342909812927e-02,3.317237272858619690e-02,6.380786001682281494e-02,7.968076318502426147e-02,4.361491277813911438e-02,-1.122122332453727722e-01,-1.093620657920837402e-01,-2.187869325280189514e-02,1.372603606432676315e-02,1.073779687285423279e-01,-3.931946679949760437e-02,7.980050519108772278e-03,1.098591387271881104e-01,2.040158361196517944e-01,4.972864687442779541e-02,-8.898167312145233154e-02,-3.531480208039283752e-02,1.687874943017959595e-01,6.356335431337356567e-02,4.682647809386253357e-02,-2.087265998125076294e-01,-2.047811001539230347e-01,2.170927450060844421e-02,1.749700009822845459e-01,1.736768521368503571e-02,-1.847354173660278320e-01,-2.355782687664031982e-01,-4.492665082216262817e-02,2.019781768321990967e-01,-1.843387074768543243e-02,-8.486807346343994141e-02,-2.529324591159820557e-02,-9.826716035604476929e-02,8.531516045331954956e-02,-1.787298023700714111e-01
8.296945132315158844e-03,5.733051151037216187e-02,2.842446556314826012e-03,-1.941801905632019043e-01,-4.506775364279747009e-02,1.009235754609107971e-01,1.151382774114608765e-01,-5.510517954826354980e-02,-1.942716687917709351e-01,-1.072745695710182190e-01,2.518906630575656891e-02,-1.521123200654983521e-02,-5.610837787389755249e-02,2.328209020197391510e-02,7.347342371940612793e-02,5.294921621680259705e-02,-2.578415162861347198e-02,5.690655484795570374e-02,1.712229996919631958e-01,1.537763327360153198e-01,1.802738569676876068e-02,9.198758006095886230e-02,1.604081541299819946e-01,1.618308722972869873e-01,1.403030455112457275e-01,-1.792078092694282532e-02,1.240443736314773560e-01,8.845265954732894897e-02,-1.209337860345840454e-01,-2.128632180392742157e-02,4.453042894601821899e-02,9.538708627223968506e-02,-8.862040936946868896e-02,-9.538328647613525391e-02,-1.087900772690773010e-01,-1.480236556380987167e-02,3.053392469882965088e-02,-6.852673739194869995e-02,-1.301355361938476562e-01,-6.792981922626495361e-02,-1.031761616468429565e-01,-1.026209294795989990e-01,-1.412282288074493408e-01,-1.056413054466247559e-01,-3.147393465042114258e-02,-1.189030986279249191e-02,-4.428086429834365845e-02,3.368136659264564514e-02,-1.140934694558382034e-02,1.344823390245437622e-01,2.993753924965858459e-02,4.564803466200828552e-02,1.048442125320434570e-01,-3.511890023946762085e-02,-7.385724037885665894e-02,2.339697815477848053e-02,5.729648098349571228e-02,9.748150408267974854e-02,-7.776913791894912720e-02,-1.034815758466720581e-01,-3.464541584253311157e-02,3.111723344773054123e-03,5.011174827814102173e-02,1.388465519994497299e-02,1.179248187690973282e-02,-8.334634825587272644e-03,1.996312849223613739e-02,-6.532451510429382324e-02,1.620595529675483704e-02,-1.679599471390247345e-02,-5.950963124632835388e-03,-5.126440897583961487e-02,-4.783357493579387665e-03,3.955049812793731689e-02,-1.875229924917221069e-02,8.433636277914047241e-02,4.003848135471343994e-02,4.351754859089851379e-02,-1.443663537502288818e-01,-3.373652324080467224e-02,3.072986751794815063e-02,1.367590483278036118e-02,-7.527705281972885132e-02,-1.273185610771179199e-01,-6.601324677467346191e-02,-9.722428768873214722e-02,-1.371456533670425415e-01,-1.103523150086402893e-01,-1.623935997486114502e-01,-8.957605063915252686e-02,-5.606366321444511414e-02,2.239668555557727814e-02,5.628754571080207825e-02,-6.766346748918294907e-03,9.796919673681259155e-02,1.002276241779327393e-01,2.759501338005065918e-02,-1.726323855109512806e-03,1.207853946834802628e-02,8.012855052947998047e-02,-4.211091250181198120e-02,1.586862653493881226e-02,5.123913660645484924e-02,-2.632020413875579834e-02,7.283055037260055542e-02,-3.571769222617149353e-02,4.433399438858032227e-02,5.114611610770225525e-02,-8.736011385917663574e-02,-1.213622689247131348e-01,-2.903229929506778717e-02,6.604731827974319458e-02,-5.328862927854061127e-03,-7.096403092145919800e-02,2.972080372273921967e-02,-1.322954311035573483e-03,-8.809532038867473602e-03,-8.283915370702743530e-02,-4.361962433904409409e-03,-3.628922998905181885e-02,1.509856898337602615e-02,4.516251385211944580e-02,-9.305166453123092651e-02,-3.935972228646278381e-02,-3.402825072407722473e-02,2.529737353324890137e-02,1.658692508935928345e-01,2.112529799342155457e-02,-1.334701478481292725e-01,-7.119236886501312256e-02,3.216122463345527649e-02,3.893119096755981445e-02,-7.378803193569183350e-02,-1.389773637056350708e-01,-6.352231651544570923e-02,1.602970622479915619e-02,-1.268771290779113770e-01,-2.102178782224655151e-01,-1.993828415870666504e-01,-4.905997589230537415e-02,-1.167757064104080200e-01,-1.351337432861328125e-01,-1.621367186307907104e-01,6.350868847221136093e-03,8.520816266536712646e-02,-5.496078729629516602e-02,8.298559486865997314e-02,6.005091592669487000e-02,1.731525212526321411e-01,1.234007775783538818e-01
-1.731017380952835083e-01,-8.818000555038452148e-02,8.208806067705154419e-02,7.814660668373107910e-02,2.376037277281284332e-02,-5.029853060841560364e-02,-8.866789191961288452e-02,-5.535879731178283691e-02,-1.475349366664886475e-01,-1.650071144104003906e-01,1.812958717346191406e-02,2.119729295372962952e-03,-1.140661239624023438e-01,-8.741880208253860474e-02,-5.376086011528968811e-02,-6.389077007770538330e-02,-3.244986385107040405e-02,1.097623780369758606e-01,1.885293424129486084e-01,8.868474513292312622e-02,1.208524703979492188e-01,2.699624281376600266e-03,1.935822330415248871e-02,-2.758484520018100739e-02,-9.186932444572448730e-02,-1.297498047351837158e-01,-7.454031612724065781e-03,8.519694092683494091e-04,9.647826105356216431e-02,3.359448164701461792e-02,-1.507212519645690918e-01,-1.283512711524963379e-01,-4.292281717061996460e-02,-1.061260001733899117e-03,-2.399013563990592957e-02,2.151741832494735718e-02,-1.269971281290054321e-01,-2.132896184921264648e-01,-1.657927036285400391e-01,-5.533840507268905640e-02,1.009724214673042297e-01,1.644378341734409332e-02,2.023639529943466187e-02,-1.162429340183734894e-02,-7.132768630981445312e-02,1.243800446391105652e-01,9.173596650362014771e-02,5.113649647682905197e-03,6.958436965942382812e-02,1.156535968184471130e-01,-4.749529063701629639e-02,-6.935993582010269165e-02,-2.694125287234783173e-02,-1.924054324626922607e-02,1.587096974253654480e-02,4.158959910273551941e-02,-1.213090121746063232e-01,-9.183865040540695190e-02,-4.027295392006635666e-03,6.179037317633628845e-02,-2.125568501651287079e-02,-7.259703427553176880e-02,6.129901856184005737e-03,-8.621978014707565308e-02,-5.408077314496040344e-02,-1.080118957906961441e-02,-8.355132490396499634e-02,-8.654366247355937958e-03,-3.875258937478065491e-02,8.953059464693069458e-02,6.030974164605140686e-02,-4.036107566207647324e-03,1.013495177030563354e-01,-2.681871317327022552e-02,4.988493397831916809e-02,-8.516358584165573120e-02,-1.569465696811676025e-01,-2.953242138028144836e-02,1.356579661369323730e-01,9.967358782887458801e-03,4.469829797744750977e-02,-1.007963493466377258e-01,-1.775796711444854736e-01,-8.190978318452835083e-02,1.040934305638074875e-02,1.867696046829223633e-01,-3.612063126638531685e-03,-7.214690744876861572e-02,-9.808412939310073853e-02,-4.829950258135795593e-02,2.003196924924850464e-01,2.516370713710784912e-01,2.604981362819671631e-01,1.171204149723052979e-01,-3.673088923096656799e-02,1.797427237033843994e-01,1.659247577190399170e-01,1.303456425666809082e-01,1.495311688631772995e-02,1.926249079406261444e-02,-6.259585171937942505e-02,-5.838975682854652405e-02,1.117352843284606934e-01,8.050394803285598755e-02,4.053858667612075806e-02,-8.676140010356903076e-02,9.096580557525157928e-03,9.630492329597473145e-02,1.888552159070968628e-01,1.428806483745574951e-01,-3.220286965370178223e-02,-8.730438351631164551e-02,8.024339377880096436e-02,1.056014820933341980e-01,9.870474040508270264e-02,1.761610954999923706e-01,1.363019049167633057e-01,2.743039093911647797e-02,-2.188804000616073608e-02,-5.072008073329925537e-02,1.099712252616882324e-01,3.167247027158737183e-02,4.168686270713806152e-02,5.434275418519973755e-02,9.424908459186553955e-02,-1.788782179355621338e-01,-2.220176756381988525e-01,-2.776530571281909943e-02,1.538661569356918335e-01,1.572325080633163452e-01,-1.603582352399826050e-01,-2.249833494424819946e-01,-1.715054502710700035e-03,4.315192997455596924e-02,2.369929663836956024e-02,-3.359388187527656555e-02,-2.181472480297088623e-01,-2.777218520641326904e-01,-2.610616683959960938e-01,-1.188437640666961670e-01,1.179260686039924622e-01,6.782552599906921387e-02,-2.480466105043888092e-02,-6.717951595783233643e-02,9.401232935488224030e-03,2.188142091035842896e-01,1.448218375444412231e-01,1.807951778173446655e-01,2.119884043931961060e-01,9.033030271530151367e-02
7.464212924242019653e-02,5.238459259271621704e-02,1.230053454637527466e-01,-5.020290613174438477e-02,-1.849251538515090942e-01,-1.050084754824638367e-01,6.354618817567825317e-03,-5.780357867479324341e-02,1.148182898759841919e-01,4.244030639529228210e-02,-1.213997527956962585e-01,-1.397603750228881836e-01,-1.194875165820121765e-01,-9.249510616064071655e-02,-9.661608934402465820e-02,-7.613437622785568237e-02,-2.298246175050735474e-01,-1.044878289103507996e-01,-1.234389021992683411e-01,-8.229250460863113403e-02,1.332147568464279175e-01,1.088975593447685242e-01,7.850541174411773682e-02,1.125031262636184692e-01,6.584930419921875000e-02,-1.243448164314031601e-02,-7.384829968214035034e-02,-1.046322435140609741e-01,-9.937146306037902832e-02,-7.320587337017059326e-02,-6.133967265486717224e-02,1.661842763423919678e-01,1.024276316165924072e-01,3.940537944436073303e-02,-3.191701695322990417e-02,-7.302478700876235962e-02,7.106481119990348816e-03,1.302505284547805786e-01,1.835701167583465576e-01,8.900812268257141113e-02,-9.724578820168972015e-03,-8.369319885969161987e-02,-1.097740754485130310e-01,-1.693299785256385803e-02,5.775903165340423584e-02,-9.076754003763198853e-02,-5.049840733408927917e-02,-7.304956763982772827e-02,-1.073928624391555786e-01,-2.811006829142570496e-02,-6.189389154314994812e-02,1.770311221480369568e-02,-3.151703160256147385e-03,-3.093554452061653137e-02,-3.352436423301696777e-02,-6.733990460634231567e-02,-5.672547966241836548e-02,4.277142882347106934e-02,-3.649259358644485474e-02,3.554675960913300514e-03,3.390165045857429504e-02,-7.589896209537982941e-03,4.893789440393447876e-02,-4.841217771172523499e-02,8.026003837585449219e-02,5.202002078294754028e-02,6.976047158241271973e-02,-2.417102456092834473e-02,-7.495565712451934814e-02,-3.157075867056846619e-02,-3.388467058539390564e-02,7.254584226757287979e-03,6.917170435190200806e-02,5.878764018416404724e-02,6.915639340877532959e-02,2.695400640368461609e-02,1.978273540735244751e-01,5.471339449286460876e-02,-7.005736231803894043e-02,-1.464371532201766968e-01,-6.770050525665283203e-02,1.796058863401412964e-01,2.507916092872619629e-01,3.009389340877532959e-01,9.270405769348144531e-02,-9.084506332874298096e-02,-2.466002479195594788e-02,1.612542867660522461e-01,4.023693799972534180e-01,2.022952586412429810e-01,-7.356992363929748535e-02,-1.509977970272302628e-02,-1.770561039447784424e-01,3.285613283514976501e-02,1.103263348340988159e-01,-2.418795600533485413e-02,9.116958826780319214e-02,7.234996301122009754e-04,-8.274537324905395508e-02,4.259610548615455627e-02,3.879299759864807129e-02,3.151490353047847748e-03,-1.519773006439208984e-01,-3.873068466782569885e-02,1.216834597289562225e-02,1.875185519456863403e-01,9.534149616956710815e-02,1.147750318050384521e-01,-9.269858896732330322e-02,-2.825242094695568085e-02,6.423998624086380005e-02,1.555756479501724243e-01,3.036535382270812988e-01,2.768057882785797119e-01,1.030314192175865173e-01,-3.407504409551620483e-02,-5.146760120987892151e-02,1.384996175765991211e-01,2.703866958618164062e-01,2.162105143070220947e-01,-3.766573965549468994e-02,-5.923241749405860901e-02,-3.693605959415435791e-02,-7.154950499534606934e-02,-1.639509201049804688e-02,2.150646969676017761e-02,-3.179049864411354065e-02,-1.811698675155639648e-01,-1.841625273227691650e-01,-8.938314765691757202e-02,1.088682189583778381e-02,1.605100035667419434e-01,-3.995997365564107895e-03,-6.719801574945449829e-02,-5.944010242819786072e-02,-3.675463050603866577e-02,-2.505816332995891571e-02,1.814965754747390747e-01,1.626014709472656250e-01,3.159720078110694885e-02,-1.735214293003082275e-01,-1.695507615804672241e-01,-7.034685462713241577e-02,1.533487141132354736e-01,1.847280003130435944e-02,-1.003643423318862915e-01,-1.129458770155906677e-01,-1.311068385839462280e-01,-3.917833045125007629e-02,-7.965289056301116943e-02
-7.999462075531482697e-03,-1.137061715126037598e-01,-6.466282159090042114e-02,2.032696641981601715e-02,1.011585295200347900e-01,1.763500086963176727e-02,-2.156682014465332031e-01,3.597000613808631897e-02,2.873337566852569580e-01,1.822450011968612671e-02,-1.885971985757350922e-02,-2.829441614449024200e-02,2.186973392963409424e-01,1.510777920484542847e-01,-3.548799157142639160e-01,-3.038432076573371887e-02,-2.606174349784851074e-02,1.339839547872543335e-01,-7.974669337272644043e-03,-2.145140469074249268e-01,-1.388314366340637207e-01,-5.050453916192054749e-02,-5.343225225806236267e-02,-1.802908480167388916e-01,-1.097244918346405029e-01,-6.520585715770721436e-02,5.461253970861434937e-02,8.824583142995834351e-02,1.666333228349685669e-01,6.671225279569625854e-02,-6.307598203420639038e-02,-1.009814143180847168e-01,1.009338125586509705e-01,8.192567154765129089e-03,-2.980422042310237885e-02,-5.662423372268676758e-02,-5.165081843733787537e-02,1.059986650943756104e-01,1.504032611846923828e-01,-1.359414458274841309e-01,2.218390349298715591e-03,3.173825889825820923e-02,3.408170491456985474e-02,9.565974771976470947e-02,-1.073355153203010559e-01,-9.640423813834786415e-04,6.958357989788055420e-02,1.878990046679973602e-02,-7.891194522380828857e-02,-2.186308614909648895e-02,-4.296864569187164307e-02,7.154181599617004395e-02,1.918648928403854370e-02,-2.622598968446254730e-02,1.335494965314865112e-01,6.309898942708969116e-02,-1.215576827526092529e-01,-2.699558250606060028e-02,1.187665089964866638e-01,1.105434298515319824e-01,-2.168607711791992188e-02,-2.474053390324115753e-02,2.165770623832941055e-03,-3.271861467510461807e-03,1.251892372965812683e-02,-4.896999150514602661e-02,2.569644711911678314e-03,5.547184869647026062e-02,6.382715422660112381e-03,-9.691400825977325439e-02,-2.470228262245655060e-02,2.676888555288314819e-02,1.959970407187938690e-02,-9.196203202009201050e-02,6.032780930399894714e-02,-1.021144688129425049e-01,-5.154256895184516907e-02,-8.490706235170364380e-02,1.794359683990478516e-01,1.456941068172454834e-01,-4.887718334794044495e-02,-1.141330599784851074e-01,-4.627655074000358582e-02,3.284646570682525635e-02,-4.443018138408660889e-02,6.391140166670084000e-03,-6.386882811784744263e-02,-9.062809497117996216e-02,1.082180961966514587e-01,1.186239644885063171e-01,-8.465790003538131714e-02,-1.081051155924797058e-01,-4.150790348649024963e-02,1.889263540506362915e-01,1.518327891826629639e-01,-9.268818795680999756e-02,-3.429149463772773743e-02,4.878756031394004822e-02,1.224484741687774658e-01,-7.916660606861114502e-02,1.547432318329811096e-02,5.394994467496871948e-02,-2.367921173572540283e-02,-7.798478752374649048e-02,-1.290635168552398682e-01,-6.988008320331573486e-02,3.493188321590423584e-02,-1.432053446769714355e-01,-1.830358207225799561e-01,-1.536630690097808838e-01,-3.894559666514396667e-02,-1.493056416511535645e-01,-9.695968031883239746e-02,-8.921203017234802246e-02,-1.697956211864948273e-02,-3.766220062971115112e-02,-1.228746119886636734e-02,-1.258994638919830322e-01,-1.835230737924575806e-01,-1.500337421894073486e-01,-3.100284188985824585e-02,5.113277956843376160e-02,2.911694906651973724e-02,-5.676678195595741272e-02,-6.102951709181070328e-03,3.954176604747772217e-02,1.042246967554092407e-01,2.991507574915885925e-02,1.598292142152786255e-01,1.139409765601158142e-01,-7.841441780328750610e-03,-1.223386898636817932e-01,9.955205768346786499e-02,1.310777366161346436e-01,2.709364891052246094e-02,-6.808833568356931210e-04,3.164732083678245544e-02,1.893851011991500854e-01,8.451076596975326538e-02,-2.313262224197387695e-01,2.829303406178951263e-02,1.097282394766807556e-01,7.163260877132415771e-02,6.954295933246612549e-02,-1.618357151746749878e-01,-1.964461803436279297e-02,-7.168533653020858765e-02,2.911121211946010590e-02,-3.607553662732243538e-05,-1.399781852960586548e-01
1.364763975143432617e-01,1.891893148422241211e-02,-1.850223392248153687e-01,7.368826773017644882e-03,1.475774347782135010e-01,1.038475409150123596e-01,2.206952720880508423e-01,3.284442722797393799e-01,3.598940968513488770e-01,2.384480834007263184e-01,-1.622740030288696289e-01,-6.230415776371955872e-02,4.010619595646858215e-03,-3.527142480015754700e-02,-2.928416728973388672e-01,-2.048190385103225708e-01,-2.812973856925964355e-01,-3.105795979499816895e-01,-3.047620952129364014e-01,-6.299144122749567032e-03,-5.732090398669242859e-02,2.222183346748352051e-02,9.574539959430694580e-03,1.996871531009674072e-01,5.284356325864791870e-02,-8.340974897146224976e-02,9.371347725391387939e-03,-6.186500936746597290e-02,-1.270344853401184082e-01,-1.709141535684466362e-03,7.219306379556655884e-02,-8.775490522384643555e-02,-2.148640155792236328e-02,-3.033603914082050323e-02,1.041373983025550842e-01,1.248902305960655212e-01,7.841777801513671875e-02,1.830624639987945557e-01,1.776648759841918945e-01,-3.001849353313446045e-02,-6.158792600035667419e-02,-3.636094555258750916e-02,-1.142850727774202824e-03,-1.812617778778076172e-01,-8.616909384727478027e-02,-1.063951030373573303e-01,-1.480736583471298218e-01,-1.463283598423004150e-01,-1.077268272638320923e-01,-8.889222145080566406e-02,-3.675194829702377319e-02,3.218408301472663879e-02,-7.144280523061752319e-02,-1.174056157469749451e-01,-3.311967104673385620e-02,4.540299624204635620e-02,5.925482884049415588e-02,-4.786613583564758301e-02,8.630306273698806763e-02,1.635445654392242432e-01,-4.484901204705238342e-02,1.555732339620590210e-01,1.382174938917160034e-01,1.323201358318328857e-01,9.229216724634170532e-02,-3.644783794879913330e-02,-3.512681648135185242e-02,-6.679855287075042725e-02,-9.967544674873352051e-02,-1.158058345317840576e-01,-1.744167320430278778e-02,-9.827514737844467163e-02,-3.632531687617301941e-02,-2.561917901039123535e-02,-3.198363992851227522e-04,-9.515245258808135986e-02,-1.251635253429412842e-01,-1.411453187465667725e-01,7.179860025644302368e-02,-2.500685490667819977e-02,1.770525127649307251e-01,1.925867646932601929e-01,2.306757718324661255e-01,1.295077949762344360e-01,-2.450734749436378479e-02,7.170238345861434937e-02,1.647550165653228760e-01,-2.572342287749052048e-03,-1.520629227161407471e-01,-1.404157876968383789e-01,-9.872504323720932007e-02,8.518184535205364227e-03,2.183124423027038574e-02,5.095279216766357422e-02,1.273988280445337296e-02,5.097706988453865051e-02,1.029128879308700562e-01,1.137874424457550049e-01,-2.680912800133228302e-02,-3.821412846446037292e-02,-1.161348307505249977e-03,8.035035803914070129e-03,-9.800254367291927338e-03,1.887792535126209259e-02,3.916855901479721069e-02,-9.144742786884307861e-02,-1.415911167860031128e-01,-5.760689079761505127e-02,-1.560474634170532227e-01,-5.012541264295578003e-02,1.099842116236686707e-01,7.646033167839050293e-02,6.515930593013763428e-02,7.728407531976699829e-02,6.653660535812377930e-02,1.851534694433212280e-01,1.336302310228347778e-01,2.623637318611145020e-01,2.243020087480545044e-01,9.983700513839721680e-02,-1.264571398496627808e-01,-9.976670145988464355e-02,-1.495488584041595459e-01,-9.826792031526565552e-02,-2.310161478817462921e-02,-7.783423643559217453e-03,-1.406181752681732178e-01,-8.931028097867965698e-02,-1.568093299865722656e-01,-7.777936011552810669e-02,6.182998418807983398e-02,2.235601656138896942e-02,1.228816583752632141e-01,1.904460787773132324e-01,1.491055637598037720e-01,1.001580804586410522e-02,2.536052279174327850e-02,1.989522874355316162e-01,6.148793920874595642e-02,-1.159646660089492798e-01,-8.816736191511154175e-02,-1.213918998837471008e-01,-1.245664432644844055e-01,-1.363723427057266235e-01,-1.568277627229690552e-01,-2.853697910904884338e-02,-2.043424695730209351e-01,-1.656981557607650757e-01,1.686014793813228607e-02,-8.432754129171371460e-02
3.246434405446052551e-02,-1.076099351048469543e-01,8.812185376882553101e-02,1.377496421337127686e-01,-4.206852987408638000e-02,-5.952888354659080505e-02,-4.070037975907325745e-02,-1.137201040983200073e-01,1.378763094544410706e-02,-1.325597912073135376e-01,3.870908170938491821e-02,-7.331288605928421021e-02,-9.659919887781143188e-02,1.191329862922430038e-02,-4.762446507811546326e-02,5.650684237480163574e-02,3.422207757830619812e-02,1.283498853445053101e-01,5.289312079548835754e-02,1.347422748804092407e-01,6.827206164598464966e-02,5.264559015631675720e-02,-2.407027781009674072e-02,1.507373899221420288e-02,-3.519262000918388367e-02,2.319398522377014160e-02,3.051717393100261688e-02,-6.484553962945938110e-02,1.211007460951805115e-01,7.532005012035369873e-02,-7.662706077098846436e-02,-8.890353888273239136e-02,2.935621142387390137e-02,3.445780277252197266e-02,1.854360476136207581e-02,-7.040719687938690186e-02,-7.502664625644683838e-02,-6.475197616964578629e-03,4.595558345317840576e-02,-6.546361744403839111e-02,2.268154732882976532e-02,4.553654044866561890e-02,-4.599661007523536682e-02,8.975348621606826782e-02,3.335293009877204895e-02,6.780937314033508301e-02,3.675823286175727844e-02,6.584767252206802368e-02,1.256477236747741699e-01,3.936186060309410095e-02,5.130705609917640686e-02,-4.300161823630332947e-02,-3.223355486989021301e-02,-5.842719599604606628e-02,-4.285983741283416748e-02,-2.794346027076244354e-02,-1.235891133546829224e-03,-8.463478833436965942e-02,-9.038211777806282043e-03,-1.779689081013202667e-02,-3.007772192358970642e-02,2.311846986413002014e-02,-2.688983082771301270e-02,-4.568615928292274475e-02,-6.295040249824523926e-02,3.585145995020866394e-02,-7.043738663196563721e-02,-5.458993092179298401e-02,-6.040130183100700378e-02,-4.128756746649742126e-02,3.033289499580860138e-02,1.088055819272994995e-01,8.422091603279113770e-02,2.012525498867034912e-02,-2.107804827392101288e-02,-6.398326158523559570e-02,-2.380561456084251404e-02,-7.106322795152664185e-02,7.723543047904968262e-02,-5.190649256110191345e-02,3.588009625673294067e-02,-1.103728339076042175e-01,-1.007343530654907227e-01,4.455682635307312012e-02,-1.466482225805521011e-02,-8.749900758266448975e-02,-6.017906591296195984e-02,-1.699595944955945015e-03,-8.760796859860420227e-03,-9.201756119728088379e-02,3.180129453539848328e-02,5.528113618493080139e-02,1.518199890851974487e-01,6.470911949872970581e-02,8.710263669490814209e-02,-3.989720344543457031e-02,-7.564885914325714111e-02,-1.003950485028326511e-03,3.010193631052970886e-02,-4.795236885547637939e-02,-4.652286320924758911e-02,-5.553087685257196426e-03,2.134487964212894440e-02,1.344955898821353912e-02,5.074265226721763611e-02,3.636322915554046631e-02,-3.587346151471138000e-02,6.865181028842926025e-02,-3.587656654417514801e-03,-6.866023689508438110e-02,-3.963345196098089218e-03,-8.734720759093761444e-03,1.318229362368583679e-02,3.756411001086235046e-02,-6.685695797204971313e-02,-3.581646084785461426e-02,-8.835422247648239136e-02,-9.674356132745742798e-02,-1.141414642333984375e-01,-8.408793061971664429e-02,-2.171252481639385223e-02,6.733522564172744751e-02,6.730265170335769653e-02,-1.537091936916112900e-02,3.016651608049869537e-02,-8.983795344829559326e-02,-5.924499779939651489e-02,-2.290204539895057678e-02,8.527475595474243164e-02,-3.792630881071090698e-02,-9.618309885263442993e-02,-1.300723757594823837e-02,7.288654893636703491e-02,-1.785837858915328979e-02,-6.509410589933395386e-02,-9.148440510034561157e-02,-1.403678953647613525e-01,-9.562778472900390625e-02,-1.092844605445861816e-01,-1.062397211790084839e-01,7.218590378761291504e-02,3.070376999676227570e-02,-2.635979652404785156e-02,-3.361917659640312195e-02,3.863977268338203430e-02,-8.184968028217554092e-04,1.210980266332626343e-01,1.392206847667694092e-01,1.614337861537933350e-01,7.088188827037811279e-02
9.756878763437271118e-02,-1.659784093499183655e-02,2.576503902673721313e-02,-1.692110300064086914e-02,-1.166454423218965530e-02,1.112543120980262756e-01,-1.123241260647773743e-01,-1.423635426908731461e-02,8.071830868721008301e-02,1.075090467929840088e-01,2.639908716082572937e-02,-3.979936614632606506e-02,9.485051780939102173e-02,1.161274313926696777e-01,3.755708411335945129e-02,3.498134389519691467e-02,-3.561788424849510193e-02,-5.092553049325942993e-02,3.741568699479103088e-02,-5.875614657998085022e-02,-1.264809519052505493e-01,-1.886859685182571411e-01,-1.414740681648254395e-01,-1.322967559099197388e-01,-1.628929823637008667e-01,8.957998454570770264e-02,9.904505312442779541e-02,-1.355429738759994507e-02,4.936018586158752441e-02,-4.921465739607810974e-02,7.057065516710281372e-02,9.910377673804759979e-03,-4.442970082163810730e-02,-2.928739413619041443e-03,-2.024528104811906815e-03,-1.548366528004407883e-02,-5.019982531666755676e-02,2.756404131650924683e-02,-1.814382523298263550e-02,2.678223140537738800e-02,3.495609760284423828e-02,-4.905803501605987549e-02,1.546583417803049088e-02,-2.838694304227828979e-02,-1.005994975566864014e-01,1.779634505510330200e-02,4.644254967570304871e-02,1.279677357524633408e-02,-8.853416144847869873e-02,-7.085659354925155640e-02,1.917797885835170746e-02,4.796067997813224792e-02,-1.789082214236259460e-02,3.837895765900611877e-02,6.345804035663604736e-02,8.001023903489112854e-03,2.223945781588554382e-02,1.670595142059028149e-03,8.693275600671768188e-02,8.468693494796752930e-02,4.741566628217697144e-02,3.942349180579185486e-02,-6.980571430176496506e-03,9.371930360794067383e-02,1.133173480629920959e-01,-7.574892044067382812e-02,6.253511458635330200e-02,2.220161259174346924e-02,1.104204654693603516e-01,5.382681265473365784e-02,-6.293738633394241333e-02,2.837335132062435150e-02,3.476592525839805603e-02,2.464355528354644775e-02,-4.379331320524215698e-02,3.949190676212310791e-02,9.945043921470642090e-02,2.718719281256198883e-02,9.816671162843704224e-02,3.062834218144416809e-02,-2.688864432275295258e-02,3.937465604394674301e-03,2.153605595231056213e-02,2.219895645976066589e-02,1.157523412257432938e-02,-1.639443635940551758e-02,1.500159800052642822e-01,3.038546070456504822e-02,8.049929887056350708e-02,-1.208458244800567627e-01,6.400433927774429321e-02,7.501704245805740356e-02,3.214296698570251465e-02,2.805857174098491669e-02,-9.396862238645553589e-02,5.734035000205039978e-02,-5.216911435127258301e-02,-1.323931366205215454e-01,-1.525547653436660767e-01,-1.106929108500480652e-01,-3.356028720736503601e-02,4.146499931812286377e-02,-7.045248895883560181e-02,5.179190263152122498e-02,5.867467820644378662e-02,-3.869904950261116028e-02,-2.404595911502838135e-02,1.569825783371925354e-02,1.157159171998500824e-02,3.886039182543754578e-02,-7.094120234251022339e-02,-9.047962725162506104e-02,3.550039976835250854e-02,-5.431300029158592224e-02,-8.151305466890335083e-02,-3.708867356181144714e-02,-3.444758802652359009e-02,5.371949076652526855e-02,8.616712689399719238e-02,-3.837366402149200439e-02,3.693358600139617920e-02,-1.096779946237802505e-03,9.926585853099822998e-02,1.157205626368522644e-01,-6.518752127885818481e-02,-3.190045803785324097e-02,3.944188728928565979e-02,-2.852359227836132050e-02,-2.259208448231220245e-02,3.555349633097648621e-02,3.908778727054595947e-02,-4.203900322318077087e-02,-1.751470379531383514e-02,5.876726936548948288e-03,-3.143827244639396667e-02,-6.033478304743766785e-02,7.700464129447937012e-02,1.209970936179161072e-01,9.508065134286880493e-02,6.573466211557388306e-02,-8.487979322671890259e-02,-4.669960588216781616e-02,6.245530024170875549e-02,2.774312533438205719e-02,-3.468645736575126648e-02,-1.095674484968185425e-01,-7.980871200561523438e-02,-3.619405627250671387e-02,-1.492904424667358398e-01,-2.356749773025512695e-01
-1.029807031154632568e-01,-3.649726137518882751e-02,-1.573257520794868469e-02,2.107442542910575867e-02,1.073356065899133682e-02,1.142274588346481323e-01,4.705508425831794739e-02,3.391486825421452522e-03,9.217565506696701050e-02,3.410678729414939880e-02,-8.430664311163127422e-04,6.234759464859962463e-02,-7.660917192697525024e-02,-4.809917137026786804e-02,-1.283385418355464935e-02,4.033648595213890076e-02,-1.549066882580518723e-02,-2.423285394906997681e-01,-2.373109944164752960e-02,1.085076853632926941e-01,-2.274626493453979492e-02,-8.244785666465759277e-02,-1.545066386461257935e-01,7.213608175516128540e-02,1.444963663816452026e-01,3.620323166251182556e-02,1.139373145997524261e-02,-3.157341852784156799e-02,-7.669862359762191772e-02,2.362100966274738312e-02,-3.750256262719631195e-03,3.597007319331169128e-02,4.768167808651924133e-02,-6.390051543712615967e-02,3.546882048249244690e-02,9.238567948341369629e-02,8.100692182779312134e-02,-1.148420795798301697e-01,-2.302084676921367645e-02,1.224018335342407227e-01,3.537142276763916016e-02,-1.000739634037017822e-03,-1.092709377408027649e-01,-1.833570539020001888e-03,9.285093098878860474e-02,6.851446628570556641e-02,2.212740294635295868e-02,-7.185710221529006958e-02,7.883085869252681732e-03,1.642976999282836914e-01,1.234742812812328339e-02,1.949300058186054230e-02,1.663396321237087250e-02,-8.387778699398040771e-02,3.001886419951915741e-02,-6.466277875006198883e-03,1.864661648869514465e-02,3.068541176617145538e-03,-6.754410266876220703e-02,-4.022550955414772034e-02,2.836071886122226715e-02,2.277170680463314056e-02,2.435235539451241493e-03,-6.125129386782646179e-02,-2.209228277206420898e-02,4.184324294328689575e-03,-5.412925407290458679e-02,-1.388804428279399872e-02,-1.189397200942039490e-01,-1.520437933504581451e-02,6.867497414350509644e-02,4.766876995563507080e-02,-1.600064709782600403e-02,-8.623392134904861450e-02,6.854915618896484375e-02,-2.242202125489711761e-02,2.260748762637376785e-03,-1.669226028025150299e-02,-3.904229402542114258e-02,-2.415773831307888031e-02,1.909493468701839447e-02,9.396427869796752930e-02,-8.463604003190994263e-02,1.876972429454326630e-02,3.810675814747810364e-02,2.171132899820804596e-02,2.675966732203960419e-02,-9.437026828527450562e-02,-7.524897903203964233e-02,1.173866018652915955e-01,-4.615686088800430298e-02,-2.109888195991516113e-02,-1.270245164632797241e-01,-3.786921501159667969e-02,1.752467006444931030e-01,-5.407602712512016296e-02,4.506189003586769104e-02,5.301021039485931396e-03,-1.225223317742347717e-01,9.269948303699493408e-02,-7.426547259092330933e-02,1.121364720165729523e-02,-6.926099956035614014e-02,3.707947582006454468e-02,-9.260186553001403809e-02,-9.194549173116683960e-02,-5.017864704132080078e-02,4.735426604747772217e-02,-4.159633442759513855e-02,-2.783269435167312622e-02,2.724655671045184135e-03,5.613994598388671875e-02,8.687234669923782349e-02,9.261500090360641479e-03,9.489658474922180176e-02,-5.816525593400001526e-02,-4.733756184577941895e-02,3.137622773647308350e-02,7.483766973018646240e-02,-4.273255541920661926e-02,6.547570973634719849e-02,5.431956425309181213e-02,2.738191001117229462e-02,-4.214517399668693542e-02,3.134058788418769836e-02,-1.156514436006546021e-01,-9.541506320238113403e-02,-4.686129465699195862e-02,-6.163921579718589783e-02,-5.069774389266967773e-02,5.449766665697097778e-02,-7.184705883264541626e-02,-6.229241937398910522e-02,6.564719229936599731e-02,7.053944282233715057e-03,5.461044982075691223e-02,-2.844946831464767456e-02,-1.042751967906951904e-01,1.000932976603507996e-01,2.774452418088912964e-02,1.560307852923870087e-02,5.321361497044563293e-02,-1.312537789344787598e-01,5.587361007928848267e-02,1.318034976720809937e-01,4.684293642640113831e-02,-7.763458788394927979e-02,-7.593791186809539795e-02,-4.450889304280281067e-02,6.860649585723876953e-02
-1.106836460530757904e-02,-1.667596697807312012e-01,-1.869104057550430298e-01,-2.346649318933486938e-01,8.823565207421779633e-03,-6.032261624932289124e-02,-6.517981737852096558e-02,6.200998555868864059e-03,2.098264098167419434e-01,2.594708800315856934e-01,-3.682480007410049438e-02,1.330388635396957397e-01,2.879941463470458984e-01,3.268787562847137451e-01,3.501592203974723816e-02,1.913502514362335205e-01,1.481733471155166626e-01,4.283069074153900146e-02,-2.276096194982528687e-01,-2.697669565677642822e-01,-4.611270129680633545e-02,-8.523178845643997192e-02,-2.370798140764236450e-01,-1.843981593847274780e-01,-1.112918928265571594e-01,-3.858118876814842224e-02,-2.823060378432273865e-02,-7.645165175199508667e-02,-3.039322607219219208e-02,3.765377029776573181e-02,-7.294323295354843140e-02,-9.499759972095489502e-02,-1.725893914699554443e-01,4.292757809162139893e-02,-2.585286833345890045e-02,-9.653250873088836670e-02,-1.702429493889212608e-03,-5.347695667296648026e-03,5.734366551041603088e-02,4.706792067736387253e-03,-3.134668618440628052e-02,9.733191877603530884e-02,1.475395858287811279e-01,1.596805825829505920e-02,-7.540993392467498779e-02,2.476041764020919800e-02,8.117185533046722412e-02,-1.123907789587974548e-01,-3.989349678158760071e-02,-3.476062044501304626e-02,-5.759064108133316040e-03,8.067011088132858276e-02,-5.953268334269523621e-02,2.348283305764198303e-02,7.620016578584909439e-03,-5.611497536301612854e-02,-1.274517029523849487e-01,-1.125249192118644714e-01,-7.746589183807373047e-02,8.178377896547317505e-02,-8.730176836252212524e-02,-1.182752102613449097e-01,9.365580230951309204e-02,1.883346736431121826e-01,1.664817482233047485e-01,-4.749679192900657654e-02,1.289185732603073120e-01,7.869726419448852539e-02,1.915145479142665863e-02,-3.972476348280906677e-02,1.023284643888473511e-01,4.187529161572456360e-02,-8.009340614080429077e-03,-7.461456209421157837e-02,-4.057413712143898010e-02,3.103929199278354645e-02,3.633167594671249390e-02,-1.319857090711593628e-01,-4.558444023132324219e-02,-7.724077254533767700e-02,2.364560402929782867e-02,-1.491131335496902466e-01,1.044186651706695557e-01,1.250663548707962036e-01,9.834346175193786621e-02,-1.557234767824411392e-02,1.801233738660812378e-01,6.042901054024696350e-02,-3.172056004405021667e-02,2.563746459782123566e-02,3.201180323958396912e-02,1.014085486531257629e-02,-1.184074953198432922e-01,6.679520756006240845e-02,9.022546559572219849e-02,1.829404756426811218e-02,-1.172357127070426941e-01,-8.720345795154571533e-03,7.555241882801055908e-02,-3.113288432359695435e-02,4.575625061988830566e-02,1.291958056390285492e-02,3.873468190431594849e-02,3.673454746603965759e-03,-1.033281092531979084e-03,7.168279029428958893e-03,1.234865710139274597e-01,9.684953838586807251e-03,-9.937550872564315796e-02,-8.590905368328094482e-02,-8.584522455930709839e-02,-4.249027743935585022e-02,-9.100525826215744019e-02,1.091592945158481598e-02,6.344519555568695068e-02,-1.209172904491424561e-01,-8.610547333955764771e-02,-3.710458427667617798e-02,1.006903946399688721e-01,1.791957467794418335e-01,-7.385157793760299683e-02,-2.097612945362925529e-03,8.895397931337356567e-02,5.729326978325843811e-02,4.304770380258560181e-02,-7.310435920953750610e-02,-1.874839514493942261e-02,-1.015695333480834961e-01,-1.948978453874588013e-01,-3.650551289319992065e-02,-4.269338026642799377e-02,-1.214211657643318176e-01,-3.471283614635467529e-02,8.052416145801544189e-02,2.178841233253479004e-01,-1.199066564440727234e-01,-4.212391376495361328e-02,7.696776837110519409e-02,2.502444684505462646e-01,1.211642995476722717e-01,2.002352178096771240e-01,2.372114956378936768e-01,1.630120277404785156e-01,-5.746902152895927429e-02,-2.061031162738800049e-01,9.366648644208908081e-02,5.004851147532463074e-02,-8.278528600931167603e-02,-1.882970780134201050e-01,-1.794794201850891113e-01
5.882107093930244446e-02,-2.069053240120410919e-02,-9.507802873849868774e-02,-1.050612032413482666e-01,-2.721245586872100830e-01,-9.325668215751647949e-02,1.363561488687992096e-03,9.442473948001861572e-02,1.072459891438484192e-01,-3.044574521481990814e-02,3.652964904904365540e-02,-1.892897859215736389e-02,9.232283383607864380e-02,1.132021471858024597e-02,-6.398567929863929749e-03,3.653913363814353943e-02,-1.757964491844177246e-02,8.330206386744976044e-03,4.989361763000488281e-02,-3.621371835470199585e-02,-9.776256978511810303e-02,-1.252873986959457397e-01,-2.294994331896305084e-02,-6.765288859605789185e-02,1.580720208585262299e-02,-2.661401033401489258e-02,-1.254494339227676392e-01,-1.471801847219467163e-01,-1.187959611415863037e-01,-9.713339060544967651e-02,4.880096763372421265e-02,4.835451487451791763e-03,6.657195091247558594e-02,4.126335307955741882e-02,-1.134438514709472656e-01,-1.618740148842334747e-02,4.755144566297531128e-02,-1.680344156920909882e-02,4.227823810651898384e-04,3.840140998363494873e-02,-8.683063089847564697e-03,9.822619706392288208e-02,-1.769494079053401947e-02,3.731520101428031921e-02,7.222390174865722656e-02,-2.640192396938800812e-03,2.766470192000269890e-03,-5.162855982780456543e-02,1.922695711255073547e-02,-6.335002928972244263e-02,-1.720228418707847595e-02,-9.818562865257263184e-02,-3.958304598927497864e-02,-1.099980846047401428e-01,-1.971996948122978210e-02,-5.279257893562316895e-02,3.103395551443099976e-02,-1.095938310027122498e-01,-8.748538792133331299e-02,-8.471281826496124268e-02,8.349983952939510345e-03,-4.508460313081741333e-02,-4.584885318763554096e-04,6.948722898960113525e-02,7.353727519512176514e-02,-7.586064189672470093e-02,-5.727621912956237793e-02,3.455283492803573608e-02,-1.498965662904083729e-03,4.938788339495658875e-02,6.313621252775192261e-02,-2.851239219307899475e-02,1.022100728005170822e-02,6.188752874732017517e-02,-4.341162741184234619e-02,5.246379226446151733e-02,7.876382023096084595e-02,-5.470757186412811279e-02,-1.410133838653564453e-01,-1.420658230781555176e-01,7.049761712551116943e-02,1.539014428853988647e-01,3.928057476878166199e-02,-1.913591101765632629e-02,-5.872118752449750900e-03,1.069408934563398361e-02,8.858280256390571594e-03,1.647756248712539673e-01,1.717669814825057983e-01,3.511898592114448547e-02,3.470248728990554810e-02,-4.802536964416503906e-02,-7.132244855165481567e-02,5.544289480894804001e-03,1.835595816373825073e-01,-7.258387655019760132e-02,4.245996475219726562e-02,6.003160029649734497e-02,-2.776779793202877045e-02,-9.355806559324264526e-02,3.016044758260250092e-02,-9.008906781673431396e-02,-6.388406455516815186e-02,2.230464667081832886e-02,8.528441190719604492e-02,-4.685135930776596069e-02,-8.965812623500823975e-03,-3.932617604732513428e-03,-7.064557075500488281e-02,-9.672166407108306885e-02,-1.712028309702873230e-02,1.436281353235244751e-01,1.417392641305923462e-01,8.155270665884017944e-02,6.554569117724895477e-03,-1.037987023591995239e-01,-8.878764510154724121e-02,-5.115264281630516052e-02,5.536193773150444031e-02,1.019445285201072693e-01,-3.866317495703697205e-02,6.412471830844879150e-02,7.396136643365025520e-04,-2.823634538799524307e-03,-2.929970622062683105e-02,4.586648568511009216e-02,-6.582356244325637817e-02,-1.232769787311553955e-01,-9.080757945775985718e-02,-1.667000651359558105e-01,1.149026900529861450e-01,9.174658358097076416e-02,5.718773603439331055e-02,-9.904809296131134033e-02,-6.147207692265510559e-02,6.747364252805709839e-02,5.485485121607780457e-02,1.917866468429565430e-01,1.366862505674362183e-01,5.443117022514343262e-02,6.165353953838348389e-02,9.729149192571640015e-02,3.984299302101135254e-02,2.638273686170578003e-02,7.656197994947433472e-02,6.085686385631561279e-02,5.725130811333656311e-02,4.083391278982162476e-02,-5.727924033999443054e-02,9.362354129552841187e-02
-6.893068552017211914e-02,6.822791416198015213e-03,-3.336220234632492065e-02,-5.497296154499053955e-02,-4.824590310454368591e-02,2.511494420468807220e-02,-7.008057832717895508e-02,-7.237005978822708130e-02,1.641870290040969849e-02,-2.497697621583938599e-02,6.086400151252746582e-02,-1.573181897401809692e-02,-5.734574422240257263e-02,-3.168598935008049011e-02,-3.938060998916625977e-02,-6.734278053045272827e-02,3.525226190686225891e-02,3.404549509286880493e-02,1.165029685944318771e-02,3.483458235859870911e-02,-3.151444718241691589e-02,-4.740556329488754272e-02,3.729758411645889282e-02,-2.190100587904453278e-02,4.315876215696334839e-02,2.624656446278095245e-02,-7.432030886411666870e-02,-9.438369423151016235e-03,-6.384604144841432571e-03,1.948084123432636261e-02,-6.934786681085824966e-03,6.732424348592758179e-02,6.185279041528701782e-02,-4.962207749485969543e-02,6.064963340759277344e-02,-6.100864708423614502e-02,-6.991459429264068604e-02,-3.712695464491844177e-02,-7.102938741445541382e-02,-5.604359880089759827e-02,9.813659824430942535e-03,-2.831426262855529785e-02,-6.785385310649871826e-02,5.072277411818504333e-02,2.262992039322853088e-02,-6.131483241915702820e-02,6.219317764043807983e-02,7.541786134243011475e-02,2.470348030328750610e-02,-6.396573781967163086e-02,3.328730911016464233e-02,7.851652801036834717e-02,-9.215823956765234470e-04,-6.168229877948760986e-02,5.878695845603942871e-02,-6.913997977972030640e-02,1.962758414447307587e-02,5.775253102183341980e-02,3.869318962097167969e-02,-3.647323697805404663e-02,1.952545531094074249e-02,-1.130516640841960907e-02,-1.397068705409765244e-02,3.363431245088577271e-02,-7.174262404441833496e-02,-5.419043824076652527e-02,-8.155078440904617310e-02,-7.189431786537170410e-02,-7.170799374580383301e-02,7.900253869593143463e-03,-1.096013374626636505e-02,-3.431854769587516785e-02,5.844181776046752930e-02,2.888210490345954895e-02,7.985161244869232178e-02,-3.713053092360496521e-02,1.207838859409093857e-02,-3.853777423501014709e-02,1.979791559278964996e-02,2.677829936146736145e-02,6.675203889608383179e-02,7.154627889394760132e-02,-6.778911501169204712e-02,-5.092718824744224548e-02,-1.859275437891483307e-02,1.518750656396150589e-02,-7.148408144712448120e-02,7.453230023384094238e-02,-5.978046730160713196e-02,-1.170577295124530792e-02,5.213483050465583801e-02,-2.358411252498626709e-02,7.283511757850646973e-02,-3.649512771517038345e-03,-1.651770435273647308e-02,-1.796357519924640656e-02,-5.239509791135787964e-02,-2.305081486701965332e-02,-2.287087589502334595e-02,4.513913299888372421e-04,6.436455994844436646e-03,7.709509227424860001e-03,-7.884791493415832520e-02,-7.635676115751266479e-02,-3.710084035992622375e-02,7.798142731189727783e-02,7.141515612602233887e-02,6.662612408399581909e-02,-5.750732030719518661e-03,-7.560499757528305054e-02,-7.298164291569264606e-06,5.771595612168312073e-02,2.489052340388298035e-02,-4.960926622152328491e-02,1.909440569579601288e-02,-7.714655995368957520e-02,-7.485315203666687012e-02,-7.934841513633728027e-02,-1.582720666192471981e-03,7.987329363822937012e-02,1.620746590197086334e-02,-7.761911302804946899e-02,-4.649118334054946899e-02,4.895748104900121689e-03,2.266693487763404846e-02,-8.070438355207443237e-02,6.145726144313812256e-02,-7.179357111454010010e-02,5.136362463235855103e-02,-4.988022893667221069e-02,-8.164644241333007812e-02,4.773823544383049011e-02,-6.816250085830688477e-02,-1.328518497757613659e-03,3.279793262481689453e-02,-2.727737091481685638e-02,-2.094894275069236755e-02,1.182690914720296860e-02,-3.251093626022338867e-02,4.964944347739219666e-02,8.611189201474189758e-03,2.379612624645233154e-02,-7.259490340948104858e-02,2.021061256527900696e-02,-3.249358385801315308e-02,7.276017963886260986e-02,-7.466784864664077759e-02,3.124619461596012115e-02,-4.190887510776519775e-02,-5.499712005257606506e-02
