3.198110032826662064e-03,4.056372493505477905e-02,4.014556482434272766e-02,-4.543418064713478088e-03,3.618070483207702637e-02,3.089814260601997375e-02,4.829927906394004822e-02,3.083313629031181335e-02,3.085158206522464752e-02,1.722557004541158676e-03,4.922245442867279053e-02,5.819942802190780640e-02,-1.905080117285251617e-02,4.024804383516311646e-02,-2.162773534655570984e-02,-5.398358777165412903e-02,-6.626285612583160400e-02,1.823893189430236816e-02,-1.308132559061050415e-01,-4.822301492094993591e-02,-3.328053653240203857e-02,3.022002428770065308e-02,-4.839336872100830078e-02,-5.564459133893251419e-03,9.758514910936355591e-02,-5.374180618673563004e-03,1.810286752879619598e-02,4.844804480671882629e-02,2.349912934005260468e-02,9.267346002161502838e-03,2.185248397290706635e-02,-5.376408994197845459e-02,3.438079962506890297e-03,-1.395604014396667480e-02,5.040377378463745117e-02,2.000843361020088196e-02,5.420109629631042480e-02,1.516324654221534729e-02,-4.924378171563148499e-02,1.027296707034111023e-01,8.140959590673446655e-02,1.164767369627952576e-01,-3.121699951589107513e-02,9.675797075033187866e-02,2.415874600410461426e-02,6.735897809267044067e-02,-5.471220612525939941e-02,-1.654100045561790466e-02,3.228811547160148621e-02,-7.922564633190631866e-03,1.457615103572607040e-02,4.975648224353790283e-02,1.351465564221143723e-02,-5.790648609399795532e-02,-5.401421338319778442e-02,3.860765369608998299e-03,3.297345340251922607e-02,4.677024111151695251e-02,-7.659310940653085709e-03,-1.899859122931957245e-02,-1.303864270448684692e-02,-3.668577596545219421e-02,6.008286401629447937e-02,2.181910723447799683e-02,1.090046111494302750e-02,1.221774728037416935e-03,-8.742874488234519958e-03,-5.878009367734193802e-03,-4.250457137823104858e-02,-3.934983909130096436e-02,6.832405924797058105e-02,4.930705949664115906e-02,5.219871178269386292e-02,-2.179993875324726105e-02,-2.968884259462356567e-02,-4.657763242721557617e-02,2.927650511264801025e-02,-3.110699355602264404e-02,7.065586280077695847e-03,-7.279244065284729004e-02,7.704621180891990662e-03,2.038969658315181732e-02,-1.376523636281490326e-02,2.484309487044811249e-02,2.453412674367427826e-02,-6.794948130846023560e-02,-2.595502883195877075e-02,-4.480754584074020386e-02,2.312794700264930725e-02,3.381089493632316589e-02,-9.832087904214859009e-03,-9.746691794134676456e-04,1.889716833829879761e-03,-6.463699042797088623e-02,-3.069648332893848419e-02,-4.731560498476028442e-02,3.312934190034866333e-02,-4.733903333544731140e-02,-7.770153880119323730e-02,-2.551406808197498322e-02,6.476613879203796387e-02,2.587694674730300903e-02,-8.665457367897033691e-02,-4.863847047090530396e-02,6.350214034318923950e-02,3.528521209955215454e-02,-8.118467032909393311e-02,1.302794832736253738e-02,-4.834600538015365601e-02,-6.285765767097473145e-02,-3.767668828368186951e-02,-1.023171283304691315e-02,-2.348363958299160004e-02,-1.006488874554634094e-01,-2.257647737860679626e-02,-5.492047965526580811e-02,-6.548146903514862061e-02,-5.883382260799407959e-02,-2.847464056685566902e-03,-7.217441685497760773e-03,8.587440848350524902e-02,8.347997441887855530e-03,-6.920951604843139648e-02,-2.350423298776149750e-02,5.092172324657440186e-02,-3.852092102169990540e-02,-1.855019852519035339e-02,4.358796402812004089e-03,-3.027379512786865234e-02,-7.900963537395000458e-03,1.109102591872215271e-01,1.279211640357971191e-01,-9.059329517185688019e-03,6.181840226054191589e-02,9.599241614341735840e-02,8.142067119479179382e-03,8.922781050205230713e-02,-9.323161095380783081e-02,5.971358343958854675e-02,2.111107669770717621e-02,5.914220213890075684e-02,5.092339962720870972e-02,3.718158230185508728e-02,-7.927542179822921753e-02,-8.331716060638427734e-02,-3.446886688470840454e-02,-6.199161708354949951e-02,-6.483223289251327515e-02,-2.886813133955001831e-02,-8.471034467220306396e-02,-8.639667928218841553e-02,-2.020505815744400024e-02,-2.537897042930126190e-02,-6.399634480476379395e-02,6.384653598070144653e-02,-2.805049344897270203e-02,5.996932461857795715e-02,3.460178896784782410e-02,-4.069876670837402344e-02,-9.612264111638069153e-03,3.080378286540508270e-02,6.170835718512535095e-02,-7.331908494234085083e-02,-1.354966894723474979e-03,9.258843027055263519e-03,-1.705542951822280884e-02,2.255368605256080627e-02,-4.234402626752853394e-02,2.924071252346038818e-02,-5.653140321373939514e-02,-5.404516309499740601e-02,-4.808816313743591309e-02,4.228122159838676453e-02,1.476901769638061523e-02,-2.733553200960159302e-02,-5.590346176177263260e-03,1.411740574985742569e-02,-5.604562535881996155e-02,-4.364718496799468994e-02,5.211819708347320557e-02,2.601170912384986877e-02,3.588729351758956909e-02,-4.852602630853652954e-02,1.512702088803052902e-02,6.443177908658981323e-02,-8.124311454594135284e-03,-2.967443130910396576e-02,5.854768678545951843e-03,6.571242958307266235e-02,2.892843820154666901e-02,5.940680950880050659e-02,6.500491499900817871e-02,-2.606035768985748291e-02,1.673814840614795685e-02,-1.302618719637393951e-02,4.859931766986846924e-02,5.051673576235771179e-02,7.341658324003219604e-02,2.184671757277101278e-04,3.837365424260497093e-03,-1.913190260529518127e-02,5.080408602952957153e-02,-2.025166526436805725e-02,-4.466404020786285400e-02,-5.395353958010673523e-02,-3.151532635092735291e-02,-3.290342539548873901e-02,2.092658169567584991e-02,-1.022923439741134644e-01,-5.925885587930679321e-02,-1.493571046739816666e-02,1.366360485553741455e-01,1.425248011946678162e-02,2.420752681791782379e-02,-1.037429794669151306e-01,-7.373707741498947144e-02,-1.151615288108587265e-02,-1.197577416896820068e-01,4.775999486446380615e-02,5.943558644503355026e-04,7.622031029313802719e-03,-2.043361961841583252e-02,-6.290578097105026245e-02,-5.152087286114692688e-02,1.276263501495122910e-02,-1.037473790347576141e-02,-5.736585706472396851e-02,-6.971656810492277145e-03,-3.688354045152664185e-02,1.599181443452835083e-02,2.264839783310890198e-02,-7.768746465444564819e-02,-9.367509745061397552e-03,-3.855289146304130554e-02,1.891207322478294373e-02,-2.140595391392707825e-02,5.831393599510192871e-02,-2.356901997700333595e-03,-4.676081612706184387e-02,-3.667034581303596497e-02,3.082354553043842316e-02,6.022794544696807861e-02,5.678290501236915588e-02,1.578559353947639465e-02,-2.480313926935195923e-02,-5.929921567440032959e-02,-6.116887181997299194e-02,-4.061948880553245544e-02,3.801491111516952515e-02,-4.549769684672355652e-03,-3.421464189887046814e-02,4.301590472459793091e-02,-2.875852771103382111e-02,-3.552033379673957825e-02,-5.985971540212631226e-02,7.933485176181420684e-05
3.423766931518912315e-03,-7.139267772436141968e-02,2.201891131699085236e-02,4.373239353299140930e-02,1.154185384511947632e-01,2.902250736951828003e-02,6.093270704150199890e-02,3.193556517362594604e-02,4.586223140358924866e-02,-4.934105649590492249e-02,7.005900144577026367e-03,4.231802653521299362e-03,-7.250528433360159397e-04,3.129404783248901367e-02,6.399786472320556641e-02,1.162809412926435471e-02,-2.046696655452251434e-02,-2.760125696659088135e-02,-6.441728025674819946e-02,-1.234247386455535889e-01,-2.591780759394168854e-02,7.321798056364059448e-02,1.612802036106586456e-02,-4.644223302602767944e-02,8.921188116073608398e-02,9.144596755504608154e-02,6.278504431247711182e-02,-7.358877453953027725e-03,7.288788259029388428e-02,-3.726673871278762817e-02,2.194126136600971222e-02,5.008430685847997665e-03,-1.020008418709039688e-02,4.457205533981323242e-02,1.351205110549926758e-01,1.798392683267593384e-01,4.732046648859977722e-02,-2.037204988300800323e-02,4.821912571787834167e-02,1.103549525141716003e-01,8.143050968647003174e-02,-8.405515551567077637e-02,4.840416461229324341e-02,-1.773589663207530975e-02,-9.015165269374847412e-03,8.878135122358798981e-03,2.875489741563796997e-02,2.698790840804576874e-02,3.852104395627975464e-02,-1.940054632723331451e-02,5.991603713482618332e-03,1.316736079752445221e-02,3.995459899306297302e-02,2.362407371401786804e-02,-7.333460450172424316e-02,2.722186408936977386e-02,8.971098065376281738e-02,6.354679167270660400e-02,3.239325806498527527e-02,-2.560783363878726959e-02,5.975380074232816696e-03,3.824124485254287720e-02,-7.933086156845092773e-02,-6.004086509346961975e-02,-5.327530205249786377e-02,-1.118404418230056763e-01,-2.741217613220214844e-02,3.358543291687965393e-02,-2.337143383920192719e-02,5.162055045366287231e-02,-5.072984099388122559e-02,3.646249696612358093e-02,5.562399700284004211e-02,6.179546564817428589e-02,7.544220983982086182e-02,8.894439088180661201e-04,-4.496936872601509094e-02,-1.287125516682863235e-02,-9.436596184968948364e-03,-4.241543821990489960e-03,-8.406997472047805786e-02,-2.573774196207523346e-02,-9.984172880649566650e-02,-1.292085796594619751e-01,-7.260450720787048340e-02,-6.349393725395202637e-02,-2.185739949345588684e-02,7.146714720875024796e-03,4.217267781496047974e-02,-4.449051618576049805e-02,2.459283731877803802e-02,-7.448340766131877899e-03,-5.823750048875808716e-02,-3.285523504018783569e-02,-1.547749713063240051e-02,-8.538928232155740261e-04,-7.117871195077896118e-02,2.260181307792663574e-02,-7.904440164566040039e-02,4.631842300295829773e-02,-2.167112566530704498e-02,-1.897840760648250580e-02,-6.959480047225952148e-02,-1.194243282079696655e-01,2.929211361333727837e-03,1.708180789137259126e-04,-2.887702547013759613e-02,-3.160628676414489746e-02,7.070088386535644531e-02,-1.586964540183544159e-02,-4.817592911422252655e-03,2.401015348732471466e-02,-6.822067499160766602e-02,-4.747640632558614016e-04,9.386868216097354889e-03,-4.816856607794761658e-02,7.321983575820922852e-02,1.525478810071945190e-01,5.456881970167160034e-02,-1.108614131808280945e-01,1.254937052726745605e-01,8.841008692979812622e-02,1.157334521412849426e-01,-4.420936480164527893e-02,2.810578048229217529e-02,-3.352303430438041687e-02,2.904497273266315460e-02,-5.607297644019126892e-02,-3.288034349679946899e-02,-6.656581163406372070e-02,-1.079753693193197250e-02,4.782854765653610229e-02,8.441406488418579102e-02,-6.050957832485437393e-03,8.882167935371398926e-02,1.670074313879013062e-01,5.234061926603317261e-02,1.759094558656215668e-02,4.115194827318191528e-02,-3.486992046236991882e-02,6.764303892850875854e-02,-3.431198000907897949e-02,-4.344181343913078308e-02,1.210761666297912598e-01,4.160883277654647827e-02,-7.561331242322921753e-02,-1.708888560533523560e-01,-1.011217087507247925e-01,-1.083319932222366333e-01,2.620851807296276093e-02,-2.547948679421097040e-04,-3.147111833095550537e-02,-6.661075353622436523e-02,6.764914095401763916e-02,8.984240889549255371e-02,1.050445623695850372e-02,8.130584657192230225e-02,6.308955699205398560e-02,-3.457132494077086449e-03,-5.154981091618537903e-02,-6.241862475872039795e-02,-7.473694533109664917e-02,-6.400361657142639160e-02,-2.016057819128036499e-02,-4.656640440225601196e-02,-6.960245221853256226e-02,2.037774398922920227e-02,1.578694768249988556e-02,7.039999961853027344e-02,8.970865048468112946e-03,6.453602761030197144e-02,-2.787528559565544128e-02,-1.738282479345798492e-02,-3.786205500364303589e-02,1.881690323352813721e-02,-2.282282523810863495e-02,-4.454194381833076477e-02,-4.989646747708320618e-02,-7.309111952781677246e-02,-3.582537174224853516e-02,-2.980919368565082550e-02,5.809756368398666382e-02,5.269555747509002686e-02,-1.674375846050679684e-03,-5.269690882414579391e-03,-8.146049454808235168e-03,-2.903607673943042755e-02,-3.976578637957572937e-02,-3.567289561033248901e-02,-7.540832739323377609e-03,-4.076265729963779449e-03,8.916711807250976562e-02,1.190699916332960129e-02,3.821582719683647156e-02,6.980066001415252686e-02,9.189982712268829346e-02,3.593401610851287842e-02,8.693408221006393433e-03,-1.871632225811481476e-02,-2.694086357951164246e-02,-7.077491376549005508e-03,4.853054508566856384e-02,-4.399876110255718231e-03,1.656751520931720734e-02,-3.248599171638488770e-02,2.623724564909934998e-02,2.546424791216850281e-02,5.403373390436172485e-02,8.108692616224288940e-02,-1.523843407630920410e-02,-1.161304041743278503e-01,-1.278652250766754150e-02,2.416588179767131805e-02,1.152862515300512314e-02,7.234107702970504761e-03,3.714897483587265015e-02,-4.455232620239257812e-02,-7.098633050918579102e-02,-4.099173843860626221e-02,-7.105098664760589600e-02,2.729133516550064087e-02,-7.470027357339859009e-02,-7.921076565980911255e-02,8.024813979864120483e-02,6.798587739467620850e-02,1.109636947512626648e-01,1.489935349673032761e-02,8.370818197727203369e-02,-9.880853444337844849e-02,1.491388073191046715e-03,-6.738948822021484375e-02,-9.304178506135940552e-02,4.622546024620532990e-03,-3.309015184640884399e-02,-9.231859445571899414e-02,-3.601400926709175110e-02,3.397793276235461235e-03,3.648076206445693970e-02,3.643456846475601196e-02,6.174092367291450500e-02,5.205008387565612793e-02,-2.075643651187419891e-02,-3.339390829205513000e-02,-1.274342834949493408e-02,-3.629246726632118225e-02,-5.536998063325881958e-02,-6.476852577179670334e-03,-2.759733179118484259e-04,4.537402465939521790e-02,6.068957224488258362e-02,4.322086274623870850e-02,-8.657965809106826782e-03,-4.905333742499351501e-03,4.713194444775581360e-02,-3.458852320909500122e-02,6.212477013468742371e-02
-5.816110596060752869e-02,-7.955885678529739380e-02,4.278036952018737793e-02,7.222136110067367554e-02,5.695848539471626282e-02,2.821512054651975632e-03,2.080319263041019440e-02,4.185095429420471191e-02,1.156497597694396973e-01,9.126006625592708588e-03,-3.055892512202262878e-02,-2.941674180328845978e-02,3.484382294118404388e-03,-2.139736339449882507e-02,-5.736411549150943756e-04,-6.513120979070663452e-02,7.453796267509460449e-02,6.898296624422073364e-02,-4.910448938608169556e-02,7.200809195637702942e-03,-6.028494983911514282e-02,5.467345565557479858e-02,1.286743301898241043e-02,-4.724082350730895996e-02,-4.167859908193349838e-03,1.100307703018188477e-01,1.395733654499053955e-01,1.138896793127059937e-01,-6.685826927423477173e-02,-4.330407455563545227e-02,-7.700203359127044678e-02,-1.590696163475513458e-02,-1.171000115573406219e-02,2.186220698058605194e-02,2.202616259455680847e-02,7.502950727939605713e-03,-4.230429977178573608e-02,-3.486867249011993408e-02,1.215419918298721313e-02,-9.956516325473785400e-03,-6.049917638301849365e-02,6.292755901813507080e-02,5.747613962739706039e-03,1.727657392621040344e-02,6.538061425089836121e-03,4.511785879731178284e-02,-3.373906714841723442e-03,-3.255341947078704834e-02,2.204580232501029968e-02,-6.072432547807693481e-02,-2.010953240096569061e-02,2.047520875930786133e-02,1.183636579662561417e-02,6.637752987444400787e-03,2.636655047535896301e-02,4.610405862331390381e-02,-3.769902139902114868e-02,2.624049596488475800e-02,-3.753629326820373535e-02,-2.197392471134662628e-02,-1.650159433484077454e-02,-5.428634583950042725e-02,-2.527071046642959118e-04,5.183564126491546631e-02,3.343901783227920532e-02,6.306783854961395264e-02,3.691595792770385742e-02,4.479404538869857788e-02,-4.199330881237983704e-02,-3.806315362453460693e-02,3.036945126950740814e-02,5.239016935229301453e-02,6.284633651375770569e-03,4.826917871832847595e-02,-5.822147242724895477e-03,-4.560052230954170227e-02,1.867528446018695831e-02,1.994019933044910431e-02,1.426426321268081665e-02,-2.374266460537910461e-02,-2.355100028216838837e-02,-5.619658529758453369e-02,-9.088786691427230835e-02,-6.718983501195907593e-02,-4.467686265707015991e-02,-5.125219374895095825e-02,4.264174401760101318e-02,4.149767011404037476e-02,-3.888227418065071106e-02,-2.066595666110515594e-02,-3.494100645184516907e-02,2.833223529160022736e-02,-3.732904419302940369e-02,-3.347043320536613464e-02,-1.362448092550039291e-02,-4.319722950458526611e-02,5.908189341425895691e-02,-3.877136483788490295e-02,-1.226523220539093018e-01,-1.094858124852180481e-01,3.184762224555015564e-02,4.638137295842170715e-02,-4.246908053755760193e-02,-2.922486327588558197e-02,7.747003808617591858e-03,-2.480596676468849182e-02,8.696889132261276245e-02,1.203572936356067657e-02,5.963158607482910156e-02,1.207622047513723373e-02,-5.767124146223068237e-02,-6.076543778181076050e-02,1.717703044414520264e-01,6.423963606357574463e-02,2.443942241370677948e-02,-2.199249714612960815e-02,-3.432180359959602356e-02,-3.239598497748374939e-02,-3.812268376350402832e-02,9.035686962306499481e-03,-6.354901194572448730e-02,6.195468828082084656e-02,5.475507304072380066e-02,-5.354699119925498962e-02,2.490825206041336060e-02,1.786249876022338867e-02,-1.362369675189256668e-02,5.125503614544868469e-02,-5.482756346464157104e-02,-5.541443079710006714e-02,8.388655632734298706e-02,8.319816552102565765e-03,1.230854075402021408e-02,5.686962231993675232e-02,2.817395888268947601e-02,-1.829503476619720459e-02,7.752817869186401367e-02,-5.248454213142395020e-02,-3.143174201250076294e-02,-5.253795534372329712e-03,-2.176290564239025116e-02,5.063021555542945862e-02,8.809553086757659912e-02,-5.898772180080413818e-02,8.592636138200759888e-02,1.518623344600200653e-02,-4.480295348912477493e-03,-5.108348652720451355e-02,3.371540829539299011e-02,2.200641483068466187e-02,-2.320642769336700439e-02,1.080466900020837784e-02,-3.825727850198745728e-02,2.391217462718486786e-02,5.810138210654258728e-02,9.944695979356765747e-02,-5.100178346037864685e-02,6.365960836410522461e-02,-3.505897149443626404e-02,9.337732195854187012e-02,3.389447927474975586e-02,-3.154243528842926025e-02,-1.502456143498420715e-02,-8.337163180112838745e-02,-3.810692951083183289e-02,2.675874531269073486e-02,1.229945453815162182e-03,6.073324009776115417e-03,6.255770474672317505e-02,-5.318550392985343933e-02,1.722488552331924438e-02,-5.280532315373420715e-02,2.436403743922710419e-02,-3.723587468266487122e-02,2.240400202572345734e-02,1.979674585163593292e-02,7.359606027603149414e-02,5.895898491144180298e-02,6.984979379922151566e-03,5.028921738266944885e-02,-5.766401812434196472e-02,-4.424332454800605774e-02,-2.376096509397029877e-02,-9.593045338988304138e-03,-1.738969050347805023e-02,-6.607545912265777588e-02,-4.625550657510757446e-02,1.577497832477092743e-02,5.716365575790405273e-02,1.660031080245971680e-02,9.166057221591472626e-03,3.958069160580635071e-02,-5.063450336456298828e-02,6.713705509901046753e-02,6.166835874319076538e-02,-3.703561425209045410e-02,5.170166864991188049e-02,-1.171601563692092896e-02,-3.119393251836299896e-02,-4.064366966485977173e-02,-1.568035595118999481e-02,3.850162029266357422e-02,-8.134004473686218262e-02,3.435410186648368835e-02,3.171613067388534546e-02,-4.989812523126602173e-02,-8.690014481544494629e-03,-2.601315639913082123e-02,-7.248181104660034180e-02,-9.664509445428848267e-02,-7.221126556396484375e-02,-1.178034953773021698e-02,1.043683663010597229e-02,3.914967924356460571e-02,-6.173930689692497253e-02,-4.339372739195823669e-02,1.154595762491226196e-01,2.594769932329654694e-02,4.130664840340614319e-02,5.342512205243110657e-02,-6.396474689245223999e-02,4.240179434418678284e-02,6.384705752134323120e-02,4.325072281062602997e-03,3.515772894024848938e-02,2.994891023263335228e-03,7.725041359663009644e-02,3.244394063949584961e-02,-3.153867647051811218e-02,-2.914983779191970825e-02,-1.031181737780570984e-01,-2.400699537247419357e-03,-3.387106209993362427e-02,-3.678224608302116394e-02,-2.619586698710918427e-02,2.909874543547630310e-02,-5.402589961886405945e-02,9.220468811690807343e-03,6.255697458982467651e-02,2.035331912338733673e-02,-2.991165779531002045e-02,-2.764530293643474579e-02,3.721809014678001404e-02,-4.607038572430610657e-02,1.223200187087059021e-02,1.766481995582580566e-02,1.621544361114501953e-02,5.062907561659812927e-02,-3.560006245970726013e-02,3.224385902285575867e-02,5.648993328213691711e-02,-2.188179455697536469e-02,4.213390499353408813e-02,5.363097041845321655e-02,-5.311257764697074890e-02,-3.396565560251474380e-03
3.406494855880737305e-03,2.396169677376747131e-02,-1.966181769967079163e-02,4.285991564393043518e-02,4.982872307300567627e-02,4.907906800508499146e-02,-5.444388091564178467e-02,8.578617870807647705e-02,5.271469801664352417e-02,-7.245477288961410522e-02,7.058290392160415649e-02,1.013608574867248535e-01,2.575946412980556488e-02,2.358151599764823914e-02,5.659378692507743835e-02,8.399520069360733032e-02,4.702175781130790710e-02,7.678149640560150146e-02,3.301385417580604553e-02,4.022546112537384033e-02,-5.594856338575482368e-04,-5.001174658536911011e-02,8.516140282154083252e-02,2.560259774327278137e-02,-1.727648451924324036e-02,-2.933466807007789612e-02,-1.355928927659988403e-01,-7.217004895210266113e-02,-2.835271134972572327e-02,6.341639906167984009e-02,3.513403609395027161e-02,-8.849275857210159302e-02,3.460955247282981873e-02,7.381998747587203979e-02,1.553853228688240051e-02,2.290430851280689240e-02,5.646112561225891113e-02,6.066269055008888245e-02,-3.126634517684578896e-03,-7.799672335386276245e-02,1.077156886458396912e-01,7.408032566308975220e-02,-9.849463403224945068e-02,2.227283641695976257e-02,-7.157707295846194029e-05,2.740145660936832428e-02,-1.610703580081462860e-02,5.230198055505752563e-02,1.673268899321556091e-02,-6.103245541453361511e-02,4.400059953331947327e-02,-6.192039698362350464e-02,-3.443361818790435791e-02,3.743924573063850403e-02,-6.792658567428588867e-02,-6.419581919908523560e-02,1.995902322232723236e-02,1.583036407828330994e-02,-5.922311171889305115e-02,5.116663500666618347e-02,-2.242977730929851532e-02,-4.913659393787384033e-02,2.513493224978446960e-02,5.783612374216318130e-03,4.394243285059928894e-02,1.476397830992937088e-02,-1.093491259962320328e-02,-3.501851856708526611e-02,1.982013322412967682e-02,-2.396309375762939453e-02,5.191654711961746216e-02,5.461133643984794617e-02,1.011737249791622162e-02,1.613840647041797638e-02,7.677975296974182129e-02,1.034696847200393677e-01,8.704312145709991455e-02,-5.270335823297500610e-02,-6.595960259437561035e-02,1.457393169403076172e-02,5.737978592514991760e-02,-2.323951199650764465e-02,7.611157745122909546e-02,-1.763015426695346832e-02,5.108186975121498108e-02,-1.595771685242652893e-02,-5.043467134237289429e-02,-7.440539449453353882e-02,4.027091339230537415e-02,-5.831665545701980591e-02,3.150948882102966309e-02,1.360945869237184525e-02,-5.223888903856277466e-02,-1.593721844255924225e-02,2.407662570476531982e-02,9.110105456784367561e-04,-1.781301945447921753e-02,5.353552848100662231e-02,3.410622850060462952e-02,5.240405723452568054e-02,3.716554120182991028e-02,-5.569214373826980591e-02,-1.093963310122489929e-01,-1.005227770656347275e-02,4.258588701486587524e-02,4.892767220735549927e-02,5.030152946710586548e-02,-8.540324866771697998e-02,-2.701882272958755493e-02,2.495837025344371796e-02,6.265038251876831055e-02,-1.659765839576721191e-02,-5.657137185335159302e-02,5.670848488807678223e-02,-4.207263141870498657e-02,-1.634709164500236511e-02,-7.669030874967575073e-02,-2.547381073236465454e-02,3.652671352028846741e-02,1.102408990263938904e-01,3.465849161148071289e-02,-1.099484786391258240e-01,-6.902963668107986450e-02,2.874885685741901398e-02,-4.550201818346977234e-02,2.786010317504405975e-02,-4.201682657003402710e-02,-1.793651655316352844e-02,1.461841631680727005e-02,-4.817495495080947876e-02,-3.126385435461997986e-02,8.944793045520782471e-02,5.884760990738868713e-02,7.413911074399948120e-02,-9.298939257860183716e-02,-4.024260118603706360e-02,1.771493256092071533e-02,-4.973059147596359253e-02,-7.330820895731449127e-03,2.816097997128963470e-02,9.285006672143936157e-03,3.449299558997154236e-02,3.947690874338150024e-02,7.232122123241424561e-02,-4.894326627254486084e-02,-7.510516047477722168e-02,-4.213734064251184464e-03,-1.739516109228134155e-02,-6.861887127161026001e-02,-6.472214311361312866e-02,1.919376850128173828e-02,3.490584343671798706e-02,3.985479474067687988e-02,-9.226573258638381958e-02,-8.383253216743469238e-02,-6.837683916091918945e-02,-4.944464936852455139e-02,-2.342803589999675751e-02,-4.614984989166259766e-02,2.218189463019371033e-02,3.578785061836242676e-02,-5.134462844580411911e-03,4.308341443538665771e-02,-2.292425930500030518e-02,2.264059148728847504e-04,-1.460071466863155365e-02,1.506112515926361084e-02,-6.685362756252288818e-02,2.514818683266639709e-02,1.030031964182853699e-02,-2.554439753293991089e-02,-4.268991202116012573e-02,7.240907847881317139e-02,-4.811452329158782959e-02,-3.624106990173459053e-03,-2.390552684664726257e-02,-3.273211047053337097e-02,-7.736778259277343750e-02,-7.959801703691482544e-03,1.293369941413402557e-02,-1.575056277215480804e-02,-2.383654564619064331e-02,-1.474701892584562302e-02,-1.948898890987038612e-03,9.113544598221778870e-03,3.665617853403091431e-02,2.322981692850589752e-02,-3.329798579216003418e-02,-2.181529439985752106e-02,1.136902719736099243e-02,1.222843211144208908e-02,-2.782422117888927460e-02,-2.227864414453506470e-02,3.310101479291915894e-02,2.888283692300319672e-02,5.416884645819664001e-02,6.747473776340484619e-02,4.279956594109535217e-02,7.971794903278350830e-02,7.565797120332717896e-02,3.491549566388130188e-02,-5.666316673159599304e-02,-3.599940985441207886e-02,-3.353954851627349854e-02,8.116452023386955261e-03,-4.407345131039619446e-02,3.836280480027198792e-02,-3.290387243032455444e-02,-1.073513329029083252e-01,-3.556959331035614014e-02,-4.012611228972673416e-03,3.929344564676284790e-02,2.741232141852378845e-02,-2.277849614620208740e-02,-9.141111373901367188e-02,-8.259353041648864746e-02,-9.141377359628677368e-02,-1.676124930381774902e-01,-5.722968652844429016e-02,-5.906131863594055176e-02,-1.898916624486446381e-02,3.122159466147422791e-02,7.689893245697021484e-02,-2.284729853272438049e-02,-3.441032767295837402e-02,6.206187605857849121e-02,-6.152306217700242996e-03,4.195398464798927307e-02,2.856847643852233887e-02,8.472207188606262207e-02,1.056184768676757812e-01,2.722487039864063263e-02,-1.948514580726623535e-02,-1.272512972354888916e-02,1.385351736098527908e-02,-5.992888659238815308e-02,5.150998756289482117e-02,1.282068085856735706e-03,-7.323130965232849121e-02,-1.402598526328802109e-02,4.146218672394752502e-02,-4.505605623126029968e-02,-3.515984863042831421e-03,-3.383038565516471863e-02,-3.462656587362289429e-02,5.071207135915756226e-02,-5.059316754341125488e-03,-9.162749163806438446e-03,3.882955387234687805e-02,-2.768884040415287018e-02,-3.385879844427108765e-02,-5.997412651777267456e-02,-4.230545833706855774e-02,-3.395819664001464844e-02,1.101506501436233521e-02,-5.509512126445770264e-02
3.141364722978323698e-04,5.201087333261966705e-03,-5.936979502439498901e-02,7.778318133205175400e-03,1.193884201347827911e-02,3.920005634427070618e-02,5.255741253495216370e-02,2.031968720257282257e-02,9.492458775639533997e-03,3.546207025647163391e-02,-2.896972373127937317e-02,-3.390113636851310730e-02,3.350809961557388306e-02,4.766453057527542114e-02,4.517611861228942871e-02,-3.646267578005790710e-02,-1.228460390120744705e-02,-2.255583880469202995e-03,-6.120495870709419250e-02,-1.124404184520244598e-02,5.909173935651779175e-02,-1.689816452562808990e-02,5.806288123130798340e-02,-3.053935430943965912e-02,-2.353252097964286804e-02,-5.571193993091583252e-02,2.897753193974494934e-02,6.119966879487037659e-02,-3.065079078078269958e-02,5.425540357828140259e-02,-1.684619300067424774e-02,-5.179059132933616638e-02,1.323949638754129410e-02,2.537084557116031647e-02,-3.698835894465446472e-02,-6.734752655029296875e-02,-3.443948552012443542e-02,-5.658229067921638489e-02,4.424640536308288574e-02,-3.143079578876495361e-02,-2.171780355274677277e-02,6.455813348293304443e-02,-1.689396426081657410e-02,-6.178570538759231567e-02,-4.193420335650444031e-02,-2.678132988512516022e-02,-4.305921494960784912e-02,-5.407644063234329224e-02,-2.593987248837947845e-02,-5.936409533023834229e-02,-3.871915116906166077e-02,-1.910714805126190186e-02,-5.018441751599311829e-02,-4.368132725358009338e-02,-5.339019466191530228e-03,-3.334383293986320496e-02,-8.728191256523132324e-03,-1.249496079981327057e-02,2.061889041215181351e-03,1.395571604371070862e-02,-5.316248163580894470e-02,-4.664940387010574341e-02,3.322718292474746704e-02,4.811595194041728973e-03,1.303855422884225845e-02,3.859347477555274963e-02,2.578925574198365211e-03,4.520588368177413940e-02,-3.523117676377296448e-02,-2.554531209170818329e-02,-5.593255907297134399e-02,6.296060979366302490e-02,-5.388909578323364258e-02,2.858754433691501617e-02,4.741698130965232849e-02,-5.287777259945869446e-02,1.597384363412857056e-02,1.949153095483779907e-02,1.085852365940809250e-02,-1.185328420251607895e-02,-2.237641252577304840e-02,-5.889481306076049805e-02,-2.839846909046173096e-02,-3.932400420308113098e-02,-2.972421608865261078e-02,-3.172387182712554932e-02,2.461665682494640350e-02,-7.105578552000224590e-04,-6.392593681812286377e-02,-9.978915564715862274e-03,5.780490115284919739e-02,2.208914607763290405e-02,-5.072299018502235413e-02,-2.084994688630104065e-02,-2.229097671806812286e-02,-2.785508334636688232e-02,4.185866564512252808e-02,4.464907944202423096e-02,5.446904152631759644e-02,4.050945490598678589e-02,-6.201970204710960388e-02,-5.129821598529815674e-02,-2.526122890412807465e-02,1.561813149601221085e-02,-1.069055753760039806e-03,4.182963073253631592e-02,-3.794167190790176392e-02,-5.416844412684440613e-02,-2.193798497319221497e-02,-3.949161991477012634e-02,6.059192866086959839e-02,2.928802371025085449e-02,3.331323340535163879e-02,3.481036052107810974e-02,2.172963693737983704e-02,-1.665040664374828339e-02,3.720802068710327148e-02,4.481594637036323547e-02,-3.671236708760261536e-02,-3.450446203351020813e-02,-5.804099515080451965e-02,3.569475561380386353e-02,1.809915713965892792e-02,3.603129088878631592e-02,5.270966142416000366e-02,-3.784876689314842224e-02,-5.926577001810073853e-02,-5.821489542722702026e-02,6.072734016925096512e-03,-5.191075801849365234e-02,-5.369286239147186279e-02,3.038880787789821625e-02,-2.827706281095743179e-03,-3.007341176271438599e-03,5.451461672782897949e-02,-2.397417463362216949e-02,3.716935589909553528e-02,-2.517867647111415863e-02,-1.785611361265182495e-02,9.686140343546867371e-03,-3.104223683476448059e-02,1.319163944572210312e-03,1.138153718784451485e-03,-1.168167218565940857e-03,2.051799558103084564e-02,2.024171873927116394e-02,5.682315677404403687e-02,-1.437546964734792709e-02,6.082884501665830612e-03,-1.235236134380102158e-02,-3.065743297338485718e-02,5.646670982241630554e-02,-1.188546046614646912e-02,-6.553505361080169678e-02,2.173922955989837646e-02,2.006219513714313507e-02,-6.210045889019966125e-02,2.151245623826980591e-02,3.093882650136947632e-02,-3.096777200698852539e-02,2.935810387134552002e-02,-3.878154605627059937e-02,-4.757390171289443970e-02,-1.904028840363025665e-02,1.159076113253831863e-02,-2.972485683858394623e-02,-6.000145897269248962e-02,-3.038332611322402954e-02,-4.074962064623832703e-02,4.202519729733467102e-02,4.032733291387557983e-02,1.305224094539880753e-02,-3.551748767495155334e-02,5.151052027940750122e-02,5.452091246843338013e-02,5.340779665857553482e-03,-9.765896014869213104e-03,2.394976466894149780e-02,1.197148207575082779e-02,5.180508643388748169e-02,-4.115684330463409424e-02,3.391414647921919823e-03,1.214093342423439026e-02,-3.844567015767097473e-02,-5.225421860814094543e-02,4.867391288280487061e-02,1.737978123128414154e-02,4.337504506111145020e-02,-4.951696842908859253e-02,-2.531133033335208893e-02,-3.437776491045951843e-02,-4.689763486385345459e-02,7.053288165479898453e-03,1.426168438047170639e-02,-2.296561188995838165e-02,-5.718738306313753128e-03,-3.201424330472946167e-02,4.115825146436691284e-02,-4.782563820481300354e-02,-3.475188091397285461e-02,-5.311379209160804749e-02,-4.767983779311180115e-02,-1.068051904439926147e-02,4.858691617846488953e-02,-4.455288872122764587e-02,3.161891922354698181e-02,3.208637982606887817e-02,-3.866412118077278137e-02,1.348366215825080872e-02,3.011034615337848663e-02,2.837108820676803589e-02,5.727000907063484192e-02,2.706960029900074005e-02,-2.652732841670513153e-02,3.111918270587921143e-02,-5.305906757712364197e-02,-5.560559034347534180e-02,-4.059982020407915115e-03,9.425397962331771851e-03,-5.552871525287628174e-02,8.529588580131530762e-03,-7.506041787564754486e-03,-6.286699324846267700e-02,4.550985619425773621e-02,1.697263680398464203e-02,-3.548897104337811470e-03,2.833275496959686279e-02,-5.184679105877876282e-02,5.746416747570037842e-02,-2.324648946523666382e-02,-4.341107606887817383e-02,-1.152515038847923279e-02,2.721393480896949768e-02,-8.696587756276130676e-03,-4.971032962203025818e-02,2.815823815762996674e-02,-3.781748563051223755e-02,4.711385071277618408e-02,-1.523360610008239746e-02,-3.967766836285591125e-02,3.675661608576774597e-02,-4.712058603763580322e-02,2.703264914453029633e-02,5.429453775286674500e-02,2.110024541616439819e-02,4.716750234365463257e-02,-7.489897310733795166e-03,4.879551753401756287e-02,1.130501925945281982e-02,-5.459357798099517822e-02,3.806884586811065674e-02,-4.790108650922775269e-02,-4.631770774722099304e-02,-6.162555515766143799e-02,3.982521593570709229e-02,-5.625017732381820679e-02
3.334580361843109131e-02,-1.391735859215259552e-02,-9.862147271633148193e-02,1.064974628388881683e-02,-2.355284988880157471e-03,-3.415778744965791702e-03,5.013037007302045822e-03,5.839932709932327271e-03,-9.618613868951797485e-03,7.944822311401367188e-02,7.000175863504409790e-02,4.381119832396507263e-02,-1.222795993089675903e-02,-2.543797157704830170e-02,-4.817981645464897156e-02,4.430605843663215637e-02,-5.302967131137847900e-02,2.088230568915605545e-03,1.692943088710308075e-02,-2.021528035402297974e-02,-6.676658987998962402e-02,-8.116651326417922974e-03,-2.319495007395744324e-02,4.057881422340869904e-03,-6.699363887310028076e-02,2.182370051741600037e-02,1.756820082664489746e-02,7.506015151739120483e-02,-3.525233268737792969e-02,7.755421102046966553e-02,6.334984302520751953e-02,5.291817244142293930e-03,1.909773424267768860e-02,1.509800460189580917e-02,-8.786533027887344360e-02,-7.966444641351699829e-02,-7.429065555334091187e-02,-1.273803319782018661e-02,1.324465870857238770e-02,6.112931296229362488e-02,2.544170245528221130e-02,2.022614330053329468e-02,1.117140147835016251e-02,-2.785509079694747925e-02,2.546616829931735992e-02,-3.578163683414459229e-02,-3.356412053108215332e-02,-1.238454878330230713e-01,3.540711477398872375e-02,2.338111400604248047e-02,6.391994655132293701e-02,-8.282899856567382812e-02,1.856700330972671509e-02,7.536912709474563599e-02,4.992559924721717834e-02,-4.129017703235149384e-03,-2.708582580089569092e-02,-2.278995467349886894e-03,3.488970454782247543e-03,-3.788058459758758545e-02,5.339359119534492493e-02,-1.620058901607990265e-02,4.168052971363067627e-02,3.089159354567527771e-02,-1.036116853356361389e-02,4.368636757135391235e-02,7.511300593614578247e-02,-2.317497879266738892e-02,-3.838703501969575882e-03,-3.753307089209556580e-02,-5.125137045979499817e-02,4.876860976219177246e-02,-7.711985707283020020e-02,-9.424929320812225342e-02,-2.245943434536457062e-02,-1.313037355430424213e-03,6.652750074863433838e-03,1.744814589619636536e-02,-1.754824817180633545e-02,6.370245665311813354e-02,-1.600629463791847229e-02,6.858924031257629395e-02,-2.778614312410354614e-02,-3.662914782762527466e-02,1.723035238683223724e-02,-3.136630356311798096e-02,-2.222326770424842834e-02,-1.167343836277723312e-02,1.475228182971477509e-02,-6.564198434352874756e-02,-4.432148113846778870e-02,7.606410235166549683e-02,-2.026153355836868286e-02,-3.841460496187210083e-02,2.457126043736934662e-02,-3.258484601974487305e-02,7.419520989060401917e-03,5.523780733346939087e-02,5.196394026279449463e-02,4.218699410557746887e-02,1.871834881603717804e-02,3.329373896121978760e-02,5.581032857298851013e-02,1.132558844983577728e-02,1.835374906659126282e-02,9.707920253276824951e-02,7.882975041866302490e-02,2.882012166082859039e-02,3.318652883172035217e-02,2.600978501141071320e-02,2.578014135360717773e-02,2.105574682354927063e-02,2.895405329763889313e-02,1.210174243897199631e-02,-4.636703804135322571e-02,7.430160790681838989e-02,-8.216264843940734863e-02,4.571002721786499023e-02,2.331628836691379547e-02,4.236315935850143433e-02,-1.209499239921569824e-01,5.502380896359682083e-03,-3.554828092455863953e-02,6.091204658150672913e-02,5.927903950214385986e-02,-1.409260369837284088e-02,1.294288877397775650e-02,2.881032973527908325e-02,-5.047997087240219116e-02,7.220484316349029541e-02,-4.354747384786605835e-02,-8.428078889846801758e-02,-1.197159290313720703e-01,-7.448379695415496826e-02,-9.610836952924728394e-02,-1.827121712267398834e-02,-1.851517445174977183e-04,5.005547776818275452e-02,3.111545927822589874e-02,-8.168390486389398575e-04,9.360771626234054565e-02,-4.974877834320068359e-02,-8.384341374039649963e-03,1.807543262839317322e-02,2.189394086599349976e-02,-1.962761022150516510e-02,-6.803278625011444092e-02,-8.963081985712051392e-02,3.834723029285669327e-03,4.758483171463012695e-02,-4.228451848030090332e-02,-7.260393351316452026e-02,-1.581983268260955811e-02,-6.039392203092575073e-02,-2.905261330306529999e-02,5.348935350775718689e-02,4.863171279430389404e-02,9.996546804904937744e-02,2.628149650990962982e-02,1.374150514602661133e-01,5.029308423399925232e-02,-2.118148282170295715e-02,-8.539284579455852509e-03,9.322822093963623047e-03,6.031934916973114014e-02,1.845058239996433258e-02,-3.618410602211952209e-02,7.234705844894051552e-04,-5.711562559008598328e-02,3.613540530204772949e-02,-3.906859084963798523e-02,5.999797955155372620e-02,3.828528104349970818e-03,-5.098693072795867920e-02,-2.229446172714233398e-02,-3.425248712301254272e-02,6.525521725416183472e-02,-1.553928479552268982e-02,3.983604162931442261e-02,-1.674237288534641266e-02,2.800132147967815399e-02,-1.561405975371599197e-02,-8.084182441234588623e-02,-4.940722137689590454e-02,-3.574093431234359741e-02,-2.595168910920619965e-02,-7.980968803167343140e-03,1.513378694653511047e-02,-2.609015675261616707e-03,8.507215231657028198e-02,3.665002807974815369e-02,3.959583118557929993e-02,-4.692985117435455322e-02,-3.160937875509262085e-02,-6.368111819028854370e-02,-3.571208566427230835e-02,1.101705804467201233e-02,2.530722878873348236e-02,5.992236081510782242e-03,4.350067675113677979e-02,4.054132848978042603e-03,1.524782180786132812e-02,-3.460440784692764282e-02,-1.650246442295610905e-03,-4.093417152762413025e-02,-7.910900563001632690e-02,8.999402634799480438e-03,-5.864945799112319946e-02,-4.346113279461860657e-02,-2.036238275468349457e-02,1.136764511466026306e-02,-1.258453875780105591e-01,3.746773675084114075e-02,3.526821499690413475e-03,-1.366352140903472900e-01,-1.116911098361015320e-01,7.590632885694503784e-02,-4.449088498950004578e-02,1.636489480733871460e-02,7.822170108556747437e-02,4.822428524494171143e-02,9.077137708663940430e-02,4.664708673954010010e-02,1.748319715261459351e-02,-7.325603067874908447e-02,-6.521855294704437256e-02,5.037331902713049203e-06,-1.073392573744058609e-02,-4.322960227727890015e-02,4.053240641951560974e-02,3.571134805679321289e-02,-3.521841764450073242e-02,6.401554495096206665e-02,6.163573637604713440e-02,-9.304731502197682858e-04,-3.461926802992820740e-02,7.321433164179325104e-03,3.040613373741507530e-03,2.596423588693141937e-02,3.138959780335426331e-02,-1.550004468299448490e-03,-3.955535963177680969e-02,-3.942489251494407654e-02,-4.857278615236282349e-02,2.482428587973117828e-02,-2.909740060567855835e-02,-3.907760977745056152e-02,3.300868719816207886e-02,1.448138896375894547e-02,-3.501111268997192383e-02,-2.076089568436145782e-02,3.387078270316123962e-02,-3.906174376606941223e-02,4.631161317229270935e-02,-2.580985892564058304e-03,-3.213166818022727966e-02
1.589776016771793365e-03,1.447498649358749390e-01,5.771481990814208984e-02,2.902722731232643127e-02,5.943944305181503296e-02,5.812159273773431778e-03,3.434619307518005371e-02,2.034960314631462097e-03,7.702360395342111588e-03,1.229897234588861465e-02,7.427881658077239990e-02,8.393623866140842438e-03,-5.369755625724792480e-02,-6.931395828723907471e-02,-7.102572917938232422e-02,-2.498443610966205597e-02,-6.708928197622299194e-02,-9.906195104122161865e-02,-2.792103402316570282e-02,-2.279026992619037628e-02,-1.365904510021209717e-01,-7.946828007698059082e-02,-1.023649889975786209e-02,-7.635831832885742188e-03,-6.601880490779876709e-02,3.967810422182083130e-02,1.467723995447158813e-01,9.749098122119903564e-02,-3.470528405159711838e-03,8.488024771213531494e-02,-1.322790421545505524e-02,1.395811699330806732e-02,-1.875608786940574646e-02,1.768899895250797272e-02,3.580040484666824341e-02,1.001384109258651733e-02,4.585023596882820129e-02,1.069032922387123108e-01,-2.530759200453758240e-02,-6.720397155731916428e-03,5.454633384943008423e-02,2.316039428114891052e-02,-2.354554366320371628e-03,-9.117671847343444824e-02,-1.145618967711925507e-02,5.928169563412666321e-02,-1.473575830459594727e-01,-1.088506430387496948e-01,-3.361800685524940491e-02,2.250505797564983368e-02,3.016454726457595825e-02,1.267600990831851959e-02,4.265519976615905762e-02,-9.731023572385311127e-03,6.117507070302963257e-02,-2.902363054454326630e-02,3.698780667036771774e-03,-1.930886320769786835e-02,-3.909556660801172256e-03,-4.760611429810523987e-02,-4.472539946436882019e-02,-5.172621831297874451e-02,-1.990043930709362030e-02,-1.494263065978884697e-03,-1.476767286658287048e-02,3.253146633505821228e-02,2.387562394142150879e-02,1.305058971047401428e-02,-7.007875293493270874e-02,-6.205261871218681335e-02,-5.378701910376548767e-02,-2.900442574173212051e-03,-2.120317146182060242e-02,-4.919483512639999390e-02,1.810203865170478821e-02,3.881222568452358246e-03,5.670323967933654785e-02,2.254749275743961334e-02,1.517941523343324661e-02,1.712536811828613281e-02,-2.200034447014331818e-02,2.551655517891049385e-03,-2.064578235149383545e-03,-1.659549400210380554e-02,7.316423207521438599e-02,7.046400010585784912e-02,-1.099704857915639877e-02,-4.614577919710427523e-04,-5.530475452542304993e-02,3.476728126406669617e-02,-3.942992165684700012e-02,1.508994959294795990e-02,-5.450660735368728638e-02,-4.950164631009101868e-02,-5.262811854481697083e-02,-4.752275720238685608e-02,5.843542143702507019e-02,6.588736176490783691e-02,5.246321670711040497e-03,-3.007151372730731964e-02,-1.896055601537227631e-02,6.151941418647766113e-02,6.773474812507629395e-02,8.792521804571151733e-02,-1.200724914669990540e-01,3.111968375742435455e-02,3.217989578843116760e-02,-2.672528661787509918e-02,-4.563905671238899231e-02,-7.187771797180175781e-02,6.456059962511062622e-02,1.073609944432973862e-02,-9.015623480081558228e-02,-7.657097280025482178e-02,-3.145082294940948486e-02,-6.295939534902572632e-02,-1.022046580910682678e-01,-1.217325329780578613e-01,2.128289826214313507e-02,-2.847657166421413422e-02,-9.334135800600051880e-02,2.525135502219200134e-02,4.817344248294830322e-02,6.063208356499671936e-02,2.496877685189247131e-02,4.612524434924125671e-02,6.447295844554901123e-02,4.580049216747283936e-02,-1.247464097104966640e-03,4.881740361452102661e-02,-1.131000535679049790e-04,-3.961698710918426514e-02,3.771776705980300903e-02,-3.402513638138771057e-02,1.026183417707215995e-05,-7.404800504446029663e-03,1.254434883594512939e-01,5.873430892825126648e-02,-1.014347001910209656e-01,3.708427026867866516e-02,5.529617145657539368e-02,-4.794791340827941895e-02,-6.251166760921478271e-02,5.756912007927894592e-02,-2.370472438633441925e-02,-6.292022764682769775e-02,-4.679406061768531799e-03,4.535603150725364685e-02,-5.976862087845802307e-02,5.877522751688957214e-02,-3.260215371847152710e-02,-5.662192776799201965e-02,1.110786385834217072e-02,-7.900481671094894409e-02,3.652919828891754150e-02,5.503037944436073303e-02,9.995946660637855530e-03,5.935735628008842468e-02,3.880988061428070068e-02,5.477407202124595642e-02,4.161825031042098999e-02,2.014611475169658661e-02,-4.703909903764724731e-02,-7.055542897433042526e-03,-1.011404395103454590e-02,5.910935252904891968e-02,2.833594568073749542e-02,-2.305833809077739716e-02,-8.457372896373271942e-03,-5.326609127223491669e-03,-3.921564668416976929e-02,6.759837269783020020e-02,6.512181833386421204e-03,3.331211209297180176e-02,-2.171321772038936615e-02,-1.549777388572692871e-02,-4.114304110407829285e-02,-2.466233819723129272e-02,1.673335582017898560e-02,2.118916064500808716e-02,-5.364365130662918091e-02,3.725378215312957764e-02,-8.770618587732315063e-02,-2.051885426044464111e-02,-1.287784776650369167e-03,4.618991166353225708e-02,3.913380205631256104e-03,6.225856021046638489e-03,-3.768446622416377068e-03,3.713414445519447327e-02,1.980203203856945038e-02,6.868660915642976761e-03,-3.116632252931594849e-02,-2.393752150237560272e-02,-6.915797013789415359e-03,-7.388667762279510498e-02,1.670880801975727081e-02,-4.760207235813140869e-02,2.338768728077411652e-02,4.243218898773193359e-02,3.708614036440849304e-02,-2.198230847716331482e-02,6.771477311849594116e-02,2.564612217247486115e-02,-3.690849244594573975e-02,-8.071178942918777466e-02,-5.603315308690071106e-03,-1.785623840987682343e-02,-1.509820967912673950e-01,-9.453723207116127014e-03,2.225000411272048950e-02,-7.426057755947113037e-02,3.347817435860633850e-02,8.101030439138412476e-02,-3.426211699843406677e-02,-5.721338093280792236e-02,4.192912578582763672e-02,6.153726205229759216e-02,6.882601976394653320e-02,5.834287032485008240e-02,-1.725369691848754883e-02,2.883573435246944427e-02,-8.972329646348953247e-02,-1.125567406415939331e-02,-5.151681602001190186e-02,-9.678947180509567261e-02,3.591888118535280228e-03,-9.007599204778671265e-02,-4.565728828310966492e-02,6.587158888578414917e-02,4.372198134660720825e-02,-4.410104453563690186e-02,2.956455387175083160e-02,9.158074110746383667e-02,9.090753644704818726e-02,7.141712307929992676e-02,8.277631364762783051e-03,-9.338724426925182343e-03,3.222614899277687073e-02,-4.659967496991157532e-02,4.460515454411506653e-02,-2.741349674761295319e-02,-2.988512627780437469e-02,1.792974211275577545e-02,1.798285916447639465e-02,-4.806009680032730103e-02,1.766849309206008911e-02,1.978690549731254578e-02,3.755560889840126038e-02,-2.017317153513431549e-02,9.750920580700039864e-04,-6.061419099569320679e-02,2.755981683731079102e-02,4.773620516061782837e-02,-4.544314742088317871e-02,1.781243644654750824e-02
-1.094542220234870911e-01,-4.635884612798690796e-02,1.848227158188819885e-02,6.209132820367813110e-02,7.605690509080886841e-02,-1.296281535178422928e-02,-4.223737120628356934e-02,-4.579916968941688538e-02,-2.017849497497081757e-02,-9.657523781061172485e-02,1.591461896896362305e-02,6.172415241599082947e-02,-2.176359668374061584e-02,2.749290689826011658e-02,5.036239698529243469e-02,-4.855575971305370331e-03,6.550421676365658641e-05,-4.311949014663696289e-03,-3.555147722363471985e-02,2.242869324982166290e-02,3.317847847938537598e-02,-2.131846966221928596e-03,5.616869032382965088e-02,-4.405215848237276077e-03,-8.755275979638099670e-03,6.055102869868278503e-02,-1.852037757635116577e-02,9.935633279383182526e-03,-4.808474332094192505e-02,-1.936710625886917114e-02,-6.648477166891098022e-02,4.820327274501323700e-03,-6.181767210364341736e-02,-1.327206101268529892e-02,1.473657879978418350e-02,5.800099298357963562e-02,4.024325683712959290e-02,2.894624881446361542e-02,7.756340503692626953e-02,4.255367442965507507e-03,6.050005927681922913e-02,-3.028393723070621490e-02,-7.947153598070144653e-02,-3.923847898840904236e-02,7.008411735296249390e-02,4.642928484827280045e-03,-4.156037792563438416e-02,2.204942144453525543e-02,2.381983585655689240e-02,-1.201372593641281128e-02,3.148376196622848511e-02,4.365457594394683838e-02,-3.937375545501708984e-02,2.424513921141624451e-02,-5.396376177668571472e-02,3.218168392777442932e-02,5.738861858844757080e-03,6.118740886449813843e-03,3.993624821305274963e-02,2.148831449449062347e-02,4.633601009845733643e-02,5.995339527726173401e-02,6.640247255563735962e-02,5.006503686308860779e-02,-2.455032430589199066e-02,-1.525575574487447739e-02,-3.712666779756546021e-02,-8.020322769880294800e-03,-1.780973002314567566e-02,-4.005562886595726013e-02,-4.384488612413406372e-02,-1.243206206709146500e-02,2.242533490061759949e-02,8.564879681216552854e-05,-3.190610557794570923e-02,4.587062448263168335e-02,-2.212148532271385193e-02,1.239985413849353790e-02,-2.570483274757862091e-02,7.051925640553236008e-03,-3.060529008507728577e-02,3.310765139758586884e-03,4.305207729339599609e-02,-3.253138065338134766e-02,-3.125069662928581238e-02,-4.222983866930007935e-02,-2.110974490642547607e-02,-2.374759130179882050e-02,-3.869250789284706116e-02,-5.966309085488319397e-02,-5.664345994591712952e-02,1.750021986663341522e-02,1.348750013858079910e-02,-5.931441113352775574e-02,-2.277391031384468079e-02,-3.721564076840877533e-03,6.159805506467819214e-02,-4.007389396429061890e-02,-9.239774197340011597e-02,4.707709886133670807e-03,-6.919191032648086548e-02,-8.853848278522491455e-02,-4.526558890938758850e-02,7.302302867174148560e-02,1.823032461106777191e-02,-2.282863482832908630e-02,5.622277036309242249e-02,-8.087009191513061523e-02,-2.072655223309993744e-02,4.415143281221389771e-02,2.485004998743534088e-02,1.546762138605117798e-02,2.898249588906764984e-02,1.666862145066261292e-02,-2.457648329436779022e-02,-5.322985723614692688e-02,7.565943989902734756e-03,-2.349470928311347961e-02,4.136686399579048157e-02,7.491835951805114746e-02,1.959175243973731995e-02,-4.730216413736343384e-02,-5.231248587369918823e-02,-2.047695219516754150e-02,-7.501745223999023438e-02,4.224992543458938599e-02,8.270421065390110016e-03,2.358925528824329376e-02,-1.029605492949485779e-01,3.228408098220825195e-02,1.205205079168081284e-02,-1.294583780691027641e-03,1.986077241599559784e-02,8.720833063125610352e-02,-5.010216683149337769e-02,2.899938821792602539e-02,-2.734256908297538757e-02,-1.126715634018182755e-02,-7.944596558809280396e-02,4.679671674966812134e-02,-2.007400058209896088e-02,5.081913247704505920e-02,-5.098284222185611725e-03,3.273316845297813416e-02,2.609234303236007690e-02,1.763675548136234283e-02,2.560549788177013397e-02,-9.046499617397785187e-03,8.195167779922485352e-02,-4.117490723729133606e-02,2.868281863629817963e-02,2.082916349172592163e-02,-1.736768148839473724e-02,-3.017565235495567322e-02,-7.167433202266693115e-02,4.508315026760101318e-02,-5.919820442795753479e-02,2.164763398468494415e-02,-7.592294830828905106e-03,4.437645152211189270e-02,-4.850994795560836792e-03,5.010311491787433624e-03,-2.093996293842792511e-02,6.890299916267395020e-02,-8.547935634851455688e-03,-4.583036899566650391e-02,-5.911641940474510193e-02,2.327806316316127777e-03,3.787371097132563591e-03,-2.781650796532630920e-02,-4.264630377292633057e-02,-5.262405611574649811e-03,-1.459780056029558182e-02,4.158202186226844788e-02,2.802215516567230225e-02,5.332110822200775146e-02,-3.692598640918731689e-02,-3.663729503750801086e-02,3.365369141101837158e-02,-3.991033509373664856e-02,4.573120549321174622e-02,3.882477059960365295e-02,-4.456613585352897644e-02,5.373084917664527893e-02,5.317045375704765320e-02,-2.514681033790111542e-02,-5.582078918814659119e-02,-9.932099841535091400e-03,2.125162817537784576e-02,3.997091576457023621e-02,3.211435303092002869e-02,3.338057547807693481e-03,1.930625364184379578e-02,1.221732050180435181e-02,3.752461448311805725e-02,-2.157302387058734894e-02,-3.462060168385505676e-02,2.415991760790348053e-02,-4.948527738451957703e-02,-3.950394317507743835e-02,1.499883644282817841e-02,4.434783011674880981e-03,5.256048589944839478e-02,7.198266685009002686e-02,-3.254813607782125473e-03,4.493627697229385376e-02,1.583508588373661041e-02,2.230718359351158142e-02,-3.087641857564449310e-02,2.911681681871414185e-02,1.773998141288757324e-02,-4.189930856227874756e-03,2.882800064980983734e-02,5.149199813604354858e-02,-6.896594911813735962e-02,8.276119828224182129e-03,-7.733657024800777435e-03,-1.011542975902557373e-01,-5.671478062868118286e-02,-1.706183701753616333e-02,-3.456500917673110962e-02,4.320259764790534973e-02,8.975110948085784912e-02,-1.439780044165672734e-05,6.688711047172546387e-02,3.547824919223785400e-02,6.120608374476432800e-02,5.259798467159271240e-02,-4.496897757053375244e-02,-6.658805161714553833e-02,1.008845493197441101e-02,-2.134954370558261871e-02,5.567846447229385376e-02,3.947710990905761719e-02,7.949683070182800293e-02,6.793260574340820312e-02,-4.060653224587440491e-02,-5.979666113853454590e-02,-1.707045733928680420e-02,2.560283243656158447e-02,-4.472329095005989075e-02,2.824779041111469269e-02,5.241420120000839233e-02,4.483255371451377869e-02,6.175639852881431580e-02,-3.993116319179534912e-03,4.130394011735916138e-02,-1.472727744840085506e-03,2.764734253287315369e-02,-3.769119828939437866e-02,2.403459511697292328e-02,-6.014788523316383362e-03,6.056342646479606628e-02,1.512433215975761414e-02,-2.443201665300875902e-04,3.453613072633743286e-02
-7.225795648992061615e-03,6.117017194628715515e-02,3.796423226594924927e-02,5.714542698115110397e-03,1.180499978363513947e-02,1.560379937291145325e-02,6.254135072231292725e-02,-1.029885932803153992e-02,-1.716094277799129486e-02,7.930421084165573120e-02,-3.357983659952878952e-03,-2.951824851334095001e-02,-4.735463857650756836e-02,8.502167649567127228e-03,-7.771565020084381104e-02,2.554995194077491760e-02,-5.918972194194793701e-02,-8.100910484790802002e-02,9.163650684058666229e-03,3.258023411035537720e-02,-1.063594147562980652e-01,-4.645915329456329346e-02,-9.041997790336608887e-02,-9.356983006000518799e-02,-8.211572468280792236e-02,-8.891942910850048065e-03,-5.981168895959854126e-02,-2.107564918696880341e-02,2.958648838102817535e-02,-1.023631077259778976e-02,1.137259416282176971e-02,-5.861172452569007874e-02,3.003047406673431396e-02,6.319112330675125122e-02,2.825495041906833649e-02,-7.796037197113037109e-02,1.639462541788816452e-03,-2.959273289889097214e-03,9.831771254539489746e-02,-6.292083114385604858e-02,2.070446312427520752e-02,-4.204111173748970032e-02,-1.344614103436470032e-02,-3.392664715647697449e-02,3.600563108921051025e-02,3.988923970609903336e-03,-6.577333062887191772e-02,-8.534627407789230347e-02,-5.022715777158737183e-02,1.707537472248077393e-02,1.295502781867980957e-01,3.944445773959159851e-02,5.211711861193180084e-03,-2.182241342961788177e-02,5.940564349293708801e-02,7.040548324584960938e-02,3.755822405219078064e-02,-6.683874875307083130e-02,1.742678694427013397e-02,-1.135782990604639053e-02,-4.443904850631952286e-03,-7.776342332363128662e-02,1.465993560850620270e-02,-1.910642161965370178e-02,-8.679374121129512787e-03,-3.291750699281692505e-02,-3.443346649874001741e-04,-3.681297972798347473e-02,-6.975997239351272583e-02,-4.911389946937561035e-02,6.615326553583145142e-02,-5.792230367660522461e-02,-7.307192683219909668e-02,-3.876748681068420410e-02,-4.012278094887733459e-02,6.135845556855201721e-02,3.130735829472541809e-02,2.745316177606582642e-02,-1.761193573474884033e-02,2.453392371535301208e-02,-4.595216363668441772e-03,3.376647830009460449e-02,9.214556962251663208e-02,-6.638913415372371674e-03,4.452541470527648926e-02,4.920929670333862305e-02,5.747013911604881287e-02,4.657117649912834167e-02,8.575983345508575439e-03,1.871555298566818237e-02,-2.092921920120716095e-02,-1.464539207518100739e-03,3.379005566239356995e-02,-2.500848378986120224e-03,-6.118503212928771973e-02,-1.987851783633232117e-02,5.762578919529914856e-03,-1.714046671986579895e-02,-7.919284701347351074e-02,9.509009867906570435e-02,-1.862729340791702271e-02,-3.445734456181526184e-02,-3.164881095290184021e-02,-2.696406468749046326e-02,-3.234796226024627686e-02,2.701555006206035614e-02,2.046938426792621613e-02,-5.065515637397766113e-02,5.170434713363647461e-02,-1.104168407618999481e-02,-2.268779650330543518e-02,-1.873709494248032570e-03,-3.569669276475906372e-02,-3.482104837894439697e-02,-7.353814691305160522e-02,-4.989317059516906738e-02,-5.141569301486015320e-02,-9.666725993156433105e-02,-1.173781789839267731e-02,-2.855333732441067696e-03,-7.303023338317871094e-02,-7.290090620517730713e-02,-3.544038161635398865e-02,-6.091449782252311707e-02,6.060310173779726028e-03,3.868846595287322998e-02,9.901629388332366943e-02,4.106228053569793701e-02,-4.383450001478195190e-02,-4.807455465197563171e-02,3.005625307559967041e-02,7.886901497840881348e-03,-6.722737103700637817e-02,1.068073557689785957e-03,-4.436785355210304260e-02,2.250026352703571320e-02,-7.228396087884902954e-02,3.162559866905212402e-02,-5.299043282866477966e-02,4.155822843313217163e-02,4.859560634940862656e-03,5.425586923956871033e-02,4.637789912521839142e-03,2.854704298079013824e-02,2.480263821780681610e-02,-4.214939102530479431e-02,5.972642078995704651e-02,2.644910849630832672e-02,-2.198028564453125000e-02,-2.013862691819667816e-02,-3.497789055109024048e-02,-1.064820066094398499e-01,3.548102453351020813e-02,-1.024627499282360077e-02,-6.952469050884246826e-02,-3.176371008157730103e-02,-2.111465483903884888e-02,1.740356534719467163e-02,7.191867381334304810e-02,1.097986176609992981e-01,-3.124856448266655207e-04,3.385569900274276733e-02,4.659266024827957153e-02,2.526869066059589386e-02,-5.532059073448181152e-02,-4.883717745542526245e-02,-7.867264561355113983e-03,-5.988062359392642975e-03,-5.519085004925727844e-02,1.589462906122207642e-02,2.037869952619075775e-02,-1.121501624584197998e-02,-5.055561289191246033e-02,4.959379509091377258e-02,2.881984040141105652e-02,5.879681184887886047e-02,-4.000164195895195007e-02,3.478876873850822449e-02,-5.754737183451652527e-02,2.469581365585327148e-02,3.875949978828430176e-02,8.822934702038764954e-03,-2.351105213165283203e-03,1.484213769435882568e-02,9.566755034029483795e-03,3.141159890219569206e-03,4.941637441515922546e-02,4.076264798641204834e-02,6.544307619333267212e-02,-4.141276702284812927e-02,-2.966526895761489868e-03,2.150184288620948792e-02,-4.088922590017318726e-02,6.924134492874145508e-02,-8.160544186830520630e-02,4.209344275295734406e-03,2.025142684578895569e-02,6.057812646031379700e-02,-1.109302882105112076e-02,7.438744069077074528e-04,1.758383959531784058e-02,5.285120382905006409e-02,3.078465349972248077e-02,8.122268132865428925e-03,-4.547310993075370789e-03,1.075776200741529465e-02,3.065256588160991669e-02,-2.687489055097103119e-02,-4.223955050110816956e-02,2.233882807195186615e-02,8.191653341054916382e-02,-5.885240435600280762e-02,-1.896895846584811807e-04,9.548897296190261841e-02,2.959216572344303131e-02,-4.265483096241950989e-02,-1.873030327260494232e-02,1.679599843919277191e-02,-5.939976871013641357e-02,8.384656906127929688e-02,5.187673121690750122e-02,9.504244476556777954e-02,8.256021142005920410e-02,3.842891007661819458e-02,1.567230746150016785e-02,-3.943891450762748718e-02,-9.984843432903289795e-02,-4.663956165313720703e-02,2.519862167537212372e-02,-2.650682814419269562e-02,8.465632796287536621e-02,-1.628709211945533752e-02,-2.463863417506217957e-02,2.148223109543323517e-02,-8.781636133790016174e-03,2.164224162697792053e-02,2.761529572308063507e-02,1.768255420029163361e-02,3.400755580514669418e-03,2.405736781656742096e-02,4.817496612668037415e-02,-2.659131074324250221e-03,-2.821848320309072733e-04,2.355830743908882141e-02,-5.094127357006072998e-02,3.555434942245483398e-02,-5.943334661424160004e-03,2.280750079080462456e-03,-5.850262567400932312e-02,-5.857308395206928253e-03,7.752281613647937775e-03,-5.139307677745819092e-02,7.487604743801057339e-04,-1.573620736598968506e-02,-3.541029989719390869e-03,-1.702289655804634094e-02
-1.025659870356321335e-02,-6.980223953723907471e-02,-4.871927201747894287e-02,8.277927525341510773e-03,-4.565838724374771118e-02,-4.914912208914756775e-02,2.295528724789619446e-02,-1.262008678168058395e-02,-9.641553275287151337e-03,3.409859165549278259e-02,-5.514410883188247681e-02,2.256934298202395439e-03,1.008669100701808929e-02,-8.296008408069610596e-02,3.808457404375076294e-02,-8.306127972900867462e-03,1.546549983322620392e-02,3.802790492773056030e-02,1.824394799768924713e-02,2.035942487418651581e-02,8.163837715983390808e-03,1.592608168721199036e-02,4.065402597188949585e-02,-7.840811274945735931e-03,-1.072791405022144318e-02,7.136204838752746582e-02,5.901819840073585510e-02,3.148715943098068237e-02,7.357929367572069168e-03,-3.893527016043663025e-02,-4.846183210611343384e-02,-2.179614454507827759e-02,-2.615089155733585358e-02,-2.017542283283546567e-04,-9.036829695105552673e-03,-2.106789685785770416e-02,-7.171401381492614746e-02,1.511774864047765732e-02,-1.355783082544803619e-02,-5.453069508075714111e-02,-4.961768165230751038e-03,4.272193834185600281e-02,3.007163479924201965e-02,-5.388994701206684113e-03,-5.003217235207557678e-02,-6.103875860571861267e-02,-4.023523628711700439e-02,-7.659266144037246704e-02,-4.153658449649810791e-02,-2.279862528666853905e-03,-7.376778870820999146e-02,-1.580698601901531219e-02,-5.085535719990730286e-02,1.888171397149562836e-02,5.287818610668182373e-02,-1.216350495815277100e-02,-1.013192627578973770e-02,4.024841263890266418e-02,3.930681571364402771e-02,2.861884050071239471e-02,7.252737414091825485e-03,-5.364165082573890686e-02,1.141999382525682449e-03,-1.148413494229316711e-02,-7.479187101125717163e-02,3.868263959884643555e-02,-3.988883271813392639e-02,-1.668375916779041290e-02,-2.619024924933910370e-02,-2.861136011779308319e-02,-1.695409603416919708e-02,7.494521327316761017e-03,1.040368713438510895e-02,-3.128626570105552673e-02,-3.063444793224334717e-02,-1.719862967729568481e-02,8.686339482665061951e-03,2.139772661030292511e-02,-8.179997093975543976e-03,6.347953528165817261e-02,5.221676453948020935e-02,-1.404874306172132492e-02,-6.314126076176762581e-04,4.290318116545677185e-02,6.385215371847152710e-02,-3.195861354470252991e-02,6.574152037501335144e-03,4.067064076662063599e-02,-5.821955949068069458e-02,-1.406839117407798767e-02,1.632314734160900116e-02,1.791444793343544006e-02,-3.964505344629287720e-02,3.927684947848320007e-02,-3.412558510899543762e-02,3.990832343697547913e-02,6.587728857994079590e-02,7.125020772218704224e-02,4.383433610200881958e-02,5.784319341182708740e-02,-2.801571972668170929e-02,3.735232353210449219e-02,-3.550887852907180786e-02,4.781215265393257141e-02,4.326544702053070068e-02,-5.464309360831975937e-03,-4.256185144186019897e-03,-3.168626129627227783e-02,-7.073397189378738403e-02,-4.254058748483657837e-02,4.075801745057106018e-02,5.615592002868652344e-03,-3.830816596746444702e-02,-6.360653042793273926e-02,3.583997860550880432e-02,2.234700694680213928e-02,3.394744545221328735e-02,2.361469902098178864e-02,-4.754289984703063965e-02,-1.338090747594833374e-02,1.163014490157365799e-02,3.352118656039237976e-02,5.004380270838737488e-02,1.183777395635843277e-02,-2.912943623960018158e-02,1.446397416293621063e-02,4.129713773727416992e-02,5.929889529943466187e-02,1.897681504487991333e-02,1.746037788689136505e-02,-4.824374616146087646e-02,-6.407364457845687866e-02,-9.250828996300697327e-03,-5.368180572986602783e-02,8.138942532241344452e-03,6.322243064641952515e-02,-2.408525440841913223e-03,-1.455666590481996536e-02,-7.392465136945247650e-03,-3.749142168089747429e-03,2.037896029651165009e-02,-6.909675151109695435e-02,-2.110356837511062622e-02,-2.311538904905319214e-02,4.250502586364746094e-02,-3.235272690653800964e-02,4.544275347143411636e-03,-3.246973827481269836e-02,5.983727797865867615e-02,5.056167393922805786e-02,3.487796755507588387e-03,7.608896493911743164e-02,-4.672493040561676025e-02,-1.701718755066394806e-02,5.183179304003715515e-02,2.561281807720661163e-02,1.157728303223848343e-02,6.187057867646217346e-02,4.675495624542236328e-02,-2.048264630138874054e-02,-3.946734219789505005e-02,4.402975365519523621e-02,6.874433904886245728e-02,-2.170573920011520386e-02,2.322678640484809875e-02,-6.168944761157035828e-02,-1.368077285587787628e-02,-7.790092844516038895e-03,-6.056398898363113403e-02,2.460116520524024963e-02,-5.973507650196552277e-03,-6.314972881227731705e-03,-1.831148378551006317e-02,2.087470842525362968e-03,4.538858681917190552e-02,-1.379786897450685501e-02,3.559044376015663147e-02,-4.385526757687330246e-03,2.988646039739251137e-03,3.385873883962631226e-02,-2.304886467754840851e-02,3.386166319251060486e-02,-5.164654180407524109e-02,-4.239137843251228333e-02,4.764529690146446228e-02,5.586245656013488770e-02,1.163878478109836578e-02,5.535949394106864929e-02,-3.506728634238243103e-02,2.596115879714488983e-02,-3.417527675628662109e-02,4.649824928492307663e-03,-1.882673427462577820e-02,-4.753318056464195251e-02,-2.140444517135620117e-02,6.440980825573205948e-03,4.855147004127502441e-02,1.801546849310398102e-02,-4.686820507049560547e-02,6.157922744750976562e-02,-1.077176816761493683e-02,3.057461418211460114e-02,1.355350855737924576e-02,3.177944198250770569e-02,-4.723389074206352234e-02,-5.869329348206520081e-02,-4.318455234169960022e-02,-3.506403043866157532e-02,3.236531838774681091e-02,-3.487010300159454346e-02,9.486058726906776428e-03,-2.276143245398998260e-02,1.029630005359649658e-02,2.889422513544559479e-02,3.044108860194683075e-02,3.722788533195853233e-03,1.036553876474499702e-03,5.654843524098396301e-02,-2.726333215832710266e-02,1.315492391586303711e-02,-3.373606875538825989e-02,-2.978459559381008148e-02,-4.679554328322410583e-02,-7.565245963633060455e-03,-1.050090044736862183e-02,2.949126530438661575e-03,-1.112189423292875290e-02,4.183540865778923035e-02,-1.745092310011386871e-02,9.430889785289764404e-02,1.642177626490592957e-02,2.654977329075336456e-02,-4.290938377380371094e-02,-4.404866695404052734e-02,7.613452523946762085e-02,-3.911039978265762329e-02,-2.890177071094512939e-02,8.133829571306705475e-03,-6.140542775392532349e-02,-3.209050744771957397e-02,5.092039331793785095e-02,-1.132943108677864075e-02,-3.278087079524993896e-02,4.000627622008323669e-02,1.387677248567342758e-02,-5.809561163187026978e-02,-4.051369428634643555e-02,1.830383948981761932e-02,2.576643973588943481e-02,-4.375038295984268188e-02,-4.403710365295410156e-02,-1.481126528233289719e-02,1.345259975641965866e-02,2.112138317897915840e-03,5.452649295330047607e-02,-2.033824846148490906e-02
2.684175223112106323e-02,-2.375498600304126740e-02,-6.503581255674362183e-02,-5.029956623911857605e-02,-1.044187508523464203e-02,-6.360078603029251099e-02,-2.663808502256870270e-02,2.156882919371128082e-02,-1.531605329364538193e-02,3.994978964328765869e-02,5.641366541385650635e-02,7.050515711307525635e-02,3.222428727895021439e-03,-1.711213402450084686e-02,9.683691896498203278e-03,5.912345647811889648e-02,-1.202948670834302902e-02,-5.144326761364936829e-02,-2.036263421177864075e-02,-1.593248103745281696e-03,1.399488467723131180e-02,-1.865477301180362701e-02,-2.298229560256004333e-02,1.684516295790672302e-02,-6.876770406961441040e-02,-7.731984369456768036e-03,3.392561897635459900e-02,-6.150718778371810913e-03,8.621374517679214478e-02,2.235861681401729584e-02,-1.983797363936901093e-02,2.355549111962318420e-02,3.120359033346176147e-02,3.521478921175003052e-02,1.069009117782115936e-02,-9.699922055006027222e-03,1.316685508936643600e-02,8.459886908531188965e-02,-4.474809765815734863e-02,6.186443939805030823e-02,2.978638559579849243e-02,6.604530382901430130e-03,4.855673015117645264e-02,3.372712060809135437e-02,-5.623973533511161804e-02,-6.431356072425842285e-03,5.202179402112960815e-02,-9.662941843271255493e-02,7.090643793344497681e-02,-3.459000587463378906e-02,-4.408204182982444763e-02,1.417172141373157501e-02,5.077146459370851517e-03,3.304284811019897461e-02,8.572229184210300446e-03,-4.514258727431297302e-02,-2.549558132886886597e-02,-4.038739949464797974e-02,5.691408365964889526e-02,-3.455982729792594910e-02,-5.823338031768798828e-02,5.880232900381088257e-03,5.113525316119194031e-02,-3.272225707769393921e-02,7.856139540672302246e-02,-1.712254807353019714e-02,-2.162213809788227081e-02,2.943510375916957855e-02,-5.293689668178558350e-02,-3.508031368255615234e-02,1.934731565415859222e-02,8.136537857353687286e-03,-2.710292860865592957e-02,-7.823636382818222046e-02,-2.222374454140663147e-02,-3.505562245845794678e-02,5.851922556757926941e-02,6.238734815269708633e-03,8.273212611675262451e-02,2.995448594447225332e-04,1.094821561127901077e-02,6.733226124197244644e-03,1.933005452156066895e-02,3.676021471619606018e-02,6.612233817577362061e-02,6.080086156725883484e-02,5.982124432921409607e-02,-2.388800494372844696e-02,-2.678243629634380341e-02,-3.331111371517181396e-02,-1.810067333281040192e-02,-1.838070899248123169e-02,5.335104092955589294e-02,5.561995785683393478e-04,1.433940511196851730e-02,4.254689067602157593e-02,1.639644801616668701e-02,-5.849594622850418091e-02,2.095726877450942993e-02,1.147668436169624329e-02,1.600173860788345337e-02,7.800535857677459717e-02,2.638134174048900604e-02,-4.724828060716390610e-03,-2.906458824872970581e-02,1.178289577364921570e-02,2.139271609485149384e-02,1.097513642162084579e-02,-1.025165095925331116e-01,-5.443391948938369751e-02,-3.388823941349983215e-02,6.975771486759185791e-02,3.609741851687431335e-02,2.142007462680339813e-02,-6.305059790611267090e-02,-4.912452772259712219e-02,-4.815312568098306656e-04,-3.515861183404922485e-02,-6.287618726491928101e-02,3.893784061074256897e-02,-2.393233776092529297e-02,-5.080933496356010437e-02,-3.780582547187805176e-02,5.333886295557022095e-02,-9.834420867264270782e-03,4.721920564770698547e-02,9.068421274423599243e-02,1.008717119693756104e-01,-3.262569429352879524e-03,-2.572391554713249207e-02,-3.132465109229087830e-02,1.569388434290885925e-02,-4.754032194614410400e-02,-4.503798112273216248e-02,4.640826955437660217e-02,3.103603608906269073e-02,3.731889650225639343e-02,1.819460093975067139e-02,3.044896759092807770e-02,3.893039422109723091e-03,3.919080644845962524e-02,8.015517145395278931e-02,2.652136795222759247e-02,-7.539107464253902435e-03,8.436300791800022125e-03,3.611314296722412109e-02,-2.379490621387958527e-02,6.232257583178579807e-04,2.734570950269699097e-02,-2.566780149936676025e-02,-3.087437711656093597e-02,8.750051259994506836e-03,6.393303722143173218e-02,-1.761154085397720337e-02,-5.459412932395935059e-02,5.972655862569808960e-02,-6.093310937285423279e-02,3.488733246922492981e-02,-2.380615472793579102e-02,2.876968495547771454e-02,-9.187410585582256317e-03,-5.264431983232498169e-02,-5.387497693300247192e-02,3.335849940776824951e-02,-1.666369661688804626e-02,-8.925869129598140717e-03,-4.655044525861740112e-02,1.590102910995483398e-02,-4.949132725596427917e-02,3.109580650925636292e-02,1.775660738348960876e-02,-2.968494594097137451e-02,2.879227697849273682e-02,1.447885390371084213e-02,-1.298025902360677719e-02,-1.766338013112545013e-02,-1.228967774659395218e-02,5.209569260478019714e-02,-2.797596156597137451e-02,-1.390760019421577454e-02,-7.607892900705337524e-02,-2.261926978826522827e-02,4.775374382734298706e-02,1.574559323489665985e-02,-3.261862695217132568e-02,1.842670328915119171e-02,-7.243438810110092163e-02,4.146654531359672546e-02,2.016237564384937286e-02,3.675935789942741394e-02,-3.233257681131362915e-02,3.365322947502136230e-02,5.168569460511207581e-02,-4.702721908688545227e-02,-7.456223666667938232e-02,-4.779361933469772339e-02,-4.304428398609161377e-02,-3.262868896126747131e-02,3.967332839965820312e-02,-2.300891792401671410e-03,5.620603915303945541e-03,2.755064144730567932e-02,6.043282896280288696e-02,-3.540101274847984314e-02,3.169285366311669350e-03,4.388676211237907410e-02,-5.378659442067146301e-02,2.235474530607461929e-03,1.252225041389465332e-02,-1.029782593250274658e-01,-9.788014739751815796e-02,-5.443003401160240173e-02,-2.134355902671813965e-02,-5.155970156192779541e-02,-1.262218691408634186e-02,-2.535343915224075317e-02,6.711638718843460083e-02,3.104353882372379303e-02,5.478157196193933487e-03,-3.441480547189712524e-02,4.784039221704006195e-03,-1.514858938753604889e-02,4.206192120909690857e-02,4.580133035778999329e-02,-1.896585337817668915e-02,-9.363378398120403290e-03,-2.487997896969318390e-02,-6.824561953544616699e-02,-2.711944654583930969e-02,4.477085173130035400e-02,5.071884021162986755e-02,7.135929167270660400e-02,-3.262623399496078491e-02,-5.517723970115184784e-03,-6.363511085510253906e-02,-2.030736766755580902e-02,-5.335889756679534912e-02,8.703270554542541504e-02,4.232249688357114792e-03,-3.871283726766705513e-03,-2.830836363136768341e-02,2.180615253746509552e-02,1.559862494468688965e-02,-2.886551991105079651e-02,2.430885657668113708e-02,-1.385727524757385254e-02,3.023635363206267357e-03,4.764007031917572021e-02,5.132969468832015991e-02,-6.342392880469560623e-03,5.825910717248916626e-02,1.402182877063751221e-02,-5.816872790455818176e-02,4.028917104005813599e-02,5.083350092172622681e-02,1.101897098124027252e-02
6.975650787353515625e-03,2.063748985528945923e-02,3.379146009683609009e-02,3.299315273761749268e-02,4.782170429825782776e-02,-5.667920038104057312e-02,-4.437545686960220337e-02,-1.432283781468868256e-02,-1.955676823854446411e-02,1.325347740203142166e-02,8.538159541785717010e-03,-1.649886555969715118e-02,-2.932345308363437653e-02,3.815473988652229309e-02,-6.015530228614807129e-02,6.055154278874397278e-02,3.328699991106987000e-02,5.949828308075666428e-03,2.210109308362007141e-02,-3.214657306671142578e-02,-4.068524111062288284e-03,-1.681797951459884644e-02,1.358523685485124588e-02,-1.950645074248313904e-02,-4.655155912041664124e-02,-3.550800681114196777e-02,-2.419347129762172699e-02,-5.883188173174858093e-02,2.947469241917133331e-02,-2.561360597610473633e-02,2.526629157364368439e-02,2.540163509547710419e-02,7.160691544413566589e-03,-2.743351832032203674e-02,-1.511012669652700424e-02,-4.596842825412750244e-02,4.880796372890472412e-02,-1.684601604938507080e-02,1.749562285840511322e-02,-5.677269399166107178e-02,-7.714963518083095551e-03,-3.884496912360191345e-02,-3.874683054164052010e-03,-4.563707485795021057e-02,-4.287923872470855713e-02,-5.383178964257240295e-02,-3.561641275882720947e-02,-5.587216932326555252e-03,-5.908911675214767456e-02,4.080390930175781250e-02,-3.653552383184432983e-02,5.176511127501726151e-03,-3.394664078950881958e-02,5.378047749400138855e-02,3.870784863829612732e-02,1.547251176089048386e-02,-4.855192825198173523e-02,2.972927875816822052e-02,-6.096937879920005798e-02,1.907080062665045261e-03,3.485229611396789551e-02,-5.439982935786247253e-02,1.829477213323116302e-02,3.521731495857238770e-02,-1.980596035718917847e-02,-5.062437430024147034e-02,-3.852184489369392395e-02,1.486402563750743866e-02,-3.550178557634353638e-02,-3.873191028833389282e-02,4.919937998056411743e-02,-2.277412451803684235e-02,-4.831390082836151123e-02,-5.112675204873085022e-02,4.779925197362899780e-02,2.860471839085221291e-03,1.479679811745882034e-02,2.680628187954425812e-02,6.187923252582550049e-02,-1.151589956134557724e-02,-4.551136866211891174e-02,4.579171910881996155e-02,3.323880210518836975e-02,-8.843462914228439331e-03,2.042427286505699158e-02,-3.257929906249046326e-02,-3.478637337684631348e-02,3.675612062215805054e-02,1.849974691867828369e-02,4.178895801305770874e-02,-5.569479614496231079e-02,1.406135852448642254e-03,-5.594798550009727478e-02,2.334542386233806610e-02,-1.417014747858047485e-02,-2.442937530577182770e-02,2.484547905623912811e-02,5.564706772565841675e-02,-5.998047813773155212e-02,-5.507475137710571289e-02,5.030086636543273926e-02,-1.558859832584857941e-02,-1.455603446811437607e-02,5.111049115657806396e-02,-1.246003713458776474e-02,-4.924331232905387878e-02,-5.221247673034667969e-02,-2.500770799815654755e-02,-4.260651394724845886e-02,5.395061802119016647e-03,-4.056417196989059448e-02,-1.944164372980594635e-02,-5.883621051907539368e-02,5.955124273896217346e-03,-3.483975073322653770e-03,5.966624617576599121e-02,5.251422151923179626e-02,1.315253321081399918e-03,1.703938283026218414e-02,4.819727316498756409e-02,-4.584703221917152405e-02,-2.049674279987812042e-02,5.769829452037811279e-02,-5.246126279234886169e-02,3.765683621168136597e-02,3.930582106113433838e-02,3.619189932942390442e-02,6.393417716026306152e-02,-4.645863547921180725e-02,-4.784337058663368225e-02,3.701615333557128906e-02,4.308922216296195984e-02,4.739424213767051697e-03,-1.763125136494636536e-02,-4.322266951203346252e-02,-1.261235028505325317e-02,2.965317852795124054e-02,-4.515555128455162048e-02,-5.119316652417182922e-02,-5.888215452432632446e-02,-6.011418253183364868e-02,3.575849905610084534e-02,-5.218566209077835083e-02,-1.170480437576770782e-02,4.637236893177032471e-02,4.188702255487442017e-02,-3.849765053018927574e-03,-1.105423644185066223e-02,5.102099478244781494e-02,-1.868829829618334770e-03,-2.200583554804325104e-02,8.352610282599925995e-03,3.818411007523536682e-02,-4.038450866937637329e-02,-5.890460312366485596e-02,-2.221073955297470093e-02,-3.150923177599906921e-02,5.473093315958976746e-02,-2.831463888287544250e-02,-5.267464742064476013e-02,-5.434811860322952271e-02,4.671296104788780212e-03,3.517034649848937988e-02,-6.146738678216934204e-02,-1.610304601490497589e-02,5.880681425333023071e-02,2.265168353915214539e-02,2.488238736987113953e-02,1.156366243958473206e-02,3.001873381435871124e-02,-2.088435739278793335e-02,5.835238844156265259e-02,2.412277087569236755e-02,5.617874860763549805e-02,-6.161205098032951355e-02,-2.179741114377975464e-02,-3.422956168651580811e-02,2.418662793934345245e-02,-4.803524538874626160e-02,-3.348308056592941284e-02,-1.847886852920055389e-02,-2.638864330947399139e-03,-5.313887074589729309e-02,1.603071950376033783e-02,5.809627007693052292e-03,-2.197338640689849854e-02,-1.983263902366161346e-02,-5.023697763681411743e-02,5.537866428494453430e-02,1.542423479259014130e-02,-1.155830174684524536e-02,6.457039620727300644e-03,9.858774952590465546e-03,1.509764511138200760e-02,-2.674431726336479187e-02,-4.461688455194234848e-03,-5.284022539854049683e-02,4.435719549655914307e-02,-1.081460062414407730e-02,3.177168220281600952e-02,3.192315995693206787e-02,-3.081173263490200043e-02,1.511684851720929146e-03,3.407803177833557129e-02,-1.434673927724361420e-02,4.998590052127838135e-02,1.775298453867435455e-02,2.129423432052135468e-03,3.872758243232965469e-03,1.270918268710374832e-02,-5.311150848865509033e-02,-3.251040726900100708e-02,-1.666996628046035767e-02,3.054404817521572113e-02,-6.358377635478973389e-03,-2.652035653591156006e-02,-2.628869004547595978e-02,3.059491328895092010e-02,3.314238972961902618e-03,1.099114771932363510e-02,3.301353380084037781e-02,1.365623623132705688e-02,2.858324151020497084e-04,-4.906097054481506348e-02,6.357269734144210815e-02,-1.665746909566223621e-03,6.253661960363388062e-02,3.649992635473608971e-03,-5.882262438535690308e-02,5.276793614029884338e-02,-3.981284424662590027e-02,2.509251795709133148e-02,-5.793055519461631775e-02,6.001529470086097717e-02,5.715287849307060242e-02,-1.893893443048000336e-02,-2.619455568492412567e-02,-2.351912669837474823e-02,-5.184194073081016541e-03,8.091042749583721161e-03,-5.738767981529235840e-02,2.565405331552028656e-02,2.346473373472690582e-02,-5.655980110168457031e-02,5.905811488628387451e-02,-2.659155428409576416e-02,-3.252588957548141479e-02,-3.809976577758789062e-02,-2.189958840608596802e-02,8.654341101646423340e-03,-3.122085332870483398e-02,-1.637253910303115845e-02,6.959080696105957031e-03,8.307501673698425293e-03,4.395627975463867188e-02,-5.533858388662338257e-02
-3.409047797322273254e-02,1.842472329735755920e-02,6.709189713001251221e-02,9.268546104431152344e-02,6.364953517913818359e-02,3.150969371199607849e-02,4.705377388745546341e-03,-2.600343525409698486e-02,4.149592295289039612e-02,-3.800970688462257385e-02,3.547588363289833069e-02,1.436621882021427155e-02,6.300032883882522583e-02,6.494608824141323566e-04,-9.722067974507808685e-03,-3.114743449259549379e-04,-7.301054149866104126e-02,-8.750169537961483002e-03,-1.259299814701080322e-01,-1.099575534462928772e-01,-3.331848233938217163e-02,-1.846078410744667053e-02,-2.312940172851085663e-02,-3.924054093658924103e-03,-1.435432583093643188e-02,-5.735718086361885071e-02,-2.795690298080444336e-02,1.742629217915236950e-03,-3.011858090758323669e-02,-7.543344795703887939e-02,6.066630408167839050e-02,3.377688676118850708e-02,1.518355216830968857e-02,1.784555912017822266e-01,9.533280879259109497e-02,6.076784804463386536e-03,7.123524695634841919e-02,1.564011275768280029e-01,9.121645241975784302e-02,-5.480773001909255981e-02,7.746223360300064087e-03,6.958013772964477539e-02,3.271842375397682190e-03,-5.699794739484786987e-03,6.060064584016799927e-02,2.761852182447910309e-02,1.414453703910112381e-02,-5.156977474689483643e-02,-7.509832736104726791e-03,4.159555584192276001e-02,7.197333127260208130e-02,5.508376657962799072e-02,-1.262493617832660675e-02,3.384617716073989868e-02,2.261001383885741234e-03,4.352372884750366211e-02,4.114516545087099075e-03,-4.642162844538688660e-02,1.764131337404251099e-02,5.676937848329544067e-02,5.992819368839263916e-02,6.241636723279953003e-02,-1.118726446293294430e-03,6.379339843988418579e-02,1.469916570931673050e-02,6.721169501543045044e-02,4.287223145365715027e-02,2.673955820500850677e-02,1.741816638968884945e-03,5.603218451142311096e-02,-2.818654663860797882e-02,-4.961833730340003967e-02,6.011913716793060303e-02,4.427438974380493164e-02,-2.757775411009788513e-02,2.737961709499359131e-02,3.129500895738601685e-02,5.019055306911468506e-02,2.799453400075435638e-02,2.517287991940975189e-02,-3.247616812586784363e-02,-2.346127294003963470e-02,4.982767254114151001e-02,6.065386906266212463e-02,2.738462202250957489e-02,9.941681288182735443e-03,-1.238606870174407959e-02,1.052111154422163963e-03,-5.156804621219635010e-02,1.277845818549394608e-02,-6.256594508886337280e-02,3.495177626609802246e-02,-1.552010793238878250e-02,1.776417903602123260e-02,-2.115332707762718201e-02,-9.787611663341522217e-03,-4.114279150962829590e-02,-5.055700242519378662e-02,3.716849908232688904e-02,1.842815428972244263e-02,-4.792070388793945312e-02,-1.259277202188968658e-02,-8.809892833232879639e-02,2.921241335570812225e-02,-4.268599301576614380e-02,-3.202437236905097961e-02,1.896212808787822723e-02,-6.269694119691848755e-02,-7.481920719146728516e-02,4.028677195310592651e-02,9.046975523233413696e-03,3.643964603543281555e-02,6.046855077147483826e-02,-6.526821851730346680e-02,-7.563830912113189697e-02,-1.014570891857147217e-01,-3.051222488284111023e-02,1.085556857287883759e-02,9.409581311047077179e-03,-6.572910398244857788e-02,-7.386525720357894897e-02,1.473182719200849533e-02,2.904393523931503296e-02,-2.302465215325355530e-02,-6.543751806020736694e-02,-1.729999482631683350e-02,3.523391485214233398e-02,-2.178029390051960945e-03,-1.995418034493923187e-02,8.982306718826293945e-02,8.915327489376068115e-02,6.688808649778366089e-02,2.320430986583232880e-02,-6.478303112089633942e-03,-6.792864203453063965e-02,2.303479425609111786e-02,5.225618556141853333e-02,-4.247406870126724243e-02,4.186512157320976257e-02,-2.857970818877220154e-02,-1.393123995512723923e-02,1.481647230684757233e-02,3.249329328536987305e-02,-2.794600278139114380e-02,-2.329330332577228546e-02,-1.067007482051849365e-01,-1.286932975053787231e-01,-6.638036668300628662e-02,-9.319338947534561157e-03,3.288388997316360474e-02,-2.754878997802734375e-02,7.358761876821517944e-02,2.076473459601402283e-02,-6.028593983501195908e-03,-4.703966435045003891e-03,2.121412009000778198e-02,-2.035767771303653717e-02,-5.494202300906181335e-02,-6.397794466465711594e-03,1.397227961570024490e-02,4.086880385875701904e-02,-4.639001097530126572e-03,2.275599353015422821e-02,2.200880646705627441e-02,3.139514476060867310e-02,4.510583728551864624e-02,-3.612539917230606079e-02,-5.465061962604522705e-02,5.162625759840011597e-02,-3.807329759001731873e-02,9.605218656361103058e-04,-3.340324759483337402e-02,3.860086575150489807e-02,-2.892301417887210846e-03,-3.978320956230163574e-02,-3.290287032723426819e-02,-6.300994008779525757e-02,-6.563457846641540527e-02,4.042514041066169739e-02,-3.403586149215698242e-02,-1.903220079839229584e-02,4.028212279081344604e-02,4.906661435961723328e-02,1.506517548114061356e-02,-7.126325368881225586e-02,-1.214912626892328262e-02,5.831151828169822693e-02,2.863978408277034760e-02,-3.730008006095886230e-02,-1.311883237212896347e-02,4.433896765112876892e-02,5.630590487271547318e-03,2.075412496924400330e-02,-5.804422497749328613e-02,-5.405733361840248108e-02,3.924120590090751648e-02,-4.187118634581565857e-02,3.641903400421142578e-02,8.631797134876251221e-02,-3.857753425836563110e-02,2.022463455796241760e-02,-5.474609881639480591e-02,-1.997955143451690674e-02,3.892220184206962585e-02,9.297804906964302063e-03,5.330019071698188782e-02,-7.234665565192699432e-03,4.263504222035408020e-02,-1.622690111398696899e-01,-1.711500287055969238e-01,-7.886812090873718262e-02,2.982575073838233948e-02,6.836137175559997559e-02,-2.646471746265888214e-02,-1.003232672810554504e-01,6.389391422271728516e-02,1.700422354042530060e-02,-2.623575739562511444e-02,5.414261668920516968e-02,6.030006706714630127e-02,-7.660466246306896210e-03,-1.267109252512454987e-02,-4.771494865417480469e-02,-1.217034831643104553e-02,1.946287974715232849e-02,1.075620949268341064e-02,-1.388398464769124985e-02,-4.799320548772811890e-02,3.430493548512458801e-02,2.825138531625270844e-02,5.436769127845764160e-02,4.833246767520904541e-02,-4.160230234265327454e-02,-4.695452377200126648e-02,-7.743823807686567307e-03,7.451532781124114990e-02,-2.215017378330230713e-02,-2.182946167886257172e-02,-4.615729302167892456e-02,-2.521974220871925354e-02,5.008388310670852661e-02,-5.056984350085258484e-02,4.409707151353359222e-03,-4.421912133693695068e-02,-5.566879361867904663e-02,4.256815463304519653e-02,1.824006438255310059e-02,7.902811281383037567e-03,1.140193641185760498e-02,8.130662143230438232e-03,4.737742245197296143e-03,-3.313864581286907196e-03,5.962817743420600891e-02,1.091429591178894043e-02,7.769957184791564941e-03,-3.884171694517135620e-02
-4.501221328973770142e-02,3.997286409139633179e-02,1.001882553100585938e-01,9.433730691671371460e-02,4.713912308216094971e-02,2.160803228616714478e-02,-4.758627619594335556e-03,5.790427699685096741e-02,-4.092009738087654114e-02,1.732447743415832520e-02,3.532768040895462036e-02,-8.915468119084835052e-03,6.290759891271591187e-02,4.441768303513526917e-02,4.918634891510009766e-02,6.175136659294366837e-03,-2.579613355919718742e-03,5.219902470707893372e-02,6.753402948379516602e-02,2.860799804329872131e-02,1.179182007908821106e-01,-5.695158615708351135e-03,2.917417138814926147e-02,9.031084924936294556e-02,1.452228054404258728e-02,-1.903767883777618408e-02,9.567292034626007080e-02,4.254363477230072021e-02,-1.068622320890426636e-01,-1.394439190626144409e-01,-8.567654341459274292e-02,-7.677169889211654663e-02,2.404012717306613922e-02,5.305373296141624451e-02,3.512874245643615723e-02,-6.518786400556564331e-02,3.146344423294067383e-02,1.228546872735023499e-01,4.844513535499572754e-02,-1.645431667566299438e-01,-6.011417508125305176e-02,9.182263165712356567e-02,-7.509393990039825439e-02,-8.913610130548477173e-02,-8.817385137081146240e-02,8.715830743312835693e-03,6.847424060106277466e-02,-4.423307254910469055e-02,1.688906806521117687e-03,1.956158690154552460e-02,4.478386789560317993e-02,9.134344011545181274e-02,4.913102462887763977e-02,-1.856695488095283508e-02,3.273584693670272827e-02,6.222252547740936279e-02,-6.577241420745849609e-02,2.156000770628452301e-02,-7.255706936120986938e-02,-4.215576499700546265e-02,-4.398505389690399170e-02,4.928946867585182190e-02,4.256781656295061111e-03,4.759204760193824768e-02,8.546902239322662354e-02,7.294233888387680054e-02,-4.227920249104499817e-02,3.613106161355972290e-02,4.095863178372383118e-02,-5.103624239563941956e-02,1.118244044482707977e-02,-1.796610653400421143e-02,8.367673493921756744e-03,3.209205344319343567e-02,-8.638708293437957764e-02,1.835146918892860413e-02,-5.763358250260353088e-02,3.603870049118995667e-02,6.395502388477325439e-02,-1.035597920417785645e-01,-9.689354896545410156e-02,-7.584180217236280441e-03,9.014233946800231934e-02,1.402171850204467773e-01,-1.733574899844825268e-03,1.829956844449043274e-02,8.640962652862071991e-03,2.268947660923004150e-02,3.508431836962699890e-02,7.980442792177200317e-02,3.523935738485306501e-04,-4.867178201675415039e-02,7.461509108543395996e-02,4.343019053339958191e-02,6.701741367578506470e-02,4.211472347378730774e-02,-2.844611555337905884e-02,1.853408664464950562e-02,2.072425186634063721e-02,1.783238165080547333e-02,-1.815650612115859985e-02,-1.396461762487888336e-02,5.718769971281290054e-03,5.754891410470008850e-02,6.589502841234207153e-02,-9.815124422311782837e-02,-1.191254891455173492e-02,-5.863198544830083847e-03,3.918991610407829285e-02,2.172549441456794739e-02,7.215993944555521011e-03,1.983491331338882446e-02,5.821831524372100830e-02,-2.491701580584049225e-02,2.181232161819934845e-02,-7.040218263864517212e-02,5.411428585648536682e-02,-9.690967388451099396e-03,-7.765645161271095276e-03,7.182534039020538330e-02,2.325261570513248444e-02,6.123098731040954590e-02,-4.406525939702987671e-02,5.380861088633537292e-02,2.054348029196262360e-02,3.122720494866371155e-02,-3.878027945756912231e-02,2.041271515190601349e-02,1.211562938988208771e-02,3.382687270641326904e-02,2.194186858832836151e-02,8.488743007183074951e-02,1.669439114630222321e-02,-1.104114227928221226e-03,-9.301764518022537231e-02,-9.312937408685684204e-02,-1.005431916564702988e-02,-2.359158918261528015e-02,-7.149415463209152222e-02,-1.285687368363142014e-02,-4.860863834619522095e-02,-1.000680215656757355e-02,1.179602295160293579e-01,1.747355051338672638e-02,-8.193511515855789185e-02,2.248713187873363495e-02,1.003171950578689575e-01,2.074444666504859924e-02,1.388671547174453735e-01,3.878359869122505188e-02,-1.352321635931730270e-02,1.424448192119598389e-01,3.675875067710876465e-02,1.118828821927309036e-02,-6.041588634252548218e-02,-4.486154764890670776e-02,4.770587384700775146e-02,-6.675621122121810913e-02,-3.442317247390747070e-02,9.574538096785545349e-03,-4.849955812096595764e-02,-9.298987686634063721e-03,-3.045977093279361725e-02,-5.967839621007442474e-03,2.479081228375434875e-02,7.635654509067535400e-02,6.381190568208694458e-02,-2.354002930223941803e-02,4.327504709362983704e-02,4.155381023883819580e-02,1.706154900602996349e-03,-1.281869690865278244e-02,-5.233843624591827393e-02,5.533740296959877014e-02,3.160779178142547607e-02,-2.265712991356849670e-02,1.595771871507167816e-02,-3.689983114600181580e-02,-2.747715823352336884e-02,2.760270424187183380e-02,4.427191987633705139e-02,2.524687349796295166e-02,5.032077804207801819e-02,6.340764462947845459e-02,6.040541082620620728e-02,3.207692876458168030e-02,-5.812273547053337097e-02,1.824831776320934296e-02,-4.723425582051277161e-02,-2.984223142266273499e-02,-7.943278178572654724e-04,-4.416552931070327759e-02,2.309511043131351471e-02,-4.584901034832000732e-02,-1.027640607208013535e-02,1.002762094140052795e-02,7.051022257655858994e-04,5.351768061518669128e-02,6.025943905115127563e-02,3.656566515564918518e-02,1.009458489716053009e-02,1.223851833492517471e-02,-3.780891746282577515e-02,6.727555394172668457e-02,-5.274950992316007614e-03,8.629117161035537720e-02,2.960746549069881439e-02,-1.152188237756490707e-02,-7.102910429239273071e-02,-4.686921462416648865e-02,-1.199727132916450500e-02,1.203999370336532593e-01,3.939191997051239014e-02,3.563161008059978485e-03,-4.732415452599525452e-02,2.150641754269599915e-03,6.543690711259841919e-02,-3.055893257260322571e-02,-5.770629644393920898e-02,-2.653739415109157562e-02,6.453003734350204468e-02,2.256180858239531517e-03,-1.006727945059537888e-02,-3.307445347309112549e-02,4.237774759531021118e-02,-5.411795340478420258e-03,-1.716814003884792328e-02,-6.697008851915597916e-03,5.062151327729225159e-02,3.457611799240112305e-02,3.577055875211954117e-03,-2.278652042150497437e-02,-5.620589107275009155e-02,-2.408323436975479126e-02,6.728937476873397827e-02,5.717887729406356812e-02,3.963482752442359924e-02,-2.642034739255905151e-02,3.079678490757942200e-02,1.587914861738681793e-02,1.959629356861114502e-02,3.474485874176025391e-02,-2.080467343330383301e-02,-2.612323872745037079e-02,3.181094303727149963e-02,5.528206378221511841e-02,-4.250632226467132568e-02,1.940922997891902924e-02,-2.251570858061313629e-02,-1.773357205092906952e-02,-8.836204186081886292e-03,-5.340301617980003357e-02,1.836748421192169189e-02,-5.387200415134429932e-02,1.376206520944833755e-02,-2.500745840370655060e-02
-1.892801374197006226e-02,-2.329733781516551971e-02,3.078813024330884218e-04,2.236095443367958069e-02,-9.634238667786121368e-03,5.142311379313468933e-02,-4.903293028473854065e-02,1.366381812840700150e-02,-3.398706018924713135e-02,-6.063421256840229034e-03,-6.374842673540115356e-02,4.897534474730491638e-02,5.957994610071182251e-02,-5.254356190562248230e-02,-6.456016004085540771e-02,1.877562026493251324e-03,2.986748144030570984e-02,5.545005202293395996e-03,-1.620617322623729706e-02,3.197734430432319641e-02,9.027869254350662231e-02,1.480849273502826691e-02,-8.214358240365982056e-02,-3.558940952643752098e-03,-2.159546874463558197e-02,-6.628810614347457886e-02,-5.550110712647438049e-02,4.418441653251647949e-02,6.939680129289627075e-02,6.045340374112129211e-02,4.452285543084144592e-02,4.482343420386314392e-02,-6.576679646968841553e-03,4.046456515789031982e-02,1.061310097575187683e-01,3.840950876474380493e-02,3.466431796550750732e-02,5.139000713825225830e-02,3.317691013216972351e-02,4.960150271654129028e-02,-9.044626355171203613e-02,1.346318330615758896e-02,-3.773364052176475525e-02,-2.118477225303649902e-02,-9.510608017444610596e-02,7.744937390089035034e-02,1.411191653460264206e-02,-8.112646639347076416e-02,-5.318374931812286377e-02,5.950585938990116119e-03,-2.799673564732074738e-02,-3.913293778896331787e-02,4.042943473905324936e-03,-2.279920503497123718e-02,-2.578142331913113594e-03,2.003274857997894287e-03,-1.845153793692588806e-02,-2.919936366379261017e-02,-4.967958480119705200e-02,4.901361092925071716e-02,6.563018541783094406e-03,1.840785611420869827e-03,-6.323370337486267090e-02,3.118917904794216156e-02,4.486325755715370178e-02,5.759473517537117004e-02,1.598137244582176208e-02,5.317071825265884399e-02,4.833790287375450134e-02,3.767917677760124207e-02,4.701658617705106735e-03,-4.253092035651206970e-02,-3.057463327422738075e-03,3.461742028594017029e-02,-3.564511984586715698e-02,2.521310187876224518e-02,-2.483510039746761322e-02,-5.546212568879127502e-02,-4.617007449269294739e-03,-1.597177051007747650e-02,3.578426688909530640e-02,-2.069414034485816956e-02,6.877906620502471924e-03,5.399902164936065674e-02,-1.997694186866283417e-02,2.421807497739791870e-02,3.513603005558252335e-03,2.145245112478733063e-02,3.643386531621217728e-03,4.876971989870071411e-02,4.353816062211990356e-02,-2.873833104968070984e-02,2.613764442503452301e-02,-1.912787556648254395e-02,7.015429437160491943e-02,-5.124884098768234253e-02,6.224108114838600159e-02,-1.410060189664363861e-02,-8.953344076871871948e-03,-4.802241176366806030e-02,-3.463077545166015625e-02,-2.282990515232086182e-02,-1.060984283685684204e-01,-7.360364496707916260e-02,1.727749034762382507e-02,2.765280939638614655e-02,2.569515071809291840e-02,8.594845980405807495e-02,1.016721781343221664e-02,-1.866196654736995697e-02,-5.480197258293628693e-03,-2.996913390234112740e-03,-5.160310771316289902e-03,-4.413437098264694214e-02,1.117115560919046402e-02,-1.764972135424613953e-02,3.610320156440138817e-03,6.401313468813896179e-03,-4.538563266396522522e-02,-3.114058822393417358e-02,3.854080662131309509e-02,-6.694472581148147583e-02,-4.668739438056945801e-02,-3.248194232583045959e-02,-3.064597956836223602e-02,-6.311240792274475098e-02,-3.082277253270149231e-02,-3.196427598595619202e-02,5.909236893057823181e-02,-2.388837188482284546e-02,2.456182613968849182e-02,4.799603298306465149e-02,-7.282311096787452698e-03,9.204693138599395752e-03,1.503714546561241150e-02,-3.539390163496136665e-03,5.259333550930023193e-02,-3.873161226511001587e-02,9.381687268614768982e-03,4.700710996985435486e-02,-3.463765233755111694e-02,4.129397496581077576e-02,-7.276790589094161987e-02,5.566403642296791077e-02,-3.362846374511718750e-02,-4.305003583431243896e-02,5.223949253559112549e-02,5.324707925319671631e-02,1.230980902910232544e-01,6.213238835334777832e-02,-3.244751319289207458e-02,5.902655422687530518e-02,-2.121678367257118225e-02,8.586538955569267273e-03,-3.657440096139907837e-02,-8.728201501071453094e-03,-2.389207668602466583e-02,3.287243843078613281e-02,-6.091142445802688599e-02,7.118966430425643921e-02,3.233964741230010986e-02,3.160588443279266357e-02,1.992975920438766479e-02,1.455171965062618256e-03,-5.364694446325302124e-02,3.250638023018836975e-02,-3.117501363158226013e-02,6.476635485887527466e-02,7.986860722303390503e-02,-3.605751693248748779e-02,1.022313907742500305e-02,-1.735126227140426636e-02,4.497181158512830734e-03,2.955007366836071014e-02,6.179531663656234741e-02,2.673256676644086838e-03,3.601600602269172668e-02,-2.164148166775703430e-02,4.865901544690132141e-02,5.025510489940643311e-02,3.049455955624580383e-02,1.871481724083423615e-02,-1.204606797546148300e-02,7.045871019363403320e-02,-5.383932963013648987e-02,-3.504979610443115234e-02,-3.711750730872154236e-02,-1.663793064653873444e-02,-5.809740349650382996e-02,-3.418242558836936951e-02,-2.437104098498821259e-02,1.697440259158611298e-02,3.440318629145622253e-02,3.292816132307052612e-02,-2.025333605706691742e-02,-4.868999868631362915e-02,1.042848639190196991e-02,-6.404221802949905396e-02,1.848843134939670563e-02,1.269293017685413361e-02,4.667783528566360474e-02,-6.168421730399131775e-02,5.743546411395072937e-02,-2.847238909453153610e-03,9.771956130862236023e-03,-8.311716839671134949e-03,2.860017865896224976e-02,-1.759033650159835815e-02,-3.439391031861305237e-02,-1.640017330646514893e-02,-7.166500389575958252e-02,4.850111436098814011e-03,4.317919164896011353e-02,-3.299092501401901245e-02,6.385266780853271484e-02,2.138033695518970490e-02,-1.720041409134864807e-02,1.380318496376276016e-02,-6.233798712491989136e-02,3.321823896840214729e-03,4.563421010971069336e-02,6.758379191160202026e-02,-7.150223944336175919e-03,-1.111776102334260941e-03,-2.222540415823459625e-02,4.349362105131149292e-02,-4.876637086272239685e-02,3.525654971599578857e-02,-4.825504496693611145e-02,6.565960124135017395e-03,2.026929520070552826e-02,-6.798640359193086624e-03,-5.216981470584869385e-02,-3.771642223000526428e-02,-6.653496623039245605e-02,4.461409151554107666e-02,4.070373252034187317e-02,-4.238014668226242065e-02,7.092092186212539673e-02,-1.054635271430015564e-02,4.215360805392265320e-02,-3.601323068141937256e-02,-2.337816730141639709e-02,3.292183205485343933e-02,-3.425502777099609375e-02,1.589138060808181763e-02,-4.202586412429809570e-02,1.392957475036382675e-02,2.308372221887111664e-02,3.801739588379859924e-02,-4.730264469981193542e-02,2.621228992938995361e-02,4.047505557537078857e-03,-5.938619375228881836e-02,-3.082110360264778137e-02,-1.181812491267919540e-02
