8.542944490909576416e-02
-4.222321882843971252e-02
-4.476397484540939331e-02
6.822357326745986938e-02
1.514544337987899780e-02
-4.951519146561622620e-02
-7.234362419694662094e-04
-4.447901993989944458e-02
1.737730763852596283e-02
5.321955308318138123e-02
7.555045932531356812e-02
1.491535604000091553e-01
1.345643121749162674e-02
-3.164147213101387024e-02
-5.207236483693122864e-02
1.086356025189161301e-02
1.812790706753730774e-02
-2.017213404178619385e-02
-8.029421418905258179e-02
1.674585044384002686e-02
5.587774887681007385e-02
-6.725642364472150803e-03
7.450390607118606567e-02
8.058222383260726929e-02
1.011540144681930542e-01
-1.913412846624851227e-02
-5.710103735327720642e-02
5.969526618719100952e-02
4.086053743958473206e-02
5.859113112092018127e-02
-1.731288060545921326e-02
3.033251315355300903e-02
-1.408829167485237122e-02
5.803569033741950989e-02
-2.253588102757930756e-02
4.039901867508888245e-02
1.262484490871429443e-01
4.912598431110382080e-02
4.551307763904333115e-03
2.226332435384392738e-03
-6.602270528674125671e-03
-2.306064590811729431e-02
8.550134301185607910e-02
-3.855150938034057617e-02
8.082541078329086304e-02
-1.421600133180618286e-01
4.950921982526779175e-02
6.412668619304895401e-03
-3.860687837004661560e-02
8.258482068777084351e-02
-4.478422179818153381e-02
2.646986208856105804e-02
1.974104437977075577e-03
4.516709595918655396e-03
2.211449295282363892e-02
8.708077669143676758e-02
8.566032163798809052e-03
2.385798096656799316e-02
-1.389325875788927078e-02
7.904517650604248047e-02
6.382293254137039185e-02
1.098570376634597778e-01
4.602765291929244995e-02
3.835067152976989746e-02
1.590042412281036377e-01
1.662292703986167908e-02
3.718705847859382629e-02
1.548143196851015091e-02
6.090880930423736572e-02
9.623595513403415680e-03
1.925832242704927921e-03
5.073235556483268738e-02
-9.179401397705078125e-02
1.125844717025756836e-01
2.655921317636966705e-02
8.438049256801605225e-02
3.688060492277145386e-02
-3.441121429204940796e-02
7.029470056295394897e-03
-2.797137014567852020e-02
8.642751723527908325e-02
8.016047999262809753e-03
6.096417549997568130e-03
4.615739360451698303e-02
2.101869694888591766e-02
-3.849877044558525085e-02
1.268912921659648418e-03
6.432335078716278076e-02
1.187545359134674072e-01
2.816213294863700867e-02
-3.573337942361831665e-02
-2.616187324747443199e-03
3.084596013650298119e-03
-1.429651863873004913e-02
9.463224560022354126e-03
6.607802212238311768e-02
2.446335367858409882e-02
8.624426275491714478e-02
5.953830259386450052e-05
3.844583407044410706e-02
-3.015298396348953247e-02
2.272307500243186951e-02
3.386081382632255554e-02
4.251882806420326233e-02
4.576420783996582031e-02
5.675984174013137817e-02
-3.559865429997444153e-02
3.607472870498895645e-03
8.315744251012802124e-02
-2.169084176421165466e-02
3.413349762558937073e-02
3.283306211233139038e-02
-2.194299362599849701e-02
2.176298759877681732e-02
9.202474728226661682e-03
1.244695298373699188e-02
-3.025271184742450714e-02
-8.730779401957988739e-03
8.911400288343429565e-02
8.276995271444320679e-02
9.354329109191894531e-02
9.683384746313095093e-02
-7.004459947347640991e-02
6.148183718323707581e-02
3.844140097498893738e-03
-8.295466750860214233e-02
1.115023251622915268e-02
2.022201009094715118e-02
