2.967249229550361633e-02
1.803795099258422852e-01
8.576362580060958862e-02
1.914985328912734985e-01
3.532675653696060181e-02
1.111826580017805099e-02
-2.140097506344318390e-02
-5.684800446033477783e-02
3.760116547346115112e-02
-1.104501485824584961e-01
1.681106835603713989e-01
-5.951191112399101257e-02
2.798900753259658813e-02
1.030802279710769653e-01
-6.875573843717575073e-02
5.241990089416503906e-02
-3.914406150579452515e-02
2.252641692757606506e-02
-4.372233524918556213e-02
4.912694543600082397e-02
-1.105568483471870422e-01
1.203422807157039642e-02
6.773520261049270630e-02
1.319401711225509644e-01
4.784699529409408569e-02
-2.937269210815429688e-02
-4.862898960709571838e-03
3.874798864126205444e-02
-1.450398564338684082e-02
3.123424202203750610e-02
-6.700274348258972168e-02
1.045038923621177673e-01
9.855607897043228149e-02
5.100830271840095520e-02
6.172249838709831238e-02
-2.754530869424343109e-02
5.717591382563114166e-03
1.399604827165603638e-01
3.879298269748687744e-02
1.043678261339664459e-02
-4.696244001388549805e-02
-3.673833562061190605e-03
-2.717038244009017944e-02
3.087927214801311493e-02
9.367316961288452148e-02
1.220989227294921875e-02
2.360963672399520874e-01
6.089897081255912781e-02
1.132205277681350708e-01
9.250366687774658203e-02
-4.241108894348144531e-03
-6.789138168096542358e-02
-1.435535680502653122e-02
5.299424380064010620e-02
1.017234995961189270e-01
6.269993633031845093e-02
-5.473694950342178345e-02
7.161775976419448853e-02
1.371957808732986450e-01
-5.783382430672645569e-02
-5.197139456868171692e-03
-4.321230202913284302e-02
-7.672906666994094849e-02
1.352798044681549072e-01
3.361730277538299561e-02
4.071174561977386475e-02
7.192020863294601440e-02
4.731443151831626892e-02
7.908237725496292114e-02
-5.679345689713954926e-03
-6.063895300030708313e-02
-2.338015101850032806e-02
-7.528462260961532593e-02
3.676543757319450378e-02
1.147899776697158813e-01
1.237255614250898361e-02
1.803532242774963379e-02
9.466455876827239990e-02
2.846397459506988525e-03
2.762761141639202833e-04
8.514124155044555664e-02
-1.254778634756803513e-02
1.096052378416061401e-01
2.577193267643451691e-02
-4.382722079753875732e-02
4.830496013164520264e-02
-5.167999118566513062e-02
-1.725494861602783203e-02
9.727294743061065674e-02
-7.807216048240661621e-02
-6.620033085346221924e-02
4.189654812216758728e-02
2.492787130177021027e-02
4.434980079531669617e-02
1.094812378287315369e-01
6.446184962987899780e-02
-3.605712577700614929e-02
1.529484391212463379e-01
6.290170550346374512e-02
-4.657846689224243164e-02
-7.143305242061614990e-02
5.472474917769432068e-02
1.193767860531806946e-01
-7.004212588071823120e-02
-3.243170306086540222e-02
-6.081697717308998108e-02
-8.629500120878219604e-02
1.265690028667449951e-01
8.742014318704605103e-02
-6.324939429759979248e-02
-4.841916728764772415e-03
-4.451111424714326859e-03
8.501142263412475586e-02
-3.927797451615333557e-02
-2.620315365493297577e-02
-3.735869750380516052e-02
-4.854533448815345764e-02
3.854656964540481567e-02
-5.501929670572280884e-02
1.365137249231338501e-01
9.880487620830535889e-02
1.940204203128814697e-02
7.075707614421844482e-02
-6.300986558198928833e-02
6.302810460329055786e-02
1.114283129572868347e-01
-7.822966575622558594e-02
-6.664076354354619980e-03
