1.744408346712589264e-02,1.469787489622831345e-02,1.346147060394287109e-02,4.535349458456039429e-02,4.272200539708137512e-02,-2.958061732351779938e-02,2.022238681092858315e-03,3.136801347136497498e-02,8.433687500655651093e-03,4.057350382208824158e-02,-1.655865833163261414e-02,3.846114967018365860e-03,-3.245345875620841980e-02,-3.383582830429077148e-02,-1.157153863459825516e-02,4.397917166352272034e-02,4.119851812720298767e-02,3.003103658556938171e-02,4.101182892918586731e-02,1.498575881123542786e-02,4.420008137822151184e-02,-4.735175892710685730e-02,4.792451858520507812e-02,4.117672890424728394e-02,8.062471635639667511e-03,-2.549625374376773834e-02,-4.762713238596916199e-02,-2.035775035619735718e-02,2.858875505626201630e-02,-3.388130338862538338e-03,1.815834641456604004e-02,-1.952115818858146667e-02,-2.524929121136665344e-02,-1.906832121312618256e-02,-2.981315925717353821e-02,1.301392912864685059e-02,-1.813255809247493744e-02,-2.061433391645550728e-03,4.000468924641609192e-02,3.643777221441268921e-02,1.207478623837232590e-02,-2.819380164146423340e-02,-3.341386839747428894e-02,2.866084687411785126e-02,-4.076134413480758667e-03,2.572948671877384186e-02,-7.375214714556932449e-03,2.611959725618362427e-02,2.452336996793746948e-02,-1.117808278650045395e-02,1.141998637467622757e-02,-9.399709291756153107e-03,-6.190708838403224945e-03,-3.750222921371459961e-02,-5.650288611650466919e-02,2.853351645171642303e-03,-6.410060077905654907e-02,-5.802733823657035828e-02,-7.506901025772094727e-02,-3.425448760390281677e-02,-6.841566413640975952e-02,-6.370982527732849121e-02,-4.303172975778579712e-02,2.889252826571464539e-02,8.589502424001693726e-02,-6.122057884931564331e-02,-3.992391377687454224e-02,1.331815868616104126e-01,9.800023585557937622e-02,3.515370190143585205e-02,3.928156511392444372e-04,-3.450959548354148865e-02,4.936715587973594666e-02,1.557328924536705017e-02,-5.879016220569610596e-02,-7.983441464602947235e-04,-1.311985496431589127e-02,1.415813341736793518e-02,-3.718938678503036499e-02,-2.152597717940807343e-02,5.131013691425323486e-03,2.035323530435562134e-03,2.935413271188735962e-03,4.108078032732009888e-02,-2.329623512923717499e-02,1.765609905123710632e-02,8.104538545012474060e-03,6.753610447049140930e-03,-3.271262347698211670e-02,-5.537395551800727844e-02,5.848821252584457397e-02,5.963587015867233276e-02,2.223793789744377136e-02,-2.682605944573879242e-02,-5.070331040769815445e-03,4.431711882352828979e-02,-7.883874699473381042e-03,5.327486619353294373e-02,-3.269124776124954224e-02,1.166011765599250793e-02,2.727978490293025970e-02,-4.898208379745483398e-02,1.746478676795959473e-02,2.341961255297064781e-03,-2.314544981345534325e-03,5.341723561286926270e-02,-1.205827854573726654e-02,8.463989943265914917e-03,4.109458252787590027e-02,5.913612991571426392e-02,6.699758768081665039e-02,2.640646696090698242e-02,2.772816456854343414e-02,1.890827529132366180e-02,3.816637769341468811e-02,-1.421716623008251190e-02,6.430211663246154785e-02,2.297017350792884827e-02,3.648716583847999573e-02,-1.566033251583576202e-02,-3.549841791391372681e-02,5.170833319425582886e-02,-2.196497283875942230e-02,-2.739054895937442780e-02,1.181016676127910614e-03,-4.266227409243583679e-02,-5.273532588034868240e-03,-4.633496701717376709e-02,2.866031043231487274e-02,-3.035866282880306244e-02,-1.106109470129013062e-02,-8.254924789071083069e-03,-2.881539054214954376e-02,-3.905189782381057739e-02,2.053935825824737549e-02,-2.282120287418365479e-02,-1.298044063150882721e-02,4.217134416103363037e-02,1.015665382146835327e-01,1.000539958477020264e-01,-2.314169146120548248e-02,-1.356358453631401062e-02,1.473018433898687363e-02,4.324536770582199097e-02,1.730454713106155396e-02,-8.094185963273048401e-03,1.075789704918861389e-02,-4.591573029756546021e-02,-2.483235485851764679e-02,-5.133534595370292664e-02,-3.604868054389953613e-02,-5.288184806704521179e-02,-5.661156401038169861e-02,2.216316759586334229e-02,4.382964223623275757e-03,-7.266691885888576508e-03,7.066200487315654755e-03,-4.550012946128845215e-02,-3.476250171661376953e-02,4.889478906989097595e-02,8.986788988113403320e-02,-1.712477416731417179e-03,3.994471579790115356e-02,5.203419551253318787e-02,4.396838694810867310e-02,9.043199568986892700e-02,8.017960935831069946e-02,8.541495352983474731e-02,3.876459971070289612e-02,-2.783157490193843842e-02,-2.248028479516506195e-02,1.650200784206390381e-02,4.161255806684494019e-02,-5.022271070629358292e-03,-2.297446131706237793e-02,-1.277114450931549072e-01,-2.714576199650764465e-02,6.983991712331771851e-02,6.260158121585845947e-02,1.258628256618976593e-02,-1.294232625514268875e-02,-8.096613734960556030e-02,-5.763066187500953674e-02,2.044240944087505341e-02,-8.332489430904388428e-02,7.964258641004562378e-02,-9.303847700357437134e-02,-1.172134056687355042e-01,-1.374339312314987183e-01,3.212323412299156189e-02,9.775956720113754272e-02,1.301668733358383179e-01,3.953427821397781372e-02,9.611929766833782196e-03,8.489957451820373535e-02,-8.002699352800846100e-03,1.512205302715301514e-01,1.213313564658164978e-01,1.257808804512023926e-01,7.724478095769882202e-02,-1.935658045113086700e-02,-5.601917579770088196e-02,-1.290448661893606186e-02,-5.155004560947418213e-02,-7.581515610218048096e-02,-8.385846763849258423e-02,-1.535142064094543457e-01,-1.075193583965301514e-01,-3.385175392031669617e-02,1.259716972708702087e-02,3.698489814996719360e-02,-7.631434500217437744e-02,-4.922186210751533508e-02,4.534776508808135986e-02,3.466962650418281555e-02,3.253479674458503723e-02,4.296415019780397415e-03,6.962041556835174561e-02,1.723836921155452728e-02,-5.055771023035049438e-02,7.783921808004379272e-02,3.002397343516349792e-02,3.194821253418922424e-02,1.097422465682029724e-02,-6.428483128547668457e-02,8.537331223487854004e-02,-1.387525908648967743e-02,-2.680726349353790283e-02,1.967715658247470856e-02,2.385142026469111443e-03,9.099978953599929810e-02,1.538118906319141388e-02,5.086964461952447891e-03,-7.505878061056137085e-02,2.506552264094352722e-02,1.986156590282917023e-02,9.011027961969375610e-02,1.197787001729011536e-01,2.179899066686630249e-02,5.351664870977401733e-02,-5.321410298347473145e-02,4.403374344110488892e-02,8.566690981388092041e-02,8.075390756130218506e-02,-3.408853337168693542e-02,-2.920328266918659210e-02,-3.871854394674301147e-02,5.286071822047233582e-02,-3.443089500069618225e-02,1.406559720635414124e-02,1.866869442164897919e-02,-1.678199623711407185e-04,-2.760496549308300018e-02,-6.962908804416656494e-02,-1.373476721346378326e-02,-6.253749132156372070e-02,-5.181789770722389221e-02,-4.812327027320861816e-02,-5.536890588700771332e-03,-1.785833388566970825e-02,-1.728079468011856079e-02,-2.329853177070617676e-02,5.668566096574068069e-03,8.871012926101684570e-02,3.684521839022636414e-02,-4.328973218798637390e-02,-1.746077090501785278e-02,2.635134570300579071e-02,2.301706187427043915e-02,-2.999756718054413795e-03,2.369473688304424286e-02,-2.906535752117633820e-02,-2.069153636693954468e-02,9.585835039615631104e-03,-6.994639337062835693e-02,8.660962805151939392e-03,-9.399600327014923096e-02,-3.186538442969322205e-02,7.206422835588455200e-02,-4.177637025713920593e-02,1.082280278205871582e-01,-3.925200924277305603e-02,-1.491950601339340210e-01,-5.109957605600357056e-02,6.153998896479606628e-02,5.840835347771644592e-02,1.023841276764869690e-01,-2.026136964559555054e-02,1.612047851085662842e-02,4.077767208218574524e-02,-3.195386752486228943e-02,1.316014081239700317e-01,1.329965591430664062e-01,1.875094254501163960e-03,3.378965705633163452e-02,8.376021869480609894e-03,3.135362174361944199e-03,7.670270651578903198e-02,-3.759156912565231323e-02,3.256526775658130646e-03,-1.069930568337440491e-01,-4.517070949077606201e-03,3.253902867436408997e-02,-2.402140200138092041e-02,-4.362313076853752136e-02,-3.380740061402320862e-02,-1.080082952976226807e-01,-3.824579343199729919e-02,-1.554817054420709610e-02,-4.318838939070701599e-02,4.678897932171821594e-02,-8.160386979579925537e-02,-7.476795464754104614e-02,4.003791883587837219e-02,-3.665374219417572021e-02,1.246145293116569519e-01,7.701471447944641113e-02,1.642414741218090057e-02,-1.415117271244525909e-02,2.326725795865058899e-02,4.276086762547492981e-02,5.451926961541175842e-02,-9.364286670461297035e-04,2.941108308732509613e-02,-4.990121349692344666e-02,1.915165781974792480e-02,5.288297310471534729e-02,3.432681411504745483e-02,-8.387044072151184082e-03,1.835826970636844635e-02,7.000905275344848633e-02,7.805810868740081787e-02,3.388717770576477051e-02,1.957985945045948029e-02,-1.180314738303422928e-02,3.088691085577011108e-02,8.089380338788032532e-03,-9.456569328904151917e-03,1.539510302245616913e-02,-6.060888618230819702e-02,-2.098120748996734619e-02,-2.524586953222751617e-02,1.364369969815015793e-02,-6.383311748504638672e-02,-1.572770625352859497e-02,-8.911699987947940826e-03,3.663349151611328125e-02,1.364748273044824600e-02,4.203977435827255249e-02,1.295075472444295883e-02,-5.500214919447898865e-02,4.948494955897331238e-02,3.016686625778675079e-02,-3.527344204485416412e-03,4.377165809273719788e-02,-5.345059931278228760e-02,4.974349960684776306e-02,7.449673861265182495e-02,3.198898583650588989e-02,4.188793525099754333e-02,4.946497734636068344e-03,-1.370454877614974976e-01,3.518720855936408043e-03,-6.735358387231826782e-02,-1.994087360799312592e-02,1.627751290798187256e-01,9.518759697675704956e-02,-6.601577624678611755e-03,-8.082869648933410645e-02,-2.288385480642318726e-02,2.066495083272457123e-02,6.728882342576980591e-02,8.468821644783020020e-02,7.955509424209594727e-02,1.047340333461761475e-01,1.583961397409439087e-02,9.091954678297042847e-03,-2.007997827604413033e-03,6.271307356655597687e-03,3.618954494595527649e-02,1.114876475185155869e-02,5.935959517955780029e-03,-9.340302087366580963e-03,-3.985135257244110107e-02,1.009280607104301453e-02,-1.219331286847591400e-02,3.213252872228622437e-02,3.432143479585647583e-02,-3.459449158981442451e-03,6.670769304037094116e-02,-4.534583166241645813e-02,-1.054933667182922363e-02,6.260908395051956177e-02,5.628181248903274536e-02,4.176786541938781738e-02,-1.117030438035726547e-02,-4.376273974776268005e-02,-3.344570845365524292e-02,-8.677388541400432587e-03,-7.209357572719454765e-04
3.018739633262157440e-02,-2.894617989659309387e-02,1.446783542633056641e-02,1.246668864041566849e-02,-7.571432273834943771e-03,-3.821934340521693230e-03,-3.328346833586692810e-02,-3.518922999501228333e-02,-4.204173013567924500e-02,7.840617559850215912e-03,3.083833865821361542e-02,4.051283001899719238e-02,1.801023632287979126e-02,3.647918999195098877e-02,-5.048504099249839783e-02,-1.566847041249275208e-02,-2.694218233227729797e-02,2.656173892319202423e-02,-4.843019694089889526e-02,-2.655079588294029236e-02,4.176959861069917679e-03,4.647533223032951355e-02,2.102288044989109039e-02,-3.628410026431083679e-02,3.693521395325660706e-02,-2.339855581521987915e-02,4.620452225208282471e-02,-9.545362554490566254e-03,1.818826422095298767e-02,-3.609785810112953186e-02,2.268538111820816994e-03,3.573553636670112610e-02,-9.732833132147789001e-03,-3.064764291048049927e-02,-6.773218978196382523e-03,-3.688228875398635864e-02,-2.645850181579589844e-02,-4.525566473603248596e-02,2.964076958596706390e-02,4.437642171978950500e-02,2.877908386290073395e-02,4.094797372817993164e-02,-3.800641000270843506e-02,3.884636610746383667e-02,-9.882193990051746368e-03,3.980446979403495789e-02,4.628165811300277710e-02,2.435704879462718964e-02,2.019554935395717621e-02,-4.798969626426696777e-02,-2.249652752652764320e-03,4.311931785196065903e-03,1.380381453782320023e-02,-6.188624724745750427e-02,-3.805309161543846130e-02,1.591073535382747650e-02,-7.092007994651794434e-02,-1.598850078880786896e-02,7.108747959136962891e-02,7.663924247026443481e-02,1.843341509811580181e-03,1.499599069356918335e-01,1.204385161399841309e-01,-2.938559465110301971e-02,-3.916214779019355774e-02,9.019565582275390625e-02,8.848991245031356812e-02,1.216521952301263809e-02,2.766112238168716431e-02,4.841386526823043823e-02,3.333129733800888062e-02,-6.053256615996360779e-02,-3.601338341832160950e-02,-1.827295869588851929e-02,-3.697048872709274292e-02,1.289914082735776901e-02,2.117929421365261078e-02,1.652976125478744507e-02,-3.521538153290748596e-02,-3.946858644485473633e-02,4.169937223196029663e-02,-3.292291983962059021e-02,-2.891975827515125275e-02,-6.639549136161804199e-02,5.439491197466850281e-02,-3.406505286693572998e-02,-8.340179920196533203e-02,-2.355746366083621979e-02,4.833830520510673523e-02,-6.990406196564435959e-03,-2.825501188635826111e-02,3.341541392728686333e-03,1.924445107579231262e-02,3.145989030599594116e-02,-4.976816475391387939e-03,5.257286876440048218e-02,-2.753308974206447601e-02,7.679759874008595943e-04,1.531794667243957520e-03,-1.893467642366886139e-02,3.702545538544654846e-02,1.397906709462404251e-02,-3.168933838605880737e-02,1.504732202738523483e-02,1.185103319585323334e-02,-3.549389541149139404e-02,-4.038919508457183838e-02,-2.715409174561500549e-02,5.787105113267898560e-02,3.898067027330398560e-02,-1.103324722498655319e-02,1.249776035547256470e-02,4.590259492397308350e-02,4.432304203510284424e-02,-9.770424105226993561e-03,-1.904365792870521545e-02,4.098751768469810486e-02,-5.638503655791282654e-02,-2.862438559532165527e-02,-1.822338253259658813e-02,2.669238485395908356e-02,-9.554473683238029480e-03,2.270293049514293671e-02,4.201213270425796509e-02,-1.909423805773258209e-02,6.620133668184280396e-02,7.524126023054122925e-02,-2.552735060453414917e-02,-7.336231879889965057e-03,3.306678961962461472e-03,-5.525184329599142075e-03,1.398005522787570953e-02,1.565674394369125366e-01,1.252785027027130127e-01,1.125676706433296204e-01,3.127935901284217834e-02,1.211366727948188782e-01,8.259425312280654907e-02,5.801550578325986862e-04,5.123426672071218491e-04,1.097789257764816284e-01,1.450160890817642212e-02,-2.133339829742908478e-02,-1.660760678350925446e-02,1.738331164233386517e-03,-6.885228306055068970e-02,-6.497472524642944336e-02,6.285151094198226929e-02,2.678630314767360687e-02,-1.062737684696912766e-02,7.239243388175964355e-02,-1.647277502343058586e-03,-6.133597716689109802e-02,-5.947161000221967697e-03,-2.294688299298286438e-02,-5.200878903269767761e-02,-5.552668496966362000e-02,-2.158972807228565216e-02,9.417196363210678101e-02,8.961267769336700439e-02,-1.720876060426235199e-02,3.673198819160461426e-02,1.050555258989334106e-01,6.833482533693313599e-02,6.127518601715564728e-03,4.938596859574317932e-02,4.696190357208251953e-02,-3.716902062296867371e-02,-2.918127924203872681e-02,4.064276814460754395e-03,1.448372844606637955e-02,-6.124263256788253784e-02,-2.676882222294807434e-02,5.946662649512290955e-02,3.615748137235641479e-02,-8.394812792539596558e-02,6.092790141701698303e-02,5.742530152201652527e-02,-4.547978192567825317e-02,-9.105852246284484863e-02,7.194252312183380127e-02,5.022557079792022705e-02,-9.334993362426757812e-02,-9.613377600908279419e-02,1.763257780112326145e-03,-7.327907532453536987e-02,-1.499678194522857666e-01,-5.655479803681373596e-02,9.664559364318847656e-02,4.888361692428588867e-02,-6.941177695989608765e-02,1.236790269613265991e-01,1.424607336521148682e-01,7.634415477514266968e-02,-1.796693168580532074e-02,1.108462959527969360e-01,5.894574522972106934e-02,4.932181164622306824e-02,-6.325546652078628540e-02,-4.223781451582908630e-02,1.001084223389625549e-02,-9.159124642610549927e-02,-7.876381278038024902e-02,-1.091630682349205017e-01,-1.812140084803104401e-02,-1.306002289056777954e-01,-1.015126630663871765e-01,1.212994474917650223e-02,1.142016891390085220e-02,4.858831409364938736e-03,-3.744759783148765564e-02,4.362116754055023193e-02,4.244609177112579346e-02,1.665844954550266266e-02,-5.941270291805267334e-02,1.113103255629539490e-01,4.741325229406356812e-02,3.423719108104705811e-02,-5.610834062099456787e-02,-4.070797935128211975e-02,4.530798643827438354e-02,-2.713300101459026337e-02,-3.570545837283134460e-02,2.672437950968742371e-02,3.236887231469154358e-02,-1.066177431493997574e-02,6.667041033506393433e-02,-5.714514479041099548e-02,-7.325265556573867798e-02,1.643217541277408600e-02,-5.819096788763999939e-02,-1.124126017093658447e-01,2.911332994699478149e-04,2.197720296680927277e-02,4.319469630718231201e-02,7.884318940341472626e-03,2.731050178408622742e-02,1.007603630423545837e-01,4.330298677086830139e-02,-5.173538997769355774e-02,1.082428917288780212e-01,-2.980891615152359009e-02,2.170745655894279480e-02,-2.116257697343826294e-02,2.975743263959884644e-02,-6.398312747478485107e-02,-5.327272415161132812e-02,-6.178328767418861389e-02,2.408779226243495941e-02,4.592483490705490112e-02,2.279348671436309814e-03,-4.550589248538017273e-02,-8.597324788570404053e-02,-8.476062119007110596e-02,1.390101108700037003e-02,-5.239037424325942993e-02,-1.082846522331237793e-01,-3.304674476385116577e-02,1.931021548807621002e-02,5.185554176568984985e-02,4.696476738899946213e-03,2.307910658419132233e-02,4.329060018062591553e-02,-5.595629569143056870e-03,-6.013180688023567200e-02,1.050394847989082336e-01,7.675180584192276001e-02,-7.024894654750823975e-02,-7.915381342172622681e-02,-6.200401857495307922e-02,-2.779583446681499481e-02,-8.045394718647003174e-02,-6.461782846599817276e-03,1.787175051867961884e-02,6.849348545074462891e-03,3.784384205937385559e-02,2.786625549197196960e-02,-5.848239362239837646e-02,-1.059690043330192566e-01,-3.949984535574913025e-02,-1.015339493751525879e-01,-9.548706561326980591e-02,-2.189538441598415375e-02,1.869032718241214752e-02,3.243394196033477783e-02,-1.997016184031963348e-02,-1.104488316923379898e-02,6.920100189745426178e-03,4.171968623995780945e-02,-3.349505737423896790e-02,1.261589974164962769e-01,-9.691902436316013336e-03,5.375767871737480164e-02,-4.207329358905553818e-03,3.632432222366333008e-02,-2.437638677656650543e-02,-2.971918135881423950e-02,-3.666867688298225403e-02,3.033917210996150970e-02,8.743750862777233124e-03,-1.503099966794252396e-02,-8.575486391782760620e-02,-7.602565735578536987e-02,-4.839047417044639587e-02,-8.971401304006576538e-02,-3.094515576958656311e-02,-5.223836377263069153e-02,3.414190560579299927e-02,4.144224897027015686e-02,-2.862755022943019867e-02,-4.624899849295616150e-02,3.953196108341217041e-02,2.109486795961856842e-02,-4.049335047602653503e-02,-1.823501288890838623e-02,4.306669160723686218e-02,3.656242042779922485e-02,5.786371603608131409e-02,2.532639726996421814e-02,-1.629091985523700714e-02,7.455862313508987427e-02,-4.076581913977861404e-03,-1.324725523591041565e-02,-5.492087081074714661e-02,-3.999250940978527069e-03,9.705467149615287781e-03,1.011500135064125061e-02,-2.781281061470508575e-02,-3.257685899734497070e-02,-2.375068701803684235e-02,-1.247151847928762436e-02,-4.972099326550960541e-03,-5.381028726696968079e-02,-8.147628605365753174e-02,-1.553720328956842422e-02,4.119585826992988586e-02,-4.551754146814346313e-02,-5.654497817158699036e-02,-6.668888777494430542e-02,2.446569502353668213e-02,-1.814322173595428467e-02,-2.874469012022018433e-02,7.140160351991653442e-02,5.072328075766563416e-02,3.279419988393783569e-02,4.992237687110900879e-02,4.726057127118110657e-02,6.227703019976615906e-02,-5.560767278075218201e-02,1.094376761466264725e-02,2.579357288777828217e-02,-1.226339861750602722e-02,4.049916565418243408e-02,4.951470997184514999e-03,-7.153566181659698486e-02,8.974473923444747925e-03,1.507184952497482300e-01,1.084864586591720581e-01,7.852948270738124847e-03,-8.994721621274948120e-02,-6.691416352987289429e-02,-4.843551293015480042e-02,-1.164755523204803467e-01,6.296012550592422485e-02,9.748716652393341064e-02,-1.575352698564529419e-01,-3.369124978780746460e-02,7.310306280851364136e-02,9.717141091823577881e-02,1.306984573602676392e-02,1.567180752754211426e-01,9.480759501457214355e-02,7.919245213270187378e-02,1.703648827970027924e-02,-9.200941771268844604e-03,2.655238378793001175e-03,2.783095277845859528e-02,1.303452998399734497e-02,-3.400464728474617004e-02,2.769040688872337341e-02,-4.219204932451248169e-02,3.429334610700607300e-02,5.532188806682825089e-03,4.526413232088088989e-02,8.268798142671585083e-02,2.054541744291782379e-02,1.090675741434097290e-01,9.126630425453186035e-02,8.731953799724578857e-02,-4.315535724163055420e-02,6.305827200412750244e-02,2.379390038549900055e-02,4.637245088815689087e-02,-7.949817925691604614e-02,-4.535542055964469910e-02,-5.098633840680122375e-02,-2.613864466547966003e-02,1.842788979411125183e-02,-3.078605048358440399e-02,2.255211211740970612e-02
3.781981766223907471e-03,3.129983693361282349e-02,1.023753918707370758e-02,3.309386223554611206e-02,2.198250032961368561e-03,1.716512441635131836e-02,-2.952270954847335815e-02,-9.254497475922107697e-03,-3.274429216980934143e-02,2.929498627781867981e-02,1.604717783629894257e-02,-5.768365692347288132e-03,-1.648359233513474464e-03,1.410897076129913330e-02,2.868556044995784760e-02,4.123915359377861023e-02,1.809952897019684315e-03,8.952328935265541077e-03,-1.192918792366981506e-02,-1.080485805869102478e-02,-1.243860740214586258e-02,4.043235257267951965e-02,-4.280476644635200500e-02,-4.976581782102584839e-02,-3.802465274930000305e-02,3.137073665857315063e-02,-8.774135261774063110e-03,-4.062116518616676331e-02,3.976520150899887085e-02,-4.760720953345298767e-02,3.734584525227546692e-02,4.781925305724143982e-02,1.721004769206047058e-02,2.248430065810680389e-02,8.753406815230846405e-03,-9.393329732120037079e-03,2.487141825258731842e-02,1.503782998770475388e-02,-2.760157920420169830e-03,-3.676516935229301453e-02,2.393363043665885925e-02,4.023667424917221069e-02,-1.322868373245000839e-02,-3.477204358205199242e-03,4.582996666431427002e-02,-2.583515597507357597e-03,-3.375760465860366821e-02,-2.601907216012477875e-02,-4.625994339585304260e-02,-1.768529415130615234e-02,9.891268797218799591e-03,2.337926253676414490e-02,-3.110804967582225800e-02,8.802127838134765625e-02,-4.077497497200965881e-02,-8.001302927732467651e-02,5.011706426739692688e-02,7.549773436039686203e-03,-3.479350358247756958e-02,-8.740151673555374146e-02,1.151935849338769913e-02,1.113682910799980164e-01,3.781219199299812317e-02,-1.387200206518173218e-01,3.864409402012825012e-02,6.576926261186599731e-02,1.066938340663909912e-01,-6.497916579246520996e-02,-1.301493216305971146e-02,3.210049495100975037e-02,4.191101714968681335e-02,1.605083607137203217e-02,-1.651938632130622864e-02,-2.144560962915420532e-02,-4.441256821155548096e-02,3.822364658117294312e-02,-1.700161211192607880e-02,-3.426020592451095581e-02,-9.595678187906742096e-03,2.688338421285152435e-02,-4.177502822130918503e-03,-5.556642077863216400e-03,-1.418018713593482971e-02,7.293398678302764893e-02,-4.283503815531730652e-02,-3.516074270009994507e-02,-7.756148278713226318e-02,4.821373149752616882e-02,2.101024985313415527e-02,-8.673120290040969849e-03,-2.057057106867432594e-03,3.263913840055465698e-02,4.007349163293838501e-02,-2.560367248952388763e-02,-4.142142087221145630e-02,-1.993270218372344971e-02,1.869072206318378448e-02,-6.510658189654350281e-03,7.463451474905014038e-03,-3.754370845854282379e-03,1.651251688599586487e-02,2.805727906525135040e-02,-2.271381672471761703e-03,-3.243142366409301758e-02,7.632153574377298355e-03,1.403905078768730164e-02,-2.340972656384110451e-03,-8.343458175659179688e-02,-7.285309582948684692e-02,3.062720783054828644e-02,2.920816279947757721e-02,-8.878435939550399780e-02,-6.444171071052551270e-02,-7.540871948003768921e-02,7.897909730672836304e-03,-2.099256217479705811e-02,-8.397088944911956787e-02,-4.055789113044738770e-02,2.554824016988277435e-02,-1.619061082601547241e-02,1.512139011174440384e-02,4.870056174695491791e-03,-3.283070866018533707e-03,6.109459325671195984e-02,6.482953578233718872e-02,8.816827088594436646e-03,-3.328502923250198364e-02,-3.842946141958236694e-02,3.634230047464370728e-02,-7.783331722021102905e-02,-2.526346407830715179e-02,-5.001351609826087952e-02,-4.450116306543350220e-02,-6.370844691991806030e-02,-9.487216919660568237e-02,-1.110967062413692474e-02,-5.257032811641693115e-03,-1.329988092184066772e-01,-1.342906206846237183e-01,1.463543996214866638e-02,-6.077869329601526260e-03,-9.891295433044433594e-02,-9.205771982669830322e-02,-6.044423952698707581e-02,8.661133050918579102e-02,-5.606523528695106506e-02,-5.266601685434579849e-03,-2.422556094825267792e-02,2.470132336020469666e-02,4.820814356207847595e-02,-9.885553270578384399e-03,-2.416029199957847595e-02,6.114669144153594971e-02,1.049859598278999329e-01,2.139916457235813141e-02,-5.856062099337577820e-02,-7.374721765518188477e-02,-2.748539112508296967e-02,2.255104482173919678e-02,-1.840589102357625961e-03,-3.521088045090436935e-03,-9.091737121343612671e-02,-5.804490670561790466e-02,4.990110546350479126e-02,-3.321369737386703491e-02,-1.083257701247930527e-02,-4.707022383809089661e-02,-9.004767239093780518e-02,4.359754920005798340e-02,-3.068036399781703949e-03,-6.177897751331329346e-02,-7.218871265649795532e-02,-5.652344599366188049e-02,7.877708226442337036e-02,-1.548313535749912262e-02,-7.162757962942123413e-02,-1.534402519464492798e-01,-4.103020951151847839e-02,6.310950964689254761e-02,4.930194094777107239e-02,1.362198404967784882e-02,-1.650648713111877441e-01,-9.272175841033458710e-03,2.532392144203186035e-01,4.668551497161388397e-03,-1.744627952575683594e-01,-1.311813294887542725e-01,1.703759133815765381e-01,1.770372539758682251e-01,-2.110854983329772949e-01,-1.527751982212066650e-01,-3.705956041812896729e-02,1.497172117233276367e-01,4.297434166073799133e-02,-2.266596108675003052e-01,9.725312120281159878e-04,-2.021824195981025696e-02,1.101253703236579895e-01,-8.813922852277755737e-02,1.823298633098602295e-02,-2.064188010990619659e-02,-3.237615153193473816e-02,1.975165754556655884e-01,1.379483472555875778e-02,-9.700133651494979858e-02,-1.328321248292922974e-01,2.069834768772125244e-01,2.547292113304138184e-01,-3.409331664443016052e-02,-1.580049097537994385e-01,-3.106024675071239471e-02,2.586686611175537109e-01,1.466677486896514893e-01,-1.495705246925354004e-01,-3.696778044104576111e-02,7.451800256967544556e-02,1.974009275436401367e-01,-2.588507719337940216e-02,-9.202085435390472412e-02,-6.226894631981849670e-02,6.678453832864761353e-02,1.497478038072586060e-02,-4.663752764463424683e-02,-9.184580296277999878e-02,-1.102697849273681641e-01,3.508500009775161743e-02,-6.540217995643615723e-02,-7.312948256731033325e-02,9.083972871303558350e-02,4.271689057350158691e-02,-2.378460019826889038e-02,-2.299378160387277603e-03,-1.081935390830039978e-01,1.156386807560920715e-01,-6.871302425861358643e-02,7.295207586139440536e-03,-1.256626397371292114e-01,-3.988540917634963989e-02,7.289438694715499878e-02,-3.619549050927162170e-02,5.626166239380836487e-02,-1.008818969130516052e-01,-1.043167933821678162e-01,8.429950103163719177e-03,7.982014119625091553e-02,3.599752485752105713e-02,-9.054727107286453247e-02,-1.639292202889919281e-02,-5.163052678108215332e-02,9.050486609339714050e-03,-4.119389504194259644e-02,-2.795801684260368347e-02,4.378982260823249817e-02,7.940433174371719360e-02,-6.299311667680740356e-02,-2.121797017753124237e-02,1.240507364273071289e-01,6.961462646722793579e-02,-3.987682610750198364e-02,-3.911453858017921448e-02,5.484177172183990479e-02,1.082390472292900085e-01,1.396319083869457245e-02,-7.827386260032653809e-02,4.729784093797206879e-03,7.777680456638336182e-02,1.064870283007621765e-01,3.031078726053237915e-03,-5.554983019828796387e-02,7.226656377315521240e-02,-9.051053784787654877e-03,6.367216259241104126e-02,-2.786545269191265106e-02,-3.936483711004257202e-02,-2.076144516468048096e-02,-6.180059537291526794e-02,-8.464881032705307007e-02,2.435204014182090759e-02,1.257710456848144531e-01,-2.253640070557594299e-02,-1.003168448805809021e-01,-1.081473454833030701e-01,-2.018145285546779633e-03,1.000825762748718262e-01,-5.367112904787063599e-02,-7.504597306251525879e-02,-9.096097201108932495e-02,3.659989312291145325e-02,1.781649142503738403e-01,-9.799478948116302490e-02,1.698114164173603058e-02,-1.506257057189941406e-01,1.006119474768638611e-01,1.417376846075057983e-01,-6.373690068721771240e-02,3.278186917304992676e-02,1.268603745847940445e-02,1.913059130311012268e-02,2.755961194634437561e-02,2.965663373470306396e-02,-1.284923404455184937e-01,-1.725962571799755096e-02,1.690260022878646851e-01,4.340864345431327820e-02,-9.469880163669586182e-02,-1.217088103294372559e-01,8.123067766427993774e-02,2.301847189664840698e-01,9.262473322451114655e-03,-1.531982123851776123e-01,-7.935936003923416138e-02,1.427879035472869873e-01,2.742977142333984375e-01,-1.187206804752349854e-02,-2.143579572439193726e-01,-6.771486252546310425e-02,1.358167827129364014e-01,1.853040158748626709e-01,-6.062249094247817993e-02,-8.087904006242752075e-02,-4.114715848118066788e-03,2.469815500080585480e-02,-1.896933466196060181e-02,-3.133762255311012268e-02,-4.141564294695854187e-02,-2.174192480742931366e-02,-2.708863280713558197e-02,-1.133408490568399429e-02,-4.618777334690093994e-02,4.874718934297561646e-02,4.558075964450836182e-02,-6.350212730467319489e-03,-3.155836462974548340e-02,1.914407908916473389e-01,7.430510967969894409e-02,2.738518640398979187e-02,-4.443096742033958435e-02,3.441429883241653442e-02,2.550439238548278809e-01,-4.304972942918539047e-03,-8.449210226535797119e-02,3.889964660629630089e-03,1.187739744782447815e-01,6.066553294658660889e-02,-6.377928704023361206e-02,-2.829259634017944336e-02,3.824222087860107422e-02,1.388504263013601303e-02,-4.135740920901298523e-03,-1.792265218682587147e-03,5.913851782679557800e-03,1.703867502510547638e-02,-7.256437838077545166e-02,-9.345325082540512085e-02,-4.493165388703346252e-02,-1.861382462084293365e-02,3.411223366856575012e-02,-1.242769211530685425e-01,-9.103357046842575073e-02,9.976495802402496338e-02,4.616097547113895416e-03,-7.416283339262008667e-02,-1.261954307556152344e-01,-1.199491322040557861e-01,9.522769832983613014e-04,-9.488884359598159790e-02,-8.078008890151977539e-02,-9.662271291017532349e-02,-5.365402996540069580e-02,-1.394172757863998413e-01,-1.843556761741638184e-02,-3.249651566147804260e-02,-1.511421892791986465e-02,3.466515045147389174e-04,-5.845932289958000183e-03,5.729191005229949951e-02,-3.244439512491226196e-02,-3.257917240262031555e-02,-5.574886128306388855e-02,-4.169055074453353882e-02,-4.733541607856750488e-02,4.208719823509454727e-03,-1.015407592058181763e-01,-1.046200022101402283e-01,1.138538238592445850e-03,-8.553069084882736206e-03,-2.362377569079399109e-02,-1.165848746895790100e-01,-5.249709635972976685e-02,-3.871696069836616516e-02,4.671715199947357178e-02,-5.991179868578910828e-02,-7.831989973783493042e-02,3.462366759777069092e-03,2.070925198495388031e-02,4.233472049236297607e-03,-1.182589121162891388e-02,-1.022143871523439884e-03,4.681125283241271973e-03,6.090755760669708252e-02
-3.716220147907733917e-03,-2.762388437986373901e-02,4.885745048522949219e-02,-2.932064235210418701e-03,-2.011472918093204498e-02,1.771210506558418274e-02,-1.078491006046533585e-02,3.842306509613990784e-02,9.972951374948024750e-03,4.008436575531959534e-02,-2.345904149115085602e-02,2.944183349609375000e-02,1.460939273238182068e-02,2.635376341640949249e-02,4.321800544857978821e-02,-4.679727554321289062e-02,3.830120339989662170e-02,5.714554339647293091e-03,1.399819646030664444e-02,3.540880233049392700e-02,-3.355133160948753357e-02,4.438762366771697998e-02,6.754896137863397598e-03,2.291697822511196136e-02,4.875211790204048157e-02,-4.510359466075897217e-02,9.810646995902061462e-03,4.173126071691513062e-02,-3.095230087637901306e-02,-2.877135388553142548e-02,-4.260437563061714172e-02,3.080395981669425964e-03,3.174193575978279114e-02,2.354536391794681549e-02,-2.216909267008304596e-02,3.090802393853664398e-02,4.869263619184494019e-02,8.722329512238502502e-03,4.290872812271118164e-02,1.235359162092208862e-02,-2.858981257304549217e-03,-1.104975957423448563e-02,3.696340322494506836e-02,-2.474438957870006561e-02,-2.209332585334777832e-02,4.902179166674613953e-02,-2.152403257787227631e-02,-4.569449648261070251e-02,-4.889695346355438232e-02,-4.475454241037368774e-02,-4.207734018564224243e-02,-2.191720763221383095e-03,-3.481065854430198669e-02,2.616507234051823616e-03,-2.579309418797492981e-02,7.356183975934982300e-02,7.435857784003019333e-03,-2.464108541607856750e-02,-2.985467761754989624e-02,4.107047989964485168e-02,7.923150807619094849e-02,1.907004974782466888e-03,8.677253499627113342e-03,2.259626984596252441e-03,-3.345591947436332703e-02,4.473543167114257812e-02,-6.412257999181747437e-02,-5.128504708409309387e-02,4.662806913256645203e-02,5.686900392174720764e-02,-3.551314026117324829e-02,2.135438553523272276e-04,3.839657455682754517e-02,2.177017927169799805e-02,3.060894645750522614e-02,-2.295345999300479889e-02,-2.794189192354679108e-02,5.537598952651023865e-02,-1.022843457758426666e-02,-7.561740931123495102e-03,-3.355842456221580505e-02,3.502477332949638367e-02,-4.223864991217851639e-03,-2.819867059588432312e-02,4.236913472414016724e-02,1.249877829104661942e-02,5.607212334871292114e-02,2.693785727024078369e-02,4.171828925609588623e-02,-2.868876047432422638e-02,6.205395329743623734e-04,6.749055813997983932e-03,-2.630512975156307220e-02,2.814752608537673950e-02,1.603965088725090027e-02,-3.154170140624046326e-02,-1.976532489061355591e-02,-4.403896257281303406e-02,-3.015122748911380768e-02,4.778915271162986755e-02,3.640620410442352295e-02,-1.722223311662673950e-02,-8.076200261712074280e-03,-5.168112926185131073e-03,4.406042397022247314e-02,3.889308497309684753e-02,1.429973542690277100e-02,-3.159877285361289978e-02,-3.571526333689689636e-02,1.326507795602083206e-02,5.898483097553253174e-03,9.389128535985946655e-03,9.764987975358963013e-03,2.971416153013706207e-02,-4.313735291361808777e-02,3.426460549235343933e-02,3.679688274860382080e-02,-5.001921206712722778e-02,3.671541437506675720e-02,4.464283585548400879e-02,-1.336546242237091064e-02,2.951061120256781578e-03,-3.288417356088757515e-03,3.965522348880767822e-02,5.651412531733512878e-03,-2.212696336209774017e-02,5.831960216164588928e-02,-1.086132880300283432e-02,1.008010096848011017e-02,1.239190809428691864e-02,5.682713538408279419e-02,-2.931757085025310516e-02,-2.053518965840339661e-02,5.272565875202417374e-03,-3.430907800793647766e-02,5.983829125761985779e-02,-1.326660811901092529e-02,1.843849383294582367e-02,-5.393508449196815491e-02,2.411390095949172974e-02,-3.976613283157348633e-02,-1.750613376498222351e-02,5.129407718777656555e-02,-2.079899236559867859e-02,-1.920603448525071144e-03,3.552247537299990654e-03,3.848242759704589844e-02,2.952713891863822937e-02,-6.782555021345615387e-03,-6.363132037222385406e-03,-1.214795652776956558e-02,-5.315314512699842453e-03,-1.605375111103057861e-02,-2.080278005450963974e-03,-2.735213562846183777e-02,4.267090931534767151e-02,4.094217345118522644e-02,-1.157765183597803116e-02,-6.580094993114471436e-02,9.591259062290191650e-03,-1.487853005528450012e-03,3.489481285214424133e-02,-7.154558598995208740e-02,2.675514295697212219e-02,-1.418967079371213913e-02,3.776472061872482300e-02,-1.126476936042308807e-02,1.374314073473215103e-03,1.821171119809150696e-02,2.530559897422790527e-02,2.162215486168861389e-02,-3.874219546560198069e-04,4.999419674277305603e-02,2.001689933240413666e-02,-9.686185978353023529e-03,6.112303584814071655e-03,-3.745057061314582825e-02,1.133338175714015961e-02,-9.850359708070755005e-02,-4.237303882837295532e-02,-7.511628419160842896e-02,5.973817035555839539e-02,6.492436677217483521e-02,-1.416291669011116028e-02,-4.471202567219734192e-02,-4.011258482933044434e-02,2.303406223654747009e-02,8.892906829714775085e-03,-9.208470582962036133e-02,5.007895524613559246e-04,6.413003802299499512e-02,2.833711914718151093e-02,-5.439165607094764709e-02,-9.079172462224960327e-02,-5.161243304610252380e-02,5.747490748763084412e-02,-6.761164218187332153e-02,-5.251484736800193787e-02,-4.145066253840923309e-03,1.044436618685722351e-01,-3.044785000383853912e-02,2.199675422161817551e-03,-1.565559022128582001e-02,-4.830396547913551331e-02,2.143083512783050537e-02,2.443968504667282104e-02,3.467896208167076111e-02,-1.851098984479904175e-02,-1.012669177725911140e-03,3.116406034678220749e-03,3.301656991243362427e-02,-2.577442117035388947e-02,-2.080421894788742065e-02,-5.451012402772903442e-02,9.159307926893234253e-03,-3.578503802418708801e-02,-2.660927549004554749e-02,-3.058874048292636871e-03,6.309001892805099487e-02,6.109701097011566162e-02,-3.109718114137649536e-02,2.907057106494903564e-02,4.166087508201599121e-02,9.586967527866363525e-02,3.673736006021499634e-02,-3.608320653438568115e-02,-6.095707044005393982e-02,4.831821471452713013e-02,2.240664511919021606e-02,-2.261952869594097137e-02,-5.867079831659793854e-03,1.503890007734298706e-02,1.893815211951732635e-02,-1.087899319827556610e-02,-1.968996599316596985e-02,-3.174956887960433960e-02,-3.189498186111450195e-02,-5.917037650942802429e-02,-4.971031844615936279e-02,-4.147573933005332947e-02,1.237541064620018005e-02,1.081566233187913895e-02,-3.562969714403152466e-02,1.525900140404701233e-02,-9.076898917555809021e-03,-2.867627702653408051e-02,-6.032407749444246292e-03,-2.201709896326065063e-02,8.226834982633590698e-02,3.423913195729255676e-02,1.920474506914615631e-02,-2.756878547370433807e-02,3.717226907610893250e-02,3.687888383865356445e-02,1.900870352983474731e-02,3.206485509872436523e-02,4.918524622917175293e-02,1.542858593165874481e-02,1.364894118160009384e-02,-3.049331158399581909e-02,1.395603269338607788e-02,-1.953459903597831726e-02,-4.120336472988128662e-02,-1.447051111608743668e-02,4.006963223218917847e-02,-4.178334027528762817e-02,2.605369128286838531e-02,3.342692181468009949e-02,4.307441413402557373e-02,2.081454917788505554e-02,-2.270708791911602020e-02,1.845340244472026825e-02,2.096496336162090302e-02,7.157069444656372070e-02,5.514236167073249817e-02,-2.127661835402250290e-03,-1.343644876033067703e-02,1.201736275106668472e-02,3.028962016105651855e-02,-6.335205864161252975e-03,2.271049283444881439e-02,1.154597755521535873e-02,1.090310397557914257e-04,-7.228194177150726318e-02,-6.125595886260271072e-03,2.472308464348316193e-03,-1.751523837447166443e-02,3.389575332403182983e-02,-9.002612531185150146e-02,-3.986441716551780701e-02,1.041434705257415771e-01,5.518642812967300415e-02,1.206975989043712616e-02,1.967077888548374176e-02,-7.650205399841070175e-03,4.804359748959541321e-02,-4.947038367390632629e-02,3.913294896483421326e-02,9.889452159404754639e-02,8.669982105493545532e-02,4.496559500694274902e-03,3.264258801937103271e-02,-3.288657218217849731e-02,-6.962481886148452759e-02,-6.525297462940216064e-02,8.111328817903995514e-03,7.272777706384658813e-02,-3.059235401451587677e-02,-7.332694530487060547e-02,-5.290228128433227539e-02,1.233117748051881790e-02,2.816208638250827789e-02,-8.075281232595443726e-02,-6.706706434488296509e-02,-3.881851583719253540e-02,3.164793178439140320e-02,-4.733750969171524048e-02,-7.507979869842529297e-02,-2.957367897033691406e-02,-1.201964987558312714e-04,-2.442982979118824005e-02,-4.759030044078826904e-02,2.058049663901329041e-02,6.841067224740982056e-02,2.291965298354625702e-03,6.907529197633266449e-03,-5.499245133250951767e-03,2.968600578606128693e-02,-5.439412593841552734e-02,-4.258986562490463257e-02,4.516406357288360596e-02,-3.602930530905723572e-02,4.526891559362411499e-02,-4.081026837229728699e-02,-2.742570638656616211e-02,-3.378563746809959412e-02,7.626105844974517822e-02,5.487826094031333923e-02,-3.808363899588584900e-02,2.812956646084785461e-02,3.904124721884727478e-02,5.420499294996261597e-02,4.954683128744363785e-03,-2.134257182478904724e-02,3.208297118544578552e-02,2.936168387532234192e-02,-4.861059598624706268e-03,-4.395987465977668762e-02,2.181328646838665009e-02,-1.115155592560768127e-02,7.219334691762924194e-02,-5.067775025963783264e-03,-1.005043163895606995e-01,-1.320324931293725967e-02,-9.308501146733760834e-03,2.532963827252388000e-02,-7.355047389864921570e-03,4.450207576155662537e-03,-3.047103062272071838e-02,-5.651896819472312927e-02,-9.703001379966735840e-02,-4.070599377155303955e-02,-1.180082559585571289e-02,1.860004104673862457e-02,-4.585575312376022339e-02,1.457597035914659500e-02,4.423175007104873657e-02,2.991837821900844574e-02,-5.663488060235977173e-02,2.239215001463890076e-02,1.040982455015182495e-01,2.428260073065757751e-02,-2.551740221679210663e-02,-4.340341687202453613e-02,-3.770139813423156738e-02,-4.782573506236076355e-02,2.917661890387535095e-02,-2.648987248539924622e-02,-6.849905010312795639e-03,-4.706463217735290527e-02,2.193161100149154663e-02,-2.705803886055946350e-02,1.018012408167123795e-02,2.938062511384487152e-02,9.526984766125679016e-03,-2.878082729876041412e-02,-3.652666509151458740e-02,2.945263311266899109e-02,-2.768695354461669922e-02,4.377912357449531555e-02,1.357183698564767838e-02,9.831988252699375153e-03,-3.382381051778793335e-02,-2.704541757702827454e-02,-2.959663793444633484e-02,9.163369541056454182e-04,1.153829135000705719e-02,-2.666863426566123962e-02,5.672136321663856506e-02,2.428906969726085663e-03
2.584185218438506126e-03,-1.400331780314445496e-02,-1.178978383541107178e-02,2.097673714160919189e-02,-8.731238543987274170e-03,-2.481449767947196960e-02,-7.154959253966808319e-03,-4.608805850148200989e-02,9.372429922223091125e-03,2.205915004014968872e-02,-3.358284384012222290e-02,-2.269062027335166931e-02,1.726506091654300690e-02,3.471552208065986633e-02,1.743727736175060272e-02,3.631078824400901794e-02,-1.926141232252120972e-02,-2.047710865736007690e-02,3.169727697968482971e-02,-3.839401900768280029e-02,-1.129506900906562805e-02,2.528576180338859558e-02,-3.483663499355316162e-02,-3.269844502210617065e-02,-4.594557359814643860e-02,-3.776001557707786560e-02,1.969424821436405182e-02,1.783435232937335968e-02,2.958990260958671570e-02,1.960899494588375092e-02,-4.249253123998641968e-02,2.257161214947700500e-02,2.636419609189033508e-02,3.834092244505882263e-02,2.406836254522204399e-03,1.133012492209672928e-02,-3.108367510139942169e-02,3.742183744907379150e-02,4.694334417581558228e-02,-4.484026134014129639e-02,-3.745678812265396118e-02,-2.432071603834629059e-02,2.843600697815418243e-02,-1.711827702820301056e-02,2.365529350936412811e-02,-9.897399693727493286e-03,3.746189549565315247e-02,4.687047377228736877e-02,3.423418104648590088e-02,-1.860478706657886505e-02,-6.061930954456329346e-02,-1.955075189471244812e-02,-1.824821718037128448e-02,4.816528409719467163e-02,-4.156779032200574875e-03,3.419827297329902649e-02,5.901288613677024841e-02,1.371432095766067505e-01,4.747686907649040222e-02,-2.552557364106178284e-02,8.525279909372329712e-02,1.000169664621353149e-01,5.905517842620611191e-03,-2.369416318833827972e-02,-2.449320070445537567e-02,-4.685793071985244751e-03,-1.037420555949211121e-01,-4.685869067907333374e-02,-7.182941585779190063e-02,-2.114280872046947479e-02,-2.843743562698364258e-02,-1.801485568284988403e-02,2.933713607490062714e-02,-4.864761605858802795e-02,1.802299171686172485e-02,3.231330960988998413e-02,4.724067077040672302e-02,2.474189549684524536e-02,-2.040603011846542358e-02,-2.950166165828704834e-02,9.812274947762489319e-03,1.583697274327278137e-03,-2.157151326537132263e-02,-2.370957657694816589e-02,1.043165009468793869e-02,-4.818692337721586227e-03,6.805568002164363861e-03,-1.323066465556621552e-02,1.850858516991138458e-02,-2.229318208992481232e-02,2.837509848177433014e-02,-1.267116051167249680e-02,-3.296850621700286865e-02,2.770646475255489349e-02,1.979559846222400665e-02,-4.063643980771303177e-03,-6.066110730171203613e-02,3.908758983016014099e-02,3.653338178992271423e-03,-1.958161406219005585e-02,5.139028653502464294e-02,-7.294299546629190445e-03,-1.822867244482040405e-02,-8.938462706282734871e-04,-5.133436247706413269e-02,3.383297845721244812e-02,-2.378790668444707990e-04,-2.058389782905578613e-02,2.751567214727401733e-02,-1.614871621131896973e-02,2.976171486079692841e-02,5.487511865794658661e-03,-4.094571620225906372e-02,-5.260666087269783020e-02,-1.010837964713573456e-02,-3.009560331702232361e-02,1.203837990760803223e-02,-6.495306733995676041e-04,-2.106592431664466858e-02,5.783482268452644348e-02,-1.967172510921955109e-02,5.377057194709777832e-02,1.739091239869594574e-02,4.709748923778533936e-02,2.612032741308212280e-02,-1.498316787183284760e-02,5.040882900357246399e-02,5.433261394500732422e-03,2.176490798592567444e-02,1.320116501301527023e-02,-1.351800095289945602e-02,6.820581108331680298e-02,7.719621807336807251e-02,1.420706696808338165e-02,1.559216994792222977e-02,1.620999164879322052e-02,-2.344048023223876953e-02,1.322547160089015961e-02,1.960157789289951324e-02,-4.355148226022720337e-02,1.630126312375068665e-02,-3.734190762042999268e-02,3.960507735610008240e-02,4.369404911994934082e-02,2.674159407615661621e-02,5.228162929415702820e-02,-1.083114091306924820e-02,-1.040570158511400223e-02,-1.381800696253776550e-02,-3.478033840656280518e-02,-4.598503559827804565e-02,-5.761435255408287048e-02,-3.400782868266105652e-02,7.042925804853439331e-02,7.098326832056045532e-02,1.573871355503797531e-03,3.762212768197059631e-02,1.314060688018798828e-01,1.287856139242649078e-02,1.721723191440105438e-02,3.558108210563659668e-02,2.035698108375072479e-02,-1.512565743178129196e-02,-3.785106912255287170e-02,-9.603828191757202148e-02,4.464561492204666138e-02,-5.045099183917045593e-02,-8.006380498409271240e-02,-4.061148688197135925e-02,3.506192704662680626e-03,-4.597818106412887573e-02,-3.760932758450508118e-02,6.509202718734741211e-02,3.951773792505264282e-02,-7.945204153656959534e-03,-1.023481413722038269e-02,-9.251964092254638672e-02,-6.623853743076324463e-02,-2.097644284367561340e-02,3.764426708221435547e-02,-8.045184612274169922e-02,-1.471715718507766724e-01,1.434610504657030106e-02,1.320412755012512207e-01,1.183745339512825012e-01,-4.231971129775047302e-02,1.248348727822303772e-01,3.183628618717193604e-01,2.485688775777816772e-01,2.550769038498401642e-02,8.005749434232711792e-02,8.465140312910079956e-02,2.144634164869785309e-02,-1.232043132185935974e-01,-2.584963440895080566e-01,1.455038599669933319e-02,-6.612015515565872192e-02,-1.723398566246032715e-01,-2.185322046279907227e-01,-1.603379547595977783e-01,-9.231965988874435425e-02,-4.885901696979999542e-03,1.072397381067276001e-01,1.364776641130447388e-01,3.803433850407600403e-02,1.112684607505798340e-02,1.465405374765396118e-01,1.927912831306457520e-01,7.305011153221130371e-02,-4.520633071660995483e-02,9.302362054586410522e-02,7.123248279094696045e-02,5.297479778528213501e-02,-8.741328865289688110e-02,-1.134958192706108093e-01,1.679499447345733643e-02,-7.949778437614440918e-02,-1.521779298782348633e-01,-1.946337223052978516e-01,-6.930004805326461792e-02,-1.290342509746551514e-01,-7.340531051158905029e-02,-3.852041810750961304e-02,-1.288426853716373444e-02,-1.992643810808658600e-02,4.794755205512046814e-02,6.125923711806535721e-03,-2.659629285335540771e-02,3.249742090702056885e-02,5.111245065927505493e-02,4.646074026823043823e-02,7.616030424833297729e-02,9.757485240697860718e-02,-1.092375605367124081e-03,-5.558176711201667786e-02,6.213380023837089539e-02,1.402961742132902145e-02,-4.191620973870158195e-04,-8.339279890060424805e-02,-1.193226203322410583e-01,2.432138845324516296e-02,7.145508658140897751e-03,-3.217991814017295837e-02,-5.687853693962097168e-02,1.523875910788774490e-02,-1.367474719882011414e-02,4.724501166492700577e-03,6.031868979334831238e-02,3.670050576329231262e-02,-3.608876839280128479e-02,1.956792734563350677e-02,4.260275885462760925e-02,1.669596694409847260e-02,4.016333818435668945e-02,1.556316856294870377e-02,-9.017700329422950745e-03,6.645375490188598633e-02,6.956697255373001099e-02,7.746542245149612427e-02,1.178727298974990845e-02,8.169601112604141235e-02,2.764127589762210846e-02,-1.427272800356149673e-02,-1.891141384840011597e-02,-6.102552637457847595e-02,-5.240106955170631409e-02,-8.170869201421737671e-02,-5.659595504403114319e-02,-9.071568399667739868e-02,-1.076625566929578781e-02,-1.186197996139526367e-02,-3.445609658956527710e-02,6.060281302779912949e-04,3.132354468107223511e-03,1.139006484299898148e-02,-4.711706563830375671e-02,-3.207264840602874756e-02,2.438301406800746918e-02,4.810774326324462891e-02,9.593519568443298340e-02,2.090770937502384186e-02,1.507766451686620712e-02,1.776400357484817505e-01,7.735435664653778076e-02,5.393709987401962280e-02,8.716405183076858521e-02,7.899997383356094360e-02,5.837611109018325806e-02,-2.889700047671794891e-02,-9.061146527528762817e-02,4.325424134731292725e-02,-4.768004640936851501e-02,-6.841325759887695312e-02,-1.519581675529479980e-01,-1.353380233049392700e-01,-1.111230347305536270e-02,-3.538502380251884460e-02,-1.105811148881912231e-01,-8.983999490737915039e-02,-9.793186932802200317e-02,-7.073423266410827637e-02,-6.990860402584075928e-02,5.853975564241409302e-02,5.842918902635574341e-02,1.628017425537109375e-02,-4.996987432241439819e-02,1.475964039564132690e-01,7.907427847385406494e-02,7.983236759901046753e-02,-6.061522662639617920e-02,-3.831883659586310387e-03,6.452694535255432129e-02,-9.418324567377567291e-03,-6.325257010757923126e-03,-2.054889202117919922e-01,5.324749741703271866e-03,-1.471556443721055984e-02,-4.876850917935371399e-02,-1.128558889031410217e-01,-1.890639662742614746e-01,-1.020289957523345947e-01,-6.705967336893081665e-02,-1.546830236911773682e-01,-1.350288093090057373e-01,-1.056873723864555359e-01,6.995541509240865707e-03,3.291353816166520119e-03,-1.597430184483528137e-02,2.303966321051120758e-02,4.307521879673004150e-02,-6.487244740128517151e-03,-1.824585348367691040e-02,5.008791759610176086e-02,-1.514453557319939137e-03,4.881982877850532532e-02,-7.926478981971740723e-02,2.278325706720352173e-02,1.123760938644409180e-01,1.252329200506210327e-01,2.235872112214565277e-02,-6.497491151094436646e-02,1.956604793667793274e-02,3.358264267444610596e-02,4.979291930794715881e-02,-5.711520090699195862e-02,-8.426852524280548096e-03,2.810148149728775024e-02,-1.714012771844863892e-02,1.188169792294502258e-02,-5.935205891728401184e-02,1.131355315446853638e-01,6.722827255725860596e-02,-5.477421358227729797e-02,-1.022680923342704773e-01,-3.952679038047790527e-02,9.922733297571539879e-04,-6.794138997793197632e-02,-8.415125310420989990e-02,1.188533101230859756e-02,1.283664405345916748e-01,-1.232209615409374237e-02,1.801579073071479797e-02,1.994072496891021729e-01,1.857015192508697510e-01,1.261683106422424316e-01,2.499123103916645050e-02,1.290822178125381470e-01,1.640799194574356079e-01,1.744457893073558807e-02,-1.251298487186431885e-01,1.033933535218238831e-01,-6.089599803090095520e-03,-1.018246114253997803e-01,-1.915055364370346069e-01,-1.370512694120407104e-01,7.100047543644905090e-03,-2.994980849325656891e-02,3.053641878068447113e-02,2.191201597452163696e-02,-1.255624555051326752e-02,-4.828429594635963440e-02,2.152795158326625824e-02,1.489286776632070541e-02,6.921567022800445557e-02,-3.346687555313110352e-02,4.256021231412887573e-03,5.809044465422630310e-02,-2.877106424421072006e-03,1.264477148652076721e-02,4.904693737626075745e-02,-1.527548208832740784e-02,-2.226767502725124359e-02,4.650123789906501770e-02,-4.891152493655681610e-03,5.254643410444259644e-02,2.412154339253902435e-02,6.030136719346046448e-02,-3.878319868817925453e-03,3.608958795666694641e-02,5.743985995650291443e-02
-3.024190850555896759e-02,-4.488190263509750366e-02,-9.575421921908855438e-03,-1.473966613411903381e-02,2.698256261646747589e-02,-3.595624491572380066e-02,2.451421320438385010e-02,2.805780433118343353e-02,5.272711813449859619e-02,4.908741265535354614e-02,4.957961291074752808e-02,2.532010339200496674e-02,-2.600151114165782928e-02,-1.922265999019145966e-02,3.880413249135017395e-02,2.287943102419376373e-02,-2.285077981650829315e-02,3.734881430864334106e-02,-3.877774626016616821e-02,1.511939335614442825e-02,-2.138640545308589935e-02,-3.566240519285202026e-02,-4.749758169054985046e-02,1.499086525291204453e-02,-8.764252997934818268e-03,-2.172712981700897217e-02,-9.741807356476783752e-03,-4.808352887630462646e-02,-9.556230157613754272e-03,-2.641813084483146667e-02,-1.245872117578983307e-02,4.091181233525276184e-02,3.807886317372322083e-02,3.946786373853683472e-02,-4.915218334645032883e-03,-1.842402480542659760e-02,1.900780573487281799e-02,-1.327506359666585922e-02,-3.819680958986282349e-02,-1.433218084275722504e-02,-3.454686701297760010e-02,1.541589945554733276e-02,-4.345260187983512878e-02,-3.451595781370997429e-03,-2.469274960458278656e-02,2.955136448144912720e-02,4.619032889604568481e-02,3.179540485143661499e-02,1.822821795940399170e-02,-1.431648153811693192e-03,2.925208071246743202e-03,1.777655631303787231e-02,6.315808277577161789e-03,-5.129609256982803345e-03,6.761036813259124756e-03,-1.464810688048601151e-03,-2.101119048893451691e-02,2.948340401053428650e-02,8.502031117677688599e-02,-5.199699476361274719e-02,2.185811847448348999e-02,-4.263524338603019714e-02,8.821545541286468506e-02,7.659901678562164307e-02,-3.837220743298530579e-02,3.660192945972084999e-03,6.330181378871202469e-03,6.212039664387702942e-02,8.062373846769332886e-03,-1.032625138759613037e-01,-3.325179591774940491e-02,-9.704415570013225079e-04,4.803654178977012634e-02,-3.907497599720954895e-02,-2.825932390987873077e-02,-4.610967636108398438e-02,2.139129862189292908e-02,-2.229462936520576477e-02,-4.833963140845298767e-02,4.965293407440185547e-02,1.588519080542027950e-03,-5.159410461783409119e-02,1.145602669566869736e-02,-6.212871894240379333e-02,-5.572485271841287613e-03,-4.981532692909240723e-02,-7.250747084617614746e-02,-8.358301222324371338e-02,3.441618010401725769e-02,7.926250994205474854e-02,-4.684172943234443665e-02,-3.175556287169456482e-02,2.166857942938804626e-02,9.942484088242053986e-03,-7.530767936259508133e-03,5.819073878228664398e-03,-3.250657394528388977e-02,1.353031862527132034e-02,3.222565352916717529e-02,4.787170514464378357e-02,9.474820457398891449e-03,8.268368430435657501e-03,2.838580170646309853e-03,-1.288053486496210098e-02,-1.436251122504472733e-02,2.376773580908775330e-02,-8.246634155511856079e-03,-6.153020262718200684e-02,-3.721617534756660461e-02,-5.085906013846397400e-02,3.391317278146743774e-02,-1.222875621169805527e-02,-2.276466414332389832e-02,-3.902796423062682152e-03,-5.685918033123016357e-02,-4.648926854133605957e-02,-5.613493919372558594e-02,-5.785474553704261780e-02,-6.594330817461013794e-02,8.345623500645160675e-03,-4.653235524892807007e-02,-7.565692067146301270e-02,-1.168886385858058929e-02,-1.801031641662120819e-02,5.160820111632347107e-02,4.697256535291671753e-02,-1.179616525769233704e-02,3.753564134240150452e-02,-5.456568673253059387e-02,-4.234428703784942627e-02,3.633936867117881775e-02,-8.977879770100116730e-03,-1.884326711297035217e-02,-1.598232425749301910e-02,-7.561545073986053467e-02,1.106326654553413391e-02,1.649507880210876465e-02,8.515848778188228607e-03,-4.461864382028579712e-02,-1.116782203316688538e-01,-1.101986598223447800e-02,1.401736401021480560e-03,-7.631894201040267944e-02,-6.251857429742813110e-02,-1.918126456439495087e-02,1.508292928338050842e-02,-3.620937466621398926e-02,-9.541364759206771851e-02,-1.050915941596031189e-01,-4.016122594475746155e-02,-1.907022786326706409e-03,-5.433064419776201248e-03,-2.665504440665245056e-02,3.172271698713302612e-02,7.191752642393112183e-02,6.989888101816177368e-02,2.034692652523517609e-02,-9.046445786952972412e-02,1.445862930268049240e-02,1.174583565443754196e-03,-6.460450123995542526e-03,9.068292565643787384e-03,-7.067569345235824585e-02,6.806585472077131271e-03,4.125124588608741760e-02,-3.047055937349796295e-02,-3.340591117739677429e-02,-5.185909569263458252e-02,-7.463432848453521729e-03,1.133859343826770782e-02,-5.242259800434112549e-02,-8.349309116601943970e-02,-2.964643947780132294e-02,-3.512097522616386414e-02,1.846482045948505402e-02,-5.402154847979545593e-02,-5.877821892499923706e-02,-7.964966446161270142e-02,-3.672367893159389496e-03,1.131717562675476074e-01,5.467787012457847595e-02,1.000467613339424133e-01,-9.802610427141189575e-02,-6.971830874681472778e-02,1.818398684263229370e-01,1.156909540295600891e-01,-1.946217194199562073e-02,-1.617071926593780518e-01,1.204261742532253265e-02,1.391114890575408936e-01,2.937493845820426941e-02,-7.849094271659851074e-02,-4.884990677237510681e-02,6.281592696905136108e-02,1.559436470270156860e-01,-3.038037568330764771e-02,-1.452713087201118469e-02,2.690209634602069855e-02,1.157752722501754761e-01,3.742780908942222595e-02,-1.446996070444583893e-02,5.417942884378135204e-04,1.299757976084947586e-02,6.123221293091773987e-02,3.107733651995658875e-02,3.122212179005146027e-02,-1.078494042158126831e-01,9.334716200828552246e-02,1.869564503431320190e-01,5.881947465240955353e-03,1.119680469855666161e-03,-7.559280097484588623e-02,1.429733186960220337e-01,1.288168430328369141e-01,-1.325169652700424194e-01,-6.873639672994613647e-02,1.903023943305015564e-02,1.865748465061187744e-01,8.964264392852783203e-02,-1.244087070226669312e-01,4.466338455677032471e-02,2.393328584730625153e-02,5.713826790452003479e-02,-1.867763698101043701e-02,-6.167476624250411987e-02,3.702599555253982544e-02,3.596533834934234619e-02,-7.490868121385574341e-02,-8.443972468376159668e-02,1.286038011312484741e-02,-4.650216922163963318e-02,-2.025126665830612183e-02,-3.607613593339920044e-02,-9.944490343332290649e-02,4.135074466466903687e-02,1.372535340487957001e-02,-2.991712093353271484e-02,-1.889296225272119045e-03,-9.070505946874618530e-02,3.183965757489204407e-02,-4.579054657369852066e-03,-8.268745988607406616e-02,-6.686858832836151123e-02,-6.480338983237743378e-03,3.221241012215614319e-02,-3.278139978647232056e-02,4.552389029413461685e-03,-3.037571348249912262e-02,-5.217663571238517761e-02,3.388217091560363770e-02,-4.685815051198005676e-02,-1.047069486230611801e-02,5.026087909936904907e-02,-7.920373231172561646e-03,3.221483901143074036e-02,5.036757886409759521e-02,-8.731504529714584351e-02,7.985217496752738953e-03,3.608628734946250916e-02,-1.947277039289474487e-02,7.975867483764886856e-04,2.248078817501664162e-03,5.864975228905677795e-02,1.704529114067554474e-02,-7.155586034059524536e-02,-4.013091698288917542e-02,-3.318595513701438904e-02,9.222000092267990112e-02,-1.182721555233001709e-02,-7.143606990575790405e-02,-1.280322484672069550e-02,6.343953311443328857e-02,4.651028662919998169e-02,-7.356347143650054932e-02,-4.780883342027664185e-02,-1.031377818435430527e-02,2.156505174934864044e-02,1.053407602012157440e-02,-3.024502098560333252e-02,1.573696732521057129e-01,9.683672338724136353e-02,-1.635145395994186401e-02,-1.204013079404830933e-01,-4.473082721233367920e-02,1.055739074945449829e-01,2.303547225892543793e-02,-7.906065136194229126e-02,-3.270243853330612183e-02,-1.933934353291988373e-02,1.051542460918426514e-01,-7.292722165584564209e-02,-1.148531660437583923e-01,-7.757036387920379639e-02,5.887239426374435425e-02,1.489818543195724487e-01,-6.603784114122390747e-02,-7.997036725282669067e-02,4.314456964493729174e-05,9.918662160634994507e-02,3.402564302086830139e-02,1.523086801171302795e-02,-1.096173599362373352e-01,-1.056589931249618530e-02,1.252647042274475098e-01,1.249627098441123962e-01,6.347350031137466431e-02,-1.450375765562057495e-01,-1.998215215280652046e-03,2.004598230123519897e-01,4.200880602002143860e-02,5.356588866561651230e-03,-1.392763555049896240e-01,1.308736205101013184e-02,1.449473053216934204e-01,6.311283260583877563e-02,-7.735119760036468506e-02,-1.223779246211051941e-01,2.267449162900447845e-02,1.794444024562835693e-01,2.828003652393817902e-02,-6.321091204881668091e-02,-1.618542149662971497e-02,2.958506532013416290e-02,1.366982609033584595e-01,-5.832970887422561646e-02,-4.631544277071952820e-02,-4.183143004775047302e-02,-5.398094281554222107e-02,5.167166091268882155e-05,4.052279889583587646e-02,-5.066423863172531128e-02,2.020072937011718750e-02,-3.591765090823173523e-02,6.695836782455444336e-05,6.497488170862197876e-02,3.487776592373847961e-02,2.316960506141185760e-02,-9.005610644817352295e-02,4.059867933392524719e-02,1.629428714513778687e-01,-8.519715629518032074e-03,-5.372345447540283203e-02,-5.609017983078956604e-02,3.734417259693145752e-02,5.861641466617584229e-02,2.241419255733489990e-02,-1.215196494013071060e-02,3.982592746615409851e-02,5.774972960352897644e-02,-3.250825218856334686e-03,-6.592732667922973633e-02,-8.453691750764846802e-02,-5.296754837036132812e-02,7.999993860721588135e-03,-4.941397532820701599e-02,-8.806417137384414673e-02,1.683004200458526611e-02,-4.091655369848012924e-03,-8.126512914896011353e-02,-1.426083147525787354e-01,3.213625401258468628e-02,3.440149128437042236e-02,-1.809866912662982941e-02,-1.035014018416404724e-01,-8.595202118158340454e-02,4.022979736328125000e-02,-6.193647906184196472e-02,-7.816744595766067505e-02,-1.075978055596351624e-01,-4.862634092569351196e-02,-3.040494583547115326e-02,4.261154681444168091e-03,-4.141895100474357605e-02,2.313762204721570015e-03,-1.864904724061489105e-02,-2.003983780741691589e-02,1.710111647844314575e-02,-2.702135965228080750e-02,-9.745988994836807251e-03,-1.184935914352536201e-03,6.911788135766983032e-02,2.920532133430242538e-03,-7.370220124721527100e-02,-1.563157700002193451e-02,-5.656447261571884155e-02,1.530496752820909023e-03,5.286670476198196411e-02,2.636005729436874390e-02,-6.679965299554169178e-04,-7.125402241945266724e-02,8.010441809892654419e-02,-1.513777859508991241e-02,-8.887834101915359497e-02,-8.760250359773635864e-02,-9.695233404636383057e-02,4.949232935905456543e-02,-6.058672070503234863e-02,-9.210541099309921265e-02,-5.643357336521148682e-02,-7.155431061983108521e-02
1.512223202735185623e-02,3.966929391026496887e-02,-3.819525614380836487e-02,1.203068159520626068e-02,-4.852194339036941528e-02,3.243184834718704224e-02,3.600032627582550049e-02,2.006975375115871429e-02,3.506968170404434204e-02,2.919242531061172485e-02,-1.723876805044710636e-03,3.832960873842239380e-02,2.059432864189147949e-02,-1.180516742169857025e-02,2.076270617544651031e-02,-4.557969421148300171e-02,-5.018399283289909363e-02,-2.154796756803989410e-02,2.579296194016933441e-02,-2.211548201739788055e-02,-4.672072827816009521e-02,-1.812517270445823669e-02,3.031785413622856140e-02,2.023533731698989868e-02,-2.137945592403411865e-02,-1.568727754056453705e-02,-5.503070540726184845e-03,2.975562587380409241e-02,8.920695632696151733e-03,6.870568729937076569e-03,-1.452451478689908981e-02,-4.039627686142921448e-02,4.743473976850509644e-02,4.758374392986297607e-02,8.101524785161018372e-03,-3.359515592455863953e-02,4.159878939390182495e-02,1.748052611947059631e-02,4.117404296994209290e-02,3.654623031616210938e-02,-1.371420454233884811e-02,-3.465439751744270325e-02,3.245951607823371887e-02,4.370242357254028320e-02,-4.929539933800697327e-02,-4.755176976323127747e-02,3.963466361165046692e-02,-2.628214098513126373e-02,1.186918653547763824e-02,-2.243945002555847168e-02,-3.402998670935630798e-02,-1.648048497736454010e-02,1.844866201281547546e-02,-5.688963085412979126e-02,-3.819512203335762024e-02,-1.200530305504798889e-02,-3.447049483656883240e-02,1.669207704253494740e-03,-6.877271831035614014e-02,1.282976754009723663e-02,4.222076386213302612e-02,6.107991561293601990e-02,4.511043429374694824e-02,-8.798433095216751099e-02,5.640417803078889847e-03,3.321034088730812073e-02,-1.824109070003032684e-02,-1.214682869613170624e-02,4.309839382767677307e-02,1.430251598358154297e-01,-7.367951422929763794e-02,-4.027269408106803894e-02,-2.042072266340255737e-02,1.470287516713142395e-02,-3.629157319664955139e-02,3.693192824721336365e-02,-4.998262599110603333e-02,-4.353496432304382324e-02,-1.550647430121898651e-02,2.200710587203502655e-02,3.546448424458503723e-02,-2.349658316234126687e-04,2.462500147521495819e-02,7.884012162685394287e-02,-2.279197238385677338e-02,1.972480863332748413e-02,2.040377818048000336e-02,-1.397283375263214111e-02,2.998745255172252655e-02,-2.128420397639274597e-02,1.300181169062852859e-02,-3.925449773669242859e-02,-4.887148365378379822e-02,2.629923075437545776e-02,6.318412721157073975e-02,7.591295056045055389e-03,-2.525246143341064453e-02,-5.806646868586540222e-02,-5.895690619945526123e-02,1.264086738228797913e-02,-3.260382637381553650e-02,-2.116155251860618591e-02,2.448086440563201904e-02,-4.345385730266571045e-02,-3.543914109468460083e-02,4.581224173307418823e-02,2.989176474511623383e-02,-4.214170202612876892e-02,-2.000290155410766602e-02,9.954093024134635925e-03,3.704683855175971985e-02,2.685427479445934296e-02,3.051959164440631866e-02,2.092035673558712006e-02,2.803116664290428162e-02,8.726879023015499115e-03,3.741682739928364754e-03,-4.253209009766578674e-02,3.284108266234397888e-02,-1.375904306769371033e-02,-2.934770286083221436e-02,-2.848947606980800629e-02,9.350777603685855865e-03,-1.380640640854835510e-02,1.379843521863222122e-02,5.328032188117504120e-03,-7.633545249700546265e-02,-2.317215315997600555e-02,-5.119028314948081970e-02,2.539034001529216766e-02,5.639150366187095642e-02,-2.048292942345142365e-02,-4.067780449986457825e-02,1.798855885863304138e-02,-2.159533090889453888e-02,5.805619060993194580e-02,2.484153211116790771e-02,-5.619049817323684692e-02,-7.891557365655899048e-02,4.245260730385780334e-03,-1.209408044815063477e-02,-5.127448961138725281e-02,-5.327130481600761414e-02,-3.352899476885795593e-02,8.876627683639526367e-02,-9.131553024053573608e-02,-7.317427545785903931e-02,-6.663367152214050293e-02,-5.115083977580070496e-02,1.628298684954643250e-02,-6.269886624068021774e-03,-5.687022581696510315e-02,-7.160889357328414917e-02,-5.057599395513534546e-02,-4.604962840676307678e-02,-1.975505426526069641e-02,2.052268758416175842e-02,6.567929405719041824e-03,5.144656822085380554e-02,-3.477707877755165100e-02,5.481078289449214935e-03,1.768162287771701813e-02,2.380053326487541199e-02,-3.268437087535858154e-02,2.037399075925350189e-02,-5.848266929388046265e-02,6.205771584063768387e-03,-5.216268450021743774e-02,7.051567733287811279e-02,6.044190749526023865e-02,-8.341214805841445923e-02,-4.087424278259277344e-02,4.393299296498298645e-02,1.138208881020545959e-01,6.146836280822753906e-02,2.156266756355762482e-02,-6.291102617979049683e-02,-9.832489490509033203e-02,1.043720263987779617e-02,-5.350101739168167114e-02,4.612687007465865463e-06,-1.201632469892501831e-01,-8.916582167148590088e-02,1.258482597768306732e-02,-6.445822119712829590e-02,-2.197544276714324951e-02,-8.679386228322982788e-02,2.504750853404402733e-03,8.126797527074813843e-02,-1.650722026824951172e-01,3.793200850486755371e-02,-8.179580420255661011e-02,6.711072474718093872e-02,2.047237753868103027e-02,-6.262037158012390137e-02,-2.524073608219623566e-02,-5.036939308047294617e-02,5.315069109201431274e-02,1.607060432434082031e-01,2.447014302015304565e-01,-2.094128169119358063e-02,-8.140604943037033081e-03,3.437221422791481018e-02,-2.929181419312953949e-02,-7.791775465011596680e-02,-3.817640710622072220e-03,-1.800985820591449738e-02,4.194739460945129395e-02,-8.547389507293701172e-02,-9.747201949357986450e-02,-5.905022472143173218e-02,2.592953294515609741e-02,1.165783554315567017e-01,-1.212461665272712708e-01,-7.447597384452819824e-02,-4.598233848810195923e-02,1.188495084643363953e-01,1.153471022844314575e-01,-2.173954062163829803e-02,1.000614184886217117e-02,-9.394088760018348694e-03,5.250282585620880127e-02,4.761516302824020386e-02,7.052385061979293823e-02,-4.574757441878318787e-02,-5.076585337519645691e-02,-6.723499298095703125e-02,-6.181667000055313110e-02,-4.739376716315746307e-03,1.116113923490047455e-02,2.501655369997024536e-02,6.048277765512466431e-02,-1.118048466742038727e-02,8.900896459817886353e-02,2.394193597137928009e-02,1.222698669880628586e-02,-7.975539192557334900e-03,9.485683403909206390e-03,1.075563058257102966e-01,1.628393307328224182e-02,-5.013875663280487061e-02,-1.026466721668839455e-03,-4.370493441820144653e-02,1.191188097000122070e-01,1.725314408540725708e-01,-3.165160771459341049e-03,-7.213140279054641724e-02,-2.737769298255443573e-02,-7.740646600723266602e-02,-4.088018834590911865e-02,-1.972844474948942661e-04,-3.970110043883323669e-02,-4.024973511695861816e-02,2.313580363988876343e-02,-9.077325463294982910e-03,1.027641817927360535e-02,4.559853672981262207e-02,2.074140682816505432e-02,-3.517233999446034431e-03,-2.073932671919465065e-03,-3.968232125043869019e-02,2.570045739412307739e-02,-3.139036241918802261e-03,-4.691230505704879761e-02,5.105263739824295044e-02,-5.359387025237083435e-02,4.921196494251489639e-03,1.213756296783685684e-02,-3.748007491230964661e-02,8.036898076534271240e-02,-4.652089625597000122e-02,-1.756309904158115387e-02,-2.510084304958581924e-03,-8.215501904487609863e-02,-6.180899590253829956e-02,-7.259441912174224854e-02,-4.588946700096130371e-02,-1.147180125117301941e-01,1.498940517194569111e-03,-7.820104062557220459e-02,-5.387232080101966858e-02,-6.194311007857322693e-02,-1.337136025540530682e-03,6.036405265331268311e-02,-6.311988830566406250e-02,-3.778094798326492310e-02,3.121658600866794586e-02,4.549098387360572815e-02,8.710232377052307129e-02,-6.621845066547393799e-03,2.600185759365558624e-02,-4.417055472731590271e-02,5.258334800601005554e-02,2.286780029535293579e-01,2.073415815830230713e-01,-1.628815755248069763e-02,-4.660809785127639771e-02,5.994111299514770508e-02,9.256287664175033569e-02,7.145416736602783203e-02,1.844540797173976898e-02,-8.598997443914413452e-02,2.486197091639041901e-02,-2.243943512439727783e-02,-2.904837951064109802e-02,-7.394300401210784912e-02,1.562269753776490688e-03,8.291751891374588013e-02,-1.163618545979261398e-02,-1.325857490301132202e-01,-5.617056787014007568e-02,-2.259352430701255798e-02,1.479080468416213989e-01,1.840213686227798462e-02,-3.255334496498107910e-02,-1.659590401686728001e-03,2.746713533997535706e-02,1.288983523845672607e-01,1.315979063510894775e-01,7.250391691923141479e-02,9.400280192494392395e-03,7.059047371149063110e-02,2.794791199266910553e-02,4.465468600392341614e-02,6.289020925760269165e-02,2.327522821724414825e-02,-1.509031001478433609e-02,-2.732844650745391846e-02,6.771989166736602783e-02,-3.664118051528930664e-02,3.558704257011413574e-02,4.596730321645736694e-02,-2.252607233822345734e-02,1.972426846623420715e-02,5.857249349355697632e-02,-1.241942867636680603e-02,-1.866409182548522949e-02,-5.653940141201019287e-02,9.612883627414703369e-02,1.553952135145664215e-02,-2.406921982765197754e-02,1.790721900761127472e-02,4.029965493828058243e-03,-1.013835705816745758e-02,4.478679224848747253e-02,-4.756246134638786316e-02,-5.977884307503700256e-02,-6.118629872798919678e-02,-4.678419604897499084e-02,-1.033898442983627319e-03,5.184990540146827698e-02,-2.503435686230659485e-02,4.394868854433298111e-03,-1.270805746316909790e-01,-1.238409578800201416e-01,-4.032807424664497375e-03,2.751950407400727272e-03,-4.346964880824089050e-02,-1.394223570823669434e-01,7.046661805361509323e-03,-1.242657098919153214e-02,-2.360020950436592102e-02,-6.976453214883804321e-02,-1.373145878314971924e-01,-1.095091328024864197e-01,1.025759615004062653e-02,1.760141737759113312e-02,-4.651129618287086487e-02,-6.475777924060821533e-02,-1.485892385244369507e-01,-3.241404891014099121e-02,6.747645325958728790e-03,3.236645087599754333e-02,1.245593056082725525e-01,1.036227494478225708e-01,-2.670470997691154480e-02,-5.833817645907402039e-02,-7.304512709379196167e-02,-6.504844874143600464e-02,-3.754769265651702881e-02,3.722580894827842712e-02,-4.876974038779735565e-03,2.368387579917907715e-02,-8.502507582306861877e-03,-1.786827482283115387e-02,4.213718324899673462e-02,5.663300305604934692e-02,-6.183848902583122253e-02,-1.482869125902652740e-02,-4.992074519395828247e-02,-2.199011668562889099e-02,-8.660019934177398682e-02,-3.546030446887016296e-02,-6.019199267029762268e-02,-7.152590434998273849e-03,-4.406499862670898438e-02,-6.087933853268623352e-02,1.216117013245820999e-02,-1.246293727308511734e-02,-3.728811442852020264e-02
6.144177634268999100e-03,-4.933392256498336792e-02,1.715261861681938171e-02,3.011708520352840424e-02,-1.958159729838371277e-02,-3.465117514133453369e-02,-3.248611092567443848e-02,2.541646547615528107e-02,1.501628942787647247e-02,3.880849853157997131e-02,-2.360618487000465393e-02,1.954071596264839172e-02,-4.935783892869949341e-02,7.765107788145542145e-03,4.721988923847675323e-03,-2.126217447221279144e-02,4.802814871072769165e-02,-2.655063755810260773e-02,-6.366022396832704544e-03,-3.575769066810607910e-02,-1.060483325272798538e-02,6.024303846061229706e-03,2.665324136614799500e-02,3.180416300892829895e-02,4.261599108576774597e-02,3.362729400396347046e-02,-1.644105464220046997e-02,2.002309774979948997e-03,7.544431835412979126e-03,1.779252476990222931e-02,-9.027068503201007843e-03,-2.014604164287447929e-03,3.542229533195495605e-03,3.138168901205062866e-02,4.615521058440208435e-03,-3.849254548549652100e-02,-4.727420955896377563e-02,4.482831805944442749e-02,-3.241489455103874207e-02,3.233463037759065628e-03,2.076007053256034851e-02,-4.522359371185302734e-02,-4.075562953948974609e-02,-2.249570377171039581e-02,3.102002432569861412e-03,-1.582192815840244293e-02,-4.397853463888168335e-02,-1.301145087927579880e-02,6.730151828378438950e-03,-4.774640128016471863e-02,1.057066861540079117e-02,-3.584701940417289734e-02,2.332806773483753204e-02,-9.673628211021423340e-02,-2.969784289598464966e-02,-2.436448354274034500e-03,-6.188407074660062790e-03,-6.530219316482543945e-02,-5.958835035562515259e-02,-4.516021162271499634e-02,3.040395863354206085e-02,2.168573066592216492e-02,-1.214879099279642105e-02,-2.290544100105762482e-02,-1.512962859123945236e-03,6.836490333080291748e-02,3.615593537688255310e-02,5.080995615571737289e-04,4.210733994841575623e-02,-1.219432707875967026e-02,2.723840251564979553e-02,-3.852748312056064606e-03,5.976910889148712158e-02,-4.422975331544876099e-02,-1.595764304511249065e-03,5.819133669137954712e-02,5.117252096533775330e-02,5.100049450993537903e-02,-3.415753319859504700e-02,1.733461208641529083e-02,-3.043746016919612885e-02,-3.264159429818391800e-03,7.983319461345672607e-03,4.447243362665176392e-02,4.786714911460876465e-02,-3.667078912258148193e-03,1.190815586596727371e-02,-3.224309906363487244e-02,-1.200179010629653931e-02,4.952969402074813843e-02,-5.968362558633089066e-03,2.504536136984825134e-02,-7.363675627857446671e-03,1.040936633944511414e-02,2.431618794798851013e-02,2.790993638336658478e-02,4.097970947623252869e-02,-1.379744242876768112e-02,-5.194520950317382812e-02,-4.773061722517013550e-02,5.549445375800132751e-02,4.601480811834335327e-02,1.960977353155612946e-02,-3.839865699410438538e-02,-1.138587761670351028e-02,2.704920805990695953e-02,3.868941590189933777e-02,6.384801864624023438e-02,-2.683205343782901764e-02,-2.312232041731476784e-03,-3.702054172754287720e-02,3.863593563437461853e-02,3.580027446150779724e-02,8.444568514823913574e-02,-2.089772187173366547e-02,-2.841430343687534332e-02,-4.497224837541580200e-02,3.637943044304847717e-02,-3.232866059988737106e-03,3.827235847711563110e-02,-1.560576912015676498e-02,2.654173970222473145e-02,3.491538763046264648e-02,2.336538955569267273e-02,-1.555780135095119476e-02,3.299261257052421570e-02,-3.254627436399459839e-02,-8.204708248376846313e-02,-1.040182113647460938e-01,-6.068237498402595520e-02,5.160754546523094177e-02,7.127646356821060181e-02,3.214465978089720011e-04,5.158386379480361938e-02,-5.790828913450241089e-02,6.695127487182617188e-02,-1.272027194499969482e-02,-1.154132839292287827e-02,-3.649163991212844849e-02,2.281984547153115273e-03,-5.314759910106658936e-03,5.711930617690086365e-02,3.197394078597426414e-03,2.088214829564094543e-02,4.229274019598960876e-02,-2.094782702624797821e-02,4.594268277287483215e-03,-2.803098782896995544e-02,-8.998007513582706451e-03,-3.968308493494987488e-02,-4.247893020510673523e-02,-7.284923456609249115e-03,-4.858436435461044312e-02,-9.117916971445083618e-02,-1.259851641952991486e-02,2.741227671504020691e-02,6.442445795983076096e-03,-3.133426606655120850e-02,-7.656280696392059326e-02,-1.322607975453138351e-02,8.404031395912170410e-02,5.643469467759132385e-02,8.555094152688980103e-02,-1.494309492409229279e-02,2.609161846339702606e-02,-2.215248532593250275e-02,4.319056496024131775e-02,8.981397747993469238e-02,7.704377919435501099e-02,6.524161994457244873e-02,4.546502232551574707e-02,-4.942788556218147278e-02,-1.185860950499773026e-02,2.551821060478687286e-02,-2.165137790143489838e-02,-8.066927641630172729e-02,-1.095781326293945312e-01,-9.134113788604736328e-02,-4.888101294636726379e-02,-6.076346337795257568e-02,-1.122128777205944061e-02,-1.026153638958930969e-01,-1.336820721626281738e-01,-1.940566003322601318e-01,-1.472799628973007202e-01,9.216497838497161865e-02,1.527268588542938232e-01,2.881572023034095764e-02,-6.058634445071220398e-02,-1.728782355785369873e-01,6.531817466020584106e-02,1.146693453192710876e-01,1.218387782573699951e-01,1.096179708838462830e-01,-2.610756270587444305e-02,-1.433325279504060745e-02,2.898885682225227356e-02,1.335896644741296768e-02,7.277421653270721436e-02,3.861263021826744080e-02,-9.021867066621780396e-02,-4.393396526575088501e-02,-5.347522720694541931e-02,-5.097021907567977905e-02,1.657309010624885559e-02,-2.159107290208339691e-02,-1.899776235222816467e-02,-6.166958436369895935e-02,-1.154992878437042236e-01,-7.527505606412887573e-02,2.505261078476905823e-02,-1.956376060843467712e-02,1.371418358758091927e-03,-4.021563753485679626e-02,-1.236265245825052261e-02,-2.227737568318843842e-02,4.981091991066932678e-02,-2.723586745560169220e-03,-2.042447775602340698e-02,5.201258510351181030e-02,1.995889283716678619e-02,-3.305241465568542480e-02,-3.717128187417984009e-02,5.176278576254844666e-02,-1.366679091006517410e-02,3.052653931081295013e-02,7.368113100528717041e-02,-3.725127875804901123e-02,-7.643727213144302368e-02,-8.708799630403518677e-02,-1.413995679467916489e-02,8.096453547477722168e-02,1.289610564708709717e-01,1.014390289783477783e-01,3.108216263353824615e-02,-1.049062889069318771e-02,-1.671830774284899235e-03,8.294109255075454712e-02,1.227532699704170227e-01,9.073231369256973267e-02,3.537751734256744385e-02,-1.816070079803466797e-02,-1.124970708042383194e-02,1.628070510923862457e-02,3.456712886691093445e-02,-6.512353569269180298e-02,-6.582451518625020981e-03,-7.523905485868453979e-02,-3.668439760804176331e-02,-4.215461388230323792e-02,-1.944371126592159271e-02,2.505832165479660034e-02,-3.493425995111465454e-02,-1.596201211214065552e-02,4.116748750675469637e-04,-5.909832939505577087e-02,-3.482468053698539734e-02,-5.959365889430046082e-02,-2.880981657654047012e-03,-1.264951750636100769e-02,2.690735459327697754e-02,1.354887895286083221e-02,1.760719344019889832e-02,-5.492694210261106491e-03,-8.977599442005157471e-03,-1.282408367842435837e-02,9.508935734629631042e-03,-7.552009820938110352e-02,-6.825321167707443237e-02,-2.925104089081287384e-02,4.433615133166313171e-03,-5.186665803194046021e-02,-3.073051944375038147e-02,-1.559111382812261581e-02,1.106815040111541748e-02,1.107661426067352295e-02,-6.922875344753265381e-02,-1.051327586174011230e-01,-1.253502219915390015e-01,-1.261858195066452026e-01,7.737693935632705688e-02,9.020628780126571655e-02,6.084702163934707642e-02,-7.072042208164930344e-03,-6.229768320918083191e-02,-3.903300687670707703e-02,1.028226166963577271e-01,9.063249826431274414e-02,1.238326951861381531e-01,-3.233222290873527527e-02,6.924640387296676636e-02,2.042215317487716675e-02,2.387032099068164825e-02,2.794722653925418854e-02,3.452077135443687439e-02,5.346352234482765198e-02,-5.811388790607452393e-02,-5.470472574234008789e-02,-3.699994832277297974e-02,-2.033812366425991058e-02,-3.521762043237686157e-02,-1.286597251892089844e-01,-8.148755133152008057e-02,-3.166938945651054382e-02,-5.655678361654281616e-02,-3.531076759099960327e-02,-1.754917786456644535e-03,6.557996966876089573e-04,-7.302065938711166382e-02,-7.061751186847686768e-02,4.113579168915748596e-02,7.916259020566940308e-02,4.043651372194290161e-02,-2.579271793365478516e-02,-3.528233617544174194e-02,-2.456893026828765869e-02,4.441850259900093079e-02,8.792771399021148682e-02,4.535816609859466553e-02,-4.375681653618812561e-02,-4.593035951256752014e-02,-3.547186776995658875e-02,2.210899442434310913e-02,9.448484517633914948e-03,-4.180955141782760620e-02,2.435917407274246216e-02,2.876646444201469421e-02,1.901659369468688965e-02,3.247812390327453613e-02,-3.722188249230384827e-02,-9.393612295389175415e-02,-1.393182482570409775e-02,-3.151749819517135620e-02,-1.336747687309980392e-02,-7.042313925921916962e-03,-9.703903459012508392e-03,-8.961921930313110352e-02,5.924017168581485748e-03,4.530150443315505981e-03,5.061187315732240677e-03,1.182982791215181351e-02,-5.972736328840255737e-02,-2.863637916743755341e-02,1.615954935550689697e-02,-2.606985718011856079e-02,2.228102460503578186e-02,-2.265042439103126526e-02,-6.072086468338966370e-02,5.873374640941619873e-03,-3.973505273461341858e-02,-2.713480591773986816e-02,-1.361163705587387085e-02,3.358851745724678040e-02,9.227504022419452667e-03,6.768036633729934692e-02,2.486016228795051575e-02,-1.247773841023445129e-01,-4.209227859973907471e-02,-7.638169080018997192e-02,3.837969899177551270e-02,1.013668403029441833e-01,1.526250094175338745e-01,5.221833940595388412e-03,-5.630737543106079102e-02,-1.382428854703903198e-01,4.967039078474044800e-02,1.798632442951202393e-01,1.246066689491271973e-01,1.397566124796867371e-02,-7.471775636076927185e-03,1.796610653400421143e-02,9.505116194486618042e-02,1.059250310063362122e-01,4.359058290719985962e-02,-8.096982724964618683e-03,5.543464329093694687e-03,-7.555824238806962967e-03,-5.403844267129898071e-02,-2.987826429307460785e-02,-3.286866471171379089e-02,-6.901324726641178131e-03,4.682387039065361023e-02,1.082855649292469025e-02,1.075795758515596390e-02,-7.426263391971588135e-02,-2.096116170287132263e-02,6.069209426641464233e-02,-1.154495216906070709e-02,-9.493473917245864868e-03,4.087885096669197083e-02,-2.449780702590942383e-03,-1.176701579242944717e-02,-3.309411182999610901e-02,-2.388833649456501007e-02,4.079105798155069351e-03,1.959517970681190491e-02,3.709381213411688805e-03,-2.387787215411663055e-02,1.693863123364280909e-05,-4.453832283616065979e-03
3.859359771013259888e-02,-5.870138108730316162e-02,-3.593652322888374329e-02,-4.629367589950561523e-02,-1.820561662316322327e-02,9.343469515442848206e-03,4.389387089759111404e-03,4.676596820354461670e-02,-1.731479167938232422e-02,-1.968843303620815277e-02,2.312526665627956390e-02,-1.316951494663953781e-02,-3.109981119632720947e-02,-1.485770847648382187e-02,1.201493293046951294e-02,-3.101519867777824402e-02,-3.166141360998153687e-02,4.036542493849992752e-03,-3.592013940215110779e-02,4.323445633053779602e-02,3.618893912062048912e-03,1.850596442818641663e-02,4.408895596861839294e-02,-4.899635538458824158e-02,6.037433166056871414e-03,-1.948039419949054718e-02,-1.543346978724002838e-02,2.035908866673707962e-03,-4.562360234558582306e-03,3.196637704968452454e-02,3.340964438393712044e-03,1.610467093996703625e-03,3.745482303202152252e-03,-3.578415513038635254e-02,-1.481684856116771698e-02,2.143337950110435486e-02,-1.050600782036781311e-02,1.588040590286254883e-02,3.180396277457475662e-03,2.958237007260322571e-02,5.628635175526142120e-03,2.278232574462890625e-02,1.102559035643935204e-03,5.524621810764074326e-03,-3.441199287772178650e-02,-4.693141207098960876e-02,-3.652108367532491684e-03,4.744802787899971008e-02,-3.982125222682952881e-02,-3.524282574653625488e-02,-1.783970929682254791e-02,9.627363644540309906e-03,-2.200782997533679008e-03,-3.845135495066642761e-02,1.741713285446166992e-02,6.455584615468978882e-02,2.910606563091278076e-02,-2.706879563629627228e-02,7.367911189794540405e-02,1.191536895930767059e-02,6.257544271647930145e-03,7.525111734867095947e-02,2.008041553199291229e-02,1.297744922339916229e-02,1.032578293234109879e-02,1.225159037858247757e-02,-1.328624784946441650e-02,3.048836253583431244e-03,-1.888463087379932404e-02,1.011586165986955166e-03,-4.174763709306716919e-02,-6.186705548316240311e-03,-1.264203060418367386e-02,-3.154163807630538940e-02,-6.139427423477172852e-02,6.742837373167276382e-03,-5.351694766432046890e-03,-1.716757006943225861e-02,4.745955392718315125e-02,1.541289151646196842e-03,5.038743838667869568e-03,5.910516157746315002e-02,-7.563432678580284119e-03,-1.741182245314121246e-02,-2.220460399985313416e-02,-2.789583057165145874e-03,7.674227934330701828e-03,1.497552148066461086e-03,-1.338283345103263855e-02,3.889831900596618652e-02,4.332024138420820236e-03,-1.209899224340915680e-02,-5.911058746278285980e-03,-5.899294838309288025e-02,-6.236828863620758057e-02,-5.654187500476837158e-02,1.522265467792749405e-02,-6.040049251168966293e-03,6.206837715581059456e-04,4.346736147999763489e-02,-7.608538027852773666e-03,5.074763204902410507e-03,-2.660918794572353363e-02,3.663288056850433350e-02,-5.850280169397592545e-03,1.784761622548103333e-02,4.943429306149482727e-02,2.152189426124095917e-02,1.768737914972007275e-03,-1.675591617822647095e-02,-2.877720631659030914e-02,7.198411971330642700e-02,6.631621718406677246e-02,1.325762178748846054e-02,6.970791518688201904e-02,3.825223073363304138e-02,2.997491136193275452e-02,-3.671352565288543701e-02,-3.014197945594787598e-02,2.796948328614234924e-02,-3.260170109570026398e-03,4.991164430975914001e-02,4.708910360932350159e-02,3.794682398438453674e-02,-2.478823438286781311e-02,3.177349641919136047e-02,-2.720214053988456726e-02,-4.115169867873191833e-02,6.431641988456249237e-03,-2.734258398413658142e-02,5.254735052585601807e-02,1.171095445752143860e-01,1.220156922936439514e-01,1.449299007654190063e-01,1.101528853178024292e-01,3.302976489067077637e-02,1.054538115859031677e-01,1.082455441355705261e-01,5.327428877353668213e-02,3.994131088256835938e-02,-2.362684719264507294e-02,-4.370219632983207703e-02,-2.878023684024810791e-02,3.647297993302345276e-02,4.110363498330116272e-02,2.511563897132873535e-02,1.917471759952604771e-03,9.639034047722816467e-03,1.180533878505229950e-02,-5.003019236028194427e-03,-4.472509899642318487e-04,-4.917769134044647217e-02,-1.027628779411315918e-02,-3.983545675873756409e-02,-4.484998434782028198e-02,6.607573479413986206e-02,1.704234071075916290e-02,7.749143242835998535e-02,2.913046441972255707e-02,4.000764712691307068e-02,-1.011587306857109070e-02,5.387910827994346619e-02,7.777492702007293701e-02,5.779514834284782410e-02,7.524204999208450317e-02,9.642138145864009857e-03,-2.424078807234764099e-02,5.546082556247711182e-02,7.308828830718994141e-02,4.116215556859970093e-02,-7.934153079986572266e-02,-6.432761996984481812e-02,-4.791412129998207092e-02,2.787720412015914917e-02,-2.727838791906833649e-02,-8.311005681753158569e-02,-6.033413112163543701e-02,-5.704668816179037094e-03,-3.745336085557937622e-02,-7.883156836032867432e-02,2.054037153720855713e-02,-6.756057590246200562e-02,-1.755713373422622681e-01,-2.153920978307723999e-01,-1.310511082410812378e-01,1.440370231866836548e-01,1.840252131223678589e-01,9.035140275955200195e-02,9.114713221788406372e-02,-5.330009153112769127e-04,-6.602689623832702637e-02,9.868925064802169800e-02,2.362643331289291382e-01,2.149286866188049316e-01,1.140231043100357056e-01,-8.531592041254043579e-02,-1.666907519102096558e-01,-1.973696053028106689e-01,-8.646725863218307495e-02,-5.417232960462570190e-02,8.489273488521575928e-03,-5.956112220883369446e-02,-9.285037964582443237e-02,-6.731589138507843018e-02,-5.486951768398284912e-02,6.601425260305404663e-02,-1.980378851294517517e-02,-4.612667486071586609e-02,-2.965464629232883453e-02,-8.787802606821060181e-02,-9.135770611464977264e-03,9.719223715364933014e-03,1.370125636458396912e-02,9.154933504760265350e-03,1.383388508111238480e-02,-5.388988927006721497e-02,-9.541121125221252441e-02,-8.207772672176361084e-02,-6.880163401365280151e-02,-1.170963980257511139e-02,-9.846979379653930664e-02,-1.506920456886291504e-01,-6.706050038337707520e-02,-5.510207265615463257e-02,-1.044789180159568787e-01,5.240125581622123718e-02,5.794119089841842651e-02,-3.399192914366722107e-02,-1.005841940641403198e-01,2.802375005558133125e-03,4.220496118068695068e-02,1.344446837902069092e-01,1.184327080845832825e-01,1.399721503257751465e-01,1.034797132015228271e-01,-3.526979312300682068e-02,-3.905810788273811340e-02,9.947875887155532837e-02,6.966882199048995972e-02,7.699268311262130737e-02,-9.500358253717422485e-03,-7.760136574506759644e-02,-9.172139316797256470e-02,-5.383127555251121521e-02,-6.358699407428503036e-03,-3.139115497469902039e-02,3.027099883183836937e-04,-3.914387430995702744e-03,-6.721247732639312744e-02,-4.498065263032913208e-02,1.470171101391315460e-02,3.460989519953727722e-02,-3.699880093336105347e-02,1.418910454958677292e-02,-9.756367653608322144e-03,3.526833280920982361e-02,-4.637983813881874084e-02,-4.744658246636390686e-02,3.460471704602241516e-02,3.327441215515136719e-02,-1.332372054457664490e-02,-4.434436932206153870e-02,-4.035194963216781616e-02,-3.757355734705924988e-02,-2.618929184973239899e-02,-7.084497064352035522e-02,-4.086564108729362488e-02,-1.057675778865814209e-01,-5.797008797526359558e-02,-7.940360903739929199e-02,-8.290964365005493164e-02,-3.355279564857482910e-02,-4.946436733007431030e-02,-2.634687349200248718e-02,-6.292586773633956909e-02,4.862466081976890564e-02,2.729086205363273621e-02,-1.100825071334838867e-01,-1.737290024757385254e-01,-2.634453959763050079e-02,1.162328347563743591e-01,1.229909807443618774e-01,7.743930816650390625e-02,8.716917783021926880e-02,2.747310139238834381e-02,1.277928054332733154e-02,4.395156353712081909e-02,2.109603434801101685e-01,1.549843698740005493e-01,1.398146748542785645e-01,2.811645390465855598e-03,-7.392246276140213013e-02,-6.705582886934280396e-02,1.637837104499340057e-02,-3.228793665766716003e-02,-1.084247529506683350e-01,-2.906071208417415619e-02,-1.719097942113876343e-01,-1.562592536211013794e-01,-6.200852245092391968e-02,2.639505825936794281e-02,-8.717797696590423584e-02,-1.059167832136154175e-01,-1.085635647177696228e-01,-3.118023835122585297e-02,6.168654188513755798e-02,2.582554146647453308e-02,1.936759799718856812e-02,-5.605979263782501221e-02,-8.238622918725013733e-03,7.045439630746841431e-02,1.172323375940322876e-01,1.656937226653099060e-02,2.407670952379703522e-02,2.213516272604465485e-02,-5.185579881072044373e-02,-5.638293921947479248e-02,5.799506232142448425e-02,6.808716058731079102e-02,-3.185408189892768860e-03,-5.269145965576171875e-02,-1.161924749612808228e-01,-8.090110868215560913e-02,-7.462353259325027466e-02,-8.907614648342132568e-02,-1.041076425462961197e-02,2.264366019517183304e-03,2.466320060193538666e-02,7.169847935438156128e-02,2.828036202117800713e-03,-2.238519676029682159e-02,-6.041577085852622986e-03,-7.768095470964908600e-03,-4.080098867416381836e-02,-6.950118392705917358e-02,-5.150890722870826721e-02,-1.209926679730415344e-01,-1.216554269194602966e-01,-3.710048273205757141e-02,-2.187437750399112701e-02,-2.998513169586658478e-02,-1.215595081448554993e-01,-7.840991765260696411e-02,-8.631528168916702271e-02,-7.887809723615646362e-02,-8.330950140953063965e-02,-3.224800154566764832e-02,-5.763064324855804443e-02,-3.538782894611358643e-02,-7.169699296355247498e-03,-8.219540119171142578e-02,-1.224534288048744202e-01,7.417604792863130569e-03,2.060891687870025635e-02,1.830872520804405212e-02,-8.356165140867233276e-02,-1.006534472107887268e-01,-1.050290167331695557e-01,-1.144845485687255859e-01,-3.208123520016670227e-02,1.757158488035202026e-01,1.807370185852050781e-01,1.221137419342994690e-01,8.295986056327819824e-02,5.901649966835975647e-02,9.072055667638778687e-02,3.155001401901245117e-01,4.102064371109008789e-01,3.014317154884338379e-01,1.737975478172302246e-01,-7.326095551252365112e-02,-8.932802081108093262e-02,-7.333210203796625137e-03,5.493885651230812073e-02,3.425763547420501709e-02,5.642030760645866394e-02,-2.899049781262874603e-02,-2.630400471389293671e-02,-6.019784510135650635e-02,-3.247376158833503723e-02,1.149149332195520401e-02,5.931427329778671265e-02,-1.426439080387353897e-02,7.087329775094985962e-02,8.512735366821289062e-02,3.132258728146553040e-02,5.706101655960083008e-02,8.748658932745456696e-03,5.663803592324256897e-02,5.022623389959335327e-02,-4.108021035790443420e-02,-1.920947991311550140e-02,5.772133171558380127e-02,-1.702423579990863800e-02,-3.083525411784648895e-02,1.073498278856277466e-02,6.761499494314193726e-02,4.702256992459297180e-02,2.674193121492862701e-02,4.927633702754974365e-02
