2.351928129792213440e-02,2.359182387590408325e-02,-1.521780062466859818e-02,2.585126459598541260e-02,2.819516509771347046e-02,-2.338840067386627197e-02,-8.423565886914730072e-03,-1.538848038762807846e-02,2.295377850532531738e-02,-1.023160945624113083e-02,-1.850699819624423981e-02,3.429618477821350098e-02,3.640248253941535950e-02,1.696709729731082916e-02,-8.836740627884864807e-03,1.814928092062473297e-02,3.474075347185134888e-02,-8.645754307508468628e-03,1.675928942859172821e-02,-1.429886836558580399e-02,-1.720027998089790344e-02,-5.921052768826484680e-03,-8.174359682016074657e-04,8.353741839528083801e-03,-1.791126281023025513e-02,-8.009769022464752197e-03,-1.569778192788362503e-03,-2.167349494993686676e-02,3.349859640002250671e-02,-5.900957155972719193e-03,-2.114266902208328247e-02,5.645925179123878479e-03,-1.389771699905395508e-02,-1.642713882029056549e-02,3.850583732128143311e-02,9.896091185510158539e-03,-2.170918509364128113e-02,1.691327057778835297e-02,2.193488646298646927e-03,8.033602498471736908e-03,2.144021913409233093e-02,-7.272710558027029037e-03,-2.987629035487771034e-03,-2.456973074004054070e-03,3.378577530384063721e-03,2.466135658323764801e-02,2.380080521106719971e-02,3.714981721714138985e-03,-5.770811112597584724e-04,3.998426347970962524e-02,-5.176570732146501541e-03,3.707412630319595337e-02,7.586161955259740353e-04,-2.096865884959697723e-02,-3.747256007045507431e-03,-1.143325772136449814e-02,-6.499268580228090286e-03,-2.006208710372447968e-02,1.770683005452156067e-02,2.038081921637058258e-02,4.113667830824851990e-02,1.596164330840110779e-02,3.787956433370709419e-03,2.623874694108963013e-02,1.756974123418331146e-02,1.506441179662942886e-02,2.697070688009262085e-02,1.701986044645309448e-02,1.367575209587812424e-02,7.656221743673086166e-03,-9.966402314603328705e-03,2.468301169574260712e-02,6.140534766018390656e-03,1.683338917791843414e-02,-5.579293705523014069e-03,-7.444051560014486313e-03,6.137103307992219925e-03,-2.045509777963161469e-02,4.876724630594253540e-02,4.091601818799972534e-02,3.246052563190460205e-02,4.323281720280647278e-02,-7.903494872152805328e-03,3.241331502795219421e-02,2.402559854090213776e-02,1.877446286380290985e-02,5.073655396699905396e-03,2.364674396812915802e-02,6.495080422610044479e-03,-9.051173925399780273e-03,1.340460311621427536e-02,-1.250071823596954346e-02,4.040358960628509521e-02,-1.247934810817241669e-02,1.583426259458065033e-02,-9.796855039894580841e-03,-1.507783774286508560e-02,2.707059308886528015e-02,7.779706269502639771e-03,4.526094067841768265e-03,3.716439008712768555e-02,6.397496443241834641e-03,3.578519215807318687e-03,-1.552076777443289757e-03,-1.714683510363101959e-02,1.779585494659841061e-03,3.433674946427345276e-02,1.171903335489332676e-03,-1.270143501460552216e-02,1.146817207336425781e-02,-1.613126322627067566e-02,2.893448434770107269e-02,1.841397956013679504e-02,-9.736081585288047791e-03,-1.401855237782001495e-02,1.550757419317960739e-02,-1.569676026701927185e-02,3.905425965785980225e-02,1.852067536674439907e-03,-5.433674901723861694e-03,2.342361770570278168e-02,-7.685820106416940689e-03,-1.412212103605270386e-02,2.254451997578144073e-02,2.744689397513866425e-02,-2.221672050654888153e-02,3.177967295050621033e-02,2.714256942272186279e-02,-5.524656269699335098e-03,-2.338103018701076508e-02,5.138060078024864197e-03,-5.354925990104675293e-03,6.768346298485994339e-03,1.826472766697406769e-02,3.549299016594886780e-02,-2.249338477849960327e-02,-2.740995027124881744e-02,3.399419412016868591e-02,-8.457594551146030426e-03,-1.285014301538467407e-02,1.826250739395618439e-02,-2.071982948109507561e-03,2.573954313993453979e-02,-1.940376125276088715e-02,2.724085189402103424e-02,2.202278003096580505e-02,1.588470302522182465e-02,2.009709738194942474e-02,3.815127070993185043e-03,6.612941157072782516e-03,3.079400770366191864e-02,2.445734478533267975e-02,-2.541616186499595642e-02,-5.725512746721506119e-03,1.817075163125991821e-02,5.985035095363855362e-03,-7.454555016010999680e-03,-4.995529074221849442e-03,2.234125323593616486e-02,-1.496450509876012802e-02,-1.400758163072168827e-03,4.420743137598037720e-02,2.898340113461017609e-02,2.539276704192161560e-02,-2.731581777334213257e-02,-7.245950400829315186e-03,-1.279644481837749481e-02,4.458285868167877197e-03,3.299194574356079102e-02,-9.654012508690357208e-03,-3.554447786882519722e-03,-1.700384728610515594e-02,1.282823830842971802e-02,3.737370669841766357e-02,5.427113734185695648e-03,3.448855504393577576e-02,-3.435782622545957565e-03,3.383737802505493164e-02,2.563691884279251099e-02,3.039550222456455231e-02,1.203723996877670288e-02,3.538106381893157959e-02,2.448857389390468597e-02,5.268405191600322723e-03,3.020414523780345917e-02,-2.158631384372711182e-02,-2.102825045585632324e-02,-2.030731737613677979e-02,-6.141264922916889191e-03,1.430030167102813721e-02,-2.763120224699378014e-03,2.487330697476863861e-02,3.233430208638310432e-03,-2.676123194396495819e-02,3.109712898731231689e-02,-1.525401603430509567e-02,1.030104886740446091e-02,2.337663806974887848e-02,4.407539498060941696e-03,-6.953696720302104950e-03,1.242509577423334122e-02,2.890001982450485229e-02,-2.755618840456008911e-02,2.430649287998676300e-02,-2.194632589817047119e-02,2.966047264635562897e-02,1.913206465542316437e-02,-2.771747484803199768e-02,2.887876518070697784e-02,-2.190864458680152893e-02,-2.131663635373115540e-02,2.783288806676864624e-02,2.997038885951042175e-02,-8.479262469336390495e-04,3.027479536831378937e-02,2.730776928365230560e-02,-2.891848795115947723e-02,3.698537359014153481e-03,-4.152827023062855005e-04,3.032237105071544647e-02,2.796900831162929535e-02,1.363168656826019287e-02,2.493779733777046204e-02,6.477335002273321152e-03,3.770629409700632095e-04,1.805114373564720154e-02,-1.281964592635631561e-02,9.820509701967239380e-03,2.996782213449478149e-02,-4.593340680003166199e-03,-1.130928518250584602e-03,-1.822362467646598816e-02,-2.316611353307962418e-03,-2.821298502385616302e-02,-1.711941510438919067e-02,-5.244068335741758347e-03,1.580332405865192413e-02,3.096177615225315094e-02,4.841117770411074162e-04,-1.192592736333608627e-02,2.144476864486932755e-03,-2.588173560798168182e-02,-3.302189335227012634e-02,2.236315794289112091e-02,-2.616976574063301086e-02,1.272327080368995667e-02,-3.608237951993942261e-02,-2.695390023291110992e-02,1.806884072721004486e-03,2.213742211461067200e-02,-2.239840663969516754e-02,-1.142272166907787323e-02,-3.077368624508380890e-02,3.057073615491390228e-02,4.993564914911985397e-03,-3.021026588976383209e-02,-3.572621569037437439e-02,2.142946794629096985e-02,-3.049420751631259918e-02,-1.817431487143039703e-02,-5.773412063717842102e-03,5.006702151149511337e-03,7.808922673575580120e-04,-8.020079694688320160e-03,-1.610108837485313416e-02,2.616222016513347626e-02,2.280110865831375122e-02,-1.364411506801843643e-02,-1.125294994562864304e-02,-1.919133588671684265e-02,7.945791003294289112e-04,-3.863764181733131409e-02,1.845455542206764221e-02,-5.027286708354949951e-03,9.579176083207130432e-03,-3.361040353775024414e-02,-2.594106458127498627e-02,1.922367885708808899e-02,7.168125361204147339e-03,1.308033242821693420e-02,9.248007088899612427e-03,6.853411439806222916e-03,-9.165030904114246368e-03,2.394173853099346161e-02,1.019431371241807938e-02,-3.344163298606872559e-02,3.382699564099311829e-02,-2.538159955292940140e-03,-3.169933333992958069e-02,-3.455321490764617920e-02,-3.504358977079391479e-02,-1.371947955340147018e-02,-2.801881730556488037e-02,-2.371785789728164673e-02,-1.410350669175386429e-02,-2.894693240523338318e-02,-2.620856277644634247e-02,3.958487417548894882e-03,5.921599920839071274e-03,1.473608985543251038e-02,4.296398721635341644e-03,1.465335767716169357e-02,1.914540654979646206e-03,-3.352856636047363281e-02,2.360328659415245056e-02,-3.201975673437118530e-02,-2.943171560764312744e-02,-1.005903352051973343e-02,2.975646406412124634e-02,-2.452373690903186798e-02,2.422967553138732910e-02,-2.762977778911590576e-02,-8.520146831870079041e-03,-3.235971927642822266e-02,1.149034593254327774e-02,-3.476675599813461304e-02,-2.621892280876636505e-02,-2.330623380839824677e-02,2.233469858765602112e-03,-3.038324601948261261e-02,-2.384127303957939148e-02,2.841462381184101105e-02,-2.418396994471549988e-02,-5.857557989656925201e-03,1.059533189982175827e-02,-1.791074313223361969e-02,1.123172463849186897e-03,-6.554728373885154724e-03,3.594211069867014885e-03,2.061879262328147888e-02,6.792641244828701019e-03,-2.432902716100215912e-02,-1.820198260247707367e-02,-1.719754561781883240e-02,1.934808492660522461e-02,1.479014661163091660e-02,6.058421451598405838e-03,1.480861683376133442e-03,-8.517957292497158051e-03,2.058546803891658783e-02,5.652341991662979126e-03,-1.331497263163328171e-02,3.214515373110771179e-02,2.664631605148315430e-02,5.738721787929534912e-02,4.674011841416358948e-02,1.148606743663549423e-02,3.801655024290084839e-02,1.131400931626558304e-02,-1.163483969867229462e-02,-5.532634444534778595e-03,2.854507416486740112e-02,-1.423129532486200333e-02,-2.357376366853713989e-02,1.461144816130399704e-02,-1.651666499674320221e-02,-2.161365468055009842e-03,-2.205391786992549896e-02,5.861292127519845963e-03,1.724428310990333557e-02,-2.126804739236831665e-02,-2.541506849229335785e-02,-1.480264030396938324e-02,2.134471759200096130e-02,2.148461714386940002e-02,2.607547678053379059e-03,-2.141489833593368530e-02,-2.875352278351783752e-02,-1.436896529048681259e-02,-3.549150750041007996e-02,-3.635282395407557487e-03,5.124783143401145935e-03,-3.723638132214546204e-02,-1.705901464447379112e-03,1.418253686279058456e-02,-1.523496210575103760e-02,-9.082490578293800354e-03,1.936499774456024170e-02,1.012498978525400162e-02,2.798760123550891876e-02,-1.577682676725089550e-03,-2.651115646585822105e-03,8.419511839747428894e-03,-3.330568969249725342e-02,-2.906842157244682312e-02,-1.456757634878158569e-02,3.494336036965250969e-03,-2.802127972245216370e-03,-6.650445517152547836e-03,-1.751211658120155334e-02,4.270426463335752487e-03,-2.359693683683872223e-02,2.758469060063362122e-02,-1.815968379378318787e-02,1.453778240829706192e-02,1.153211947530508041e-02,-2.595445699989795685e-02,-4.088557325303554535e-03,1.679508946835994720e-02,-1.091156434267759323e-02,2.164714969694614410e-02,-2.064394950866699219e-02,7.280677091330289841e-03,-1.938434317708015442e-02,2.842572145164012909e-02,-1.308105420321226120e-03,-2.520384453237056732e-02,2.763141877949237823e-02,-3.110652044415473938e-02,1.251339726150035858e-02,1.341432239860296249e-02,8.865990675985813141e-03,-1.454742439091205597e-02,-3.103406634181737900e-03,-1.872584596276283264e-02,-1.407978683710098267e-02,2.801646105945110321e-02,-7.850067922845482826e-04,-2.326119691133499146e-02,-2.939940243959426880e-02,2.237823233008384705e-02,-2.493183501064777374e-02,1.808773522498086095e-04,-1.531227771192789078e-02,7.162192487157881260e-04,-2.483974583446979523e-02,-3.166027367115020752e-02,-8.958326652646064758e-03,7.451311219483613968e-03,1.364836841821670532e-02,-2.687456086277961731e-02,-4.920247592963278294e-04,-1.451669540256261826e-02,3.073938004672527313e-02,2.697462961077690125e-02,-3.496906487271189690e-03,-1.137161068618297577e-02,1.019527204334735870e-02,1.824412681162357330e-02,-2.887170948088169098e-02,1.348185259848833084e-02,2.110518701374530792e-02,2.792263962328433990e-02,-5.769747775048017502e-03,2.887004986405372620e-02,-1.803174242377281189e-02,1.051713805645704269e-02,9.728522039949893951e-03,-2.828089334070682526e-02,2.175547555088996887e-02,2.775017358362674713e-02,2.600056119263172150e-03,2.272899635136127472e-02,-1.664870232343673706e-02,-7.181005552411079407e-03,2.992052957415580750e-02,4.510552622377872467e-03,1.416577026247978210e-02,-1.508621871471405029e-02,8.401619270443916321e-03,-4.934494500048458576e-04,-9.517393074929714203e-03,2.989016845822334290e-02,2.693783491849899292e-02,1.822715625166893005e-02,7.942237891256809235e-03,-1.093520689755678177e-02,-5.747855640947818756e-03,2.540471591055393219e-02,-1.450930535793304443e-02,2.382796071469783783e-02,-3.139732778072357178e-02,2.645201515406370163e-03,-1.322138309478759766e-02,4.340696148574352264e-03,1.899394206702709198e-02,2.918916195631027222e-02,1.565023674629628658e-03,1.909735985100269318e-02,1.284358743578195572e-02,2.129580266773700714e-02,-1.698179170489311218e-02,2.313466928899288177e-02,4.465669859200716019e-03,1.037167664617300034e-02,-8.952327072620391846e-03,-8.333876729011535645e-03,-2.526226453483104706e-02,-1.052366336807608604e-03,-1.807155273854732513e-02,-1.207022112794220448e-03,2.489743521437048912e-03,-1.899933069944381714e-02,2.198045887053012848e-02,7.275546435266733170e-03,-9.802062064409255981e-03,1.821747748181223869e-03,-1.643411815166473389e-02,7.074128836393356323e-03,2.221798151731491089e-02,3.152554109692573547e-02,-2.816801145672798157e-02,7.468400988727807999e-03,1.857239753007888794e-02,-8.117154240608215332e-03,2.381359785795211792e-02,2.653097547590732574e-02,2.165951998904347420e-03,-2.443672344088554382e-02,-1.424611732363700867e-02,-5.472124903462827206e-04,2.661393210291862488e-02,-8.516529574990272522e-03,-2.648696117103099823e-02,2.321893721818923950e-02,1.144702825695276260e-02,-1.976925507187843323e-02,9.335199720226228237e-04,-2.968442253768444061e-02,-5.034110508859157562e-03,-1.662980951368808746e-02,3.119966201484203339e-02,8.798695169389247894e-03,1.462675910443067551e-02,8.798627182841300964e-03,-9.116112254559993744e-03,-1.654341816902160645e-02,6.925509311258792877e-03,-2.409818582236766815e-02,4.670153066399507225e-05,3.143494203686714172e-02,-2.293126657605171204e-03,-2.441760338842868805e-02,-2.130554243922233582e-02,2.813105843961238861e-02,-4.112799186259508133e-03,-2.356506418436765671e-03,2.498320303857326508e-02,2.815323136746883392e-02,-2.926258370280265808e-02,3.768356982618570328e-04,-4.281214904040098190e-03,-7.556495256721973419e-03,-3.616517875343561172e-03,-5.863963626325130463e-03,1.165022142231464386e-02,-2.602681051939725876e-03,-1.359174959361553192e-02,-4.830167628824710846e-03,2.904775552451610565e-02,-1.454571820795536041e-02,2.284802123904228210e-02,-2.985246293246746063e-02,2.581872418522834778e-02,2.556434832513332367e-02,-1.721196249127388000e-02,1.415556762367486954e-02,-2.067055366933345795e-02,4.886350594460964203e-03,-7.956068031489849091e-03,-2.721818909049034119e-02,-6.916396319866180420e-03,2.329051122069358826e-02,-2.269142307341098785e-02,1.719743199646472931e-02,-2.022931165993213654e-02,-1.393552683293819427e-02,2.928366698324680328e-02,-6.280031055212020874e-03,2.296576462686061859e-02,-8.836084045469760895e-03,5.146950017660856247e-03,-1.846583443693816662e-03,-6.197792012244462967e-03,-2.145650237798690796e-02,2.619508653879165649e-03,-3.177773579955101013e-02,-9.453187696635723114e-03,-2.258271351456642151e-02,1.526669133454561234e-02,-1.366436015814542770e-02,7.554934360086917877e-03,-2.300138957798480988e-02,2.927525714039802551e-02,-2.461610361933708191e-02,2.631988935172557831e-02,3.047350607812404633e-02,1.986873708665370941e-02,8.080618456006050110e-03,-1.709018833935260773e-02,8.218106813728809357e-03,4.466789774596691132e-03,-2.833548560738563538e-02,2.877003140747547150e-02,2.210950851440429688e-02,-2.989219967275857925e-03,-1.623013801872730255e-02,2.669660747051239014e-02,-8.359515108168125153e-03,-2.910056337714195251e-02,2.749573905020952225e-03,-2.939967066049575806e-02,7.353531662374734879e-03,-2.171040105167776346e-04,-1.199630554765462875e-02,9.399529546499252319e-03,-1.490498892962932587e-02,9.093665517866611481e-03,1.614290103316307068e-02,-2.967833075672388077e-03,2.532416023313999176e-02,-1.429607975296676159e-03,2.014202624559402466e-02,-2.187035419046878815e-02,1.717950031161308289e-02,-1.358989812433719635e-02,4.471251275390386581e-03,1.795979216694831848e-02,3.041584417223930359e-02,2.425079792737960815e-02,-2.815924957394599915e-02,8.274043910205364227e-03,2.333730459213256836e-02,-3.062880970537662506e-02,1.196091622114181519e-02,2.958671562373638153e-02,-2.088541368721053004e-04,-8.752016350626945496e-03,5.866697058081626892e-03,-1.382061932235956192e-02,-2.612092718482017517e-02,-1.375118084251880646e-02,-2.025698078796267509e-03,-1.361416094005107880e-02,-1.336499396711587906e-02,2.608969248831272125e-02,-2.869373373687267303e-02,1.827028230763971806e-03,-6.377010606229305267e-03,-1.384746469557285309e-02,-2.499330230057239532e-02,6.893699057400226593e-03,-2.960232086479663849e-02,-2.658883668482303619e-02,-4.082026891410350800e-03,7.038683164864778519e-03,-4.863716661930084229e-03,-7.367267739027738571e-03,-2.950445376336574554e-02,6.655270117335021496e-04,-3.333208709955215454e-02,-2.253304421901702881e-02,-2.645536512136459351e-02,-2.674894221127033234e-02,3.022136352956295013e-02,-1.442802045494318008e-02,2.515014633536338806e-02,-2.236833050847053528e-02,2.237636968493461609e-02,-1.505024731159210205e-02,-2.721253782510757446e-02,5.535689648240804672e-03,7.673482177779078484e-04,-2.998291142284870148e-02,-3.110323287546634674e-02,-1.180706266313791275e-02,1.801695302128791809e-02,1.991158165037631989e-02,3.054304979741573334e-02,1.447804830968379974e-02,4.774352535605430603e-03,-2.434913627803325653e-02,-8.707558736205101013e-03,-1.697667501866817474e-02,2.163067273795604706e-02,-7.805454544723033905e-03,4.425370600074529648e-03,1.085426658391952515e-02,-2.367279119789600372e-02,-1.217169873416423798e-02,-2.905066870152950287e-02,-4.773433785885572433e-03,-1.636636815965175629e-02,-1.440630760043859482e-02,-4.380182363092899323e-03,-2.056337520480155945e-02,-3.211470320820808411e-02,-6.771759595721960068e-03,-2.111100777983665466e-02,2.792633371427655220e-03,-3.835935611277818680e-03,-1.768889836966991425e-02,1.679529435932636261e-02,-1.128399372100830078e-02,2.108828397467732430e-03,-6.385548040270805359e-03,-4.867993760854005814e-03,1.709019206464290619e-02,1.388742029666900635e-02,2.210777066648006439e-02,1.735402643680572510e-02,2.982991933822631836e-02,1.346054300665855408e-02,1.209993474185466766e-02,-1.936955377459526062e-03,-4.494189750403165817e-03,1.127968542277812958e-02,-1.466179918497800827e-02,1.697533065453171730e-03,9.808844886720180511e-03,-3.216173499822616577e-02,-7.182888686656951904e-03,3.186166053637862206e-03,-2.093833498656749725e-02,-5.094334483146667480e-03,-2.850461937487125397e-02,-4.913288168609142303e-03,2.720448002219200134e-02,-2.958032302558422089e-03,2.769574150443077087e-02,-1.034751627594232559e-02,-3.069311566650867462e-02,-2.664515003561973572e-02,2.028663270175457001e-02,3.264281433075666428e-03,9.553680196404457092e-03,-2.413717284798622131e-02,6.440591532737016678e-03,1.326811220496892929e-02,-2.878628484904766083e-02,-3.060935437679290771e-02,2.838114276528358459e-02,2.031807973980903625e-02,2.488771639764308929e-02,2.663523657247424126e-03,3.396020084619522095e-02,-2.487015351653099060e-02,-2.487122640013694763e-02,1.246241852641105652e-02,3.089585714042186737e-02,-1.609881408512592316e-02,-2.514715306460857391e-02,2.107517048716545105e-02,-1.399703789502382278e-02,1.649964228272438049e-02,-2.365424111485481262e-02,-1.141501963138580322e-02,-1.300784945487976074e-02,-9.769742377102375031e-03,-2.229577302932739258e-02,-2.170808427035808563e-02,1.819753274321556091e-02,3.211254626512527466e-02,3.178476542234420776e-02,1.769478619098663330e-02,2.373145148158073425e-02,1.865646801888942719e-02,1.770145026966929436e-03,2.008111029863357544e-02,-4.091377835720777512e-03,-2.339204959571361542e-02,3.245751187205314636e-02,-1.890958845615386963e-02,-1.173347141593694687e-02,-1.157478708773851395e-02,-1.431383658200502396e-02,-8.150441572070121765e-03,-2.403901331126689911e-02,-2.821700647473335266e-02,-2.979592187330126762e-03,1.926983892917633057e-02,1.687955297529697418e-02,1.963608153164386749e-02,1.774065755307674408e-02,9.075783309526741505e-04,-3.145496547222137451e-02,-3.518566722050309181e-03,7.700977730564773083e-04,2.436396293342113495e-02,-9.019951336085796356e-03,-6.917213904671370983e-04,-2.148358151316642761e-02,1.388198696076869965e-02,5.966185592114925385e-03,-4.892307799309492111e-03,2.969287522137165070e-02,-1.260680332779884338e-02,-1.131324097514152527e-02,9.612139314413070679e-03,-1.991341263055801392e-02,-5.816949997097253799e-03,-2.170115523040294647e-02,2.532170712947845459e-02,2.655724063515663147e-02,-4.034148994833230972e-03,3.068652004003524780e-02,-2.081560157239437103e-02,1.854385249316692352e-02,7.119513116776943207e-03,-1.691146939992904663e-02,-5.280902609229087830e-03,1.876326650381088257e-02,-2.212457591667771339e-03,9.924004785716533661e-03,-1.380351278930902481e-02,2.367209270596504211e-02,4.204626381397247314e-02,5.561742931604385376e-02,1.272269641049206257e-03,6.026752758771181107e-03,2.091834507882595062e-02,3.276184946298599243e-02,3.291743621230125427e-02,-3.769890638068318367e-03,-6.578609813004732132e-03,9.542177431285381317e-03,-5.546216666698455811e-02,-3.563175722956657410e-02,2.417882718145847321e-02,5.356186628341674805e-02,1.096308114938437939e-03,1.804186776280403137e-02,5.912815406918525696e-02,4.890095815062522888e-02,2.311700023710727692e-02,-1.008334383368492126e-02,-4.320702981203794479e-03,8.102435618638992310e-03,-7.054352667182683945e-03,-7.404451072216033936e-02,-1.525339186191558838e-01,-4.441868513822555542e-02,-1.071377377957105637e-02,1.609931141138076782e-02,-4.582945257425308228e-02,-5.747415707446634769e-04,7.338015362620353699e-03,2.253453480079770088e-03,-8.896343410015106201e-03,-2.052904665470123291e-02,-5.365415476262569427e-03,-1.807654649019241333e-02,-1.968208514153957367e-02,-6.774603575468063354e-02,-7.689621299505233765e-02,-9.465924650430679321e-02,1.414006110280752182e-02,6.004603579640388489e-02,3.202977776527404785e-02,-9.234810620546340942e-02,-9.691499173641204834e-02,-1.117150783538818359e-01,-2.185566350817680359e-02,6.714255083352327347e-03,-6.173860747367143631e-03,-1.740517839789390564e-02,-5.353432893753051758e-02,-3.785508126020431519e-02,-1.096749827265739441e-01,-1.419998258352279663e-01,3.550032386556267738e-03,1.177030876278877258e-01,5.248952284455299377e-02,-5.168165266513824463e-02,-4.890966787934303284e-02,-1.056826934218406677e-01,-4.315676167607307434e-02,1.922381669282913208e-02,5.868533626198768616e-03,-1.295813359320163727e-02,-4.272051528096199036e-02,-5.132647976279258728e-02,2.303078072145581245e-03,-1.242774655111134052e-03,-2.796870656311511993e-03,8.132799994200468063e-04,-2.181767858564853668e-02,-1.095667555928230286e-01,-4.475432261824607849e-02,-1.803337968885898590e-02,-1.408407185226678848e-02,-6.019975524395704269e-03,1.078526582568883896e-02,-2.120909839868545532e-02,1.295710448175668716e-02,-2.844771742820739746e-02,7.560966163873672485e-02,-1.634328253567218781e-02,-3.533796966075897217e-02,-5.082956701517105103e-02,-2.079155296087265015e-02,-1.580467522144317627e-01,-4.816450551152229309e-02,-4.464708734303712845e-03,-1.964536029845476151e-03,2.235569618642330170e-02,-1.027388498187065125e-02,3.559051081538200378e-02,-2.638133615255355835e-02,2.764083817601203918e-02,5.259613692760467529e-02,-1.738668303005397320e-03,4.947740118950605392e-03,6.315740197896957397e-02,-1.010759547352790833e-01,-8.616729080677032471e-02,-9.627995081245899200e-03,-1.367966923862695694e-02,-5.868587177246809006e-03,2.255220431834459305e-03,-1.754028350114822388e-02,1.656370609998703003e-02,3.893094137310981750e-02,-7.750913966447114944e-03,8.359003067016601562e-02,7.353362441062927246e-02,1.002523303031921387e-01,8.366694301366806030e-02,3.611719980835914612e-02,2.956021763384342194e-02,3.850287944078445435e-02,3.745399042963981628e-02,5.748361721634864807e-02,-1.980008743703365326e-02,-8.750457316637039185e-03,3.844309225678443909e-02,1.769027486443519592e-02,3.077781759202480316e-02,9.185787290334701538e-02,9.717508405447006226e-02,5.050007998943328857e-02,1.160721629858016968e-01,1.950794309377670288e-01,1.687018573284149170e-01,6.425774842500686646e-02,2.116734720766544342e-02,3.462115302681922913e-02,2.945784851908683777e-02,-2.086283173412084579e-03,2.847779914736747742e-02,6.785850971937179565e-02,6.752551533281803131e-03,7.793633267283439636e-03,-4.539605975151062012e-02,-9.888891130685806274e-02,-8.459378778934478760e-02,-4.332519695162773132e-02,1.516314502805471420e-02,3.863595426082611084e-02,1.842344366014003754e-02,4.752443172037601471e-03,2.135967835783958435e-02,1.884109154343605042e-02,3.278558701276779175e-02,-3.663353621959686279e-02,-3.468986973166465759e-02,-1.953166536986827850e-02,-8.307761698961257935e-02,-1.216700673103332520e-01,-1.162070930004119873e-01,-4.063640162348747253e-02,-2.500910684466362000e-02,-3.637515753507614136e-02,-2.010293770581483841e-03,-1.591243967413902283e-02,1.022336818277835846e-02,-4.072240088135004044e-03,1.764689013361930847e-02,1.298930123448371887e-02,1.098955515772104263e-02,-1.492829620838165283e-02,-3.298107907176017761e-02,-4.698237776756286621e-02,-1.320580765604972839e-02,2.302904799580574036e-02,-2.253706194460391998e-02,-2.265352196991443634e-02,1.112983282655477524e-02,-5.103321280330419540e-03,-1.086245942860841751e-02
-2.274150401353836060e-02,3.611754253506660461e-02,-2.691488014534115791e-03,2.614708989858627319e-02,2.399750053882598877e-02,-2.066987752914428711e-02,2.366930805146694183e-02,-1.026195473968982697e-02,-2.062037400901317596e-02,3.864000365138053894e-02,1.718990970402956009e-03,2.536677755415439606e-02,-6.941917352378368378e-03,9.573190473020076752e-03,-2.891406475100666285e-04,9.963231161236763000e-03,-2.052140049636363983e-02,-1.616757549345493317e-02,1.928144507110118866e-02,-1.500600948929786682e-02,1.592819765210151672e-02,8.047010749578475952e-03,3.948676213622093201e-02,3.675341978669166565e-02,-2.054305560886859894e-02,-2.261022850871086121e-02,4.044630751013755798e-02,-2.681708894670009613e-03,1.139995828270912170e-02,4.121358972042798996e-03,5.763476656284183264e-05,2.432548254728317261e-02,3.011752665042877197e-02,9.150293655693531036e-03,-5.996057763695716858e-03,2.034319192171096802e-02,-7.869140245020389557e-03,-1.777334511280059814e-02,1.189357042312622070e-02,1.452014083042740822e-03,-2.522313268855214119e-03,3.944081813097000122e-02,1.080787507817149162e-03,3.573448210954666138e-02,-6.703159888274967670e-04,5.436324514448642731e-03,3.076475858688354492e-02,1.554233953356742859e-02,1.933619193732738495e-02,1.865650340914726257e-02,-7.663497235625982285e-03,-4.011664073914289474e-03,-1.318316999822854996e-02,-1.773110963404178619e-02,-2.419039793312549591e-02,7.412020117044448853e-03,-1.659392192959785461e-02,2.645232016220688820e-03,-1.718807406723499298e-02,1.452798675745725632e-02,3.482978418469429016e-02,5.707498174160718918e-03,2.475316449999809265e-02,1.766212284564971924e-02,-5.424703937023878098e-03,-1.901107095181941986e-02,2.519817277789115906e-02,2.075747214257717133e-02,8.410882204771041870e-03,-2.113671973347663879e-02,2.270269021391868591e-02,1.104400493204593658e-02,-5.758921615779399872e-03,-6.476082373410463333e-03,1.872882246971130371e-03,-8.014552295207977295e-03,-5.407773423939943314e-03,1.053568068891763687e-02,-6.933874450623989105e-03,1.854414306581020355e-02,3.505315259099006653e-02,5.985245574265718460e-03,1.254803873598575592e-02,-1.493930909782648087e-02,1.309713814407587051e-02,4.945443943142890930e-04,-7.126811891794204712e-03,-1.814654096961021423e-02,-1.819701306521892548e-02,-1.259036175906658173e-02,2.862245216965675354e-02,1.588695682585239410e-02,5.403576884418725967e-03,4.482911527156829834e-02,-1.666910760104656219e-02,2.273864299058914185e-02,-5.408877623267471790e-04,-1.687093637883663177e-02,2.929541841149330139e-02,7.895782589912414551e-03,2.144972793757915497e-02,2.531283721327781677e-02,8.426913991570472717e-03,3.554243594408035278e-02,3.015135601162910461e-02,2.494239248335361481e-02,3.389168530702590942e-02,2.426490746438503265e-02,-1.069846935570240021e-02,-3.046959172934293747e-04,3.998252749443054199e-02,-7.078819442540407181e-03,-8.010309189558029175e-03,3.014650195837020874e-02,3.033109381794929504e-02,7.422193884849548340e-03,2.629456669092178345e-02,3.742572665214538574e-02,2.017647027969360352e-02,2.886183559894561768e-02,-1.961319940164685249e-03,2.293802332133054733e-03,2.477547153830528259e-02,-6.329869851469993591e-03,-1.741927862167358398e-02,1.782933832146227360e-03,-1.210699509829282761e-02,3.729983791708946228e-02,4.241289943456649780e-02,-6.913599558174610138e-03,4.470652341842651367e-02,1.703602465568110347e-04,4.707957431674003601e-02,-1.837609894573688507e-02,-4.920948762446641922e-03,2.755732275545597076e-02,2.766560204327106476e-02,4.509972035884857178e-02,1.962637901306152344e-02,-1.450622174888849258e-02,2.233441360294818878e-02,5.040966439992189407e-03,2.725174650549888611e-02,-4.006446397397667170e-04,1.888462714850902557e-02,1.483218837529420853e-02,4.299364984035491943e-02,5.779822356998920441e-03,1.820363919250667095e-03,3.075614199042320251e-02,4.371504485607147217e-02,4.044222459197044373e-02,-1.697506569325923920e-02,3.919746261090040207e-03,3.011371195316314697e-02,-6.685490254312753677e-03,6.740100798197090626e-04,-8.923055604100227356e-03,-6.862943526357412338e-03,1.270051486790180206e-02,2.968288958072662354e-02,1.019515749067068100e-02,4.215453937649726868e-02,4.734054952859878540e-02,4.202263802289962769e-02,-1.088781468570232391e-02,3.924589231610298157e-02,3.515205904841423035e-02,3.055838868021965027e-02,2.489755116403102875e-02,-7.937120273709297180e-03,-2.043001726269721985e-02,1.603621244430541992e-02,-8.429251611232757568e-03,2.231459948234260082e-04,3.754837810993194580e-02,2.513167820870876312e-02,4.736581351608037949e-03,2.622008696198463440e-02,-1.300222892314195633e-02,-1.627898216247558594e-02,6.681370083242654800e-03,-4.345043562352657318e-03,1.159310620278120041e-02,3.730593249201774597e-02,1.114707719534635544e-02,1.829861290752887726e-02,-1.034533232450485229e-02,3.161080181598663330e-02,-2.158313430845737457e-02,2.122855000197887421e-02,3.931502997875213623e-02,-1.029626931995153427e-02,5.661454517394304276e-03,-4.187416634522378445e-04,-1.805585809051990509e-02,1.676326990127563477e-02,-1.873619767138734460e-04,-8.156908006640151143e-05,8.658295497298240662e-03,3.086043708026409149e-02,-5.057959817349910736e-03,2.848192304372787476e-02,4.450968932360410690e-03,-2.710273116827011108e-02,3.446638118475675583e-03,8.011193946003913879e-03,2.381188981235027313e-02,-1.134457579610170797e-05,-2.071672864258289337e-02,2.329892665147781372e-02,-1.673902757465839386e-02,-5.124672781676054001e-03,2.178950794041156769e-02,1.638932339847087860e-02,-1.541082310723140836e-04,6.137680262327194214e-03,-1.040890580043196678e-03,1.450454350560903549e-02,-1.617473550140857697e-02,-2.320546424016356468e-03,2.860810980200767517e-02,8.678096346557140350e-03,-3.042568080127239227e-02,2.951479330658912659e-02,-7.306556217372417450e-03,-1.966057345271110535e-02,-1.025305222719907761e-02,-3.431908041238784790e-02,5.799768958240747452e-03,1.776377670466899872e-02,1.584673859179019928e-02,-3.017903678119182587e-02,-1.617742516100406647e-02,-1.336195319890975952e-02,7.712413556873798370e-03,-1.583975180983543396e-02,-3.028312325477600098e-02,-7.494505494832992554e-03,4.861069377511739731e-03,1.793689280748367310e-02,-2.016438869759440422e-03,2.355572022497653961e-02,5.585916340351104736e-03,-2.171262726187705994e-02,-3.024018555879592896e-02,-3.353948518633842468e-02,-1.569094951264560223e-03,-3.410924598574638367e-02,-3.528275759890675545e-03,-1.027613878250122070e-02,1.284257043153047562e-02,1.707001775503158569e-02,9.376175701618194580e-03,-5.235401913523674011e-03,1.430223323404788971e-02,1.796143315732479095e-02,2.619521878659725189e-02,-2.226706035435199738e-02,-4.716857336461544037e-03,2.109770849347114563e-02,4.038885235786437988e-03,-9.308124892413616180e-03,-2.039237879216670990e-02,2.700106427073478699e-02,2.292049117386341095e-02,-3.090886166319251060e-03,-2.638999931514263153e-02,1.883167587220668793e-02,8.071201853454113007e-03,-1.893083192408084869e-02,-2.732743509113788605e-02,2.830884978175163269e-02,-3.339965641498565674e-02,-5.272252485156059265e-02,9.182832203805446625e-03,-9.981913026422262192e-04,-2.329644281417131424e-03,2.753054536879062653e-02,2.829326502978801727e-02,4.493274609558284283e-04,1.125288009643554688e-02,-5.320988595485687256e-03,2.273928932845592499e-02,-4.156698938459157944e-03,2.946701273322105408e-02,2.769278362393379211e-03,-6.374434567987918854e-03,1.507463119924068451e-02,-9.929289110004901886e-03,-8.805594407021999359e-03,-2.900544553995132446e-02,2.718101069331169128e-02,-3.070098347961902618e-02,1.328917313367128372e-02,2.158593200147151947e-02,-1.729200407862663269e-02,4.606352187693119049e-03,3.847415745258331299e-02,3.059116564691066742e-02,2.431685850024223328e-02,3.878856822848320007e-02,3.434075787663459778e-02,3.009058907628059387e-02,2.405013330280780792e-02,-2.928640507161617279e-02,-1.649253629148006439e-02,-9.729107841849327087e-04,-2.141937986016273499e-02,1.515542250126600266e-02,1.360422838479280472e-02,6.902147084474563599e-03,2.805665135383605957e-02,1.244007609784603119e-02,2.339753136038780212e-02,-1.480242237448692322e-02,1.229635346680879593e-02,2.693789266049861908e-02,2.640957385301589966e-02,-2.002380415797233582e-02,5.695468280464410782e-03,-2.018000185489654541e-02,-1.288933586329221725e-02,8.889971300959587097e-03,-2.494033798575401306e-02,-1.461635436862707138e-02,-2.745240740478038788e-02,4.343788605183362961e-03,2.891728654503822327e-03,2.432663366198539734e-02,-1.584109663963317871e-02,8.743268554098904133e-04,-3.495025262236595154e-02,-3.525253385305404663e-02,-5.162579473108053207e-03,2.215296030044555664e-02,-2.054852619767189026e-02,-1.682992465794086456e-02,1.238743681460618973e-02,-3.616428747773170471e-02,5.546526983380317688e-03,8.628131821751594543e-03,-3.509097965434193611e-03,1.575321145355701447e-02,-1.738245040178298950e-02,1.843208074569702148e-02,1.400419604033231735e-02,-4.924596752971410751e-03,7.862791419029235840e-03,2.391649782657623291e-02,5.620525684207677841e-03,6.580505985766649246e-03,-1.445386186242103577e-02,1.239780429750680923e-02,-2.115553058683872223e-02,3.585980460047721863e-02,2.187623456120491028e-02,-4.509525746107101440e-02,1.165281794965267181e-02,-1.444560848176479340e-02,-3.270564228296279907e-02,-3.288019821047782898e-02,3.032286092638969421e-02,-1.071026455610990524e-02,2.319159917533397675e-02,2.365519478917121887e-02,2.752555720508098602e-02,-1.705091819167137146e-02,3.986425325274467468e-02,-3.086816146969795227e-02,8.498409762978553772e-03,-2.550241770222783089e-03,7.784757763147354126e-03,6.289054639637470245e-03,-1.274100411683320999e-02,1.779448427259922028e-02,6.659306120127439499e-03,-1.803298480808734894e-02,1.436399947851896286e-02,-8.944886503741145134e-04,-1.900966279208660126e-02,-2.778085879981517792e-02,-1.166750676929950714e-03,3.895039437338709831e-03,1.190981548279523849e-02,-1.633847318589687347e-02,-3.134205564856529236e-02,2.381752431392669678e-02,1.977283321321010590e-02,2.245929650962352753e-02,-1.486498955637216568e-02,1.793651096522808075e-02,2.261004783213138580e-02,-1.077420543879270554e-03,2.465670369565486908e-02,-2.784946933388710022e-02,-7.189674302935600281e-03,6.699923891574144363e-03,-9.962137788534164429e-03,-3.005261532962322235e-02,1.536465995013713837e-02,-5.141150206327438354e-03,-8.722214959561824799e-03,2.987307496368885040e-02,1.885868795216083527e-02,1.437614485621452332e-02,-1.910319551825523376e-02,-1.204726286232471466e-02,-1.855689100921154022e-02,-1.259232312440872192e-02,-1.103195361793041229e-02,-7.208091206848621368e-03,2.013123407959938049e-02,2.228244207799434662e-02,2.785676345229148865e-02,1.752047240734100342e-02,9.953158907592296600e-03,2.502643689513206482e-02,1.879471237771213055e-03,-2.343702828511595726e-03,-1.917216554284095764e-02,5.503822118043899536e-03,4.176807589828968048e-03,1.898742653429508209e-02,1.996475085616111755e-02,-1.707256422378122807e-03,1.800567028112709522e-03,2.089404501020908356e-02,-3.144867718219757080e-02,3.661546623334288597e-03,2.560686133801937103e-02,-1.935143396258354187e-02,1.659177243709564209e-02,2.398641221225261688e-02,2.695621922612190247e-02,-2.250508405268192291e-02,1.122233737260103226e-02,2.261072583496570587e-02,-1.875544525682926178e-02,1.349118817597627640e-02,1.728374394588172436e-03,6.503710523247718811e-03,5.187096074223518372e-03,-1.974532753229141235e-02,6.924065761268138885e-03,2.568214759230613708e-02,2.707334049046039581e-02,2.752144634723663330e-02,3.388759214431047440e-03,1.163286622613668442e-02,2.746013738214969635e-02,-2.853507874533534050e-03,1.008940598694607615e-04,-5.472831428050994873e-03,-8.906469680368900299e-03,2.853920683264732361e-02,-2.987793833017349243e-02,-6.065405439585447311e-03,1.844242028892040253e-02,-2.748350985348224640e-02,-2.237001620233058929e-02,-1.417206786572933197e-02,1.363939512521028519e-02,2.195577137172222137e-02,1.677918946370482445e-03,-1.581607758998870850e-02,1.726891100406646729e-02,2.379203960299491882e-02,-1.214306522160768509e-02,1.841858029365539551e-02,-1.391042210161685944e-02,-2.753994427621364594e-02,-1.666778814978897572e-03,-2.352222241461277008e-02,-2.673537703230977058e-03,1.686995732598006725e-03,1.888190396130084991e-02,1.210195291787385941e-02,2.612668462097644806e-02,-2.593445032835006714e-02,-2.224483527243137360e-02,-2.417941205203533173e-02,2.222068235278129578e-02,-2.756385132670402527e-02,2.285024151206016541e-03,2.774867974221706390e-02,2.274140249937772751e-03,-1.954913698136806488e-02,-4.369175061583518982e-03,-1.708666421473026276e-02,-2.068198844790458679e-02,1.891971379518508911e-02,-2.172116003930568695e-02,-8.224718272686004639e-03,2.410752326250076294e-02,1.537142507731914520e-02,-2.660792879760265350e-02,-2.482362464070320129e-02,1.351989712566137314e-02,-2.502802945673465729e-02,1.592049561440944672e-02,-3.909052349627017975e-03,-1.594724133610725403e-02,-2.067102678120136261e-02,-3.012918680906295776e-02,2.016608044505119324e-02,-1.771231996826827526e-03,-3.069703839719295502e-02,-7.280883844941854477e-03,9.887360036373138428e-03,1.511302660219371319e-03,6.416209507733583450e-03,2.591667138040065765e-02,-4.961190745234489441e-03,-2.532358514145016670e-03,-1.005041878670454025e-02,-2.826425433158874512e-02,1.810300722718238831e-02,1.919740065932273865e-02,2.368902415037155151e-02,4.700340330600738525e-03,-1.832511089742183685e-02,-1.894636452198028564e-02,4.056205507367849350e-03,6.178748328238725662e-03,2.330723218619823456e-02,-5.083848722279071808e-03,7.126949727535247803e-03,2.842516824603080750e-02,1.201059482991695404e-02,1.079332269728183746e-02,-8.253245614469051361e-03,1.920238509774208069e-02,2.206570841372013092e-02,-2.363937348127365112e-02,-1.405738387256860733e-02,-3.688031109049916267e-03,-1.143704727292060852e-02,1.086910255253314972e-02,2.442542091012001038e-02,4.590175580233335495e-03,2.338766679167747498e-02,8.049103431403636932e-03,-1.619206927716732025e-02,1.367157418280839920e-02,-1.483299117535352707e-02,1.213063485920429230e-02,-1.377857755869626999e-02,9.516590274870395660e-03,8.211694657802581787e-03,-1.538179162889719009e-02,2.194265648722648621e-02,2.639659121632575989e-02,2.919526025652885437e-02,-2.826705947518348694e-02,-1.275638304650783539e-02,1.001657266169786453e-02,-1.186341862194240093e-03,-1.472291443496942520e-02,-2.151877433061599731e-02,6.189372506923973560e-04,6.132115609943866730e-03,-3.415670245885848999e-03,3.000025171786546707e-03,-2.451573684811592102e-02,-2.433371171355247498e-02,-1.372487377375364304e-02,9.572674520313739777e-03,7.592838723212480545e-03,-2.913043275475502014e-02,-1.580176874995231628e-02,-2.119379583746194839e-03,5.924923345446586609e-03,4.827619995921850204e-03,-2.436728402972221375e-02,2.058259956538677216e-02,4.389936104416847229e-03,-2.907510846853256226e-02,-1.869491674005985260e-02,-4.731456283479928970e-03,-1.295101270079612732e-02,1.751292124390602112e-02,9.421570226550102234e-03,-2.230981551110744476e-02,5.107577890157699585e-03,-2.872397378087043762e-02,2.971995063126087189e-02,2.694316394627094269e-02,1.783801987767219543e-02,2.975396998226642609e-02,-1.582134142518043518e-02,3.177855908870697021e-02,2.545954892411828041e-03,-2.134524099528789520e-02,-2.776820026338100433e-02,3.358286805450916290e-03,1.323443744331598282e-02,1.376209314912557602e-02,-3.476121928542852402e-03,3.156321868300437927e-02,2.454712428152561188e-02,1.737227104604244232e-02,7.313715759664773941e-03,-2.563865855336189270e-02,1.850734651088714600e-02,2.652701176702976227e-02,-3.010367602109909058e-02,-1.402185857295989990e-02,2.929896488785743713e-02,1.625403203070163727e-02,3.249332308769226074e-02,-2.756067737936973572e-02,-1.041526068001985550e-02,-1.242657890543341637e-03,-1.630510017275810242e-02,1.688433624804019928e-02,-3.049905784428119659e-02,-2.650781720876693726e-02,3.344438970088958740e-03,2.708199806511402130e-02,2.372861281037330627e-02,2.241864800453186035e-02,1.118880417197942734e-02,9.732461534440517426e-03,1.959524489939212799e-02,9.488323703408241272e-03,-1.929300464689731598e-02,9.909227490425109863e-03,-3.004795126616954803e-02,-2.341138385236263275e-02,-2.038498641923069954e-03,-2.007406018674373627e-02,-2.691501053050160408e-03,-1.012277090921998024e-03,-1.191650889813899994e-02,-2.523502334952354431e-02,1.169887557625770569e-02,-2.946188487112522125e-02,-2.500887401401996613e-02,-3.848675871267914772e-03,-3.240224206820130348e-03,-2.854521758854389191e-02,1.310921274125576019e-03,-3.114140592515468597e-02,-1.297106035053730011e-02,2.472219243645668030e-02,1.251012086868286133e-02,-3.700634231790900230e-03,1.787033304572105408e-02,1.427696552127599716e-02,2.628372982144355774e-02,-2.780895680189132690e-03,-1.373453810811042786e-02,1.487184315919876099e-02,2.534628845751285553e-02,-3.934002015739679337e-03,-2.441190183162689209e-02,-2.130648307502269745e-02,3.176119178533554077e-02,-7.748254574835300446e-04,-1.852552033960819244e-02,-3.054548986256122589e-02,-1.976657845079898834e-02,2.048748917877674103e-02,-2.507296763360500336e-02,3.548693843185901642e-03,1.725492626428604126e-02,3.114366903901100159e-02,-2.458874322474002838e-02,-1.428248453885316849e-02,-1.916551962494850159e-02,-2.872063778340816498e-02,-1.762833446264266968e-02,-2.726220339536666870e-02,-1.465740893036127090e-02,6.101667881011962891e-03,-3.775583952665328979e-02,-2.011687681078910828e-02,-2.002175897359848022e-02,3.043561475351452827e-03,6.437135394662618637e-03,1.573148742318153381e-02,-2.918753959238529205e-02,-9.027251973748207092e-03,-8.760154247283935547e-03,2.836407162249088287e-02,-2.489572390913963318e-02,1.076017972081899643e-02,1.769347488880157471e-02,-1.606865413486957550e-02,2.904760837554931641e-02,3.488671407103538513e-02,1.842417940497398376e-02,1.463723718188703060e-03,2.745311334729194641e-02,2.734472230076789856e-02,-9.298967197537422180e-03,1.954600214958190918e-02,8.711704984307289124e-03,4.992258269339799881e-03,1.731154881417751312e-02,1.733541116118431091e-02,2.486998680979013443e-03,1.782254129648208618e-02,2.038099989295005798e-02,1.062724739313125610e-02,3.437861427664756775e-02,2.831999026238918304e-02,-1.358979754149913788e-02,-2.587122842669487000e-02,-2.781892893835902214e-03,-1.809832826256752014e-02,1.018651854246854782e-02,4.118786659091711044e-03,-1.614071428775787354e-02,-7.507216185331344604e-03,3.374827653169631958e-02,2.474828064441680908e-02,2.201667241752147675e-02,2.641894295811653137e-02,3.067541692871600389e-04,2.767640538513660431e-02,8.316678926348686218e-03,2.968398109078407288e-02,-1.207015011459589005e-02,-2.723008207976818085e-02,-9.740555658936500549e-03,2.516976557672023773e-02,-2.220768481492996216e-02,2.521172724664211273e-02,2.405330352485179901e-02,3.946885932236909866e-03,-2.634690888226032257e-02,-3.365174308419227600e-02,2.221137844026088715e-02,1.658759079873561859e-02,-2.323910780251026154e-02,1.605351269245147705e-02,4.392463248223066330e-03,1.417973358184099197e-02,-8.826398290693759918e-03,1.306662056595087051e-02,1.985797844827175140e-02,2.849638648331165314e-02,-1.484415773302316666e-02,-2.384586259722709656e-02,-2.588332258164882660e-02,-2.488699741661548615e-02,2.065509371459484100e-02,-6.585674360394477844e-03,-1.283864304423332214e-02,2.931483834981918335e-02,2.853833511471748352e-02,1.701648905873298645e-02,1.161573920398950577e-02,-6.113509298302233219e-04,3.083364479243755341e-02,-8.024780079722404480e-03,-1.302655041217803955e-02,-1.152186002582311630e-02,2.454397082328796387e-02,-3.794275969266891479e-02,-3.165386617183685303e-02,1.902591250836849213e-02,3.115138411521911621e-02,3.087451681494712830e-02,2.660059370100498199e-02,-8.743767626583576202e-03,1.928477548062801361e-02,1.196426432579755783e-02,-4.881000146269798279e-03,1.930651627480983734e-02,1.235382724553346634e-02,6.112231872975826263e-03,8.864045143127441406e-03,8.484168909490108490e-03,2.023012144491076469e-03,2.410308457911014557e-03,1.307393237948417664e-02,-1.049804128706455231e-02,2.749560028314590454e-02,-2.788897044956684113e-02,-4.888106137514114380e-03,2.055352739989757538e-02,-2.198005840182304382e-02,-3.706189803779125214e-03,-4.296589642763137817e-03,-2.520144730806350708e-02,8.280535228550434113e-03,-5.668904166668653488e-03,1.823925785720348358e-02,2.621889859437942505e-02,-1.423163153231143951e-02,1.993080368265509605e-03,8.800617419183254242e-03,7.184429559856653214e-03,1.083763223141431808e-02,-2.254292741417884827e-02,-2.906133793294429779e-02,2.315900288522243500e-02,2.934693917632102966e-02,-1.959025487303733826e-02,1.351512968540191650e-03,-3.038810938596725464e-02,-2.345106005668640137e-02,-3.894677013158798218e-02,-9.063754230737686157e-03,-4.720888100564479828e-03,-4.967303480952978134e-03,-1.374428626149892807e-03,1.441981177777051926e-02,-2.886832319200038910e-02,3.131747990846633911e-02,1.747042872011661530e-02,-2.534516341984272003e-02,-4.534230008721351624e-02,1.449848804622888565e-02,-1.425406429916620255e-02,-5.606297776103019714e-02,-5.610256921499967575e-03,-6.832151859998703003e-02,-7.782495021820068359e-02,-4.179358482360839844e-02,-1.359466090798377991e-02,-5.689809564501047134e-03,1.519684772938489914e-02,-2.212506905198097229e-02,1.459682267159223557e-02,-2.237970475107431412e-03,2.423227764666080475e-03,2.109514921903610229e-02,1.805110718123614788e-03,5.090056359767913818e-02,-8.822995238006114960e-03,-1.071230508387088776e-02,-4.876290634274482727e-02,-1.857753098011016846e-02,-1.646040193736553192e-02,3.520509460940957069e-03,1.108257006853818893e-02,2.969730831682682037e-02,-3.659211099147796631e-02,-2.745859138667583466e-02,-2.628978155553340912e-02,-6.071061268448829651e-02,-3.642713651061058044e-02,1.772818341851234436e-02,-4.679237678647041321e-02,-1.221055090427398682e-01,-4.961360991001129150e-02,-4.396302253007888794e-02,7.988364435732364655e-03,2.180208638310432434e-02,3.112492710351943970e-02,2.261759340763092041e-02,-5.238744243979454041e-02,-6.081803515553474426e-02,-4.542557895183563232e-02,-4.572369903326034546e-02,3.435838595032691956e-02,4.461230710148811340e-02,-1.143942326307296753e-01,-5.121153220534324646e-02,-4.501119628548622131e-02,-6.295664608478546143e-02,-4.865064471960067749e-02,-3.725134581327438354e-02,-3.130480274558067322e-02,4.937422927469015121e-03,-4.283379763364791870e-02,-5.371047183871269226e-02,4.518890753388404846e-02,3.165100514888763428e-02,9.378183633089065552e-02,1.089112609624862671e-01,1.294773221015930176e-01,1.021559983491897583e-01,9.813618659973144531e-02,2.043271437287330627e-02,-4.754416272044181824e-02,-4.103199765086174011e-02,-2.429141849279403687e-02,8.804427459836006165e-03,5.058640614151954651e-03,3.347725048661231995e-02,8.852788060903549194e-02,1.386932581663131714e-01,1.345498412847518921e-01,3.735240176320075989e-02,5.525885894894599915e-02,1.196720376610755920e-01,1.341678053140640259e-01,-3.648853627964854240e-03,-6.252126395702362061e-02,-2.057425864040851593e-02,1.483126450330018997e-02,-1.378636062145233154e-02,2.624951675534248352e-02,-1.166537683457136154e-02,-5.184448510408401489e-02,-5.321359727531671524e-03,1.220262721180915833e-01,1.674135215580463409e-02,-1.913082785904407501e-02,7.659604400396347046e-02,8.980567753314971924e-02,-6.677562743425369263e-02,-7.904712855815887451e-02,-1.725790463387966156e-02,-2.040339633822441101e-02,2.264815382659435272e-02,-2.843448147177696228e-02,-2.693575248122215271e-02,-1.021726652979850769e-01,-1.901309639215469360e-01,-1.345464885234832764e-01,-1.185333505272865295e-01,-3.557151556015014648e-02,-1.620185002684593201e-02,-1.066542863845825195e-01,-1.350549459457397461e-01,-1.063206568360328674e-01,-6.207724101841449738e-03,3.013676963746547699e-02,-7.233902346342802048e-03,-5.638043396174907684e-03,-6.043205782771110535e-02,-6.915622204542160034e-02,-7.163323462009429932e-02,-1.156607493758201599e-01,-1.014019548892974854e-01,-1.693228930234909058e-01,-3.026955015957355499e-02,-1.158891245722770691e-01,-9.747564047574996948e-02,-8.397875726222991943e-02,1.323350332677364349e-02,3.217399865388870239e-02,-1.900281198322772980e-02,-9.746845811605453491e-03,9.036489762365818024e-03,2.546165697276592255e-02,8.718707412481307983e-02,7.951144874095916748e-02,-4.141974076628684998e-02,-7.687225937843322754e-02,-6.082255393266677856e-02,-4.823092371225357056e-02,-3.413195535540580750e-02,-2.159517444670200348e-02,-3.106171498075127602e-03,-1.404614932835102081e-02,-7.922549732029438019e-03,2.966023236513137817e-02,4.274017363786697388e-02,6.489121168851852417e-02,5.159553140401840210e-02,3.369113802909851074e-02,-1.192178484052419662e-02,-1.863369531929492950e-02,-1.132217003032565117e-03,8.576416410505771637e-03,6.568863242864608765e-02,1.325033232569694519e-02,-6.561514455825090408e-03,2.595673315227031708e-02,5.713036283850669861e-03,-1.998627744615077972e-02,-1.726209744811058044e-02,-1.520829275250434875e-02,2.045497996732592583e-03,2.207097411155700684e-02,-1.651036739349365234e-02,-1.089137047529220581e-02,-1.275719515979290009e-02,-2.468546479940414429e-02,2.215602435171604156e-02,3.173953667283058167e-02,-7.838145829737186432e-03,-9.202914312481880188e-03
-1.833099522627890110e-03,-2.412443608045578003e-02,1.381691452115774155e-02,1.496032159775495529e-02,-5.686638411134481430e-03,-2.430391497910022736e-02,-3.576692193746566772e-02,-3.210739791393280029e-02,1.644834876060485840e-02,-2.440456300973892212e-02,-1.691526174545288086e-02,-1.123784386436454952e-04,9.101407602429389954e-03,-6.939972750842571259e-03,-3.595557995140552521e-03,1.683613844215869904e-02,-5.136872641742229462e-03,-2.340014325454831123e-03,-3.559102863073348999e-02,-6.867207586765289307e-03,-4.458718933165073395e-03,6.165263708680868149e-03,-8.980860933661460876e-03,1.439843792468309402e-02,1.412925776094198227e-02,-3.708609938621520996e-02,-1.919455267488956451e-02,-2.961728721857070923e-02,-9.532138938084244728e-04,1.817279495298862457e-02,2.665602974593639374e-02,8.947715163230895996e-03,7.158333435654640198e-03,1.252540852874517441e-02,-3.761586546897888184e-02,1.345969922840595245e-02,-7.032688241451978683e-03,-3.237724304199218750e-02,-2.000194799620658159e-04,6.628783419728279114e-03,-3.403855860233306885e-02,1.082954555749893188e-02,3.502731211483478546e-03,-3.105914779007434845e-02,-7.751032710075378418e-03,-2.638691477477550507e-02,-9.759117849171161652e-03,2.001866325736045837e-02,-2.687160857021808624e-02,-2.443835325539112091e-02,-1.586945541203022003e-02,-4.166430793702602386e-03,3.076926432549953461e-02,2.387503534555435181e-02,3.093899227678775787e-03,1.190758123993873596e-02,1.898068189620971680e-02,-3.333838284015655518e-02,-7.040464319288730621e-03,-3.566275537014007568e-02,-1.562904193997383118e-02,-2.920494228601455688e-02,-3.519731014966964722e-02,1.439981511794030666e-03,-8.138547651469707489e-03,-1.095985248684883118e-02,-2.340436913073062897e-02,-2.555312030017375946e-02,2.288773283362388611e-02,2.006679773330688477e-02,1.389175560325384140e-02,-3.162486106157302856e-02,-5.201759282499551773e-03,-2.541550993919372559e-02,-8.362262509763240814e-03,-2.631284296512603760e-02,5.788217764347791672e-03,1.586872152984142303e-02,1.913847774267196655e-02,1.072110235691070557e-02,-4.514924250543117523e-03,1.909507322125136852e-03,-2.378508215770125389e-03,6.377817131578922272e-03,-2.802013978362083435e-02,-2.547342330217361450e-02,-3.213115409016609192e-02,1.925123296678066254e-02,7.887084968388080597e-03,2.788841910660266876e-02,-1.803908124566078186e-02,-1.425739843398332596e-02,1.861431752331554890e-03,-2.709694206714630127e-02,1.085470616817474365e-02,-1.393646188080310822e-02,-2.013404853641986847e-02,-2.248023822903633118e-02,-2.515072748064994812e-02,-3.514449670910835266e-02,-2.396216429769992828e-02,8.811460807919502258e-03,-2.422490529716014862e-02,1.465067267417907715e-02,-3.776123747229576111e-02,6.883615162223577499e-03,-2.467750571668148041e-02,-3.470100089907646179e-02,2.611447311937808990e-02,2.237467467784881592e-02,5.620778072625398636e-03,-1.529843546450138092e-02,-3.086705133318901062e-02,-3.589576482772827148e-02,1.479396689683198929e-02,2.459342777729034424e-02,-2.419229596853256226e-02,9.657896123826503754e-03,-1.080233789980411530e-02,2.010942436754703522e-03,2.689528651535511017e-02,-1.965391077101230621e-02,-2.452715858817100525e-02,-7.652208209037780762e-03,-3.283613920211791992e-02,-2.260290458798408508e-02,9.432321414351463318e-03,-3.423310816287994385e-02,1.721073873341083527e-02,-2.369512058794498444e-02,6.326492439256981015e-05,-2.214253135025501251e-02,-3.327225521206855774e-02,7.454778067767620087e-03,-1.862758398056030273e-02,4.908845294266939163e-03,-2.164280228316783905e-02,-1.578223146498203278e-02,-3.812422603368759155e-02,2.379468083381652832e-02,1.631703227758407593e-02,2.122365310788154602e-02,-3.448301181197166443e-02,8.958379738032817841e-03,-3.619164973497390747e-02,1.955748721957206726e-02,1.143945194780826569e-02,-1.294988766312599182e-02,2.193184103816747665e-03,-3.291113302111625671e-02,-2.375696087256073952e-03,2.194728329777717590e-02,2.246281132102012634e-02,-2.640776522457599640e-02,1.292556244879961014e-02,-8.943445049226284027e-03,-1.222749892622232437e-02,-3.618477785494178534e-04,-3.423319756984710693e-02,-1.530499942600727081e-02,-2.101887483149766922e-03,9.237876161932945251e-03,-2.159975469112396240e-02,-3.585300967097282410e-02,-2.066116593778133392e-02,-3.939449787139892578e-02,-9.497255668975412846e-04,1.648668199777603149e-02,1.495028939098119736e-02,1.838266104459762573e-02,1.561931427568197250e-02,-2.381185628473758698e-02,-1.957926154136657715e-02,-2.772811800241470337e-02,-1.113985292613506317e-02,2.252448350191116333e-03,-3.841858357191085815e-02,-6.626688875257968903e-03,-3.702996298670768738e-02,6.896620616316795349e-03,1.162116415798664093e-03,-3.358096256852149963e-02,-6.751348730176687241e-03,1.247962936758995056e-03,-2.459247037768363953e-02,-3.556877002120018005e-02,-1.741098985075950623e-02,1.710752956569194794e-02,1.443402655422687531e-02,-2.884146233554929495e-04,2.142356010153889656e-03,-4.765650257468223572e-03,3.881638171151280403e-03,-2.098939009010791779e-02,-2.626580744981765747e-02,-6.841762457042932510e-03,7.667599245905876160e-03,-1.668612845242023468e-02,-5.607813596725463867e-03,1.449063140898942947e-02,2.827347069978713989e-02,1.987501978874206543e-02,-2.522625215351581573e-02,-8.711101487278938293e-03,-1.030381768941879272e-02,-1.070444006472826004e-02,1.101911999285221100e-02,-1.894004270434379578e-02,-1.535128150135278702e-02,1.624326035380363464e-02,9.817769750952720642e-03,1.921095512807369232e-02,-1.321092434227466583e-02,1.092584244906902313e-02,2.709333226084709167e-02,-2.989338524639606476e-02,2.944401092827320099e-02,1.774021796882152557e-02,1.473447307944297791e-02,-7.682781200855970383e-03,-2.264072932302951813e-02,1.182969310320913792e-03,-3.012085705995559692e-02,-2.255506068468093872e-02,1.216758694499731064e-02,6.476030685007572174e-03,2.421563491225242615e-02,1.439448725432157516e-02,1.583806239068508148e-02,-1.079544238746166229e-02,2.901019901037216187e-02,-1.180883264169096947e-03,2.293536812067031860e-02,-2.690497227013111115e-02,2.968613430857658386e-02,1.464277971535921097e-02,2.413593977689743042e-02,9.585334919393062592e-03,-1.563747599720954895e-02,-1.227263361215591431e-02,-2.216694690287113190e-02,-3.641334548592567444e-02,-3.372962400317192078e-02,-7.828201167285442352e-03,7.500502746552228928e-03,7.908703759312629700e-03,-1.755944825708866119e-02,3.711870312690734863e-02,5.557986907660961151e-03,1.308628241531550884e-03,7.541184313595294952e-03,1.895063184201717377e-02,9.200320579111576080e-03,3.075403627008199692e-03,7.384610828012228012e-03,-2.900913730263710022e-02,2.612502500414848328e-02,1.033832039684057236e-02,1.473925076425075531e-02,4.073706641793251038e-02,-6.332813762128353119e-03,-1.904765702784061432e-02,1.364843174815177917e-02,-1.390751544386148453e-02,2.241391502320766449e-02,-1.116939820349216461e-02,2.024950832128524780e-02,2.804010361433029175e-02,8.771388093009591103e-04,8.012037724256515503e-03,-2.578254975378513336e-02,-3.464541165158152580e-03,1.764192618429660797e-02,4.423034843057394028e-03,-1.571947708725929260e-02,3.160725533962249756e-02,2.770485915243625641e-02,1.003858447074890137e-02,2.393762767314910889e-02,-2.125201188027858734e-02,-8.628076873719692230e-03,1.076576113700866699e-02,2.822772040963172913e-02,-2.805053070187568665e-02,-2.040539868175983429e-02,-2.484656311571598053e-02,1.178377028554677963e-02,-2.869221754372119904e-02,-7.047784980386495590e-03,3.733225911855697632e-02,-2.669539861381053925e-02,-1.721806242130696774e-03,-1.821419037878513336e-02,2.457597292959690094e-03,2.394530363380908966e-02,-1.994101703166961670e-02,5.499638617038726807e-03,4.970026202499866486e-03,1.367114111781120300e-02,1.730939187109470367e-02,-3.043611068278551102e-03,-1.746938005089759827e-02,-1.266770344227552414e-02,-1.318076439201831818e-02,-1.086898893117904663e-02,-6.002238020300865173e-03,2.605515532195568085e-02,-2.413161657750606537e-02,-5.117188673466444016e-03,2.965929545462131500e-02,2.611523726955056190e-03,2.330990508198738098e-02,7.609584368765354156e-03,2.839224785566329956e-02,1.609480939805507660e-02,-1.979720778763294220e-02,2.164804900530725718e-04,3.840627381578087807e-03,-2.252479642629623413e-02,-2.599365822970867157e-02,-2.501496672630310059e-02,3.020626120269298553e-02,1.245047152042388916e-02,7.971839979290962219e-03,-2.893273532390594482e-02,2.236665599048137665e-02,-1.349037978798151016e-02,2.705337852239608765e-02,-2.716106176376342773e-02,-2.119647152721881866e-02,1.841349340975284576e-02,-3.048313222825527191e-02,3.211759496480226517e-03,2.434746921062469482e-02,1.429785229265689850e-02,-2.512986771762371063e-02,2.437728457152843475e-02,-1.773038320243358612e-02,-1.727776834741234779e-03,-8.859057561494410038e-04,-2.240834571421146393e-02,2.580465748906135559e-02,-2.191618643701076508e-02,-1.891721971333026886e-02,1.740562543272972107e-02,1.683518290519714355e-02,-2.274150587618350983e-02,3.469175659120082855e-03,4.827771626878529787e-04,2.592726610600948334e-03,-6.932685151696205139e-03,6.495995912700891495e-03,-1.373586803674697876e-02,2.745601907372474670e-02,1.187012810260057449e-02,-1.373934000730514526e-02,4.447257611900568008e-03,2.746141515672206879e-02,3.191349329426884651e-03,1.944188773632049561e-02,2.673498168587684631e-02,2.416214346885681152e-02,-1.262116245925426483e-02,1.735944114625453949e-02,1.875413348898291588e-03,-2.622729726135730743e-02,6.883432157337665558e-03,1.321363169699907303e-02,-9.996704757213592529e-03,2.651362493634223938e-02,4.032296314835548401e-02,3.201629966497421265e-02,1.905474439263343811e-02,8.192799054086208344e-03,2.411647513508796692e-02,2.358574233949184418e-02,2.335573360323905945e-02,-1.150684989988803864e-02,-3.016349300742149353e-02,1.728587783873081207e-02,-2.857357636094093323e-02,2.567917481064796448e-02,-2.584160491824150085e-02,3.048988617956638336e-02,-1.228053774684667587e-02,-1.740594767034053802e-02,-2.489811368286609650e-02,-2.853665873408317566e-02,2.312204986810684204e-02,1.792565174400806427e-02,7.502671331167221069e-03,-1.894410513341426849e-02,-2.456960640847682953e-02,1.633555814623832703e-02,-2.307327277958393097e-02,-2.873018383979797363e-02,2.492854744195938110e-02,1.246582996100187302e-02,1.270849164575338364e-02,2.499025873839855194e-02,3.094796650111675262e-02,-3.102165833115577698e-02,-2.059403061866760254e-02,-2.378153428435325623e-02,3.074254840612411499e-02,1.949635148048400879e-02,-6.579487118870019913e-03,1.081170700490474701e-02,1.670617237687110901e-02,-4.829384852200746536e-03,4.911285359412431717e-03,-3.165211761370301247e-03,-2.241095341742038727e-02,-2.443578653037548065e-02,6.498182192444801331e-03,1.888088509440422058e-02,-1.140225213021039963e-02,-4.957455676048994064e-03,-2.794852294027805328e-02,-2.828892320394515991e-02,1.561905723065137863e-02,-8.012852631509304047e-03,1.032782997936010361e-02,-1.685735024511814117e-02,1.289942674338817596e-02,-2.111690491437911987e-02,4.366775043308734894e-03,-3.694031387567520142e-03,-7.598851807415485382e-03,3.045179881155490875e-02,-3.584367455914616585e-03,1.633489318192005157e-02,2.528399787843227386e-02,2.353687305003404617e-03,-1.547246053814888000e-02,6.539257708936929703e-03,-3.089560894295573235e-03,-1.967184012755751610e-03,2.761351643130183220e-03,2.523518726229667664e-02,-4.812412429600954056e-03,2.237538807094097137e-02,-2.863924205303192139e-02,-2.398945577442646027e-02,1.848396658897399902e-02,1.392826670780777931e-03,-2.409668825566768646e-02,-2.387501113116741180e-02,2.576961927115917206e-02,-1.276220846921205521e-02,-1.113817375153303146e-02,3.797319019213318825e-03,-2.247685380280017853e-02,2.807699330151081085e-02,-1.259972341358661652e-02,-1.569762453436851501e-02,-1.640064455568790436e-02,-2.047870494425296783e-02,-1.169962249696254730e-02,-1.978483237326145172e-02,5.061302799731492996e-03,8.486381731927394867e-03,2.259447239339351654e-02,-1.649100147187709808e-02,-2.877311967313289642e-02,2.270254306495189667e-02,4.468617029488086700e-03,-1.684504747390747070e-02,2.918063849210739136e-02,-4.403020429890602827e-04,-5.150394979864358902e-03,2.377108111977577209e-02,-2.339607104659080505e-02,-2.239606156945228577e-02,2.778056450188159943e-02,-1.651369594037532806e-02,-2.561571076512336731e-02,1.280125044286251068e-02,1.280923280864953995e-02,-8.492554537951946259e-03,-3.029169514775276184e-02,2.820163220167160034e-02,3.116863034665584564e-02,9.668333455920219421e-03,8.976072072982788086e-03,-5.646053235977888107e-03,2.170516364276409149e-02,1.610020361840724945e-02,2.609395608305931091e-02,-1.094280742108821869e-02,-1.843271963298320770e-02,-1.160880923271179199e-02,-2.426860854029655457e-02,2.399353496730327606e-02,2.436414826661348343e-03,-2.493532374501228333e-02,2.274319063872098923e-03,1.381996367126703262e-02,9.415425360202789307e-03,-8.996449410915374756e-03,-1.052297465503215790e-02,2.180489525198936462e-02,9.456437081098556519e-03,-1.357867382466793060e-02,-2.530577033758163452e-02,2.149137854576110840e-02,3.095847927033901215e-02,-2.128645777702331543e-02,-1.231021480634808540e-03,-1.360035222023725510e-02,-7.579172961413860321e-03,-7.228107657283544540e-03,2.019631490111351013e-02,1.211517862975597382e-02,-3.128970740363001823e-03,2.196282893419265747e-02,1.076032128185033798e-02,-1.417653635144233704e-02,-7.785351481288671494e-03,2.350438199937343597e-02,2.137707360088825226e-02,2.654724009335041046e-02,-1.944537274539470673e-02,1.967467367649078369e-02,-3.138702362775802612e-02,-5.071108229458332062e-03,-2.415342442691326141e-02,1.021421048790216446e-02,-1.170432846993207932e-02,-1.036028750240802765e-02,7.902810350060462952e-03,-1.951213926076889038e-02,-2.807619050145149231e-02,1.462273765355348587e-02,-2.659262157976627350e-02,-1.555913221091032028e-02,1.167799439281225204e-02,-1.551543083041906357e-02,-3.001824207603931427e-02,-1.197441574186086655e-02,-1.174117438495159149e-02,-1.776664517819881439e-02,-3.165246173739433289e-02,3.065502084791660309e-02,-1.364933513104915619e-02,-2.098231343552470207e-03,-5.451583769172430038e-03,-1.560240052640438080e-02,2.886126004159450531e-02,-8.934305049479007721e-03,8.852419559843838215e-04,-2.659936994314193726e-02,2.483730204403400421e-02,-1.915913447737693787e-02,3.345744684338569641e-03,-2.879093028604984283e-02,-1.525960676372051239e-02,-1.204043813049793243e-02,-2.425041981041431427e-02,9.213659912347793579e-03,1.072409655898809433e-02,-2.381805563345551491e-03,-2.026420459151268005e-02,-2.432674914598464966e-02,-3.090811520814895630e-02,-5.906954407691955566e-03,-1.534695364534854889e-02,-1.403691992163658142e-02,-2.949779666960239410e-02,1.620578765869140625e-02,1.169801037758588791e-02,-7.605472579598426819e-03,3.178078914061188698e-03,2.608417533338069916e-02,2.492885477840900421e-02,2.222570218145847321e-02,3.250391688197851181e-03,3.482656786218285561e-03,-4.189659375697374344e-03,1.855782046914100647e-02,1.802114769816398621e-02,1.739227958023548126e-02,1.476609800010919571e-02,6.675797514617443085e-03,2.872019261121749878e-02,-1.442666817456483841e-02,2.491933852434158325e-02,1.648982800543308258e-02,-7.988317869603633881e-03,-2.101892977952957153e-02,-1.386547088623046875e-02,3.037106711417436600e-03,2.770915161818265915e-03,4.513197578489780426e-03,2.828312106430530548e-02,5.274274735711514950e-04,-1.434009242802858353e-02,3.126877546310424805e-02,-1.956470754294059589e-07,-3.115784749388694763e-02,1.692084479145705700e-03,-1.728491857647895813e-02,9.862313047051429749e-03,-2.514290437102317810e-02,-6.041231099516153336e-03,-1.874025724828243256e-02,2.149109728634357452e-02,-1.676506735384464264e-02,2.604893594980239868e-02,-1.421200390905141830e-02,-2.660050056874752045e-02,1.311599928885698318e-02,2.520647272467613220e-02,1.861976459622383118e-02,-4.684683401137590408e-03,-2.036054432392120361e-02,-2.007834846153855324e-03,6.694244220852851868e-03,9.582482278347015381e-03,3.122948296368122101e-02,-2.083187922835350037e-02,2.898718975484371185e-02,-6.664598360657691956e-03,-1.317808870226144791e-02,1.815799809992313385e-02,-2.663746243342757225e-03,-1.576428301632404327e-02,-1.456412300467491150e-02,-1.780931372195482254e-03,2.829481847584247589e-02,-1.481023803353309631e-02,-1.349323429167270660e-02,1.580727472901344299e-02,-3.928493533749133348e-04,2.964697312563657761e-03,1.537070609629154205e-03,-2.446943148970603943e-02,-2.482505980879068375e-03,1.159761101007461548e-03,2.506192028522491455e-02,1.680911891162395477e-02,2.175861038267612457e-02,3.167783841490745544e-02,1.291112881153821945e-02,-8.961590938270092010e-03,-6.099573336541652679e-03,1.949078217148780823e-02,4.712576046586036682e-03,-2.106688357889652252e-02,-1.101452670991420746e-02,-1.919692568480968475e-02,1.649424433708190918e-02,-1.656830869615077972e-02,-2.216902188956737518e-02,-1.563341356813907623e-02,-2.748960070312023163e-02,-2.689717104658484459e-03,1.928831636905670166e-02,-1.463596243411302567e-03,-1.241444889456033707e-02,-2.755014575086534023e-04,-3.416205942630767822e-02,-2.416261285543441772e-02,-2.060206420719623566e-02,-2.568102441728115082e-02,1.727215945720672607e-02,-3.003461845219135284e-02,7.903954014182090759e-03,2.259842492640018463e-02,-1.976918242871761322e-02,2.667414583265781403e-02,1.823789626359939575e-02,-6.581280380487442017e-03,2.651678211987018585e-02,1.072116475552320480e-02,-1.879227720201015472e-02,1.370524056255817413e-02,2.894602529704570770e-02,1.858090236783027649e-02,-2.127631381154060364e-02,1.434522029012441635e-02,7.151635363698005676e-03,2.468137629330158234e-02,-3.133492916822433472e-02,1.303642895072698593e-02,2.758925966918468475e-02,-7.025388535112142563e-03,1.730442792177200317e-02,1.117876823991537094e-02,2.362761087715625763e-02,2.413080260157585144e-02,1.700920052826404572e-02,-9.553609415888786316e-03,-1.683555357158184052e-02,-2.640132792294025421e-02,-1.624936237931251526e-02,-1.518629025667905807e-02,-2.924814261496067047e-02,-2.783769741654396057e-02,-2.485730126500129700e-02,4.137122537940740585e-03,-4.316921811550855637e-03,-1.032289396971464157e-02,1.592227257788181305e-02,-1.503138709813356400e-02,1.135020423680543900e-02,-1.965346001088619232e-02,-2.542238682508468628e-02,1.239964738488197327e-02,-2.903070487082004547e-02,2.195657929405570030e-03,2.451409585773944855e-02,1.315579470247030258e-02,2.219586895080283284e-04,-2.387592010200023651e-02,2.042924053966999054e-03,-4.364506341516971588e-03,-4.942868370562791824e-03,-1.882063515949994326e-04,-1.139502041041851044e-02,1.254436094313859940e-02,-1.948231831192970276e-02,3.364648297429084778e-02,-2.772672846913337708e-02,-1.641062274575233459e-02,-9.608147665858268738e-03,9.558389894664287567e-03,-1.983486488461494446e-02,-4.195063840597867966e-03,1.797417923808097839e-02,5.021780263632535934e-03,-1.019532559439539909e-03,1.332186744548380375e-03,9.347784332931041718e-03,7.406096905469894409e-03,2.360951900482177734e-02,-2.963209152221679688e-02,-1.334413979202508926e-02,-2.570323832333087921e-02,-2.326956577599048615e-02,-2.399618551135063171e-02,3.112208470702171326e-02,2.946008183062076569e-02,2.466512471437454224e-02,-1.857104152441024780e-02,2.719178446568548679e-04,3.185856342315673828e-02,2.928839530795812607e-04,3.347137570381164551e-02,-2.169357612729072571e-02,-3.199941292405128479e-02,2.525509521365165710e-02,-7.660892326384782791e-03,2.559464611113071442e-02,-3.096846304833889008e-02,5.539873614907264709e-03,-2.555390261113643646e-02,1.950161880813539028e-03,-2.417576313018798828e-02,1.843402907252311707e-02,3.471473604440689087e-02,-9.266335517168045044e-03,1.336544472724199295e-02,-2.241020090878009796e-02,5.916764028370380402e-03,7.565101608633995056e-03,-6.240728311240673065e-03,-3.181735519319772720e-03,1.452807430177927017e-02,2.129046618938446045e-02,-3.046193160116672516e-02,2.684914506971836090e-02,-2.141618868336081505e-03,4.033787641674280167e-03,-9.368035010993480682e-03,1.110947411507368088e-02,-1.164100132882595062e-02,-1.457872614264488220e-02,1.948540331795811653e-03,8.760604076087474823e-03,1.156255137175321579e-02,1.347197499126195908e-02,-1.682059839367866516e-02,1.779267005622386932e-02,-2.582274377346038818e-02,-4.392152186483144760e-03,3.448869567364454269e-03,9.892622008919715881e-03,1.682281494140625000e-02,5.945607088506221771e-03,2.287797629833221436e-02,1.340896729379892349e-02,-1.376517303287982941e-02,2.687771245837211609e-02,-2.101854979991912842e-02,-2.342803962528705597e-02,-1.901165768504142761e-02,-1.973222754895687103e-02,3.849579486995935440e-03,-1.124775875359773636e-02,-3.197169676423072815e-02,-1.935166493058204651e-02,1.318904804065823555e-03,6.190806161612272263e-03,-1.498123165220022202e-02,2.064565755426883698e-02,-3.443977236747741699e-02,-1.846953108906745911e-02,-2.063511684536933899e-02,1.045331079512834549e-02,-1.012946199625730515e-02,1.033493410795927048e-02,-2.360907383263111115e-02,-1.386027876287698746e-02,-1.423840597271919250e-02,-1.350886281579732895e-02,-5.138773121871054173e-05,3.147337213158607483e-02,7.584381848573684692e-02,3.737088665366172791e-02,1.397236436605453491e-02,2.712505310773849487e-02,-1.825105771422386169e-02,-2.220493741333484650e-02,-6.757246446795761585e-04,-1.494036428630352020e-02,1.723312959074974060e-02,-1.536958012729883194e-02,-3.407735005021095276e-02,-3.368419408798217773e-02,-1.069021061994135380e-03,7.064435631036758423e-02,2.114483155310153961e-02,8.405185490846633911e-02,8.948827534914016724e-02,-1.433826237916946411e-02,-4.861929267644882202e-02,-5.922358110547065735e-02,-5.302160046994686127e-03,2.620422840118408203e-02,-1.077216770499944687e-02,-3.328114375472068787e-02,-5.361958965659141541e-02,-2.496892213821411133e-02,3.001843206584453583e-02,2.721294760704040527e-02,6.463782489299774170e-02,3.546765446662902832e-02,5.601528659462928772e-02,8.999189734458923340e-02,-3.157689422369003296e-02,-1.630608364939689636e-02,1.410242356359958649e-02,-1.115993689745664597e-02,-2.220261469483375549e-02,-3.418956883251667023e-03,-6.196759175509214401e-03,3.535711439326405525e-03,3.810317069292068481e-02,2.251346409320831299e-02,-8.254610933363437653e-03,9.953445754945278168e-03,-1.448970101773738861e-02,9.754481166601181030e-02,1.761711388826370239e-02,3.449884802103042603e-02,-2.821575384587049484e-03,-2.201655879616737366e-02,2.059391327202320099e-02,1.571243628859519958e-02,2.627437934279441833e-02,9.723728522658348083e-03,6.256394088268280029e-03,-5.139914527535438538e-02,-8.111074566841125488e-03,2.538505569100379944e-02,-2.954715117812156677e-02,5.747971311211585999e-02,-2.411351352930068970e-02,-2.010929211974143982e-02,9.160264395177364349e-03,1.126650720834732056e-02,-2.943955548107624054e-02,6.832120474427938461e-03,1.284016761928796768e-03,5.503872875124216080e-03,9.473369456827640533e-03,-4.796043038368225098e-02,4.987720772624015808e-02,-2.661816589534282684e-02,-8.258235454559326172e-02,-7.090767472982406616e-02,-3.734194487333297729e-02,-5.352337285876274109e-02,7.155064959079027176e-03,1.789515023119747639e-03,1.804129593074321747e-02,3.825771622359752655e-03,-3.325663879513740540e-02,-1.817164756357669830e-02,7.017505913972854614e-02,7.202714681625366211e-02,-8.213170222006738186e-04,-1.026070639491081238e-01,-5.641986802220344543e-02,-9.444808959960937500e-02,-5.567206814885139465e-02,-9.889729321002960205e-03,1.886883005499839783e-02,4.243358969688415527e-03,2.367849275469779968e-02,-3.133131936192512512e-02,-3.107724711298942566e-02,2.647943235933780670e-02,2.539869397878646851e-02,1.445632334798574448e-02,-1.571952998638153076e-01,-5.889160931110382080e-02,-4.462905600666999817e-02,1.362099777907133102e-02,4.996836557984352112e-02,3.624578192830085754e-02,-1.379981357604265213e-02,1.103471405804157257e-02,-1.522311475127935410e-02,3.357809735462069511e-03,2.320068422704935074e-03,1.125384215265512466e-02,-1.538136694580316544e-02,-7.918541878461837769e-02,-1.851507276296615601e-02,-1.797401462681591511e-03,1.092386618256568909e-02,2.882185578346252441e-02,1.445411704480648041e-02,4.187696054577827454e-02,2.221685461699962616e-02,-2.103205956518650055e-02,5.812224932014942169e-03,1.773585006594657898e-02,-4.385174065828323364e-02,-2.894324483349919319e-03,4.948355630040168762e-02,3.259501978754997253e-02,1.046378239989280701e-01,3.667177632451057434e-02,6.887458264827728271e-02,5.076212342828512192e-03,1.311727706342935562e-02,7.252287119626998901e-02,3.368374332785606384e-02,2.966033667325973511e-02,-2.399503998458385468e-02,-2.915350906550884247e-02,-1.771778054535388947e-02,-1.680559106171131134e-02,-1.056247390806674957e-02,8.863584697246551514e-02,4.137340560555458069e-02,5.837903171777725220e-02,7.061002403497695923e-02,9.383677691221237183e-02,7.198195159435272217e-02,5.658238660544157028e-03,-3.683808026835322380e-03,-2.626515738666057587e-02,1.956549473106861115e-02,-1.785178296267986298e-02,-2.980507910251617432e-02,2.467020973563194275e-02,2.756456844508647919e-02,6.578830536454916000e-03,2.983276918530464172e-02,5.613920278847217560e-03,4.073345288634300232e-02,-5.508938804268836975e-03,-1.832254044711589813e-02,-3.231203928589820862e-02,9.884721599519252777e-03,2.304406464099884033e-02
-1.656528562307357788e-03,-2.306755818426609039e-02,-1.494681742042303085e-02,-2.256789430975914001e-02,1.733770780265331268e-02,-8.685459382832050323e-03,1.246855710633099079e-03,-1.362668816000223160e-02,2.476087212562561035e-02,-1.976006478071212769e-02,1.701467484235763550e-02,-2.910710126161575317e-02,2.513583190739154816e-02,-6.015548016875982285e-03,2.912423759698867798e-02,-2.357076108455657959e-02,-6.321166642010211945e-03,9.237732738256454468e-04,1.821296662092208862e-02,1.855524629354476929e-02,2.919770032167434692e-02,5.111725069582462311e-03,5.141254048794507980e-03,4.028723109513521194e-03,3.197948262095451355e-02,2.538440562784671783e-02,2.152832970023155212e-02,-2.098809182643890381e-02,-1.789270155131816864e-02,-1.588255539536476135e-02,-2.948487922549247742e-02,-2.208723127841949463e-02,8.085922338068485260e-03,-2.338345162570476532e-02,-4.587926901876926422e-03,1.904171518981456757e-02,-1.284249499440193176e-02,-6.200006231665611267e-03,-2.803779579699039459e-02,-2.053162455558776855e-02,-1.597104780375957489e-02,2.567977458238601685e-02,1.018904804368503392e-04,2.520401962101459503e-02,-1.257466804236173630e-02,-6.372539792209863663e-03,1.013724505901336670e-02,-8.145177736878395081e-03,-1.229427754878997803e-02,-1.154478639364242554e-02,-2.631762623786926270e-02,2.985572628676891327e-02,3.430062904953956604e-02,1.535003259778022766e-02,3.178009018301963806e-02,3.840183839201927185e-03,6.986634805798530579e-03,4.279713612049818039e-03,1.623117178678512573e-02,2.149092592298984528e-02,-3.040037490427494049e-02,2.485477924346923828e-02,1.100427098572254181e-02,-2.744811587035655975e-02,-1.557247620075941086e-02,6.661928724497556686e-03,1.086846739053726196e-02,2.440665848553180695e-02,2.373542077839374542e-02,2.242443710565567017e-02,-1.959732547402381897e-02,2.165234275162220001e-02,2.224389463663101196e-02,1.686561293900012970e-02,-1.349474489688873291e-02,-3.547282516956329346e-02,-3.518328070640563965e-02,1.760104298591613770e-02,-6.652842741459608078e-03,1.259882934391498566e-02,3.019143827259540558e-02,2.859714441001415253e-02,2.864085882902145386e-02,-2.427460625767707825e-02,-1.259669009596109390e-02,-5.044141784310340881e-03,3.213878348469734192e-02,-4.082753730472177267e-04,1.214135251939296722e-02,-2.907991036772727966e-02,5.146650073584169149e-05,2.628187090158462524e-02,-2.249517850577831268e-02,1.518824882805347443e-02,-2.311890386044979095e-02,-2.520990557968616486e-02,-2.139678038656711578e-02,-3.360712435096502304e-03,-8.045994909480214119e-04,-2.365490421652793884e-02,1.440212037414312363e-02,5.836951546370983124e-03,-1.219187397509813309e-02,4.571403376758098602e-03,-1.487287599593400955e-02,3.018510900437831879e-02,-1.624247245490550995e-02,-3.656076733022928238e-03,-2.278204075992107391e-03,2.326887473464012146e-02,-2.301618084311485291e-02,-1.710766740143299103e-02,-2.790111117064952850e-02,-3.031788766384124756e-02,-2.682067640125751495e-02,5.916697904467582703e-03,2.760895062237977982e-03,1.114744693040847778e-02,2.428689971566200256e-02,-1.685188966803252697e-03,2.541225589811801910e-02,-9.739981032907962799e-03,-6.764881312847137451e-03,-1.576530560851097107e-02,1.326045114547014236e-02,1.836012676358222961e-02,2.904158830642700195e-02,-9.273579926230013371e-04,-1.315370015799999237e-02,-1.475413888692855835e-02,-8.703117258846759796e-03,1.943153515458106995e-02,-8.594620041549205780e-03,8.796376176178455353e-03,-1.214824896305799484e-02,4.355707205832004547e-03,-2.166121639311313629e-02,-2.131849341094493866e-02,-3.287356579676270485e-03,9.915391914546489716e-03,-1.691328734159469604e-02,-1.278741657733917236e-02,3.156738355755805969e-03,1.084516476839780807e-02,-2.112322114408016205e-02,-1.290369778871536255e-02,-1.016647554934024811e-02,9.621706791222095490e-03,2.260756306350231171e-02,-4.043255001306533813e-03,1.545025128871202469e-02,-2.773848362267017365e-02,-7.771218195557594299e-03,-2.931681834161281586e-02,-3.132476285099983215e-02,2.024440653622150421e-02,-4.102481063455343246e-03,-4.630456678569316864e-03,-2.600668929517269135e-02,2.576417289674282074e-02,4.978058859705924988e-03,3.029150888323783875e-02,-3.105522878468036652e-02,2.500305697321891785e-02,2.135011367499828339e-02,2.236617729067802429e-03,-2.783146454021334648e-03,-1.465229131281375885e-02,1.058991625905036926e-02,2.974908985197544098e-02,1.453749835491180420e-02,2.707537449896335602e-02,-8.101431652903556824e-03,-2.925545535981655121e-02,-2.118807472288608551e-02,1.187478005886077881e-02,2.305962704122066498e-02,-1.367058022879064083e-03,2.139576710760593414e-02,3.306941688060760498e-02,3.141126409173011780e-02,-5.420281551778316498e-03,-5.054682958871126175e-03,3.019417077302932739e-02,1.028977707028388977e-02,-9.096336551010608673e-03,3.130704909563064575e-02,5.333887413144111633e-03,1.279565412551164627e-02,-4.501469433307647705e-03,1.298257149755954742e-02,1.496447622776031494e-02,2.238383516669273376e-02,-1.060739345848560333e-02,1.033683866262435913e-02,1.030324585735797882e-02,-2.308094874024391174e-02,1.428398303687572479e-02,2.779029868543148041e-02,1.064148452132940292e-02,1.376913208514451981e-02,-1.995447836816310883e-02,1.104982849210500717e-02,1.374827325344085693e-02,5.820000660605728626e-04,1.062281616032123566e-02,2.827032096683979034e-02,-1.650561578571796417e-02,-2.101248130202293396e-02,-2.771067433059215546e-02,-3.131340816617012024e-02,-2.410440705716609955e-02,-1.160387881100177765e-02,2.362110838294029236e-02,-2.675282023847103119e-02,1.969520468264818192e-03,-2.635854482650756836e-02,-2.042827755212783813e-02,-1.991059258580207825e-02,5.783902481198310852e-03,2.223485149443149567e-02,2.062996104359626770e-02,1.288550999015569687e-02,-5.302651319652795792e-03,-2.562676556408405304e-02,-3.039678093045949936e-03,2.316916175186634064e-02,-1.609046570956707001e-02,1.150345895439386368e-02,3.213762491941452026e-02,-1.610449142754077911e-02,-2.480600401759147644e-02,-2.123760990798473358e-02,7.291832938790321350e-03,-1.676507666707038879e-02,1.918604969978332520e-02,-2.299763634800910950e-02,-6.218303460627794266e-03,2.995942952111363411e-03,2.449837885797023773e-02,9.973969310522079468e-03,-2.417762577533721924e-02,1.259437482804059982e-02,-1.682966202497482300e-02,1.616013050079345703e-02,-6.005041301250457764e-03,3.820466343313455582e-03,1.872805133461952209e-02,-5.779155180789530277e-04,-1.405167113989591599e-02,-1.283088698983192444e-03,3.684676252305507660e-03,2.993022091686725616e-02,1.255691330879926682e-02,-2.245188131928443909e-02,7.249325979501008987e-03,-2.150516770780086517e-02,1.297122053802013397e-02,4.589027911424636841e-02,2.366843633353710175e-03,2.965915203094482422e-02,-3.266428038477897644e-02,2.131463401019573212e-02,-5.169186741113662720e-03,2.941451035439968109e-02,2.104761451482772827e-02,-1.925933547317981720e-02,2.254662849009037018e-02,-1.834471151232719421e-02,1.885594241321086884e-02,2.417525462806224823e-02,-5.594191141426563263e-03,1.439420692622661591e-02,-2.409339509904384613e-02,-2.912121708504855633e-04,-6.762191653251647949e-03,-2.137041836977005005e-02,2.692984975874423981e-02,-6.823902018368244171e-03,9.207336232066154480e-03,-6.661853287369012833e-03,-9.938897565007209778e-03,1.459633745253086090e-02,1.374091766774654388e-02,2.488407120108604431e-02,7.879624143242835999e-03,-1.843458786606788635e-02,-1.607288047671318054e-02,2.297667041420936584e-02,2.022118493914604187e-02,-4.349606577306985855e-03,1.422903686761856079e-02,-1.020263135433197021e-02,6.398235913366079330e-03,-2.492811344563961029e-02,5.324051715433597565e-03,8.331607095897197723e-03,-8.549964055418968201e-03,-2.337995730340480804e-02,9.149305522441864014e-03,3.752985969185829163e-02,-2.161576971411705017e-02,-1.787239499390125275e-02,2.454409562051296234e-02,-2.791510894894599915e-02,-2.847833186388015747e-02,1.477926038205623627e-02,-2.778582088649272919e-02,-2.389786951243877411e-02,-7.337850984185934067e-03,2.223916118964552879e-03,2.123646624386310577e-02,-9.551370516419410706e-03,-1.212746370583772659e-02,7.947477512061595917e-03,-2.132335305213928223e-02,-2.669297903776168823e-02,2.617439441382884979e-02,-2.702381461858749390e-02,-2.800986170768737793e-02,5.617077462375164032e-03,-1.020677736960351467e-04,1.442822627723217010e-02,-1.345789246261119843e-02,-2.356055751442909241e-02,-3.370921313762664795e-02,-1.499818451702594757e-02,-1.225180923938751221e-02,2.275938168168067932e-02,-2.682060934603214264e-02,1.186818350106477737e-02,2.060643956065177917e-02,-7.714666426181793213e-03,-1.534605771303176880e-02,-1.786124310456216335e-03,-2.217127010226249695e-02,1.352140400558710098e-02,9.256307035684585571e-03,-5.214907578192651272e-04,-1.060548704117536545e-02,-2.470063790678977966e-02,1.556946709752082825e-02,1.655069924890995026e-02,-2.121680788695812225e-02,5.278624012134969234e-04,1.362670212984085083e-02,2.709600515663623810e-02,-2.183975093066692352e-02,-1.473508402705192566e-02,-2.419295161962509155e-02,1.499293022789061069e-03,-8.255056105554103851e-03,2.567039243876934052e-02,2.034419029951095581e-02,-2.463444881141185760e-02,1.259228587150573730e-02,-3.153837844729423523e-02,-1.900160685181617737e-02,4.580694716423749924e-03,2.476471662521362305e-02,1.055938191711902618e-02,-3.023253520950675011e-03,-2.056518569588661194e-02,-2.962059713900089264e-02,8.583269082009792328e-03,1.651868224143981934e-02,-3.581132274121046066e-03,-2.493435889482498169e-02,1.819202676415443420e-02,1.347699668258428574e-02,2.808133698999881744e-02,1.662279479205608368e-02,-2.559548802673816681e-02,-2.167452313005924225e-02,-2.590824291110038757e-02,-3.474002936854958534e-03,1.487546041607856750e-02,1.731767877936363220e-02,-2.899876981973648071e-02,2.672105329111218452e-03,-1.988688483834266663e-02,8.704735897481441498e-03,-1.581995747983455658e-02,-1.517085358500480652e-02,-1.812407746911048889e-02,2.545141242444515228e-02,2.706756070256233215e-02,-2.233351580798625946e-03,-1.376470271497964859e-02,2.298818435519933701e-03,2.450997754931449890e-02,-8.455315604805946350e-03,-7.106445729732513428e-03,2.338785491883754730e-02,3.038236126303672791e-02,6.980423815548419952e-03,-1.687570847570896149e-02,1.317006628960371017e-02,-1.575636118650436401e-02,-2.185168117284774780e-02,1.622858457267284393e-02,6.016836035996675491e-03,-7.621104829013347626e-03,3.834862727671861649e-03,3.049216046929359436e-02,-1.846222765743732452e-02,1.133893616497516632e-02,-6.651450414210557938e-03,3.075779648497700691e-03,2.805395796895027161e-02,-1.644208654761314392e-02,5.565580067923292518e-05,-1.105611957609653473e-02,-7.190354168415069580e-03,8.396532386541366577e-03,1.922348141670227051e-02,1.344230584800243378e-02,1.136106089688837528e-03,2.809484489262104034e-02,-1.798156835138797760e-02,-3.039524704217910767e-02,1.031410787254571915e-02,-1.227293070405721664e-02,2.419703640043735504e-02,2.736588567495346069e-02,-1.363572292029857635e-02,-6.205686368048191071e-03,2.524527721107006073e-02,-2.010936662554740906e-02,-2.048108167946338654e-02,1.934761740267276764e-02,4.422051832079887390e-03,-2.443790808320045471e-02,1.968907937407493591e-02,-2.273940667510032654e-02,1.807852275669574738e-02,5.018401890993118286e-03,3.128099814057350159e-02,-5.441466812044382095e-03,-3.097436949610710144e-02,2.719201892614364624e-02,4.027971066534519196e-03,2.732834964990615845e-02,2.749260701239109039e-02,-1.363961840979754925e-03,-1.931831985712051392e-02,-3.526811255142092705e-03,2.863739151507616043e-03,1.362068299204111099e-02,-1.861890964210033417e-02,3.575413720682263374e-03,-5.885836668312549591e-03,5.624899640679359436e-03,1.537730544805526733e-02,-2.447331789880990982e-03,3.161751851439476013e-02,-2.465041726827621460e-02,2.832140401005744934e-02,1.416457910090684891e-02,-1.816094107925891876e-02,-9.040416218340396881e-03,-1.030075829476118088e-02,2.502819988876581192e-03,-2.012443169951438904e-02,1.075200177729129791e-02,-1.395775284618139267e-02,-2.030192315578460693e-02,-1.056000124663114548e-03,3.751765005290508270e-03,2.474150434136390686e-02,2.874183701351284981e-03,-2.322165668010711670e-02,-2.416180446743965149e-02,-1.073136180639266968e-02,-2.570762299001216888e-02,2.435076981782913208e-02,5.253571551293134689e-03,8.665624074637889862e-03,3.058449830859899521e-03,-1.619559945538640022e-03,1.742973364889621735e-02,-2.807591576129198074e-03,-3.162769228219985962e-02,1.445822790265083313e-02,2.312082983553409576e-02,-1.862785429693758488e-04,2.990227565169334412e-02,-1.997691020369529724e-02,1.429580734111368656e-03,-4.945648834109306335e-03,1.677256077527999878e-02,-3.052017651498317719e-02,9.013406932353973389e-03,5.905287340283393860e-03,2.365965954959392548e-02,2.681962959468364716e-02,-1.571278274059295654e-02,-2.713726274669170380e-02,1.303255930542945862e-02,-1.130216382443904877e-02,-2.930411882698535919e-02,-1.020636223256587982e-02,-2.162611857056617737e-02,-2.526666596531867981e-02,-1.071275584399700165e-02,3.571260953322052956e-03,2.279199846088886261e-02,2.996069565415382385e-02,-1.634989120066165924e-02,7.655141409486532211e-03,2.035964094102382660e-02,-2.046948112547397614e-02,1.601831801235675812e-02,-2.289326116442680359e-02,2.042763866484165192e-02,1.434665080159902573e-02,-2.799497917294502258e-03,2.774078212678432465e-02,-2.012808807194232941e-02,-1.528356038033962250e-02,-2.745513431727886200e-02,1.596593484282493591e-02,1.158843282610177994e-02,1.202759146690368652e-02,-1.602899050340056419e-03,-1.670426502823829651e-02,-2.218126319348812103e-02,2.696414850652217865e-02,9.236527606844902039e-03,8.440413512289524078e-03,1.832033740356564522e-03,-2.022064849734306335e-02,-4.864241462200880051e-03,-9.900145232677459717e-03,-1.627750881016254425e-02,1.389336423017084599e-03,9.557537734508514404e-03,-2.132609114050865173e-02,2.108811028301715851e-02,2.786673419177532196e-02,-2.975881099700927734e-02,-1.063991524279117584e-02,-2.052686177194118500e-02,1.436668448150157928e-02,-1.291359402239322662e-02,1.771925389766693115e-02,-3.072691336274147034e-02,-1.891091349534690380e-03,-2.999760210514068604e-02,2.913977205753326416e-02,-1.441986951977014542e-02,1.748644188046455383e-02,-1.173100993037223816e-02,-1.681459508836269379e-02,1.769157871603965759e-02,1.043822336941957474e-02,1.576474867761135101e-02,-2.814954146742820740e-02,-2.192028611898422241e-02,-1.726530864834785461e-02,-1.282991748303174973e-02,-2.718714252114295959e-02,-1.848123036324977875e-02,2.909939922392368317e-02,3.146979212760925293e-02,2.106750570237636566e-02,-3.010655939579010010e-02,-3.569751745089888573e-03,4.063637461513280869e-03,-2.591549791395664215e-02,2.807023189961910248e-02,-2.901610918343067169e-02,3.251311834901571274e-03,1.947891898453235626e-02,-1.505858357995748520e-02,2.533078007400035858e-02,2.697495371103286743e-02,-2.682782337069511414e-02,-6.922450847923755646e-03,-1.426964648999273777e-03,1.675832644104957581e-02,3.216976067051291466e-03,1.282751839607954025e-02,-9.916084818542003632e-03,2.679947018623352051e-02,1.164427120238542557e-02,-2.460700087249279022e-02,1.578249223530292511e-02,-4.534112289547920227e-03,2.661233395338058472e-02,1.959805004298686981e-02,2.750583365559577942e-02,-7.919535040855407715e-03,-4.494802560657262802e-03,-3.531548660248517990e-03,-1.358939148485660553e-02,-1.513808686286211014e-02,-1.667791604995727539e-02,2.349123917520046234e-02,1.593827642500400543e-02,2.758263982832431793e-02,-2.423969330266118050e-03,1.357708964496850967e-02,-5.948138423264026642e-03,-7.102567236870527267e-03,1.506203040480613708e-02,2.658437192440032959e-02,-1.018845662474632263e-02,-8.902169764041900635e-03,2.973185852169990540e-02,-1.292828563600778580e-02,-3.718686522915959358e-03,-1.997219026088714600e-02,-8.594420738518238068e-03,-2.284744009375572205e-02,2.257541520521044731e-03,2.246443182229995728e-02,9.765284135937690735e-03,3.583458237699232996e-05,-1.862879656255245209e-02,3.221944719552993774e-02,3.329267725348472595e-02,-2.900885976850986481e-02,-1.169165037572383881e-02,-1.296876184642314911e-02,1.900699362158775330e-02,-1.909361779689788818e-02,1.390586327761411667e-02,2.165077440440654755e-02,-2.773977257311344147e-02,-2.631440199911594391e-02,-1.955675520002841949e-02,3.253439068794250488e-02,1.754931360483169556e-02,-6.107613909989595413e-03,3.720802851603366435e-05,-2.109055034816265106e-02,-1.160501688718795776e-02,-1.267243351321667433e-04,-2.967085689306259155e-02,-2.402148954570293427e-02,3.086414001882076263e-02,-6.309580989181995392e-03,1.096962019801139832e-02,2.064562961459159851e-02,2.012417279183864594e-02,-2.396676316857337952e-02,1.095656678080558777e-02,1.308774668723344803e-02,1.804445311427116394e-02,1.172730047255754471e-02,4.954232368618249893e-03,8.360371924936771393e-03,2.358784340322017670e-02,-9.230241412296891212e-04,1.713992212899029255e-03,-1.566565036773681641e-02,-7.913013920187950134e-03,-3.752685850486159325e-03,-2.195729687809944153e-02,3.024708107113838196e-02,1.477506104856729507e-02,-2.246742323040962219e-02,2.005188539624214172e-02,-2.927828766405582428e-02,-2.859082259237766266e-02,-9.156422689557075500e-03,-1.411679200828075409e-02,2.113858982920646667e-02,2.728428691625595093e-02,3.037197515368461609e-02,2.981337346136569977e-02,-4.368246998637914658e-03,-9.578566066920757294e-03,-1.073618978261947632e-02,-2.870647981762886047e-02,1.194310933351516724e-02,-1.351038832217454910e-02,-1.822413690388202667e-02,1.627884805202484131e-02,3.071155026555061340e-02,2.546504698693752289e-02,1.613054238259792328e-02,1.574536785483360291e-02,1.420822646468877792e-02,2.954692021012306213e-02,-1.285546831786632538e-02,-1.388947106897830963e-02,-3.312170878052711487e-02,1.365326531231403351e-02,-1.690409705042839050e-02,1.835907064378261566e-02,2.895243465900421143e-02,1.615733280777931213e-02,-1.501405797898769379e-02,2.332317456603050232e-02,1.870786957442760468e-02,-5.109102930873632431e-03,-2.296840585768222809e-02,2.150361891835927963e-03,2.650234103202819824e-02,2.823485992848873138e-02,2.691076695919036865e-02,-4.271112382411956787e-03,9.663479402661323547e-03,2.207425236701965332e-02,1.970063522458076477e-02,2.731601707637310028e-02,-2.139394544064998627e-02,-3.544993000105023384e-03,-3.318348200991749763e-03,1.348635181784629822e-02,-2.048948034644126892e-02,-2.917196229100227356e-02,-2.869092673063278198e-02,-2.838733140379190445e-03,-1.029440434649586678e-03,6.511530838906764984e-03,3.209529444575309753e-02,1.727766729891300201e-02,-7.471606601029634476e-03,-9.364720433950424194e-03,1.819379045628011227e-03,-2.995242923498153687e-02,3.232259070500731468e-03,-2.228910801932215691e-03,1.166385598480701447e-02,5.497441161423921585e-03,7.274867035448551178e-03,1.755479350686073303e-02,-1.296060159802436829e-02,-2.706144191324710846e-02,-3.442000132054090500e-03,2.216951735317707062e-02,-2.310439385473728180e-02,2.910508029162883759e-02,-1.348279975354671478e-02,-1.105338800698518753e-02,4.651102644857019186e-04,1.869714632630348206e-02,2.095775306224822998e-02,1.883148960769176483e-02,-3.048716671764850616e-02,1.499416120350360870e-02,-3.144096210598945618e-02,2.880470454692840576e-02,-2.367895096540451050e-02,-2.307278476655483246e-02,1.895109564065933228e-02,-1.852421276271343231e-02,1.808910863474011421e-03,-1.786995865404605865e-02,-8.773827925324440002e-03,-1.999409124255180359e-02,-9.944589808583259583e-03,-2.371519431471824646e-02,-4.932490177452564240e-03,2.263059839606285095e-02,-2.485840348526835442e-03,2.610071748495101929e-02,-3.063802607357501984e-02,1.973976939916610718e-02,2.837722934782505035e-02,1.285089086741209030e-02,2.673664875328540802e-02,-2.674902416765689850e-02,1.796573959290981293e-02,1.934436708688735962e-02,6.270502228289842606e-03,2.643409185111522675e-02,-5.180198349989950657e-04,2.807811833918094635e-02,2.603161893784999847e-02,3.179704770445823669e-02,-1.484677940607070923e-02,2.819942124187946320e-02,-2.615358680486679077e-02,-2.804176881909370422e-02,-2.941427938640117645e-02,2.834066934883594513e-02,5.654640961438417435e-03,-2.605508454144001007e-02,-1.231701951473951340e-02,9.477240033447742462e-03,-2.296638488769531250e-02,1.717975549399852753e-02,3.910552710294723511e-03,1.704295352101325989e-02,-1.316805835813283920e-02,-1.248947437852621078e-02,2.321707457304000854e-02,2.403997629880905151e-02,2.435795776546001434e-02,9.269574657082557678e-03,8.798837661743164062e-03,9.352875873446464539e-03,-1.643177866935729980e-02,2.626568824052810669e-02,-2.724811621010303497e-02,-3.110041096806526184e-02,1.804957911372184753e-02,2.320816740393638611e-02,3.362820483744144440e-03,-2.420632168650627136e-02,3.641522303223609924e-02,1.556413806974887848e-02,5.242692306637763977e-03,-8.935503661632537842e-03,-1.705022715032100677e-02,-1.550399116240441799e-03,1.100469194352626801e-02,-1.478036306798458099e-02,1.678027771413326263e-02,-6.682027131319046021e-03,1.568162813782691956e-02,1.184675929835066199e-04,-8.299824781715869904e-03,-6.994694471359252930e-03,2.243235521018505096e-02,-4.667378962039947510e-02,-4.268228635191917419e-02,-3.211794793605804443e-02,-2.953394502401351929e-02,-1.074039563536643982e-02,-1.084274891763925552e-02,-1.294555701315402985e-02,2.755319699645042419e-02,8.100975304841995239e-03,2.424464002251625061e-02,4.686447978019714355e-02,2.367220440646633506e-05,2.042037993669509888e-02,1.333995349705219269e-02,4.850460216403007507e-02,-4.749267548322677612e-02,-7.070153206586837769e-02,-7.284985482692718506e-02,-3.022043965756893158e-02,1.031613908708095551e-02,-3.114344552159309387e-02,1.597953215241432190e-02,3.505850583314895630e-02,3.131565824151039124e-02,4.811820387840270996e-02,8.621740341186523438e-02,9.156048297882080078e-02,1.207392811775207520e-01,9.429065883159637451e-02,-3.821949288249015808e-02,-3.078521788120269775e-02,-4.353877156972885132e-02,-1.682771742343902588e-02,1.373239699751138687e-02,8.610776858404278755e-04,7.855344563722610474e-03,1.915320754051208496e-02,3.744286298751831055e-02,4.060341790318489075e-02,3.949788212776184082e-02,5.170849710702896118e-02,7.772737741470336914e-02,-4.959886148571968079e-02,-8.394280076026916504e-02,-1.254998985677957535e-02,-6.168100982904434204e-02,2.744745276868343353e-02,6.301215849816799164e-03,2.169251069426536560e-02,1.635926892049610615e-03,9.907317347824573517e-03,-2.941942028701305389e-02,-4.596526734530925751e-03,-7.572572212666273117e-03,-4.881831631064414978e-02,3.689443320035934448e-02,-2.927624061703681946e-02,-4.165647923946380615e-02,-3.353689238429069519e-02,-4.130639880895614624e-02,2.564767003059387207e-02,-1.483518048189580441e-03,-1.293635461479425430e-02,2.495580725371837616e-02,2.537140063941478729e-02,-2.815002575516700745e-02,-1.645888201892375946e-02,1.677067205309867859e-02,-6.919302977621555328e-03,6.595941632986068726e-02,2.526418305933475494e-02,-3.116662055253982544e-02,8.065491914749145508e-03,-5.617199931293725967e-04,-1.442187093198299408e-02,2.108317986130714417e-02,-2.345370128750801086e-02,1.369359623640775681e-02,-1.199872139841318130e-02,-8.117096498608589172e-03,-1.001137960702180862e-02,2.521535567939281464e-02,6.461027078330516815e-03,6.188604608178138733e-02,1.673901337198913097e-03,-6.298341602087020874e-02,2.339864848181605339e-03,2.935696206986904144e-02,5.755032598972320557e-02,-2.105257101356983185e-02,-2.977049443870782852e-03,1.985275372862815857e-02,-2.658227086067199707e-02,-2.045400626957416534e-02,-5.644647404551506042e-02,-1.865195669233798981e-02,-4.193971306085586548e-02,-3.935378789901733398e-02,-2.668740041553974152e-02,2.303473278880119324e-02,2.567151188850402832e-02,5.543709918856620789e-02,4.185285791754722595e-02,2.970986254513263702e-02,2.682548388838768005e-02,9.359948453493416309e-04,5.982222035527229309e-03,-4.911314323544502258e-02,-6.751849781721830368e-03,6.809640675783157349e-03,-3.938368335366249084e-02,-6.377166509628295898e-02,2.494509890675544739e-02,1.251794304698705673e-02,5.216799303889274597e-02,9.682565927505493164e-03,1.220176345668733120e-03,-2.449612878262996674e-02,-6.207060068845748901e-03,-1.597537845373153687e-02,1.271984074264764786e-02,2.156925201416015625e-02,-2.310787327587604523e-02,-4.832879453897476196e-02,-3.356760740280151367e-02,-2.061045914888381958e-02,1.914570853114128113e-02,1.158829312771558762e-02,5.880332738161087036e-02,2.615352533757686615e-02,-1.456278748810291290e-02,1.187509391456842422e-02,-5.618671420961618423e-03,1.373343076556921005e-02,2.020347490906715393e-02,1.126967137679457664e-03,-1.182163879275321960e-02,-5.914072506129741669e-03,3.619455173611640930e-02,3.531365096569061279e-02,4.466695711016654968e-02,5.530826747417449951e-02,-1.473106723278760910e-02,-2.549135126173496246e-02,9.292808361351490021e-03,1.933520101010799408e-02,1.768731162883341312e-03,2.595101483166217804e-02,-2.672491967678070068e-02,1.653773337602615356e-02,1.643552817404270172e-02,3.331878781318664551e-02,-3.156894352287054062e-03,-8.820904418826103210e-03,-6.618366576731204987e-03,2.608776465058326721e-02,2.757843025028705597e-02,-5.152101628482341766e-03,3.311646357178688049e-02,7.342514581978321075e-04,-2.114092372357845306e-02
